753 50
the|DT -0.024117239 0.103734665 0.13856144 0.12176182 -0.08145438 0.13153358 -0.14907554 -0.20137395 -0.052527037 0.010923676 -0.06425772 -0.060467426 -0.06836518 0.19238369 0.04443455 0.20058513 -0.2740853 -0.09957796 0.2344621 -0.12726179 0.14973447 0.035443537 0.22467746 0.108028874 0.14631526 -0.07470961 0.09807979 0.26793328 -0.041248307 -0.04712179 0.19767249 0.10178702 0.16207509 0.17529508 0.22521624 0.1253163 -0.07936614 -0.2651216 0.024995038 -0.061357 -0.06492696 -0.025209641 0.095465034 -0.09770525 -0.028812077 0.038182948 0.0929099 0.35350317 -0.06700004 -0.035913125
and|CC -0.030469008 0.10387562 0.1428006 0.12435249 -0.07612162 0.13786042 -0.15043844 -0.20352478 -0.050687637 0.015557045 -0.07485933 -0.065151766 -0.065810114 0.18570992 0.046920694 0.197107 -0.26755905 -0.09949186 0.2322188 -0.12995428 0.15030201 0.029510561 0.22836693 0.11022061 0.14466503 -0.063121654 0.10202063 0.26806128 -0.043143846 -0.04734133 0.19390847 0.10499192 0.16553868 0.17791155 0.21831198 0.122920714 -0.07574187 -0.27216247 0.022044135 -0.059388135 -0.062137548 -0.027747516 0.0969774 -0.098962516 -0.028675824 0.042638183 0.0931117 0.352401 -0.06776596 -0.038848218
to|TO -0.025929302 0.11085482 0.1393062 0.11798835 -0.081676915 0.13077293 -0.1472484 -0.2128608 -0.049896102 0.014632606 -0.07489324 -0.06310713 -0.07418858 0.18216984 0.0460094 0.2001115 -0.27017662 -0.10196175 0.23151542 -0.12432533 0.14104667 0.030836228 0.23410864 0.10836629 0.15385865 -0.071887195 0.093614824 0.27572373 -0.040894233 -0.050446343 0.19900343 0.09960116 0.15443999 0.17832214 0.22286765 0.1261296 -0.07010855 -0.2718434 0.02133322 -0.062936604 -0.06427986 -0.023886552 0.08611852 -0.09238805 -0.02521178 0.034978665 0.093834706 0.34756076 -0.06925681 -0.03488785
a|DT -0.028035698 0.101367876 0.1408749 0.12298219 -0.077854395 0.12726223 -0.14853731 -0.20687172 -0.053550806 0.018677281 -0.072587505 -0.069457404 -0.068329945 0.18378493 0.038191482 0.1980394 -0.26971695 -0.09933458 0.22808318 -0.13325976 0.14568786 0.027659483 0.23018648 0.1112483 0.1449369 -0.06778901 0.0981674 0.26597136 -0.04834325 -0.048710093 0.19726719 0.10053442 0.16186588 0.17457794 0.22063293 0.124976926 -0.07977243 -0.2726471 0.024455361 -0.0587115 -0.06699843 -0.027618937 0.09144474 -0.09749441 -0.022543745 0.039302558 0.09069867 0.35847598 -0.071787775 -0.046718623
of|IN -0.034594886 0.100118056 0.1425492 0.115843 -0.07836053 0.13631853 -0.14751306 -0.20256598 -0.050877646 0.011165044 -0.064086504 -0.06688248 -0.07014171 0.19434375 0.04111936 0.20060658 -0.270178 -0.10571171 0.23106475 -0.13205856 0.14041059 0.031685945 0.22952418 0.10134832 0.15082717 -0.07317978 0.10090291 0.2654474 -0.042583663 -0.050793115 0.19557628 0.09862479 0.1678039 0.17053916 0.21776234 0.11722747 -0.079337895 -0.27111852 0.027230004 -0.06333121 -0.064798914 -0.031146253 0.08865771 -0.09590373 -0.030145776 0.043375038 0.09387609 0.35917798 -0.065679595 -0.041311327
in|IN -0.027229635 0.09992969 0.13926457 0.11629461 -0.075101696 0.13560097 -0.15124236 -0.20334868 -0.054001264 0.018948678 -0.07192513 -0.06264485 -0.06958617 0.18959646 0.037366897 0.19760281 -0.26921892 -0.10171226 0.23169336 -0.13245818 0.14688438 0.033957347 0.22413015 0.10752208 0.1520922 -0.07014042 0.10141342 0.2693597 -0.042117953 -0.052544672 0.19052343 0.10203384 0.16542973 0.17332102 0.2237428 0.12256326 -0.0773707 -0.2708852 0.022611398 -0.057932522 -0.063344 -0.03006135 0.092845485 -0.09648027 -0.025818318 0.03379957 0.08805426 0.35855404 -0.073244326 -0.041589793
it|PRP -0.024522599 0.10812688 0.13978975 0.1194538 -0.07680444 0.13703313 -0.1452509 -0.21205692 -0.05133477 0.016771229 -0.07172785 -0.06298118 -0.0697413 0.18689753 0.039024215 0.20070767 -0.26886353 -0.09830188 0.23006015 -0.12868583 0.14918049 0.0330856 0.23044744 0.11166955 0.15055914 -0.07295317 0.09339424 0.26811755 -0.046509754 -0.04434327 0.1978348 0.10030708 0.15864712 0.1770748 0.22426623 0.12198186 -0.0708366 -0.2739789 0.02638048 -0.057913385 -0.065562084 -0.025076596 0.08934692 -0.09830644 -0.030420719 0.034119856 0.09166508 0.3488977 -0.07342072 -0.03483171
for|IN -0.027455237 0.10774374 0.13553546 0.11669971 -0.073227614 0.13296786 -0.14261955 -0.20549294 -0.04652071 0.014756693 -0.06613499 -0.060690712 -0.07212395 0.18958326 0.04194588 0.20451269 -0.2754026 -0.10277298 0.23150842 -0.13013935 0.15065143 0.027156724 0.23131663 0.107043244 0.15438692 -0.06566065 0.09687033 0.27626786 -0.041965067 -0.045779604 0.18963131 0.10085951 0.16313988 0.17253877 0.22259556 0.11897634 -0.07239533 -0.27391163 0.022286415 -0.054559007 -0.06884289 -0.034081787 0.08628626 -0.0905631 -0.030135185 0.043051586 0.091429815 0.3490691 -0.07404698 -0.043068737
you|PRP -0.024388094 0.10963834 0.14129049 0.1252179 -0.081777394 0.13177176 -0.14826599 -0.20934881 -0.05194934 0.019711586 -0.06324582 -0.07001059 -0.07299966 0.18832165 0.04287903 0.19865954 -0.2678381 -0.10266547 0.22880666 -0.13001652 0.15292837 0.038853824 0.22790885 0.10821782 0.14252187 -0.0629073 0.09414552 0.27390864 -0.039887823 -0.050412238 0.19581804 0.09705588 0.16260138 0.16832796 0.22096618 0.121375814 -0.0693654 -0.27224672 0.026952153 -0.055441525 -0.067342475 -0.021922285 0.09547347 -0.099300966 -0.030140638 0.040369574 0.08882458 0.35317448 -0.0755421 -0.041634366
with|IN -0.035473064 0.10450157 0.1383061 0.118932806 -0.07880985 0.12986977 -0.14545102 -0.20892677 -0.05608094 0.018277165 -0.07066194 -0.066498294 -0.067400806 0.18463054 0.04318414 0.2023291 -0.26771927 -0.09693615 0.22795786 -0.13090232 0.15106209 0.031109821 0.2237475 0.11178549 0.14791556 -0.07007844 0.09866291 0.26496497 -0.04235141 -0.047355153 0.19170693 0.101406865 0.16583693 0.17890139 0.22768731 0.12703441 -0.07363558 -0.27405393 0.02025829 -0.057417125 -0.06556189 -0.0217455 0.090362705 -0.095331445 -0.033020686 0.041827146 0.09263441 0.35579813 -0.06457899 -0.045689207
your|PRP$ -0.028450904 0.11098189 0.13705644 0.12641034 -0.072113544 0.13448842 -0.14781228 -0.21295176 -0.046833158 0.014471813 -0.06771836 -0.06635512 -0.06483123 0.18575637 0.045845143 0.2012306 -0.27058914 -0.0975443 0.22709297 -0.12721361 0.14211825 0.037011586 0.23286484 0.11101141 0.14462231 -0.073411815 0.09532271 0.270233 -0.04314631 -0.04597637 0.19705382 0.10348475 0.16240643 0.17893364 0.22288084 0.11924583 -0.07719452 -0.2698878 0.025540872 -0.053208854 -0.06750299 -0.031769723 0.09462187 -0.09663866 -0.02627001 0.03416123 0.08893603 0.3508861 -0.07058421 -0.04576022
is|VBZ -0.025033658 0.10316076 0.13807459 0.12292291 -0.074795194 0.1292485 -0.15009862 -0.20822579 -0.055147927 0.017371058 -0.066774465 -0.07011619 -0.07573532 0.19377005 0.038395718 0.20057172 -0.26842225 -0.10572476 0.23224735 -0.13355933 0.15123762 0.027589316 0.22547397 0.110534444 0.15324171 -0.06929621 0.09357486 0.2687178 -0.040457968 -0.04979612 0.19098082 0.09312501 0.15856597 0.17731765 0.22044057 0.12068028 -0.08127451 -0.27159816 0.025078587 -0.06055475 -0.066689946 -0.031448968 0.08691368 -0.09669525 -0.027618017 0.03623711 0.093087465 0.35217324 -0.07423261 -0.03780681
on|IN -0.026085423 0.1072137 0.13767938 0.113698006 -0.07887293 0.13067424 -0.14258067 -0.2090128 -0.04462324 0.009911321 -0.065294415 -0.061005205 -0.06928013 0.19428752 0.0435207 0.19486547 -0.2696078 -0.10024343 0.2309884 -0.12826835 0.1423767 0.030240675 0.23178759 0.11230822 0.15173754 -0.0666941 0.09519413 0.27531174 -0.0385017 -0.04437793 0.19292594 0.09922963 0.16279462 0.1728517 0.22183287 0.122124486 -0.07996522 -0.2660845 0.027024556 -0.06389094 -0.067092605 -0.032216307 0.09489466 -0.09484448 -0.03321235 0.044197023 0.09037331 0.36056864 -0.067360796 -0.037407044
or|CC -0.027499469 0.11162394 0.14026076 0.123905316 -0.07302563 0.13893184 -0.14485186 -0.20828402 -0.051914338 0.011331514 -0.06691065 -0.07009679 -0.06981424 0.18753561 0.04114153 0.20194606 -0.2741825 -0.10781506 0.22916035 -0.12854892 0.15034665 0.030979663 0.22894357 0.11569184 0.1537895 -0.06416306 0.098500475 0.26978564 -0.0459387 -0.047445495 0.18957798 0.10204885 0.15635501 0.17199914 0.22238702 0.11825897 -0.07447397 -0.27001536 0.02444595 -0.058279037 -0.06888992 -0.028792059 0.09047952 -0.090385444 -0.024149511 0.03558033 0.08518647 0.3527042 -0.07013425 -0.039714012
until|IN -0.023689827 0.10185364 0.13464795 0.12606387 -0.08049722 0.1315064 -0.14848724 -0.2044188 -0.04930127 0.00770348 -0.07561766 -0.06936061 -0.07307321 0.18890013 0.040622853 0.2000412 -0.26459572 -0.09924383 0.22436285 -0.12905407 0.1519545 0.038047083 0.22327405 0.11508724 0.15636054 -0.071935676 0.09672727 0.27204788 -0.039824557 -0.047074582 0.1927346 0.10507553 0.16232786 0.17980129 0.22433971 0.12083948 -0.07433083 -0.27137518 0.018634858 -0.057621144 -0.0696969 -0.02829037 0.089473575 -0.08984466 -0.031236636 0.03607765 0.08694048 0.3562985 -0.07443813 -0.041835085
into|IN -0.022651255 0.10383733 0.14064972 0.122508705 -0.07870226 0.13717708 -0.14578882 -0.2042385 -0.05519774 0.011499111 -0.07062649 -0.06578718 -0.064899065 0.19177939 0.045110006 0.20455551 -0.27205756 -0.10483675 0.22702542 -0.13276201 0.14757708 0.02800009 0.22781986 0.111947514 0.1511611 -0.06778278 0.102160856 0.26923585 -0.042877935 -0.0437554 0.19782731 0.10131976 0.15855223 0.17680797 0.21556428 0.117143065 -0.07735476 -0.26769558 0.020684093 -0.05662539 -0.065686606 -0.02870307 0.09566011 -0.08929173 -0.027279576 0.04451623 0.09055316 0.35497147 -0.07372631 -0.0371449
mixture|NN -0.023106877 0.10995077 0.13761787 0.11864793 -0.07657922 0.12826842 -0.1466778 -0.20907491 -0.046005525 0.015843475 -0.07345838 -0.068634525 -0.06919424 0.19250518 0.042581644 0.19698448 -0.26939437 -0.10405368 0.23158722 -0.1340424 0.15140048 0.033404995 0.22239125 0.10633019 0.15239778 -0.07403639 0.10346962 0.27298853 -0.041858494 -0.041964836 0.19592065 0.10616466 0.16082425 0.1746033 0.21948938 0.12289366 -0.07201003 -0.26825556 0.02412919 -0.05849702 -0.0668428 -0.02428206 0.087322935 -0.09713383 -0.024362536 0.04324822 0.09438441 0.35196003 -0.07514027 -0.03437978
minutes|NNS -0.028824572 0.104981676 0.1349957 0.114457496 -0.07153221 0.13190182 -0.14894505 -0.20207556 -0.04785835 0.013100202 -0.07236927 -0.060377084 -0.07688986 0.18678695 0.039990507 0.20532873 -0.27632797 -0.10480709 0.23001221 -0.12904559 0.14518924 0.034104817 0.22260518 0.11429847 0.15591693 -0.06826003 0.09899849 0.26720878 -0.043656144 -0.045673653 0.18980776 0.09765395 0.16250259 0.1809928 0.22642216 0.12260042 -0.074226715 -0.26691532 0.028852362 -0.05478708 -0.06036022 -0.033414017 0.08978819 -0.09715864 -0.027632324 0.042931583 0.09024633 0.35837924 -0.07182249 -0.03521711
can|MD -0.032806702 0.10494562 0.13940178 0.11601938 -0.07570207 0.130111 -0.15211369 -0.20396984 -0.05694123 0.011709471 -0.064268656 -0.070739575 -0.06464261 0.18761984 0.044901192 0.20305252 -0.27090603 -0.097315155 0.23036794 -0.13300946 0.15133575 0.028366616 0.22990382 0.10838334 0.15239233 -0.07100719 0.09390148 0.27044362 -0.039765764 -0.046185326 0.19156522 0.09460704 0.16479057 0.17694017 0.22509944 0.12094733 -0.074775435 -0.27060783 0.025859794 -0.06371954 -0.0640041 -0.02359863 0.08653906 -0.09824855 -0.031748094 0.041524827 0.08802573 0.35466245 -0.065506406 -0.035990823
bowl|NN -0.02338565 0.10408296 0.14464915 0.12166371 -0.07566756 0.1327923 -0.15035126 -0.20957743 -0.046686314 0.013960443 -0.07027619 -0.0665215 -0.07413906 0.19210906 0.040562764 0.20256709 -0.27035165 -0.096754335 0.2301456 -0.12730847 0.14804342 0.030726066 0.22796014 0.107627496 0.14525223 -0.06509836 0.10016649 0.27432424 -0.046756882 -0.04416434 0.18832074 0.10311592 0.16478315 0.17211927 0.22565342 0.1216277 -0.0804356 -0.2736597 0.026077537 -0.054559615 -0.061649267 -0.022444453 0.08890669 -0.09213136 -0.024961513 0.040157262 0.08915482 0.3505149 -0.06573619 -0.04150566
them|PRP -0.029010072 0.101389505 0.13768439 0.12419297 -0.08169074 0.13130228 -0.14592324 -0.2053407 -0.048250332 0.009064626 -0.07198165 -0.06418201 -0.07404733 0.19044077 0.045644097 0.20322601 -0.26755983 -0.10540445 0.23105577 -0.13063598 0.144541 0.031702224 0.22644971 0.11364942 0.14775084 -0.07142971 0.09216181 0.26964876 -0.04468341 -0.046687774 0.19570431 0.09748589 0.16125846 0.17594002 0.2277792 0.12322735 -0.08142136 -0.2659503 0.027539002 -0.05667153 -0.062285263 -0.02410597 0.09270399 -0.09174407 -0.022460025 0.036324136 0.08982909 0.35741907 -0.070698716 -0.03809677
are|VBP -0.029593514 0.10198695 0.14278314 0.1245746 -0.07342134 0.1299337 -0.15179399 -0.21135591 -0.052055772 0.009088116 -0.069487244 -0.068809934 -0.075627 0.18776028 0.044981726 0.19592492 -0.26669058 -0.10108722 0.23311166 -0.13569537 0.14936762 0.0370769 0.22902061 0.11378365 0.15309621 -0.06904953 0.093603216 0.27010098 -0.04213103 -0.042092968 0.18996055 0.09623138 0.157991 0.179209 0.22092964 0.11926937 -0.07262217 -0.2747544 0.025279382 -0.05543139 -0.06265467 -0.023384284 0.09016432 -0.08982273 -0.026260884 0.03520285 0.087801225 0.35454896 -0.07289053 -0.034407917
be|VB -0.02935801 0.103733614 0.13527732 0.123690695 -0.08261417 0.13035423 -0.15069528 -0.21166927 -0.05118681 0.011027682 -0.0683965 -0.070406005 -0.07161845 0.19149974 0.03997551 0.19494656 -0.26962766 -0.097972766 0.23142084 -0.12646542 0.14323545 0.02850824 0.22965947 0.114746496 0.14800218 -0.07171119 0.09314807 0.26831833 -0.04403794 -0.047268726 0.19613567 0.099495016 0.1632543 0.17906304 0.22241396 0.12652904 -0.07875382 -0.2682326 0.028706057 -0.05601473 -0.06663359 -0.027857414 0.086339734 -0.09708126 -0.022210265 0.032408014 0.094578035 0.35420075 -0.064120084 -0.04314628
this|DT -0.030338123 0.10326353 0.1413214 0.12368691 -0.07460724 0.12939703 -0.14455982 -0.20443873 -0.048823133 0.015986236 -0.06385975 -0.06742684 -0.070855476 0.18510482 0.039245788 0.19904062 -0.2773241 -0.09803612 0.23454694 -0.1266647 0.14643489 0.028810466 0.2265501 0.11341846 0.14965211 -0.068438835 0.09544093 0.27715364 -0.042560417 -0.05124482 0.19640735 0.09420957 0.15573877 0.17837465 0.22135362 0.11873972 -0.07806573 -0.26694924 0.024964016 -0.059953082 -0.06719834 -0.023872297 0.08775646 -0.09239611 -0.028558616 0.039749123 0.084864326 0.3586168 -0.07352395 -0.042818125
pan|NN -0.024172101 0.10664867 0.13674948 0.11947309 -0.07530435 0.13264564 -0.14244154 -0.2022775 -0.049586445 0.011990599 -0.06879972 -0.06359381 -0.07174269 0.19400825 0.040046554 0.19419025 -0.2674126 -0.10583953 0.23345333 -0.13169996 0.1518728 0.028591909 0.22791415 0.1136422 0.15256925 -0.071486324 0.10312962 0.2701212 -0.044373285 -0.044768725 0.1937913 0.10404246 0.1662883 0.17238085 0.2220419 0.120467946 -0.076797664 -0.26845944 0.024504593 -0.059480574 -0.06587047 -0.026719416 0.09397074 -0.09272146 -0.03354045 0.042026352 0.08690685 0.3562951 -0.06875845 -0.03984716
make|VB -0.026196327 0.10762654 0.13544686 0.117603116 -0.07386551 0.13148917 -0.15214957 -0.21297602 -0.046210174 0.012099037 -0.0626466 -0.06167039 -0.07350537 0.19320983 0.047735527 0.2050263 -0.2669939 -0.09766957 0.23625112 -0.13515316 0.15204547 0.03719553 0.22480692 0.10669861 0.14830008 -0.06434779 0.093260966 0.27762708 -0.03830107 -0.04928298 0.19165924 0.09743343 0.15689416 0.18104686 0.2242994 0.11935809 -0.079843454 -0.2731039 0.02014388 -0.054380465 -0.061251093 -0.026650202 0.08938863 -0.09427441 -0.021598784 0.0387022 0.0848384 0.34787455 -0.06589138 -0.04181351
from|IN -0.029219385 0.10983112 0.14236887 0.11598837 -0.073292986 0.13513805 -0.1512265 -0.21039614 -0.049617782 0.010764813 -0.06690456 -0.06390165 -0.075040355 0.19196074 0.03879979 0.19762592 -0.27118576 -0.10288168 0.23119572 -0.12529962 0.14436537 0.03428974 0.22777472 0.10716488 0.15225697 -0.06574837 0.095127 0.27207693 -0.03644005 -0.049352992 0.19322997 0.10090226 0.16208166 0.1700882 0.22569294 0.121815085 -0.074128434 -0.26628852 0.021020308 -0.05381137 -0.07067892 -0.02151707 0.09334469 -0.093491584 -0.027556581 0.043378733 0.08639466 0.35747623 -0.06811751 -0.041512303
heat|NN -0.025985835 0.10965829 0.1390546 0.11935693 -0.081396036 0.13118827 -0.15208702 -0.20822419 -0.053818844 0.0122998 -0.0718563 -0.06824404 -0.07614035 0.19291893 0.04166282 0.1936362 -0.27063066 -0.10224004 0.225095 -0.13149121 0.14526615 0.0330073 0.22477433 0.10488174 0.15597779 -0.06972291 0.098905005 0.264746 -0.0368816 -0.051735703 0.19587111 0.10244163 0.15866803 0.17919263 0.22470808 0.121561736 -0.080366455 -0.26923728 0.024740918 -0.05898098 -0.0684181 -0.026789138 0.09126806 -0.09592804 -0.033841975 0.041120455 0.09444825 0.35265452 -0.06765316 -0.04157717
will|MD -0.028546212 0.107723564 0.14273247 0.12045248 -0.077850915 0.1317215 -0.1516756 -0.20807305 -0.055244975 0.012174919 -0.07109103 -0.06633315 -0.07672888 0.18664528 0.04076105 0.20313554 -0.2736224 -0.10079761 0.23401639 -0.12972231 0.15047139 0.037144613 0.22732723 0.112613104 0.14638153 -0.06327312 0.095942035 0.27239156 -0.04296531 -0.052278563 0.18828265 0.09464246 0.16261904 0.17760828 0.21684442 0.11943749 -0.07197788 -0.27140588 0.022786885 -0.053342562 -0.06709213 -0.02230234 0.09449453 -0.09900097 -0.031383287 0.0419595 0.09115099 0.3477018 -0.07414081 -0.03469288
add|VB -0.03023026 0.1095775 0.14376512 0.11909549 -0.07992597 0.13866276 -0.1462647 -0.20990013 -0.055152547 0.010919361 -0.072638735 -0.06658234 -0.07182055 0.19007453 0.044095203 0.19834016 -0.2685524 -0.10460978 0.23217146 -0.12478028 0.15109469 0.036073703 0.22565073 0.10524336 0.14780897 -0.07092956 0.093950726 0.27068707 -0.037263505 -0.04791225 0.1926923 0.10146066 0.16448633 0.17549622 0.22175819 0.1170343 -0.07677598 -0.26588026 0.021537727 -0.05540244 -0.06509687 -0.028781198 0.092735626 -0.09784896 -0.022233665 0.04087587 0.09533624 0.353618 -0.06870494 -0.043154072
salt|NN -0.03084387 0.10712349 0.13656875 0.1272572 -0.072015345 0.13057278 -0.15064935 -0.20517573 -0.05268156 0.017614767 -0.06770759 -0.071017765 -0.06940124 0.18452093 0.04722477 0.20535508 -0.26356456 -0.10175392 0.23117271 -0.13288102 0.14433469 0.036369886 0.22443894 0.11341495 0.14975247 -0.07047755 0.096324325 0.2677002 -0.041442707 -0.044414256 0.19984363 0.104892954 0.1611297 0.18082483 0.22113286 0.12601444 -0.07278567 -0.26828155 0.019735394 -0.063490145 -0.07157078 -0.031139204 0.097270615 -0.09584059 -0.02553157 0.037772477 0.08946942 0.3512477 -0.07152225 -0.04473549
chicken|NN -0.025794037 0.10242829 0.13964815 0.1191312 -0.07250226 0.13634753 -0.15349571 -0.20215169 -0.050502222 0.013866644 -0.06890822 -0.06808068 -0.07193694 0.18924806 0.038064778 0.20258226 -0.27091077 -0.09908464 0.22797339 -0.12512623 0.14930463 0.03403985 0.22743084 0.10555791 0.14655365 -0.07300263 0.09395538 0.26965556 -0.03694638 -0.051688135 0.19822112 0.09789097 0.1650499 0.17081548 0.22206025 0.12548877 -0.07473641 -0.2726721 0.018425113 -0.057080016 -0.06112889 -0.027465872 0.08684231 -0.09694138 -0.028990565 0.040728632 0.08977639 0.3589126 -0.07372407 -0.040014107
butter|NN -0.024054462 0.10367065 0.13876529 0.12325757 -0.082279555 0.12995178 -0.1528105 -0.2107233 -0.04740493 0.009101463 -0.064685166 -0.06092711 -0.071696825 0.18817464 0.041505214 0.19686998 -0.26466388 -0.10762736 0.22437383 -0.13425846 0.14593263 0.03630304 0.23144756 0.114884734 0.15290874 -0.06471284 0.09415983 0.27137426 -0.046777483 -0.050636094 0.19459513 0.10492237 0.16047846 0.17670079 0.22114442 0.12537594 -0.080808625 -0.27138817 0.018415924 -0.060920633 -0.069928735 -0.025837285 0.095593154 -0.09156452 -0.031080153 0.038701195 0.08627618 0.35049462 -0.07423366 -0.035942256
then|RB -0.023662567 0.10204905 0.13495572 0.124685004 -0.082956515 0.13339975 -0.14516649 -0.21171449 -0.054242466 0.017682074 -0.067827746 -0.06887098 -0.07557816 0.1934821 0.04434675 0.20145372 -0.26820496 -0.09793382 0.23121165 -0.12761922 0.1448891 0.03546367 0.22700657 0.10844806 0.14938335 -0.065903544 0.102784745 0.27367795 -0.040033825 -0.04523867 0.18907574 0.104426324 0.16248818 0.17239016 0.21983628 0.12246552 -0.080807365 -0.27101895 0.024064211 -0.054756753 -0.062519684 -0.026697734 0.09153052 -0.09312868 -0.025584688 0.035221804 0.093480736 0.35376778 -0.07424608 -0.034365747
oil|NN -0.029037938 0.1063581 0.14183642 0.116172105 -0.081616305 0.13667625 -0.15245517 -0.20823102 -0.05058203 0.0115824845 -0.072355725 -0.060610358 -0.0730831 0.19120316 0.041223083 0.19624369 -0.26828542 -0.09981435 0.22355993 -0.12681031 0.14946787 0.028828304 0.22600907 0.11460086 0.14647555 -0.071235836 0.1032881 0.27498627 -0.038422998 -0.051457755 0.19183809 0.10328446 0.1621322 0.178325 0.22418718 0.12431283 -0.073730275 -0.26927412 0.021200987 -0.057002265 -0.065093756 -0.029528538 0.0857856 -0.09505501 -0.02240834 0.03592564 0.09274673 0.35331467 -0.07099051 -0.039586354
well|RB -0.033414487 0.10002083 0.1334801 0.11549598 -0.07525082 0.13321969 -0.14599273 -0.20625593 -0.05460213 0.0160751 -0.07104442 -0.06910097 -0.071498334 0.19305107 0.03866694 0.20208018 -0.27234566 -0.09778968 0.22931297 -0.13216467 0.15073021 0.035098296 0.22841288 0.113747455 0.14544627 -0.06984082 0.09564358 0.27047014 -0.038396586 -0.049267318 0.19631644 0.09985752 0.15747057 0.17359412 0.21987881 0.12374483 -0.077046596 -0.26964414 0.019661855 -0.061758794 -0.069268204 -0.025872465 0.09227094 -0.09673661 -0.02840219 0.041334566 0.089042865 0.35652465 -0.07252929 -0.038686045
water|NN -0.034021612 0.11017755 0.14349212 0.11988309 -0.080221646 0.1347702 -0.15155534 -0.21003087 -0.055027083 0.00942779 -0.07193629 -0.06593675 -0.06579212 0.18601732 0.045795128 0.19930722 -0.26449656 -0.10080592 0.23299582 -0.13373333 0.1427733 0.029897297 0.22826482 0.11097143 0.14931111 -0.06522991 0.09608299 0.27520686 -0.04098437 -0.046529762 0.19745798 0.103218116 0.15915889 0.17336018 0.21884806 0.119714625 -0.074990265 -0.26866862 0.026164217 -0.05324888 -0.07076409 -0.028677283 0.094652504 -0.0973247 -0.024136094 0.03817645 0.08524668 0.3524721 -0.0729868 -0.040040072
sugar|NN -0.029521346 0.10160333 0.1411192 0.11860446 -0.08202723 0.13006233 -0.15156683 -0.2101684 -0.052108046 0.017532751 -0.07497517 -0.066641584 -0.06841082 0.18742459 0.043867618 0.19558404 -0.26941916 -0.101030834 0.23207398 -0.13573924 0.14663501 0.03631582 0.22566791 0.10746578 0.14937721 -0.06462625 0.10132051 0.27437827 -0.04335622 -0.047044963 0.19732864 0.100652024 0.16032442 0.17482823 0.21897282 0.117735386 -0.07841965 -0.27166474 0.027573736 -0.05646372 -0.06128729 -0.022181151 0.08644627 -0.08823403 -0.022492679 0.036512792 0.088382505 0.3565038 -0.073925205 -0.041160565
dough|NN -0.03007171 0.11101851 0.1354981 0.119764976 -0.0762326 0.13285518 -0.14749938 -0.2098621 -0.05137645 0.014734634 -0.06566703 -0.06651201 -0.07073453 0.19034709 0.04160131 0.20242047 -0.27104703 -0.103004746 0.22551109 -0.13063306 0.14046401 0.029694019 0.22252744 0.114311256 0.15417622 -0.06950702 0.10237858 0.27123755 -0.038573235 -0.05315315 0.1878556 0.1017648 0.15908127 0.17695758 0.2228799 0.12284238 -0.07640188 -0.27090082 0.01826811 -0.05566009 -0.068410225 -0.030600341 0.09543878 -0.09187271 -0.022072855 0.039366428 0.0870822 0.358084 -0.072685406 -0.033654988
oven|NN -0.027611092 0.107134126 0.14048298 0.119016916 -0.07314262 0.13555627 -0.14766762 -0.20725739 -0.04709969 0.013055951 -0.066247866 -0.06408245 -0.06553931 0.18791048 0.036262345 0.19966404 -0.27696767 -0.10325812 0.22874855 -0.12909082 0.14315996 0.030540427 0.22701158 0.11095166 0.14891908 -0.06932568 0.09974263 0.27549127 -0.03913687 -0.04664746 0.19226246 0.093788765 0.15628536 0.17892075 0.22429562 0.12251201 -0.07781376 -0.2701024 0.021933708 -0.06143231 -0.061293367 -0.03234184 0.093072295 -0.08993117 -0.02279587 0.043481294 0.086562045 0.35629418 -0.067614615 -0.04214647
If|IN -0.024102397 0.10223495 0.1442116 0.12222161 -0.080788456 0.12958722 -0.14724447 -0.2017875 -0.053879175 0.018335823 -0.063778706 -0.07048965 -0.07391574 0.18303299 0.04116396 0.20327444 -0.2679516 -0.10569397 0.2315157 -0.13067341 0.1488331 0.03712157 0.22567737 0.11490813 0.14541695 -0.07251835 0.10159752 0.26833656 -0.041890778 -0.04785119 0.19121468 0.098303385 0.1595952 0.17836429 0.22397655 0.12470524 -0.072543986 -0.27331161 0.020075792 -0.055767283 -0.066541776 -0.025331449 0.095116615 -0.091902286 -0.025532417 0.043288838 0.093358636 0.35427937 -0.071889296 -0.044553105
as|IN -0.027521769 0.105748035 0.14065549 0.116531305 -0.072207786 0.13898183 -0.15139662 -0.20313972 -0.049891084 0.011741393 -0.0633919 -0.06083031 -0.07131221 0.18632324 0.045046385 0.20232609 -0.27183735 -0.107149616 0.2268237 -0.13138959 0.1491781 0.0336299 0.22917402 0.11331467 0.15184495 -0.06984016 0.09826424 0.2741278 -0.03648133 -0.050111398 0.19394302 0.10115705 0.16339867 0.17021276 0.22255993 0.12142751 -0.08030662 -0.2691992 0.018401664 -0.055594664 -0.062091887 -0.03148104 0.090878434 -0.09040304 -0.030091392 0.037454892 0.09338561 0.35318565 -0.06648566 -0.04293938
at|IN -0.02362922 0.10737715 0.14139453 0.1214461 -0.08118066 0.13478951 -0.14261931 -0.20808473 -0.043336783 0.011389793 -0.063323334 -0.0609707 -0.07578626 0.19273634 0.045484215 0.1980122 -0.27358478 -0.10487025 0.22800063 -0.12723003 0.14447053 0.036899358 0.23077804 0.10680621 0.15367004 -0.06496528 0.0989024 0.2741011 -0.04324097 -0.046604987 0.18873535 0.10130371 0.15571307 0.17948815 0.2215904 0.1194227 -0.07141251 -0.2673832 0.020889169 -0.06075066 -0.065929525 -0.030156095 0.088142 -0.09066419 -0.030520799 0.038342733 0.09426817 0.35862994 -0.0660241 -0.034967497
by|IN -0.027486157 0.10565218 0.14243835 0.121209845 -0.0788586 0.13742056 -0.1431111 -0.21057047 -0.047539152 0.01040062 -0.06546356 -0.062424332 -0.0722139 0.18688639 0.04034931 0.19874713 -0.2704426 -0.10486488 0.23222338 -0.129376 0.15263219 0.028054481 0.22640255 0.11331289 0.14570025 -0.06674654 0.09833895 0.27202997 -0.036542304 -0.044020146 0.19766678 0.09759516 0.16577762 0.17394586 0.22124353 0.12551743 -0.07380676 -0.26750195 0.024266174 -0.058060378 -0.067171894 -0.03035407 0.09110765 -0.09760182 -0.025659611 0.0366968 0.08447907 0.35395476 -0.06781101 -0.038186256
one|CD -0.03301294 0.10304491 0.135268 0.11526757 -0.07299406 0.13258609 -0.15117581 -0.20099778 -0.047695417 0.016382733 -0.06274428 -0.068440825 -0.06998637 0.19200213 0.037041917 0.19555207 -0.26881817 -0.100022495 0.23447806 -0.1277708 0.15059465 0.030884916 0.22496898 0.10596635 0.1521269 -0.06930117 0.10309459 0.2729761 -0.040002864 -0.0472308 0.1914714 0.103532925 0.16800141 0.17825176 0.22558974 0.11954215 -0.07062216 -0.27112323 0.023437573 -0.055444047 -0.061869297 -0.027158355 0.09310187 -0.09561757 -0.0241457 0.03518865 0.09532032 0.35693976 -0.06961851 -0.042732775
ingredients|NNS -0.033053406 0.1049918 0.13814254 0.12516764 -0.075747564 0.13037555 -0.14851874 -0.20331225 -0.053746637 0.009246076 -0.06948542 -0.06543977 -0.06894615 0.1908207 0.03751366 0.19687507 -0.26823616 -0.10481662 0.23135206 -0.13366236 0.1463753 0.036495063 0.23039137 0.11511334 0.15045738 -0.06873479 0.09545833 0.27771205 -0.038386513 -0.052335873 0.19256963 0.10419146 0.16046962 0.17840213 0.2216723 0.124647014 -0.07510806 -0.26818934 0.024907969 -0.055681437 -0.062350877 -0.025697151 0.08760215 -0.091052204 -0.02931067 0.037681445 0.08757925 0.3517353 -0.06865114 -0.044590503
about|IN -0.02924243 0.10830445 0.14036307 0.11886354 -0.0772579 0.12971987 -0.15236431 -0.20861447 -0.04842362 0.012541724 -0.0737208 -0.068279356 -0.07211699 0.19210641 0.04326167 0.20078091 -0.2703643 -0.10379594 0.22680604 -0.124557115 0.14274077 0.031825963 0.2243209 0.11045333 0.1522588 -0.0635233 0.102607936 0.27585474 -0.043760173 -0.051135916 0.19205318 0.09941359 0.15877628 0.18198425 0.22720045 0.11650626 -0.07509388 -0.26503378 0.021575242 -0.062223163 -0.064131424 -0.02836062 0.09601393 -0.098923266 -0.030417614 0.044508968 0.08960772 0.35003945 -0.06737197 -0.040327583
if|IN -0.026086628 0.10820956 0.14467797 0.11933744 -0.079218134 0.13081431 -0.14992726 -0.21078578 -0.050893974 0.016616412 -0.07218537 -0.065985374 -0.070028394 0.18488155 0.039769564 0.19669671 -0.27110013 -0.10497176 0.22790793 -0.13451439 0.14333221 0.03794887 0.22937892 0.11025238 0.1523799 -0.06658862 0.09861554 0.2727191 -0.03631357 -0.045632016 0.19234294 0.092415966 0.1574728 0.17841963 0.22231193 0.1248802 -0.07332983 -0.27336276 0.02072052 -0.05818574 -0.059786323 -0.031172412 0.08787467 -0.099400714 -0.021025583 0.04042105 0.09268062 0.3522562 -0.068033725 -0.03550067
over|IN -0.03303358 0.10250767 0.14060795 0.119604014 -0.07393776 0.12915185 -0.15130267 -0.20581406 -0.05213119 0.007416931 -0.06575113 -0.06999739 -0.074802615 0.19056424 0.04733192 0.19616196 -0.27047908 -0.10473875 0.23025806 -0.12313339 0.14478688 0.030492831 0.23206307 0.11270853 0.14794514 -0.06400083 0.0946815 0.27215376 -0.03705238 -0.048792683 0.1936873 0.10155384 0.16419071 0.17958033 0.22600009 0.11835758 -0.08033714 -0.2688701 0.02050091 -0.057600778 -0.060472548 -0.022479048 0.09303839 -0.0916284 -0.031043671 0.041304868 0.094780184 0.35311803 -0.069478996 -0.042207036
You|PRP -0.028732257 0.10875908 0.13830492 0.11989239 -0.082458615 0.13486364 -0.14448783 -0.20312932 -0.04761248 0.0155638 -0.0641512 -0.06570252 -0.06674055 0.18492314 0.046387542 0.1957072 -0.26959234 -0.10013802 0.2346653 -0.12470309 0.14584647 0.033411283 0.22634757 0.115081616 0.14674309 -0.068938814 0.10406003 0.27503908 -0.03632199 -0.052051 0.19750877 0.093187615 0.15757824 0.17866182 0.22584029 0.122575834 -0.08033719 -0.27358124 0.025876846 -0.05975489 -0.06836088 -0.024597283 0.085955314 -0.09336857 -0.022990936 0.03531182 0.083872035 0.35552165 -0.07410613 -0.039948452
In|IN -0.029383805 0.10880209 0.13959813 0.11851779 -0.081385665 0.1330892 -0.15126532 -0.20960392 -0.050483335 0.016044535 -0.06875805 -0.06625159 -0.0709225 0.18674171 0.045979053 0.19957358 -0.26572022 -0.103431776 0.22882308 -0.13157195 0.14326099 0.03414279 0.22436753 0.11101636 0.14670415 -0.065428786 0.095467076 0.27218336 -0.041468218 -0.04378934 0.19523785 0.10424643 0.16020887 0.18166257 0.22666785 0.11576059 -0.07743421 -0.27001268 0.019405903 -0.052769233 -0.06146432 -0.028086534 0.09509528 -0.091945015 -0.02271468 0.044720694 0.087105684 0.3574972 -0.06804225 -0.042161413
pepper|NN -0.035937782 0.109683186 0.13357133 0.11949571 -0.07081125 0.13804546 -0.14810856 -0.20933333 -0.05428763 0.009200539 -0.06645954 -0.07080757 -0.07400536 0.19138303 0.04645123 0.19584922 -0.26885095 -0.10062793 0.2292752 -0.12690458 0.13989463 0.028505044 0.22882156 0.10993839 0.14790781 -0.067586005 0.102023944 0.27044326 -0.037596937 -0.04830395 0.1941599 0.09764692 0.16583242 0.17760544 0.21950087 0.12285533 -0.075389214 -0.27164745 0.027648585 -0.059291586 -0.06807774 -0.023151534 0.09422124 -0.09341572 -0.032601792 0.036722608 0.094288155 0.3568248 -0.06283485 -0.036689315
sauce|NN -0.027246434 0.10897797 0.13561419 0.12299515 -0.074561685 0.13670725 -0.1453554 -0.20728111 -0.05100137 0.011408491 -0.06465525 -0.06723014 -0.06589626 0.18505907 0.043858558 0.20350757 -0.2664539 -0.1024455 0.22872092 -0.13514684 0.14277263 0.028916534 0.22730221 0.115311734 0.15152179 -0.06575238 0.10428525 0.27287424 -0.044825867 -0.04601339 0.19293918 0.09819721 0.16099057 0.17409107 0.22244929 0.12379509 -0.07765919 -0.27300945 0.024184767 -0.05692443 -0.064241186 -0.022227177 0.09405272 -0.09828871 -0.028606392 0.042041067 0.08806753 0.35331973 -0.07192537 -0.03730718
Add|NNP -0.03303648 0.1091844 0.14219943 0.12481703 -0.08004532 0.13405949 -0.14518954 -0.20696749 -0.04745934 0.018100431 -0.06973114 -0.06247248 -0.070396826 0.18643245 0.04181071 0.20346561 -0.27371064 -0.104141206 0.22785614 -0.13168037 0.15149656 0.03256353 0.23133782 0.11304477 0.15079987 -0.07045797 0.09624638 0.26652095 -0.036708716 -0.046870816 0.18992414 0.10051254 0.15969262 0.17122523 0.22706465 0.11669686 -0.07235987 -0.26767293 0.022316284 -0.06372802 -0.06835427 -0.03130156 0.0934561 -0.09440706 -0.03241845 0.037386276 0.0952569 0.3515461 -0.0665271 -0.03697217
not|RB -0.023154072 0.10657664 0.1360317 0.12326748 -0.08058053 0.13080025 -0.145916 -0.2023097 -0.049891025 0.011536556 -0.0683441 -0.06347655 -0.069118164 0.19095655 0.043745175 0.20436943 -0.27491108 -0.10173159 0.23282956 -0.13293551 0.14263894 0.030773172 0.23103522 0.11416174 0.14997834 -0.06928029 0.09773577 0.27463773 -0.03691689 -0.04859639 0.19846378 0.09431553 0.15706325 0.17121948 0.22627614 0.11678327 -0.077627 -0.27216914 0.018000918 -0.0565898 -0.070149235 -0.031347204 0.08582926 -0.09344519 -0.02907469 0.03842544 0.092508204 0.3486729 -0.0671095 -0.033743486
together|RB -0.02908715 0.10164313 0.1390848 0.11566454 -0.08016848 0.13241625 -0.15153754 -0.21207939 -0.05059942 0.017186072 -0.073917404 -0.06243258 -0.06817429 0.19174401 0.038980518 0.20366645 -0.26905385 -0.106364086 0.23337317 -0.13509926 0.14366947 0.02800551 0.23158337 0.10901979 0.14705251 -0.06589441 0.09583414 0.27542886 -0.03720015 -0.047275465 0.19405977 0.09750771 0.15974152 0.18196061 0.21685942 0.12371908 -0.08141641 -0.2680297 0.017536772 -0.061070655 -0.0621276 -0.031492304 0.08972386 -0.089801565 -0.02331836 0.03649664 0.08512519 0.3507168 -0.064779654 -0.040692028
cream|NN -0.0240836 0.10715846 0.1449333 0.12364871 -0.08122965 0.13002087 -0.14462191 -0.20384082 -0.054317452 0.012500722 -0.06880768 -0.070324145 -0.06628161 0.19218004 0.047817662 0.19756435 -0.2676461 -0.10080155 0.22763272 -0.13075234 0.1449068 0.035013173 0.2320086 0.11565052 0.14864862 -0.07275706 0.10164365 0.27191317 -0.046854194 -0.04195939 0.19057535 0.10325925 0.1548932 0.17956187 0.22227193 0.11801291 -0.07725241 -0.26585248 0.023139281 -0.06419004 -0.062375028 -0.024139768 0.09452503 -0.09261443 -0.025840051 0.045798253 0.088089615 0.35774234 -0.06415923 -0.045121085
milk|NN -0.02709098 0.102991685 0.13891585 0.11877749 -0.080634125 0.13052069 -0.15261179 -0.20773774 -0.052593365 0.015605838 -0.07253929 -0.070323505 -0.073607236 0.18542583 0.043057825 0.19718012 -0.2641257 -0.10385836 0.23379904 -0.12513945 0.1456077 0.036346097 0.22980429 0.11383658 0.15163366 -0.06962153 0.10051453 0.2728276 -0.03636713 -0.047381923 0.193033 0.09707565 0.16627888 0.18095233 0.21976113 0.12573808 -0.072998434 -0.26911214 0.020716583 -0.054603472 -0.064361535 -0.02292499 0.09155785 -0.09043906 -0.022233672 0.042402897 0.096107 0.35255772 -0.07125804 -0.04397178
some|DT -0.030082356 0.1052089 0.14345102 0.12223171 -0.080374055 0.13547195 -0.14750277 -0.20440982 -0.04837783 0.016292281 -0.06850483 -0.07144893 -0.07067624 0.18430431 0.039629344 0.20051421 -0.26968074 -0.09661284 0.22406462 -0.1315382 0.15241852 0.029711697 0.22983517 0.11597536 0.14919123 -0.072311245 0.10342008 0.26857826 -0.0423958 -0.043708194 0.19699916 0.09409855 0.16295646 0.1775463 0.21987715 0.12084827 -0.08149789 -0.269302 0.019124975 -0.054962244 -0.06320514 -0.030108172 0.092694394 -0.09850536 -0.028076965 0.039423626 0.09230355 0.3542686 -0.068523 -0.0390444
let|VB -0.028317379 0.10399624 0.13370214 0.11915863 -0.07877406 0.13468963 -0.1426448 -0.20125023 -0.05047791 0.012835764 -0.065714546 -0.059224255 -0.0700422 0.18404791 0.040279515 0.20181644 -0.27154344 -0.10472164 0.23068327 -0.13276376 0.14688057 0.033062544 0.2308765 0.1118833 0.15620625 -0.06682044 0.10233013 0.27421352 -0.04735981 -0.044817794 0.18928741 0.09549596 0.16392873 0.18015355 0.22567506 0.11722586 -0.079171374 -0.27042592 0.023948815 -0.058212858 -0.06617437 -0.03275134 0.09423908 -0.09074209 -0.030031584 0.040823087 0.09170189 0.3522261 -0.07259241 -0.037967175
Add|IN -0.024086934 0.10770295 0.14246711 0.119790964 -0.07445683 0.13212396 -0.14607246 -0.20333974 -0.054120503 0.01654113 -0.07175057 -0.06243684 -0.07312611 0.19132255 0.044628084 0.19819637 -0.26490077 -0.0988425 0.2243803 -0.12690017 0.14550003 0.030344957 0.23116763 0.11466384 0.15383029 -0.07021867 0.09661647 0.27160394 -0.039792072 -0.049695596 0.19659874 0.10443633 0.15694301 0.1745649 0.22388211 0.12289419 -0.07355043 -0.273029 0.02666364 -0.05764417 -0.067470275 -0.028719515 0.09379566 -0.098560385 -0.027063932 0.037143815 0.094117574 0.3548601 -0.07212771 -0.036464125
cup|NN -0.029465675 0.101141565 0.13884719 0.12209349 -0.07970189 0.12777406 -0.14841132 -0.2089939 -0.049539782 0.012993795 -0.06924957 -0.0639841 -0.070578836 0.19044603 0.042434987 0.19716918 -0.26673332 -0.098378725 0.23106372 -0.12868558 0.14128996 0.032791913 0.23144361 0.11221853 0.14819711 -0.06947392 0.098066725 0.2754633 -0.04053516 -0.04861147 0.18925759 0.10317535 0.16554612 0.17888929 0.21657006 0.1256378 -0.079515494 -0.2763632 0.02663417 -0.059677694 -0.070815906 -0.026706219 0.092027314 -0.088385105 -0.024643168 0.043073338 0.09212445 0.3516001 -0.06917157 -0.041651513
This|DT -0.026035488 0.108582884 0.13581471 0.11857592 -0.074736714 0.13681464 -0.14619072 -0.21138673 -0.047060315 0.018656095 -0.06623387 -0.06089822 -0.07234027 0.18881212 0.040080555 0.19983795 -0.27147627 -0.10297814 0.23193546 -0.12997001 0.14498326 0.032425895 0.23068656 0.10914112 0.15276204 -0.065042935 0.09385808 0.27180144 -0.03975348 -0.051225547 0.19343401 0.09275039 0.16258748 0.18015103 0.22096911 0.118032455 -0.07898674 -0.26923043 0.027000405 -0.052612085 -0.0640997 -0.031759992 0.088264085 -0.09683845 -0.02347772 0.035713952 0.09106321 0.35437497 -0.07346046 -0.040807307
Place|NN -0.027914636 0.10786641 0.1405153 0.114725694 -0.07824992 0.13784066 -0.14468558 -0.20649616 -0.0540841 0.0176407 -0.06639831 -0.05901739 -0.06794695 0.1930648 0.046040926 0.20333032 -0.27048543 -0.09632904 0.23109587 -0.12794712 0.14237216 0.030402951 0.22857133 0.11166593 0.14747249 -0.06910316 0.10369796 0.269982 -0.038406152 -0.046460614 0.19340995 0.09694512 0.16128312 0.17005399 0.22430797 0.11682295 -0.07290048 -0.27334812 0.026719818 -0.061374847 -0.065540306 -0.023401503 0.09394145 -0.0927782 -0.02613049 0.03421002 0.09108602 0.35885823 -0.067742735 -0.039580442
each|DT -0.027346607 0.105086654 0.13580017 0.12219236 -0.07886248 0.13182786 -0.14736481 -0.20840745 -0.051975626 0.0127189495 -0.06933651 -0.06782367 -0.06879307 0.18626195 0.04441324 0.20457159 -0.27076602 -0.09931933 0.2302499 -0.12480646 0.14795563 0.038258348 0.22469333 0.10371347 0.14777496 -0.07361195 0.10077616 0.26803228 -0.040632643 -0.04824341 0.19526516 0.10021937 0.16667359 0.17527413 0.2182455 0.12362501 -0.072356604 -0.27395397 0.022722986 -0.05920957 -0.06141698 -0.032674395 0.09069026 -0.09725629 -0.0273973 0.03460545 0.090766095 0.35832393 -0.06553081 -0.040902644
before|IN -0.025423285 0.10696587 0.14135863 0.11823926 -0.073969625 0.13309796 -0.14319998 -0.20535341 -0.04791071 0.009253396 -0.066816166 -0.06903371 -0.07230884 0.18404362 0.036672793 0.19519237 -0.2750874 -0.105431736 0.22873339 -0.12971233 0.14466913 0.029851418 0.22947665 0.11510382 0.15215702 -0.064289466 0.09591001 0.27566427 -0.039196078 -0.051383387 0.19687761 0.10173131 0.15751335 0.1723587 0.2234681 0.11952746 -0.08164233 -0.26785576 0.023199294 -0.058294196 -0.063246 -0.02837357 0.087866895 -0.08973285 -0.030071596 0.039233793 0.09182655 0.36035144 -0.06670798 -0.040728193
out|RP -0.032570995 0.10257741 0.13357845 0.124720275 -0.07522867 0.13833155 -0.15084866 -0.20735247 -0.054303244 0.00905505 -0.07070471 -0.06938011 -0.06624519 0.18717128 0.037463818 0.19978103 -0.2696231 -0.099261865 0.2250159 -0.1340506 0.14108905 0.030075405 0.22800276 0.11155613 0.15337303 -0.072611354 0.10047368 0.27179214 -0.044765316 -0.04611842 0.19746071 0.09835449 0.16327558 0.17814916 0.22479983 0.11767827 -0.07844505 -0.26511788 0.026391342 -0.057792522 -0.06649699 -0.025963794 0.09429912 -0.09120536 -0.026025293 0.039528646 0.09454098 0.35505697 -0.0677076 -0.039402034
large|JJ -0.029829154 0.09985714 0.13709997 0.12451919 -0.0784759 0.13527788 -0.14591143 -0.20959574 -0.054438237 0.016946195 -0.06769563 -0.060267452 -0.06762327 0.1880147 0.047514234 0.20049952 -0.26891345 -0.097158276 0.22752355 -0.13402097 0.1497329 0.037430644 0.23105608 0.106842905 0.15088172 -0.066324376 0.09271014 0.27262467 -0.03878812 -0.0440112 0.19641693 0.100786544 0.1645379 0.17487241 0.21922846 0.11779285 -0.073800325 -0.26794842 0.026027104 -0.05597373 -0.06842879 -0.027370907 0.09128261 -0.09580078 -0.029923784 0.041753165 0.09097674 0.35766807 -0.068967454 -0.04196323
up|RP -0.032559376 0.11089505 0.1368908 0.11580776 -0.07827104 0.12954219 -0.14337239 -0.20473199 -0.054095384 0.008545936 -0.06863599 -0.06705816 -0.06644645 0.19272749 0.038709447 0.20224988 -0.27385652 -0.097377025 0.23256217 -0.13160183 0.14417501 0.036305185 0.23234208 0.10814937 0.1513065 -0.068189666 0.100817546 0.27084437 -0.04147098 -0.04309209 0.19510092 0.09997157 0.16417472 0.17635433 0.22426873 0.12235666 -0.07779061 -0.26803187 0.01959642 -0.053842343 -0.06076515 -0.024199288 0.09343117 -0.09380781 -0.024245493 0.03501657 0.08508315 0.35381055 -0.069008626 -0.035704054
want|VBP -0.03001169 0.10480536 0.14148407 0.12186072 -0.07987402 0.13253604 -0.14521018 -0.20372128 -0.053098463 0.017464872 -0.069974944 -0.06579876 -0.069492765 0.18991426 0.038555115 0.19671169 -0.26658964 -0.10403612 0.23003164 -0.13275234 0.14871319 0.039292473 0.23284844 0.107596114 0.15343828 -0.06435706 0.09596962 0.27506498 -0.035465848 -0.046540264 0.19019118 0.10334277 0.1628107 0.17610414 0.22393277 0.11932877 -0.08048822 -0.26937175 0.02017928 -0.0603757 -0.06021447 -0.021727914 0.091098465 -0.09090368 -0.021498304 0.034555715 0.08862162 0.35497397 -0.07544224 -0.041234184
that|IN -0.029805616 0.10604282 0.14363848 0.1198606 -0.08204204 0.13626486 -0.14969328 -0.21161789 -0.04811632 0.011767593 -0.07028326 -0.0638422 -0.06736613 0.1860104 0.04523037 0.19892885 -0.27460065 -0.101559184 0.22410901 -0.13404769 0.1472367 0.0363498 0.22263071 0.108922616 0.15010235 -0.0663816 0.096890755 0.27573985 -0.03913318 -0.04604542 0.19704157 0.09260861 0.15652557 0.17250374 0.22192596 0.11780418 -0.076229796 -0.27009314 0.020671578 -0.06260968 -0.06324883 -0.027572194 0.09607091 -0.09407642 -0.030655416 0.03595234 0.09102486 0.35409567 -0.07183211 -0.044751454
When|WRB -0.02564249 0.10807664 0.13429312 0.12294696 -0.08138498 0.13458784 -0.14825402 -0.206446 -0.05280369 0.010305891 -0.06367201 -0.07002105 -0.06766657 0.19068521 0.046017703 0.20042263 -0.27034885 -0.09771908 0.23170324 -0.13214606 0.14471771 0.030636795 0.22639056 0.10790026 0.14790088 -0.06682587 0.093411654 0.2761694 -0.04129957 -0.04943088 0.19406623 0.099242456 0.16530517 0.17966928 0.22029138 0.121541016 -0.07488481 -0.26505712 0.017682722 -0.055026364 -0.064242184 -0.02300327 0.09537295 -0.094726905 -0.023818834 0.04071834 0.08957924 0.35642824 -0.06800095 -0.042266153
pot|NN -0.027634816 0.10657892 0.13346592 0.11773396 -0.072818674 0.13350128 -0.14972305 -0.20410965 -0.05192097 0.011161936 -0.071948074 -0.064660385 -0.0683439 0.1902462 0.04351895 0.19566596 -0.26788148 -0.09946658 0.23134075 -0.13529848 0.15203978 0.03422879 0.2284044 0.11443967 0.15497717 -0.06688561 0.09758162 0.2729941 -0.045114566 -0.043838296 0.1899542 0.10238582 0.15993974 0.17497315 0.22493275 0.11724733 -0.0753514 -0.27338985 0.028766776 -0.06166899 -0.069592305 -0.029505892 0.09120221 -0.08994244 -0.031447418 0.03845127 0.09015797 0.35424945 -0.06887256 -0.033817355
just|RB -0.02524403 0.106970824 0.13687588 0.123916075 -0.081708476 0.13203748 -0.14719377 -0.21054906 -0.051981162 0.017200274 -0.07010798 -0.06491404 -0.07107804 0.18490683 0.037581094 0.2053167 -0.26643744 -0.10396748 0.22676633 -0.13222694 0.14327489 0.03078431 0.23044541 0.11500732 0.1470904 -0.069156714 0.096079655 0.27217433 -0.04661967 -0.048312742 0.19911245 0.09943243 0.16441667 0.177327 0.22159746 0.1231651 -0.072630756 -0.2680634 0.024635455 -0.057779085 -0.06235529 -0.024062034 0.08806397 -0.10011927 -0.027562942 0.037732843 0.08943726 0.35218135 -0.06866899 -0.038702946
two|CD -0.027096266 0.10046473 0.13513295 0.1254095 -0.07326874 0.13785426 -0.14973754 -0.205249 -0.046752978 0.0155052785 -0.06604186 -0.0662887 -0.07134229 0.18690588 0.039007373 0.20574695 -0.26912692 -0.1044103 0.23443857 -0.13482955 0.14249352 0.034181166 0.22743443 0.10759612 0.14928262 -0.0695385 0.09906425 0.26846722 -0.040324546 -0.04498138 0.1987685 0.0985998 0.158998 0.180515 0.21703945 0.122192405 -0.08121668 -0.26891398 0.026663216 -0.059507083 -0.070653066 -0.03201478 0.08895599 -0.09652539 -0.024230331 0.035350498 0.09479186 0.35203445 -0.07300188 -0.040924463
meat|NN -0.030375244 0.110999934 0.14181507 0.12234758 -0.07471629 0.13515724 -0.14604284 -0.20361881 -0.04577954 0.010383821 -0.063962094 -0.061016686 -0.06792522 0.18861933 0.041448444 0.20407481 -0.26948443 -0.10193015 0.22819906 -0.12767729 0.1431881 0.036205947 0.22873868 0.110762194 0.14537965 -0.07010732 0.09687876 0.27376214 -0.043841712 -0.052628357 0.1949725 0.0955068 0.15750282 0.18128471 0.2212484 0.11954709 -0.074745 -0.272031 0.019378282 -0.059712995 -0.06512792 -0.023048487 0.09413452 -0.098399185 -0.027239326 0.034477048 0.087566 0.35759932 -0.06939582 -0.03758286
soup|NN -0.032733988 0.11095196 0.13499449 0.12076055 -0.07998458 0.13213986 -0.14708427 -0.21144828 -0.048462857 0.01356878 -0.06530427 -0.064937666 -0.07343392 0.19051468 0.04669575 0.19861877 -0.271412 -0.103744835 0.225605 -0.13274072 0.1480314 0.03465881 0.22427705 0.10680877 0.15260024 -0.07292824 0.09287592 0.26740652 -0.042330656 -0.047625292 0.1935472 0.094561145 0.16091806 0.17704837 0.2233139 0.1255048 -0.080996916 -0.26912758 0.025930401 -0.0629537 -0.0672438 -0.030786011 0.088521406 -0.09212568 -0.028102707 0.03366361 0.09483917 0.35607833 -0.06865835 -0.040068444
How|WRB -0.033139516 0.10984107 0.13686112 0.11978377 -0.07591686 0.12929277 -0.14287323 -0.21391484 -0.045092165 0.018654345 -0.06326828 -0.06927736 -0.069961675 0.19282925 0.04498134 0.19938679 -0.26653662 -0.098881595 0.22627233 -0.13066989 0.14391622 0.03399997 0.23327011 0.110760175 0.14626905 -0.071160056 0.10076504 0.27065593 -0.041438915 -0.04190772 0.19693089 0.09341717 0.16322665 0.17992307 0.22676295 0.11718809 -0.07421946 -0.2643492 0.023074666 -0.05374499 -0.06404029 -0.03128704 0.09598028 -0.09005553 -0.029068058 0.03344748 0.094404496 0.3592123 -0.07049401 -0.03622849
Mix|NNP -0.024911208 0.101636425 0.13382944 0.116490096 -0.07643138 0.13582005 -0.14499189 -0.20828043 -0.04705696 0.018003022 -0.072973795 -0.07033791 -0.075556025 0.19411577 0.042001832 0.19703609 -0.26680422 -0.1036166 0.22506683 -0.13142788 0.1488972 0.03505721 0.22385664 0.11482362 0.15531594 -0.06973946 0.10397459 0.27194667 -0.04135258 -0.044040043 0.19446903 0.09721311 0.16551292 0.17807786 0.22533017 0.120163955 -0.07723052 -0.26630542 0.024765903 -0.06267192 -0.06922169 -0.023338057 0.08987158 -0.09241375 -0.029879227 0.04378246 0.088654116 0.35513476 -0.069475405 -0.03949318
pieces|NNS -0.026482007 0.10479362 0.13754112 0.12342273 -0.078115635 0.13685107 -0.14345315 -0.20418362 -0.049987108 0.0066704047 -0.067457125 -0.067627735 -0.070487544 0.19025701 0.047348 0.20012519 -0.27072793 -0.10541345 0.23063052 -0.12799534 0.14845625 0.027372552 0.2292235 0.107454546 0.15146324 -0.07115735 0.1022114 0.27306885 -0.04066522 -0.046349075 0.19685806 0.100103475 0.15537289 0.1713421 0.2222934 0.12154766 -0.07848337 -0.26576725 0.02479002 -0.06346969 -0.069980636 -0.021387456 0.09202744 -0.09439714 -0.030238291 0.033109598 0.09015163 0.35763386 -0.063321434 -0.039797436
Pour|VB -0.033208042 0.10715445 0.1435916 0.12445671 -0.0786375 0.13142976 -0.15035352 -0.20408925 -0.05337862 0.015891626 -0.069735214 -0.06629429 -0.065449506 0.19007242 0.03902576 0.1952142 -0.27015918 -0.10589001 0.22900003 -0.12837559 0.1473765 0.03597263 0.22793142 0.11381743 0.15264827 -0.073328376 0.09540849 0.27597436 -0.04483675 -0.04732542 0.18988279 0.09586511 0.16402581 0.17880958 0.21756898 0.11991105 -0.074816875 -0.26858756 0.025983533 -0.054776818 -0.061439116 -0.027753923 0.09682405 -0.09532481 -0.029070972 0.0407487 0.08798429 0.35269994 -0.07302793 -0.041471057
use|VB -0.032149673 0.105754465 0.1403322 0.124240816 -0.0807975 0.13536085 -0.15300792 -0.2073275 -0.04888304 0.011627536 -0.06994323 -0.06380081 -0.06487165 0.1829146 0.041181 0.20056023 -0.2733002 -0.10565002 0.23003575 -0.13062963 0.14692985 0.03576575 0.23000756 0.111323945 0.14565371 -0.07372985 0.098634526 0.26969054 -0.040125832 -0.052501295 0.19794546 0.099614985 0.15708221 0.1779527 0.22136444 0.11779712 -0.08123598 -0.26931518 0.019684684 -0.06327237 -0.059699617 -0.027684752 0.09441329 -0.092327714 -0.032361057 0.041658033 0.087449536 0.3504606 -0.0670202 -0.03865367
2|CD -0.031513143 0.10098686 0.1367333 0.12076876 -0.08028184 0.13535732 -0.14568493 -0.2090184 -0.05388965 0.01286751 -0.06804814 -0.06769154 -0.068431675 0.18241788 0.045923218 0.20036682 -0.26693976 -0.10269131 0.23467213 -0.12860574 0.14700449 0.029796937 0.23090525 0.10531198 0.14975795 -0.071281575 0.09468056 0.27607632 -0.043238714 -0.045495182 0.1900394 0.09833136 0.16001593 0.1766112 0.21949513 0.12455052 -0.071317315 -0.267818 0.021180514 -0.0618688 -0.06760788 -0.027146095 0.096128166 -0.09484158 -0.031047504 0.04181524 0.094276085 0.35698894 -0.07033652 -0.038841873
The|DT -0.023639299 0.10994807 0.13706471 0.11897695 -0.08098769 0.13280767 -0.14777145 -0.21192202 -0.049585517 0.016770352 -0.0710136 -0.067154296 -0.07584987 0.19045402 0.04308469 0.19490169 -0.2704754 -0.10063463 0.22954477 -0.1330608 0.14538501 0.032005496 0.22665142 0.11081376 0.14548662 -0.06684943 0.09833759 0.2681284 -0.03746246 -0.043695513 0.19305608 0.09873143 0.15952794 0.1724872 0.22421119 0.12377043 -0.07168878 -0.27435645 0.025855456 -0.05858036 -0.0678314 -0.024707083 0.08682921 -0.10031351 -0.024267199 0.03774236 0.09136581 0.3563147 -0.07289286 -0.039156113
mix|NN -0.029517358 0.099982165 0.14099498 0.124745086 -0.07536453 0.1368601 -0.15208218 -0.20862605 -0.05107829 0.013386301 -0.07455683 -0.07049346 -0.07108426 0.18399622 0.044417717 0.1984308 -0.27009094 -0.10402463 0.22662105 -0.1290393 0.14815147 0.031091249 0.22389781 0.10765312 0.1476793 -0.07321737 0.09942588 0.27480134 -0.04400856 -0.051587187 0.19115444 0.09785657 0.16369946 0.18033354 0.2214067 0.12376226 -0.076456405 -0.26787537 0.024452895 -0.05717434 -0.061894916 -0.026276406 0.09644563 -0.09587994 -0.02928775 0.04178818 0.0860597 0.3519898 -0.07384289 -0.043075897
rice|NN -0.026704311 0.110799335 0.13537636 0.11688845 -0.081188045 0.13360041 -0.14526811 -0.21157788 -0.05085277 0.016018795 -0.068175375 -0.06438033 -0.06941437 0.19471458 0.045057345 0.19775158 -0.2658331 -0.10240204 0.23440652 -0.12804498 0.15136734 0.030901525 0.22340402 0.107457034 0.15492247 -0.0708798 0.093942225 0.27030855 -0.043174606 -0.047153838 0.19246402 0.098644145 0.16391893 0.17773382 0.22191665 0.11845563 -0.07567448 -0.27390346 0.02833488 -0.05330295 -0.071155116 -0.032027546 0.09450817 -0.09762568 -0.02240797 0.03362802 0.088325426 0.35177833 -0.06579567 -0.03766557
cheese|NN -0.025686154 0.10228798 0.13782014 0.11904575 -0.0832758 0.13592076 -0.15046264 -0.20518836 -0.050963253 0.018957267 -0.06549288 -0.064128816 -0.069210656 0.18290001 0.044282693 0.20365264 -0.2727721 -0.10499281 0.22992113 -0.131471 0.15020408 0.037272118 0.23091318 0.11208346 0.15391593 -0.068006955 0.09577865 0.27307948 -0.0405338 -0.04983413 0.19325864 0.10362654 0.15745242 0.17645428 0.21656089 0.11869602 -0.07578864 -0.26968834 0.019371504 -0.060531806 -0.06412821 -0.029653892 0.09438472 -0.096584216 -0.02735607 0.04134365 0.090252064 0.35096842 -0.068975925 -0.04050645
an|DT -0.025070302 0.10400114 0.13342711 0.12118736 -0.08211756 0.1333417 -0.14323771 -0.21056686 -0.047716815 0.012079289 -0.072113805 -0.06435018 -0.066115715 0.19192372 0.042151753 0.19852974 -0.26993522 -0.09596884 0.23422915 -0.12682432 0.1435565 0.036797896 0.22420017 0.11161231 0.15098524 -0.068815686 0.099393636 0.2707935 -0.045894034 -0.04873282 0.18891725 0.1020811 0.15859973 0.18098973 0.22503437 0.11714056 -0.07189245 -0.27402544 0.01926003 -0.06269272 -0.06754146 -0.031164128 0.092615046 -0.09032457 -0.03146448 0.041930974 0.08519504 0.35840672 -0.067591526 -0.036788363
top|NN -0.027172081 0.10392262 0.14209223 0.11757259 -0.07619657 0.13392402 -0.15037757 -0.21017937 -0.046381604 0.015534646 -0.0702341 -0.060835622 -0.06556243 0.1851175 0.040220227 0.2036021 -0.27316874 -0.097284 0.22696735 -0.12612942 0.14931826 0.03222573 0.22895116 0.11545697 0.14685032 -0.06598929 0.10015668 0.26830614 -0.045556273 -0.04737648 0.19430628 0.09724445 0.15839961 0.17532724 0.2246979 0.1260044 -0.07969689 -0.26544914 0.021171845 -0.063972965 -0.07025309 -0.032315545 0.090320714 -0.09423816 -0.024262976 0.03614762 0.08426462 0.36057535 -0.06699667 -0.033490743
more|JJR -0.03183341 0.107426375 0.14092258 0.11898988 -0.074493095 0.13181156 -0.14629002 -0.20357147 -0.051806226 0.008654826 -0.070221774 -0.06372145 -0.073480815 0.19108976 0.03714462 0.20021237 -0.27737424 -0.10154512 0.22732136 -0.12552844 0.1430334 0.031520087 0.22676644 0.11483691 0.15379858 -0.0699291 0.10358956 0.26941508 -0.03885931 -0.050345615 0.19250548 0.09529842 0.15879361 0.17823794 0.22902967 0.1233463 -0.071476884 -0.26820254 0.0272166 -0.061623085 -0.06402555 -0.03114336 0.08699904 -0.09550858 -0.020770337 0.036468405 0.09114325 0.35483506 -0.066525705 -0.03675966
using|VBG -0.025519427 0.107970394 0.13543649 0.12123268 -0.079063356 0.133872 -0.14745998 -0.20275587 -0.047430184 0.013079411 -0.06550505 -0.068836026 -0.072869904 0.19194409 0.045184836 0.19912466 -0.2723951 -0.10085745 0.2243588 -0.13566709 0.14835298 0.032226443 0.23248532 0.11444652 0.1517066 -0.06903657 0.09490188 0.27499714 -0.044696048 -0.042835884 0.18821129 0.10336087 0.16391708 0.17948177 0.21774532 0.11620004 -0.07972646 -0.27148998 0.01873639 -0.05342537 -0.06207475 -0.02821859 0.095476285 -0.09013555 -0.030136706 0.03687267 0.08773707 0.35287723 -0.07476461 -0.037898295
while|IN -0.032825705 0.107495904 0.13459098 0.116237104 -0.0729132 0.13988587 -0.14355347 -0.21003857 -0.049492374 0.014925525 -0.072683774 -0.060699984 -0.066146426 0.18666805 0.04060786 0.20128632 -0.27540255 -0.09783943 0.22884007 -0.13004951 0.15030946 0.036814377 0.22963122 0.11486311 0.14677177 -0.07072959 0.098026425 0.27020353 -0.04112861 -0.04662012 0.19814055 0.09918956 0.16633834 0.17277916 0.22639753 0.119322255 -0.07549107 -0.26567942 0.024110686 -0.054672696 -0.062079396 -0.02686558 0.09194049 -0.093873 -0.026890945 0.03566643 0.09456566 0.35085595 -0.07581315 -0.04373774
baking|NN -0.03311251 0.108422875 0.1355223 0.11963223 -0.07314208 0.13948533 -0.14717065 -0.20363879 -0.044502784 0.0131212985 -0.07293774 -0.06915467 -0.06738112 0.18759008 0.043621562 0.20361993 -0.26612562 -0.0989282 0.23513333 -0.13332565 0.14553341 0.03365265 0.23272467 0.11332774 0.15126738 -0.070905425 0.0992108 0.26839733 -0.046246216 -0.050057217 0.19459318 0.10243638 0.15650868 0.17541473 0.22022781 0.11835883 -0.072710626 -0.26586324 0.020308137 -0.057030275 -0.06808071 -0.023979679 0.095489725 -0.09237473 -0.029322298 0.043148216 0.08716323 0.35787633 -0.069428705 -0.04379931
recipe|NN -0.027818996 0.11113328 0.13516918 0.1200216 -0.0820117 0.13410142 -0.14454734 -0.20689994 -0.05449961 0.019614967 -0.07183322 -0.06890208 -0.07466367 0.1893517 0.047336746 0.20229653 -0.27380717 -0.096112646 0.23304245 -0.13133314 0.1503453 0.036142007 0.22897606 0.11350043 0.14623393 -0.067697115 0.09561429 0.275046 -0.04591153 -0.04883871 0.19290957 0.09259149 0.1626063 0.17213596 0.22011806 0.12539741 -0.08023718 -0.2639799 0.018818863 -0.053812418 -0.069623865 -0.024663161 0.09309334 -0.095993 -0.023598216 0.03602336 0.08942471 0.35007554 -0.06717248 -0.045066882
bread|NN -0.024654202 0.108996876 0.1363132 0.118414514 -0.079797715 0.13256678 -0.15097813 -0.21001609 -0.05185217 0.010392417 -0.06652178 -0.06458383 -0.06602351 0.19210592 0.042367004 0.19641575 -0.2700907 -0.1002775 0.22646725 -0.12648125 0.1479966 0.03086744 0.22792618 0.11480632 0.15250967 -0.072655536 0.0994867 0.26952267 -0.044835236 -0.04297775 0.19533113 0.10021597 0.15850335 0.17831299 0.21685836 0.12173048 -0.081366725 -0.27297428 0.026108902 -0.054214206 -0.06664857 -0.02231481 0.09363805 -0.08880533 -0.026742093 0.036484115 0.09181449 0.35795048 -0.063549325 -0.04321236
flour|NN -0.0296041 0.10773521 0.1423019 0.124340616 -0.07227767 0.13544187 -0.14344056 -0.20368306 -0.04686672 0.018737562 -0.068709455 -0.06484089 -0.07231805 0.19244199 0.047203302 0.20302522 -0.2651645 -0.10295118 0.22663468 -0.13506101 0.14028193 0.028054247 0.23106007 0.107862994 0.15248932 -0.0689982 0.10231537 0.2678565 -0.041790932 -0.04419043 0.19501863 0.09528273 0.16265242 0.17867231 0.21883142 0.125509 -0.07873254 -0.26562926 0.018806713 -0.061217047 -0.07098447 -0.022389624 0.097138226 -0.09655826 -0.02388132 0.039702367 0.08776821 0.35823596 -0.07292904 -0.035602883
time|NN -0.025069952 0.106974296 0.14357933 0.11982993 -0.07349558 0.13735053 -0.14802074 -0.21045654 -0.050187286 0.014719227 -0.07269424 -0.06855254 -0.07499949 0.19279224 0.039065637 0.20026496 -0.2707702 -0.096752204 0.22541296 -0.12897307 0.14803374 0.03335069 0.2233954 0.11148812 0.14726152 -0.07194191 0.10260589 0.2742407 -0.043513853 -0.04791352 0.19175582 0.09393322 0.16409661 0.17616971 0.21876426 0.11916532 -0.07607813 -0.27095333 0.021363404 -0.060802843 -0.06748052 -0.032420795 0.08885411 -0.09831351 -0.03260774 0.03451196 0.0942097 0.3498195 -0.074870855 -0.04268675
little|JJ -0.029562773 0.107997365 0.13874781 0.122286655 -0.07721786 0.13476428 -0.15280147 -0.20663838 -0.056062974 0.016433142 -0.065714404 -0.062336285 -0.06916039 0.18826212 0.03906544 0.19663602 -0.27338192 -0.10102638 0.22733681 -0.1327483 0.14433984 0.03568372 0.22782378 0.10677578 0.15052247 -0.06951673 0.09906848 0.26823103 -0.037842836 -0.049140792 0.19627199 0.10200384 0.16200975 0.17396398 0.22645994 0.11886221 -0.07646249 -0.26753667 0.023852065 -0.06381245 -0.060702574 -0.030251022 0.09541244 -0.093699 -0.023874914 0.037721157 0.09231976 0.35523745 -0.06569217 -0.04324548
has|VBZ -0.02723619 0.109369196 0.13606557 0.120689556 -0.07512087 0.13336812 -0.14869848 -0.2067183 -0.046770554 0.017749077 -0.07056148 -0.06714748 -0.074334994 0.1923134 0.047689132 0.20019452 -0.27461448 -0.09763759 0.23493575 -0.1299093 0.14829841 0.027030375 0.22394867 0.10523397 0.15362108 -0.064543635 0.09270595 0.27030054 -0.04138128 -0.051314183 0.19656093 0.100465804 0.1563655 0.17324051 0.22439666 0.1155255 -0.07364222 -0.27076846 0.025327273 -0.05545027 -0.06706317 -0.023898263 0.09649858 -0.0954138 -0.02909521 0.04067783 0.08759304 0.35397333 -0.067734875 -0.038272075
1|CD -0.028485028 0.09975657 0.1406169 0.116718955 -0.07414063 0.13369033 -0.14217591 -0.20692194 -0.05292604 0.011502712 -0.0655848 -0.069276765 -0.06743814 0.1907461 0.042238183 0.19551693 -0.27031642 -0.1041458 0.23109463 -0.12777552 0.15180407 0.03381322 0.22394852 0.111083485 0.15034232 -0.07044801 0.099781156 0.27089053 -0.04273206 -0.054042242 0.19032788 0.10353872 0.15820466 0.17833959 0.22548777 0.11929238 -0.072419666 -0.26926994 0.022889024 -0.06192585 -0.07051942 -0.031200055 0.086584784 -0.09746969 -0.022697473 0.041629605 0.09009537 0.36001977 -0.07148954 -0.038552005
Then|RB -0.025873255 0.102628514 0.1374292 0.123716004 -0.07939318 0.13362223 -0.15140863 -0.20742281 -0.053882666 0.010821842 -0.0674969 -0.0660736 -0.07323778 0.19160399 0.044817947 0.20030887 -0.2714909 -0.09710366 0.22971214 -0.12863421 0.14260715 0.033232767 0.22488157 0.110905215 0.15295394 -0.06838539 0.09800037 0.26746392 -0.04659743 -0.048990633 0.19355772 0.10114691 0.16359465 0.17799881 0.2199425 0.116728246 -0.072979026 -0.27001762 0.017568305 -0.06292381 -0.062056918 -0.031124093 0.09291677 -0.09264307 -0.024175096 0.03698794 0.087774135 0.36042637 -0.06553618 -0.035496496
also|RB -0.02445472 0.11029363 0.14426285 0.12142903 -0.074298605 0.13184997 -0.14370084 -0.20899338 -0.05497721 0.014105244 -0.06463568 -0.071347676 -0.07093637 0.18528499 0.03890682 0.19725011 -0.27047595 -0.10198396 0.22761628 -0.12729569 0.14981185 0.028480222 0.23062861 0.11185678 0.15270373 -0.06657284 0.09592726 0.2679361 -0.04315889 -0.04523134 0.1943352 0.097386196 0.15559036 0.17962942 0.22550735 0.11859472 -0.0742928 -0.27309534 0.020802228 -0.061145153 -0.06498244 -0.032117363 0.08653791 -0.09346941 -0.03056365 0.040693212 0.09151149 0.35668445 -0.070529155 -0.03792244
have|VBP -0.03147089 0.10262958 0.1415331 0.12251801 -0.07807983 0.13175924 -0.15354303 -0.20865399 -0.054033875 0.017716011 -0.07292473 -0.06295757 -0.07036776 0.18635894 0.04338149 0.19753389 -0.26935598 -0.10275998 0.23007627 -0.13483758 0.14818114 0.038175672 0.22380829 0.115062706 0.15154406 -0.071484685 0.09414491 0.2689983 -0.042151626 -0.047514603 0.19420159 0.09721829 0.16125865 0.17453744 0.21976833 0.1200478 -0.08000354 -0.27312553 0.018405395 -0.0571362 -0.061738484 -0.02236261 0.08806461 -0.09525134 -0.023330519 0.042836096 0.09085364 0.35518983 -0.07049304 -0.040176217
but|CC -0.030801767 0.10975836 0.13966413 0.12246995 -0.07272649 0.13532066 -0.14828563 -0.20999141 -0.052370477 0.01737075 -0.064032346 -0.06677515 -0.07405744 0.18858625 0.036801897 0.19466053 -0.26921603 -0.10650008 0.23164225 -0.12523697 0.14729916 0.034177154 0.23412709 0.11470957 0.14469944 -0.064578116 0.10061982 0.2684872 -0.036161695 -0.045329 0.19508249 0.095778085 0.16345282 0.17774229 0.22313015 0.12293359 -0.074354514 -0.26966318 0.018109886 -0.064252995 -0.06933387 -0.027192032 0.08600625 -0.09957861 -0.021548131 0.03785847 0.089787155 0.3529385 -0.067088366 -0.034705006
paper|NN -0.03203433 0.10670795 0.14361559 0.11690316 -0.08270208 0.13826573 -0.14970027 -0.20518017 -0.049520873 0.0128846895 -0.06800482 -0.06586692 -0.065570764 0.18942273 0.047041878 0.20463979 -0.2738879 -0.10377652 0.22810435 -0.12653059 0.14374241 0.026682114 0.2281373 0.109548144 0.14998898 -0.066016264 0.09400469 0.27238864 -0.047128312 -0.042595103 0.18848523 0.09326493 0.16412663 0.17867549 0.22569892 0.12001042 -0.07382918 -0.26758212 0.016910993 -0.060787696 -0.067957714 -0.022219704 0.0916415 -0.09369574 -0.025383988 0.039328743 0.08948653 0.35312957 -0.07196816 -0.04446794
take|VB -0.03294467 0.10829096 0.13847665 0.11975225 -0.074025504 0.13542517 -0.150354 -0.20585404 -0.05585983 0.01724996 -0.06412126 -0.061365385 -0.06737314 0.1840425 0.041809354 0.1983514 -0.26705492 -0.099728435 0.23144715 -0.13477264 0.1472049 0.036711313 0.23076096 0.109168336 0.14986767 -0.0640341 0.10151055 0.2684675 -0.042988926 -0.046900474 0.19203484 0.10152395 0.1626371 0.18181823 0.22466396 0.12183699 -0.07133419 -0.2701682 0.026222264 -0.060557704 -0.06612226 -0.029189963 0.08810146 -0.09720359 -0.033008263 0.042217407 0.09225553 0.35385445 -0.068329334 -0.041935455
any|DT -0.024588592 0.10757769 0.13581873 0.120635375 -0.074330546 0.13174835 -0.14945686 -0.20381805 -0.045573417 0.015459773 -0.06817195 -0.06360191 -0.06598197 0.1880693 0.04564906 0.19898723 -0.27148676 -0.09832838 0.2344347 -0.13049757 0.14559433 0.027762385 0.23357104 0.109443195 0.14594188 -0.06441346 0.094578 0.27171484 -0.038051374 -0.049691435 0.19564153 0.10278775 0.16240777 0.174644 0.2249977 0.116486624 -0.08026806 -0.27137122 0.028338261 -0.05428281 -0.06646921 -0.021504262 0.0940104 -0.09796958 -0.022452 0.03300874 0.084742524 0.3576059 -0.066056564 -0.039528184
onions|NNS -0.033917237 0.11045783 0.1339174 0.11626716 -0.07355999 0.12960711 -0.14652318 -0.2104763 -0.048827764 0.009761254 -0.07397242 -0.066361934 -0.065725036 0.19026832 0.04173683 0.20168091 -0.26369283 -0.10642805 0.2351831 -0.1348646 0.14747517 0.028762003 0.22824338 0.109910004 0.15106532 -0.071544856 0.09540691 0.27018774 -0.04042531 -0.04609984 0.19653773 0.104751654 0.15826003 0.17147449 0.22594543 0.116052985 -0.07942805 -0.27443394 0.025604878 -0.05805587 -0.06210419 -0.032474566 0.09218335 -0.09525427 -0.027469637 0.044130716 0.09378711 0.35011503 -0.06999278 -0.03648384
turkey|NN -0.033190694 0.107140936 0.13660073 0.12413564 -0.07929964 0.13992672 -0.14843337 -0.2047716 -0.047907002 0.011343766 -0.06839813 -0.06550959 -0.0685929 0.19174504 0.038227316 0.19631414 -0.26706666 -0.097000025 0.23189859 -0.1317426 0.1509543 0.0368867 0.22288167 0.10780598 0.15599647 -0.072602876 0.09478523 0.2678882 -0.043300543 -0.05233437 0.19263914 0.10387331 0.16142732 0.18237056 0.22087875 0.11695514 -0.0751835 -0.27482173 0.021937134 -0.057984777 -0.061416984 -0.030656835 0.08857312 -0.09630917 -0.02395691 0.044618666 0.092011064 0.35284075 -0.07123145 -0.035092935
they|PRP -0.027135644 0.10415625 0.13638893 0.12347536 -0.08273088 0.13299175 -0.15213193 -0.20765199 -0.051250063 0.008417897 -0.07315779 -0.06427984 -0.075862125 0.1857424 0.03983013 0.19907288 -0.27136096 -0.10027783 0.2351439 -0.12713875 0.15155084 0.034771238 0.23053057 0.11033353 0.15174147 -0.06726389 0.095684595 0.2719123 -0.03613825 -0.04279681 0.19847208 0.09460547 0.15766841 0.17842244 0.22649522 0.12148615 -0.08028526 -0.26961744 0.022862414 -0.055275317 -0.06445216 -0.031336263 0.09298271 -0.09011689 -0.027610049 0.03446069 0.0840325 0.34808847 -0.06525604 -0.03932352
Take|VB -0.02290572 0.10370326 0.1398043 0.12029618 -0.07230062 0.13850111 -0.15143368 -0.20097153 -0.051064525 0.012593772 -0.07011987 -0.059502363 -0.06985938 0.18587987 0.03986849 0.20165321 -0.27398676 -0.10631305 0.23323612 -0.13015112 0.14726771 0.027030444 0.22417599 0.104353204 0.15216835 -0.06807282 0.10227828 0.27134678 -0.04183118 -0.04210139 0.19846797 0.09987494 0.15775087 0.17999043 0.21867904 0.122051604 -0.07213005 -0.2680725 0.024915645 -0.058858387 -0.06557539 -0.027281234 0.09046035 -0.092911296 -0.027254174 0.035114177 0.091161795 0.3579468 -0.068639144 -0.04350406
brown|NN -0.023487814 0.10211391 0.13930452 0.12080372 -0.07886413 0.13685472 -0.1486327 -0.20584138 -0.045391962 0.014289387 -0.07217225 -0.06478965 -0.065709524 0.18578686 0.044282902 0.19933517 -0.2744862 -0.10859174 0.2279634 -0.12583865 0.1541294 0.036706597 0.22248101 0.10724922 0.14774641 -0.06563779 0.09375806 0.26669827 -0.04180455 -0.048983537 0.19539794 0.09952667 0.1554949 0.1791453 0.2213606 0.12266186 -0.08011975 -0.27605623 0.020656979 -0.062624775 -0.070190415 -0.034007285 0.09253704 -0.091361515 -0.031484615 0.03568636 0.08332742 0.35869431 -0.06736195 -0.037229978
when|WRB -0.024125442 0.10763317 0.134317 0.12179006 -0.072504155 0.13779299 -0.14615108 -0.20314953 -0.047841135 0.008242418 -0.06920665 -0.06401793 -0.06682054 0.19164607 0.041879628 0.19964759 -0.26732677 -0.10539069 0.22630104 -0.12605551 0.15144849 0.03243669 0.22909862 0.10751418 0.15283966 -0.07137365 0.09964761 0.27379182 -0.042579163 -0.052239265 0.19913675 0.099758245 0.15715344 0.17545053 0.22481747 0.12212157 -0.07176599 -0.2686312 0.021009618 -0.054434687 -0.06821835 -0.024504622 0.09597277 -0.091848135 -0.026716447 0.040339768 0.09115721 0.3558255 -0.074664995 -0.037946653
that|WDT -0.02559743 0.11121538 0.1368956 0.11781182 -0.07771351 0.1308866 -0.1473708 -0.20584033 -0.046392947 0.012084068 -0.06990357 -0.06907604 -0.06773133 0.18866244 0.04187441 0.1963411 -0.27384502 -0.10410511 0.23360084 -0.12614945 0.15152912 0.031558555 0.22622986 0.110043496 0.15140863 -0.07175743 0.100495264 0.26908728 -0.03735164 -0.046447907 0.19735841 0.10395726 0.15846846 0.17748968 0.22253504 0.121829495 -0.07654287 -0.26928374 0.02579904 -0.0566151 -0.06768439 -0.023286587 0.08745526 -0.09534051 -0.02927365 0.04336852 0.09045881 0.35280955 -0.06962156 -0.04336037
hot|JJ -0.02664804 0.11167086 0.1415434 0.11679334 -0.08061668 0.13633606 -0.14805962 -0.20438722 -0.04526086 0.017135875 -0.070568375 -0.06299719 -0.07400365 0.1841757 0.040841416 0.20396696 -0.2681483 -0.10593394 0.2314946 -0.12889075 0.15047187 0.028176498 0.22576857 0.11430457 0.15153994 -0.06815488 0.098001346 0.2675925 -0.042690244 -0.050308954 0.19906175 0.09867193 0.15920202 0.17354847 0.21966992 0.12210262 -0.07623384 -0.27477396 0.028041953 -0.05534244 -0.063576624 -0.030211724 0.09395242 -0.09813107 -0.023629008 0.042956166 0.08505416 0.35113108 -0.072737664 -0.040561885
Stir|NNP -0.027011689 0.10857953 0.13994305 0.124477774 -0.07487058 0.12791826 -0.14822707 -0.20642163 -0.048027564 0.015945483 -0.0737242 -0.071226105 -0.074733235 0.18997753 0.038165625 0.1928074 -0.27168223 -0.10149705 0.23309673 -0.12787256 0.14862263 0.027644815 0.23072475 0.10709288 0.14690186 -0.06525509 0.103644036 0.2686727 -0.0436427 -0.043093584 0.19015801 0.09595452 0.1601007 0.17369689 0.22494829 0.122615874 -0.072835885 -0.27426565 0.024436392 -0.062671795 -0.0664773 -0.024344057 0.09505159 -0.090036355 -0.028012998 0.03888193 0.091916665 0.3554673 -0.07233679 -0.03532173
half|NN -0.032002002 0.10460732 0.13973701 0.122152224 -0.07721491 0.13416438 -0.15107273 -0.2025027 -0.056002516 0.01822703 -0.07241586 -0.06731424 -0.06555669 0.18657467 0.04249966 0.19461907 -0.26634842 -0.10506359 0.23250432 -0.1338585 0.14413856 0.028210085 0.2281205 0.11122677 0.14815295 -0.070287734 0.101043075 0.2758735 -0.047532458 -0.048824705 0.18896309 0.10330441 0.16401424 0.1736783 0.21937399 0.12454018 -0.076962 -0.26653805 0.022531651 -0.057368316 -0.07092251 -0.023391765 0.093088806 -0.09242456 -0.026459685 0.036993075 0.08768566 0.35877278 -0.07185263 -0.04129362
eggs|NNS -0.028216215 0.10310052 0.1383522 0.12471268 -0.07620588 0.13247536 -0.14778663 -0.21097817 -0.048113998 0.015000618 -0.07118927 -0.0665484 -0.068838686 0.189194 0.045479372 0.19709936 -0.2733639 -0.10509078 0.22993524 -0.1297145 0.14512287 0.029918171 0.22387955 0.112332225 0.14834882 -0.072090015 0.09450457 0.2727875 -0.039703395 -0.045211095 0.19700322 0.09972478 0.1609019 0.17657234 0.21892281 0.11686809 -0.076226376 -0.27094996 0.02067475 -0.055161715 -0.0618838 -0.03239363 0.095066465 -0.09245494 -0.03164293 0.04444061 0.09530788 0.35463932 -0.065540306 -0.040729824
cook|VB -0.033150855 0.1022785 0.13872628 0.11647829 -0.073674574 0.13446309 -0.15190789 -0.20909792 -0.04902035 0.010995626 -0.06434908 -0.06788338 -0.07150094 0.19330336 0.04371524 0.20119728 -0.27618665 -0.10669383 0.225243 -0.13122934 0.14233418 0.030892598 0.2244874 0.11289476 0.15389518 -0.06631399 0.09439371 0.2696729 -0.03854133 -0.04500319 0.19155368 0.0998309 0.15564162 0.17289388 0.22705323 0.115901686 -0.07735148 -0.27340257 0.026034825 -0.057537574 -0.06289464 -0.033137016 0.090096645 -0.09902797 -0.026423119 0.04230833 0.085715845 0.3546368 -0.07394815 -0.038087476
golden|JJ -0.028577525 0.11088206 0.14027558 0.12155487 -0.07756098 0.13245292 -0.14497091 -0.2084716 -0.0486223 0.009303157 -0.072376065 -0.063532114 -0.06668517 0.19108161 0.042658392 0.20048337 -0.27136815 -0.10614645 0.23222418 -0.12528166 0.14748326 0.035605486 0.22541471 0.10909608 0.15207967 -0.06559123 0.09345717 0.26783758 -0.042744014 -0.05255275 0.19612326 0.10047941 0.15825722 0.18031454 0.22238219 0.12410289 -0.071992435 -0.2678735 0.024935734 -0.06267476 -0.063418604 -0.027652504 0.08758086 -0.09438059 -0.029182952 0.036514528 0.0854136 0.35530797 -0.074980736 -0.042099196
place|NN -0.027154205 0.11001369 0.13506897 0.11891539 -0.07529474 0.13331603 -0.1488861 -0.20323747 -0.04663072 0.00963282 -0.07053804 -0.061746888 -0.06648039 0.18628731 0.03803143 0.19899148 -0.27438444 -0.09632096 0.22823918 -0.12519027 0.14302842 0.030596472 0.23291148 0.11537637 0.1531087 -0.066641994 0.095685676 0.27281108 -0.044754256 -0.043694478 0.18888539 0.095758006 0.15679687 0.18043303 0.22153474 0.1165025 -0.07884067 -0.2731522 0.021284897 -0.061468408 -0.065255255 -0.026628029 0.08866099 -0.09699504 -0.023527563 0.040369842 0.09090013 0.36080515 -0.074273676 -0.04359187
done|VBN -0.031841684 0.1104026 0.13460411 0.12019241 -0.07431712 0.13875817 -0.14807336 -0.20356832 -0.04634271 0.010290048 -0.07156529 -0.06856449 -0.0684569 0.19543362 0.04498995 0.19942673 -0.26699203 -0.100705534 0.23037043 -0.1262692 0.1524282 0.03727178 0.23286907 0.10851695 0.14838275 -0.06547646 0.09562116 0.27044424 -0.041565698 -0.04664002 0.1927889 0.095168255 0.15864262 0.18186708 0.22107323 0.11916513 -0.08060991 -0.27058336 0.020170568 -0.05746123 -0.06132472 -0.031437118 0.08919245 -0.09498852 -0.03305801 0.034791306 0.09124759 0.35560212 -0.066196136 -0.04030145
pie|NN -0.02673792 0.109433345 0.13938735 0.11544651 -0.077279255 0.13357024 -0.15066746 -0.21063799 -0.04745373 0.0116418665 -0.064963296 -0.064925335 -0.06922944 0.18765558 0.03906595 0.20323962 -0.26735017 -0.100775324 0.23509255 -0.12656608 0.1453707 0.037034094 0.22948362 0.108430974 0.15448241 -0.07431124 0.09504623 0.27020347 -0.041205455 -0.051118173 0.19094466 0.09877894 0.16277812 0.17530848 0.21875241 0.11894003 -0.081715606 -0.27042228 0.022456294 -0.06407368 -0.062608875 -0.022396408 0.093981236 -0.09044099 -0.02670147 0.041921273 0.090172745 0.35481867 -0.07305592 -0.0359534
remaining|VBG -0.027360236 0.10088261 0.13442929 0.12106134 -0.08031499 0.13658175 -0.1443315 -0.2055714 -0.053392738 0.013118795 -0.07220173 -0.062377203 -0.0709676 0.19014934 0.03768533 0.19927137 -0.27325052 -0.101451896 0.23195313 -0.12450143 0.15007679 0.027470415 0.22234952 0.108734325 0.15343289 -0.06511601 0.09950089 0.27478006 -0.04013139 -0.048656296 0.19055532 0.098549 0.16247073 0.1803723 0.22368522 0.120274074 -0.07681098 -0.2667293 0.019039126 -0.060039856 -0.065081574 -0.023874206 0.09660181 -0.09818363 -0.02914715 0.04456964 0.0896305 0.35499117 -0.070566624 -0.04029372
Make|NNP -0.024215661 0.10933359 0.13417554 0.12395325 -0.074189305 0.12926577 -0.15233353 -0.20172088 -0.052419744 0.016549136 -0.069402434 -0.065048955 -0.07306137 0.1852151 0.04650717 0.20121509 -0.27312055 -0.09959322 0.23439692 -0.12556943 0.14957237 0.033407237 0.22427939 0.10954505 0.15028115 -0.06664597 0.10070702 0.2717549 -0.03986226 -0.04817194 0.19441094 0.10005576 0.15985942 0.17031224 0.21884711 0.12128514 -0.07480914 -0.27333024 0.027849806 -0.06165474 -0.06511925 -0.02729607 0.08957103 -0.091916494 -0.029184831 0.037098464 0.0882964 0.35938796 -0.07455511 -0.040292006
Remove|VB -0.025642246 0.11107436 0.13554122 0.11909733 -0.08108659 0.13412192 -0.14541039 -0.20730361 -0.04977915 0.010413288 -0.065438084 -0.066794366 -0.07330769 0.18765558 0.038364436 0.1958889 -0.26785585 -0.1050739 0.23294474 -0.1335521 0.15006948 0.028810553 0.22393344 0.112702414 0.15321231 -0.06813411 0.09856353 0.27443928 -0.043575108 -0.048708558 0.19751747 0.10212563 0.16339995 0.17952672 0.22560078 0.12019477 -0.076886505 -0.26660085 0.018009244 -0.0580486 -0.06560144 -0.02237552 0.087868154 -0.089402206 -0.024738254 0.042301714 0.09178574 0.35169306 -0.06808425 -0.037884705
sure|JJ -0.02831246 0.10834755 0.13650578 0.123200275 -0.081958234 0.13091114 -0.14668491 -0.2078329 -0.052855007 0.009210341 -0.06625194 -0.069047876 -0.0717381 0.18742041 0.046214394 0.20245689 -0.27224937 -0.10693054 0.22676222 -0.13178083 0.15126196 0.028018875 0.23191875 0.10832377 0.15533493 -0.069859125 0.09795604 0.27213448 -0.042107526 -0.044071347 0.18952367 0.1004288 0.15997697 0.17565139 0.22513442 0.11651999 -0.079455316 -0.26691154 0.021316025 -0.05368839 -0.06958502 -0.030481182 0.09527027 -0.09253001 -0.02423323 0.03454209 0.08716789 0.35017815 -0.07429459 -0.034737717
To|TO -0.02284594 0.109561875 0.13640557 0.11994969 -0.080562696 0.13047767 -0.1506994 -0.20957723 -0.05404147 0.018104669 -0.06791118 -0.068943396 -0.07043131 0.18991502 0.0378364 0.1985967 -0.26559192 -0.09999084 0.23451652 -0.13055201 0.14396612 0.035924572 0.22489172 0.11484075 0.14812881 -0.073033325 0.10247007 0.26969177 -0.038608678 -0.050755657 0.19124776 0.10064465 0.16068308 0.17279872 0.22629751 0.1223463 -0.07357487 -0.2678859 0.024809321 -0.061487287 -0.064427264 -0.022467205 0.09577849 -0.093078114 -0.024327397 0.038665388 0.09046673 0.35659394 -0.07268585 -0.039243143
cool|VB -0.029113613 0.10896974 0.13421796 0.11844681 -0.074607454 0.13093258 -0.15149233 -0.20195803 -0.044895325 0.011064929 -0.07014087 -0.060465574 -0.07165144 0.1897503 0.046993338 0.19768809 -0.269182 -0.10773173 0.22594666 -0.12780292 0.14103535 0.029549921 0.22912022 0.115148306 0.15194081 -0.06366266 0.0991694 0.27496633 -0.046748377 -0.04848403 0.19259928 0.098106496 0.15556341 0.17245555 0.2260796 0.12524968 -0.077722736 -0.2668318 0.02598082 -0.059397224 -0.067087255 -0.031330694 0.09410346 -0.09503553 -0.02929579 0.03697269 0.09571532 0.3608105 -0.07174503 -0.039607376
serving|VBG -0.02582697 0.111281686 0.14050817 0.12083098 -0.07493488 0.13392253 -0.15164216 -0.20371869 -0.0529606 0.014228786 -0.06457957 -0.06347088 -0.06512933 0.19332668 0.040795527 0.19885007 -0.26784796 -0.0968112 0.22855379 -0.12523118 0.15013003 0.031164356 0.22568172 0.10708521 0.1560688 -0.070247315 0.10077934 0.27661765 -0.04634712 -0.04781596 0.1925099 0.09481517 0.15581116 0.17923191 0.22448792 0.119591825 -0.077800676 -0.27032635 0.020624947 -0.063518696 -0.061166335 -0.02650875 0.08911296 -0.09506514 -0.02908424 0.040039144 0.09486215 0.352325 -0.074786566 -0.04303519
should|MD -0.032742154 0.10993036 0.13683346 0.116871655 -0.082678504 0.13213022 -0.14979899 -0.20340872 -0.054711834 0.008060217 -0.06803201 -0.060237445 -0.06627337 0.19147618 0.043835253 0.19765061 -0.2726634 -0.09904584 0.23070785 -0.12732187 0.14682949 0.02860241 0.22512996 0.10588667 0.1542021 -0.06701342 0.10134824 0.27527103 -0.036162633 -0.052943423 0.19535491 0.09351782 0.16179751 0.17622335 0.2244345 0.122959256 -0.078738816 -0.27022263 0.018858615 -0.059669573 -0.063727 -0.026344873 0.09046644 -0.09508748 -0.023110552 0.041980524 0.08464773 0.35519603 -0.0694646 -0.03877275
slices|NNS -0.025748964 0.10317494 0.13809098 0.11755787 -0.07859539 0.13758107 -0.15247273 -0.20394662 -0.051478654 0.010453068 -0.065617815 -0.06969477 -0.06646845 0.19325452 0.040204577 0.19927728 -0.27473792 -0.10518307 0.22849333 -0.13388887 0.14889558 0.028161708 0.22642578 0.11195195 0.15324067 -0.06681818 0.10054055 0.273526 -0.039650407 -0.05132511 0.19373637 0.09530615 0.16212437 0.1739486 0.21762094 0.124793895 -0.07822805 -0.2674718 0.020226117 -0.060943436 -0.064106144 -0.023288436 0.09432891 -0.09289625 -0.031813256 0.039506026 0.08790248 0.35123274 -0.069271624 -0.04240178
out|IN -0.031036537 0.102929 0.14009091 0.12551405 -0.076372534 0.13720599 -0.15278322 -0.20357387 -0.04714683 0.010632157 -0.06574647 -0.06211757 -0.06931347 0.18477367 0.038186196 0.20127803 -0.26694304 -0.10379637 0.23159008 -0.13048005 0.14630803 0.030731019 0.22747314 0.109869 0.14682965 -0.06828132 0.10139988 0.27650046 -0.039643563 -0.04850455 0.19868505 0.10128679 0.15905853 0.17355238 0.22063744 0.11997869 -0.073949836 -0.27292454 0.02465626 -0.06427355 -0.06762631 -0.023472806 0.0884679 -0.09733191 -0.029665042 0.03613395 0.08898164 0.35149974 -0.0740751 -0.044230036
small|JJ -0.023854138 0.10322154 0.13836859 0.12500784 -0.07650324 0.13810776 -0.14918126 -0.20302126 -0.052760795 0.015559808 -0.06898357 -0.06495801 -0.07375698 0.1891137 0.04275995 0.20228194 -0.2639518 -0.102110736 0.23199613 -0.1318962 0.14768681 0.03383469 0.22947612 0.10804916 0.1497833 -0.07433666 0.09846836 0.27161887 -0.040318288 -0.051799364 0.19336823 0.10285615 0.16325264 0.18014467 0.22124337 0.12523752 -0.07709065 -0.265144 0.027376032 -0.05493917 -0.063576944 -0.022331363 0.087271966 -0.09737266 -0.023214838 0.034256037 0.094238974 0.35274324 -0.07164471 -0.042297333
so|RB -0.02730301 0.107910715 0.13622567 0.12158652 -0.08203166 0.13628723 -0.1456027 -0.2121188 -0.05232898 0.017338593 -0.06873802 -0.06571972 -0.06847286 0.18480603 0.04095746 0.19986983 -0.2714886 -0.09823846 0.22942993 -0.13277906 0.15229593 0.036039744 0.23091713 0.10929383 0.146738 -0.07348238 0.10246955 0.2684398 -0.04566614 -0.050772842 0.19069879 0.09884419 0.16211377 0.17375492 0.22386861 0.12067907 -0.07295002 -0.26707834 0.019117136 -0.059730045 -0.06500623 -0.022618558 0.094199285 -0.09894322 -0.028504077 0.043316018 0.086844355 0.35408458 -0.0662218 -0.037595883
medium|NN -0.03197785 0.10166055 0.13976108 0.11539727 -0.07513939 0.13031496 -0.14508727 -0.20338537 -0.04979941 0.010347272 -0.06811652 -0.0629748 -0.06690486 0.1895344 0.038519014 0.19872817 -0.266447 -0.10158517 0.22939104 -0.13323402 0.14767192 0.03192278 0.22413544 0.11279569 0.15454265 -0.06454123 0.10435944 0.27683607 -0.040382043 -0.04668744 0.18889587 0.10187013 0.1637068 0.18164451 0.22653575 0.11785383 -0.08228402 -0.26627356 0.028705923 -0.06259761 -0.06342854 -0.02316435 0.09019308 -0.0988716 -0.026879318 0.038925514 0.093762435 0.35775477 -0.07084725 -0.03656909
egg|NN -0.024448803 0.109242134 0.13584109 0.11665447 -0.08008783 0.13243788 -0.14575237 -0.20865324 -0.054686137 0.01472513 -0.07230498 -0.063850105 -0.07333232 0.18945529 0.039750498 0.19963008 -0.27213785 -0.10533662 0.23231673 -0.13307644 0.14655073 0.030901667 0.2304526 0.11500343 0.14889291 -0.06425612 0.09236165 0.27417472 -0.039809614 -0.051653106 0.19359992 0.09546579 0.1573018 0.17801954 0.21557803 0.12010728 -0.07687444 -0.26706803 0.024732303 -0.06176384 -0.06871315 -0.02917093 0.09225063 -0.09490769 -0.022595078 0.035520125 0.08558402 0.35632667 -0.072830915 -0.03940555
3|CD -0.03125063 0.10707358 0.14054501 0.1189698 -0.07364782 0.13452911 -0.14645606 -0.20556116 -0.054003548 0.009294619 -0.07378449 -0.07077296 -0.07131096 0.19080043 0.040428303 0.20318237 -0.2708906 -0.09900136 0.22583994 -0.12853208 0.14484946 0.029381368 0.23023647 0.113871954 0.14867046 -0.07060206 0.09856812 0.2763809 -0.040916495 -0.053373985 0.19192167 0.0992762 0.1633651 0.17311253 0.22284353 0.12524399 -0.07735456 -0.26926062 0.019137075 -0.054667298 -0.06682511 -0.023430988 0.08701486 -0.09244426 -0.022745965 0.043017335 0.09231902 0.3519972 -0.065204866 -0.040178712
hours|NNS -0.022533929 0.109788835 0.13981761 0.1234273 -0.07218769 0.13369274 -0.14856517 -0.2100448 -0.049830966 0.008598105 -0.067519374 -0.06958717 -0.07207839 0.19164322 0.03790801 0.19738035 -0.27058837 -0.10047116 0.22666864 -0.13052024 0.14206453 0.030080182 0.23182046 0.11329649 0.15376444 -0.07257476 0.09267076 0.26796362 -0.03676944 -0.04853744 0.19688788 0.09526589 0.15888645 0.17562719 0.21784326 0.11681056 -0.0774846 -0.2706696 0.028536018 -0.05389308 -0.06581447 -0.027251024 0.096114635 -0.09376602 -0.02388941 0.043244336 0.092097506 0.35871047 -0.06615809 -0.040118758
cookies|NNS -0.029628085 0.10932327 0.13449447 0.12223522 -0.0792483 0.13325574 -0.14918835 -0.20556536 -0.045306962 0.01580549 -0.06615612 -0.062351342 -0.072295934 0.19228347 0.045548305 0.20088151 -0.2688634 -0.10477609 0.23538892 -0.12678383 0.15020908 0.03311094 0.22558568 0.10703716 0.15231763 -0.06460895 0.094047286 0.26770425 -0.042254172 -0.043980714 0.19482067 0.09401925 0.15676828 0.18085873 0.22464412 0.11947847 -0.08050582 -0.2708513 0.021891829 -0.059342142 -0.06650429 -0.027450185 0.096528396 -0.09039346 -0.021530412 0.04280593 0.09505785 0.35374042 -0.07086742 -0.034953613
allow|VB -0.032272484 0.10967598 0.13515694 0.12047288 -0.07270047 0.13453855 -0.14522213 -0.21108176 -0.04465163 0.013540256 -0.063665375 -0.062953465 -0.06848797 0.18506402 0.038452953 0.20113362 -0.26641938 -0.09852087 0.23423482 -0.13221957 0.14515157 0.037698768 0.22867419 0.11092814 0.14844872 -0.06685883 0.09517145 0.27368963 -0.03879295 -0.047775377 0.19218999 0.101644516 0.15924345 0.17794304 0.22226252 0.11657558 -0.07827734 -0.27207652 0.023624755 -0.06250719 -0.06763301 -0.031218804 0.091075696 -0.09463024 -0.02970877 0.03760316 0.09372736 0.35772339 -0.06842699 -0.035282224
Put|VB -0.026312102 0.10335681 0.13468094 0.115854666 -0.07443232 0.13449143 -0.15008539 -0.2017825 -0.047781285 0.010221904 -0.065453835 -0.06101048 -0.067518055 0.18965368 0.045757636 0.20045254 -0.27432525 -0.10389334 0.22973679 -0.13051611 0.14395322 0.029534064 0.23016559 0.10977233 0.1532226 -0.06488802 0.099668294 0.27064362 -0.04564153 -0.047906626 0.19278388 0.09979977 0.16128868 0.17196856 0.22430618 0.12189046 -0.07936493 -0.2691299 0.022506233 -0.059106573 -0.068912074 -0.024447046 0.09425342 -0.096806966 -0.028281637 0.04259717 0.09440475 0.3558297 -0.07259873 -0.040503077
ginger|NN -0.030620687 0.111635156 0.13607801 0.11724069 -0.07719022 0.13334508 -0.14814045 -0.20342754 -0.048026036 0.013198663 -0.06378356 -0.062232334 -0.06817019 0.1883077 0.041216735 0.19657756 -0.26861793 -0.10474483 0.23102051 -0.13320994 0.14915496 0.0322962 0.23250665 0.10758031 0.15442838 -0.068322435 0.098065004 0.26950973 -0.04240028 -0.043800168 0.19147573 0.09834775 0.16354679 0.1799842 0.21814637 0.11850173 -0.07587658 -0.26929098 0.024439666 -0.05789859 -0.06932857 -0.027390707 0.09647211 -0.091406465 -0.02803573 0.036395956 0.09008931 0.35916862 -0.0709768 -0.043953974
another|DT -0.032221097 0.10941807 0.14077684 0.117928915 -0.07201706 0.13200377 -0.14292583 -0.2069393 -0.048471235 0.0126126185 -0.07194623 -0.07039401 -0.07127004 0.19170988 0.040817503 0.19939448 -0.27238685 -0.09655253 0.2317547 -0.1320272 0.14449537 0.032514736 0.22357035 0.11527521 0.14873275 -0.07360075 0.10130589 0.27517077 -0.041468397 -0.047980838 0.19186246 0.09579318 0.15513082 0.17163043 0.22338401 0.12374287 -0.07435354 -0.27280155 0.02563236 -0.059382115 -0.068334274 -0.025600996 0.09085181 -0.08957697 -0.022184983 0.03836145 0.08725988 0.35684112 -0.07196758 -0.03930055
all|DT -0.031775773 0.11095249 0.13415682 0.11610934 -0.082723655 0.1346262 -0.1503962 -0.20701165 -0.045934588 0.01121301 -0.07081788 -0.069223374 -0.07180632 0.18444939 0.039148454 0.19600652 -0.27103767 -0.106152564 0.22810224 -0.13217445 0.15020281 0.028655313 0.22453319 0.11425246 0.14523137 -0.07030565 0.09635014 0.27691147 -0.037336327 -0.044838384 0.19126698 0.09431757 0.16342431 0.17500298 0.2222904 0.116533525 -0.07989609 -0.27212062 0.018482558 -0.055469252 -0.06313621 -0.025083452 0.09461502 -0.09898866 -0.029229669 0.03695937 0.09320864 0.35596243 -0.0699292 -0.03966963
olive|JJ -0.030818444 0.10369181 0.14337099 0.11831502 -0.07638542 0.13411571 -0.15254748 -0.19997627 -0.04757688 0.012840964 -0.074337 -0.06632773 -0.071278945 0.19348799 0.04802417 0.20098719 -0.27444366 -0.10303033 0.22789633 -0.12496528 0.143454 0.030723453 0.22534472 0.114512414 0.14662611 -0.0678471 0.09709091 0.27098507 -0.047034014 -0.048497867 0.1952686 0.099863485 0.16614655 0.1741452 0.220905 0.12430427 -0.07982092 -0.26937717 0.02669404 -0.05327655 -0.06268919 -0.027056389 0.0888251 -0.08929836 -0.022566674 0.035818264 0.08723556 0.35864684 -0.064478345 -0.03424843
dish|NN -0.025290454 0.10420792 0.14232737 0.12581187 -0.080341816 0.13302237 -0.15189834 -0.2060262 -0.04701305 0.01570491 -0.065754525 -0.06414326 -0.066057555 0.18822442 0.04758954 0.20225509 -0.2757355 -0.10092158 0.23203152 -0.12464858 0.14452966 0.027795304 0.2245188 0.11018835 0.15365441 -0.06692382 0.093608424 0.27531448 -0.037202526 -0.048759945 0.19851619 0.09540746 0.15794307 0.18086156 0.2182125 0.12023807 -0.0745942 -0.26524094 0.020716256 -0.060503114 -0.062312253 -0.028393501 0.089188464 -0.09241372 -0.031692464 0.03959918 0.09316843 0.35373074 -0.07238026 -0.040294763
may|MD -0.02449689 0.10629091 0.14362541 0.1198385 -0.07473609 0.13801931 -0.14611346 -0.20861338 -0.054113638 0.011464172 -0.07102741 -0.06903652 -0.06895772 0.18824299 0.046786074 0.19976066 -0.26775408 -0.09973887 0.2277955 -0.13047291 0.14857942 0.02735837 0.23162837 0.110666834 0.1473355 -0.072079904 0.09545058 0.2702703 -0.04410396 -0.045398403 0.19599877 0.09876307 0.15912296 0.17929336 0.21952106 0.119569 -0.07266958 -0.27272367 0.02385851 -0.06258337 -0.06962452 -0.026473742 0.09205281 -0.09548678 -0.027307179 0.036318783 0.08931453 0.35105446 -0.074572764 -0.043151032
Let|VB -0.030162174 0.10574891 0.14222708 0.12336073 -0.08007441 0.13914783 -0.14903563 -0.20656884 -0.045967907 0.013020395 -0.06344627 -0.060505792 -0.06806509 0.18769664 0.045812048 0.19741473 -0.2729542 -0.09676235 0.22631092 -0.13271457 0.1486651 0.029015299 0.22365859 0.11197432 0.14860377 -0.071391016 0.09730519 0.2704284 -0.0409599 -0.044352166 0.19836316 0.0997072 0.15862492 0.17255247 0.22778744 0.1189666 -0.07564743 -0.26678956 0.025096888 -0.0630786 -0.06531125 -0.02712391 0.09248641 -0.09717104 -0.027566958 0.034423795 0.09427667 0.35549596 -0.07374055 -0.043088786
juice|NN -0.0303601 0.100846305 0.14065069 0.122694366 -0.07279441 0.13417946 -0.14800072 -0.21297978 -0.05564913 0.011878149 -0.06962548 -0.0689919 -0.0700921 0.19199894 0.046616465 0.19553901 -0.26820257 -0.105543174 0.23584619 -0.12465494 0.14975102 0.028801685 0.22695209 0.10722299 0.15050292 -0.06734802 0.10420129 0.27462098 -0.037395485 -0.049871955 0.19544967 0.09773948 0.1621595 0.17096753 0.22365275 0.122982755 -0.0711173 -0.2656597 0.028663414 -0.057613503 -0.063617386 -0.02301257 0.09444676 -0.100684024 -0.02366029 0.03471028 0.089369506 0.3513172 -0.06711416 -0.033483487
baking|VBG -0.03453846 0.10297504 0.14191896 0.12262134 -0.082297854 0.13262455 -0.14849627 -0.21142344 -0.045985986 0.009948247 -0.06680263 -0.066300645 -0.067310296 0.18523365 0.047154043 0.20057783 -0.2681091 -0.10164823 0.23147327 -0.1337223 0.14306669 0.034885608 0.2261124 0.11123378 0.14738616 -0.07344441 0.099863 0.27586025 -0.038059227 -0.047109 0.19764504 0.095937595 0.16147631 0.17285296 0.22499932 0.12204197 -0.07651716 -0.269948 0.016453074 -0.053001143 -0.06313682 -0.02396217 0.087219775 -0.09844676 -0.027434576 0.0348303 0.087041505 0.35292608 -0.06920306 -0.0391564
smooth|JJ -0.02928343 0.10022875 0.13472831 0.122169204 -0.08010588 0.13403587 -0.15109985 -0.20481099 -0.053704623 0.013344847 -0.07213631 -0.0687829 -0.07104494 0.1941465 0.044785038 0.19720322 -0.26711336 -0.09751167 0.22785562 -0.13660826 0.15305205 0.028572315 0.22604187 0.11368886 0.15510143 -0.06430153 0.0974073 0.27287927 -0.041131295 -0.049690604 0.19182998 0.1058644 0.1569877 0.17623588 0.22035383 0.12518315 -0.07427408 -0.26756907 0.02359124 -0.057590608 -0.061370075 -0.031460255 0.09308302 -0.09926739 -0.030826071 0.042739797 0.088270076 0.35316408 -0.071727425 -0.03988519
very|RB -0.02451883 0.11095118 0.1405087 0.120983556 -0.07829361 0.13931766 -0.14768758 -0.21342729 -0.048378676 0.018724404 -0.07377728 -0.06102866 -0.06748595 0.18559523 0.04472004 0.19764364 -0.26781556 -0.101200856 0.23630178 -0.12787333 0.15005465 0.033469006 0.22630854 0.11259001 0.14906064 -0.06626071 0.101295926 0.26933506 -0.03946434 -0.050339766 0.18963167 0.0967648 0.16335928 0.17981118 0.21908179 0.118703626 -0.080028504 -0.26623464 0.023384687 -0.05673484 -0.060679402 -0.02222364 0.09674556 -0.09080834 -0.028770285 0.040797114 0.092475824 0.35502017 -0.067133814 -0.042942878
soda|NN -0.026257154 0.10683433 0.13625728 0.11627504 -0.08054111 0.1336774 -0.15269028 -0.20205852 -0.054209325 0.017093543 -0.0697416 -0.061931252 -0.06862881 0.18307109 0.045460932 0.20266232 -0.26405278 -0.10548971 0.23388352 -0.13452853 0.14814323 0.03687431 0.22886279 0.110441625 0.1508515 -0.064311706 0.098957114 0.2737773 -0.036350712 -0.044170536 0.1888826 0.1025997 0.16099407 0.17771521 0.22397141 0.12319982 -0.07893098 -0.2704158 0.020502187 -0.057130612 -0.06706888 -0.025899023 0.091246255 -0.0942084 -0.027746974 0.042632073 0.093265355 0.35511875 -0.065649636 -0.03760156
rack|NN -0.022858188 0.10863865 0.13948286 0.117172986 -0.080759905 0.13870196 -0.14534138 -0.20117451 -0.04343947 0.006465645 -0.06761005 -0.060526155 -0.07355884 0.19061922 0.042380497 0.19526961 -0.27446756 -0.10714343 0.22565858 -0.1302007 0.14013325 0.033802144 0.23052725 0.113019496 0.15372351 -0.07180244 0.098575495 0.2726408 -0.040283855 -0.048742037 0.18770781 0.10085979 0.16002136 0.17928268 0.21661957 0.11871181 -0.080230296 -0.27222267 0.019946827 -0.060187127 -0.069595076 -0.030779326 0.08933597 -0.09587409 -0.026714947 0.03647875 0.09128855 0.35832283 -0.069116406 -0.0427985
tablespoons|NNS -0.029561063 0.106975935 0.13825269 0.115242556 -0.072674036 0.1340832 -0.15327807 -0.2065274 -0.04706264 0.0146253705 -0.07100799 -0.0687997 -0.07496944 0.18837494 0.043027896 0.20033437 -0.27278146 -0.096577674 0.23362628 -0.12747414 0.14719027 0.03303894 0.22329135 0.109615244 0.14927192 -0.068532504 0.093866445 0.2734347 -0.046301797 -0.05191623 0.19658162 0.10350595 0.16061999 0.17251204 0.22176452 0.11987989 -0.07772072 -0.26381856 0.020306543 -0.054505944 -0.06213413 -0.026480634 0.09374083 -0.09671911 -0.028920596 0.043235213 0.08896651 0.35920525 -0.0699489 -0.03539947
fresh|JJ -0.029932717 0.10405362 0.14201361 0.12252724 -0.072929405 0.1365684 -0.15186235 -0.20822515 -0.049699146 0.013490226 -0.06820969 -0.07070124 -0.068539895 0.19345897 0.037369262 0.20095155 -0.26700085 -0.10088766 0.22708182 -0.12708344 0.14465031 0.034831658 0.22470476 0.11437386 0.14988157 -0.06319164 0.10132686 0.27643946 -0.03791229 -0.043945402 0.1981877 0.09611937 0.16311845 0.1710239 0.2228279 0.11903557 -0.07960976 -0.26525283 0.02630845 -0.056483366 -0.068392366 -0.024900733 0.08787337 -0.09366153 -0.021778518 0.042943735 0.09069324 0.3572656 -0.06827556 -0.041031174
fruit|NN -0.03352297 0.102968164 0.13862932 0.11713399 -0.077183805 0.13857508 -0.1488004 -0.2117294 -0.05009416 0.018484162 -0.06711524 -0.06372552 -0.0723218 0.19284938 0.03999496 0.20021605 -0.2687676 -0.095886305 0.22755837 -0.13180473 0.15026651 0.033072583 0.22491291 0.114697926 0.1504298 -0.068149135 0.10274214 0.2723212 -0.041158713 -0.047914524 0.19132839 0.10200011 0.16119806 0.16965842 0.22146721 0.12197944 -0.081469275 -0.2691369 0.018524505 -0.05981915 -0.061476085 -0.025091227 0.0870518 -0.09353364 -0.02380286 0.040373974 0.09333928 0.35621154 -0.06686389 -0.04472364
ice|NN -0.03136392 0.104764774 0.13970003 0.11696779 -0.081476025 0.13479854 -0.1493107 -0.20438898 -0.053963512 0.016437003 -0.06442916 -0.066985235 -0.06874567 0.19029076 0.04022038 0.19693594 -0.26733923 -0.10002651 0.23440991 -0.12639637 0.15018184 0.028396836 0.22434008 0.11274675 0.1540831 -0.068243146 0.09773401 0.26858166 -0.037844792 -0.049691305 0.19412853 0.09871776 0.15708072 0.1780422 0.22190662 0.12377299 -0.07508592 -0.27499753 0.019500537 -0.06118149 -0.06755026 -0.02198036 0.09684873 -0.093974635 -0.028416472 0.04247049 0.09248793 0.35367897 -0.06960552 -0.043706823
soft|JJ -0.031222524 0.10117802 0.13232306 0.12303814 -0.07644121 0.13050967 -0.15300453 -0.20529367 -0.04686784 0.0149912685 -0.074068755 -0.061060123 -0.07502653 0.19180268 0.038423866 0.19578812 -0.27345645 -0.106438875 0.22893322 -0.13115619 0.15296188 0.031688254 0.22331639 0.107493155 0.15006723 -0.064684935 0.09416733 0.27614897 -0.038880434 -0.044094842 0.1903078 0.102470964 0.16010275 0.17875136 0.21865854 0.12524056 -0.07461475 -0.2711123 0.027905522 -0.053720772 -0.062699646 -0.02489836 0.0902573 -0.097010665 -0.032264013 0.03694368 0.094498664 0.35693318 -0.066526495 -0.03477155
everything|NN -0.027697643 0.10506153 0.13543005 0.11734675 -0.07804815 0.13832663 -0.15127169 -0.21017094 -0.05517328 0.017494362 -0.072986186 -0.068750724 -0.075816646 0.191035 0.040474553 0.20199826 -0.26479217 -0.10440136 0.22909595 -0.1270074 0.14995834 0.027829396 0.22419877 0.116536416 0.1497639 -0.069862716 0.09491502 0.2671078 -0.045029737 -0.04613481 0.19373246 0.101970546 0.1646963 0.17971134 0.21687497 0.1235424 -0.074795984 -0.26683763 0.024829686 -0.061080795 -0.07010935 -0.024860244 0.092679545 -0.09446812 -0.02745095 0.04388202 0.0887848 0.3562058 -0.0677945 -0.035701428
skillet|NN -0.02807439 0.10166744 0.14189848 0.117215395 -0.08031877 0.13390718 -0.15099928 -0.20748894 -0.04984685 0.013414794 -0.07011219 -0.0707163 -0.07303334 0.18849523 0.04113403 0.19705927 -0.26880255 -0.09802933 0.2278986 -0.1300266 0.14649281 0.036324985 0.23241366 0.10680327 0.14717165 -0.07298858 0.102204815 0.27470556 -0.042253055 -0.05299446 0.1936129 0.10164824 0.1610808 0.1776756 0.22245826 0.12151958 -0.074520655 -0.26405817 0.02851323 -0.056056272 -0.062355082 -0.023018619 0.09013463 -0.092769496 -0.024756143 0.036582027 0.09077744 0.35769203 -0.06667586 -0.042914167
side|NN -0.030159289 0.11013707 0.14332907 0.11893689 -0.075330496 0.13934094 -0.14415312 -0.20870763 -0.045978248 0.010036622 -0.06929134 -0.06389388 -0.07556413 0.19307956 0.043402612 0.1983153 -0.26817584 -0.09912059 0.22853294 -0.1336757 0.14608191 0.035073698 0.22599263 0.10592424 0.14804988 -0.07212148 0.0961328 0.26809075 -0.03949851 -0.043953635 0.19497998 0.09916314 0.1653358 0.17652269 0.22658181 0.12332457 -0.08106811 -0.26762316 0.02734526 -0.05511439 -0.06609019 -0.026296608 0.09365753 -0.09591058 -0.027174674 0.040627606 0.09254923 0.3516343 -0.07231882 -0.037095096
prepare|VB -0.029662464 0.1062488 0.13595778 0.12109161 -0.080504246 0.12952608 -0.15375194 -0.21226723 -0.049416736 0.011874186 -0.0719683 -0.06711193 -0.06729774 0.19047615 0.04109309 0.1994254 -0.2724523 -0.10423341 0.22556324 -0.1259386 0.1444071 0.034176715 0.2242833 0.11134433 0.1537095 -0.06511943 0.10403603 0.27114668 -0.0435686 -0.046662368 0.18868786 0.10096149 0.16366787 0.18213768 0.21958683 0.115191504 -0.08008237 -0.27308628 0.021900406 -0.05655713 -0.062433086 -0.02512127 0.09399185 -0.093211055 -0.025085831 0.036533255 0.09371019 0.35257873 -0.069726475 -0.038293913
Now|RB -0.031545162 0.10183734 0.1431536 0.11777832 -0.08226351 0.1296535 -0.15359612 -0.20950885 -0.047891743 0.014167834 -0.065962896 -0.07102271 -0.069309436 0.19114839 0.041579142 0.20447664 -0.26677293 -0.09698865 0.22784276 -0.12895858 0.14384696 0.035835598 0.22608899 0.106827565 0.1490512 -0.0741123 0.09851153 0.26945257 -0.041725237 -0.04229982 0.199124 0.09763371 0.15592888 0.18130939 0.22542024 0.1181175 -0.07179054 -0.27083838 0.018909462 -0.06311863 -0.0692749 -0.021980133 0.09088528 -0.093891986 -0.027360395 0.044017844 0.09115261 0.3525622 -0.07544597 -0.043999366
carrots|NNS -0.03275951 0.10169551 0.14026444 0.118809335 -0.08236551 0.13395983 -0.15120484 -0.21031758 -0.045954783 0.009762054 -0.072226666 -0.068753146 -0.07292126 0.18586645 0.03811367 0.20388971 -0.27247885 -0.10146513 0.22339702 -0.1236078 0.14705053 0.030093824 0.22531678 0.113955155 0.15396477 -0.06359845 0.100634836 0.27441 -0.03843272 -0.04814496 0.19688764 0.096234426 0.1556671 0.17765254 0.21899262 0.12189665 -0.08011911 -0.27104104 0.028492544 -0.06129112 -0.06358761 -0.030739704 0.0947288 -0.09122522 -0.022157835 0.03791816 0.08637601 0.3560004 -0.06392777 -0.036982883
vegetables|NNS -0.030852273 0.10312026 0.14022695 0.12426687 -0.0755065 0.13727763 -0.14583239 -0.20936877 -0.04535669 0.013664084 -0.07191041 -0.061845392 -0.071511924 0.19211455 0.045100104 0.20152727 -0.2743759 -0.104125045 0.22777958 -0.12710342 0.14314029 0.029058179 0.22957776 0.11434243 0.14659144 -0.06723068 0.10241231 0.27354163 -0.043742277 -0.04996705 0.19558977 0.10020957 0.1583006 0.17824557 0.22477059 0.11644285 -0.073536575 -0.26667157 0.021556804 -0.056243546 -0.06197598 -0.029355245 0.09228289 -0.09585233 -0.024417866 0.03911452 0.08417922 0.35130692 -0.07151946 -0.035114475
onto|IN -0.024409315 0.108620524 0.13315143 0.118439704 -0.07577014 0.13657917 -0.1437667 -0.21090262 -0.048485577 0.012442442 -0.06407005 -0.06599966 -0.06989667 0.1835497 0.046992823 0.20065372 -0.26898697 -0.104376085 0.22835462 -0.13429795 0.14866121 0.036624134 0.2295966 0.10815066 0.14911827 -0.069878854 0.09510183 0.27497563 -0.043987293 -0.042698037 0.18899928 0.10369955 0.16250826 0.1755665 0.22461778 0.122692995 -0.072020516 -0.27228594 0.024714489 -0.063442215 -0.06772389 -0.026361149 0.09014782 -0.09740548 -0.028820602 0.042842764 0.09196985 0.35331595 -0.06440688 -0.036042504
10|CD -0.028291028 0.10649751 0.13339788 0.117482424 -0.07346026 0.13859735 -0.14703755 -0.2030354 -0.04529254 0.014744167 -0.065295 -0.06056456 -0.075353295 0.18606736 0.040205427 0.20467788 -0.27400768 -0.09874939 0.23121127 -0.12720017 0.14772011 0.03315307 0.22715533 0.10710019 0.1545258 -0.07185812 0.09862433 0.27236897 -0.038510263 -0.052351486 0.19232574 0.10407823 0.15461381 0.17459999 0.2258886 0.12442448 -0.07904807 -0.26609853 0.028736755 -0.055111658 -0.060813345 -0.028763626 0.08649275 -0.09237409 -0.023968562 0.043611865 0.09609213 0.35940114 -0.06728269 -0.039748196
