753 50
the|DT 0.32015127 0.0532077 -0.047378346 -0.12530354 -0.02821535 0.11036211 -0.12887457 -0.35368198 -0.06892318 -0.01194448 -0.055244226 0.029028948 0.108207926 0.17625664 0.07601641 0.13569918 0.015307685 0.08298603 0.037441492 0.07518885 -0.19619766 0.06610948 -0.09180917 0.14480714 -0.15847139 -0.085014306 -0.1183053 0.25092027 -0.1443516 0.13404071 0.19881278 -0.0902627 0.029642766 -0.012848175 -0.11865272 0.005024086 0.12683679 -0.029844046 -0.21514063 0.21200359 0.09354039 -0.2794435 -0.22258423 0.11254722 0.11456844 0.2344635 0.04339964 -0.009373978 0.10004502 -0.107682995
and|CC 0.13299078 0.0024373732 -0.096826084 0.07435275 0.0023582345 0.029822942 0.0747246 -0.47585484 -0.13221149 0.120023735 -0.08498787 0.10437493 -0.013096038 -0.13499889 0.0086222105 0.108320616 0.038594212 0.007567135 0.09226947 -0.0049423636 -0.18516897 0.13486381 -0.1371355 -0.015744353 -0.11012871 0.07217844 -0.021695197 0.13082658 -0.21162027 0.09220434 0.07676773 0.16890104 0.035767704 0.10775527 -0.20587803 0.050751925 0.12747556 -0.14594881 -0.32929522 0.1454727 0.2510699 -0.30626687 -0.011100876 -0.15890522 0.087459855 -0.07209075 0.100285165 0.09882621 0.041188106 -0.0919744
to|TO -0.1407765 0.06944456 -0.18185458 -0.19484586 0.1891364 0.24339926 -0.035520956 -0.07634386 -0.035643075 0.16223875 0.04631835 -0.061416764 -0.006500266 -0.049360912 -0.12252977 -0.078517556 -0.15868932 0.1624723 0.18929018 0.26446593 -0.07078828 -0.09719836 -0.065540545 0.07165785 -0.053535398 0.018557943 -0.049088243 0.12323917 0.0860038 0.35261497 -0.13421722 -0.12369326 -0.16036515 0.22036365 -0.024398535 0.024963485 0.08998898 0.18157233 0.02831567 -0.07446287 -0.11008263 0.05537493 -0.23298492 0.1584199 -0.06803744 0.28403357 0.036524676 0.049006592 0.009152419 -0.26712865
a|DT 0.09909989 0.07064044 -0.009187982 0.049511235 0.06171302 0.03957323 -0.14828733 -0.16428943 -0.24327427 0.12040803 0.12590255 -0.015466055 -0.041680522 0.12507476 -0.036614466 -0.14867729 0.11352723 -0.27413005 0.21929695 0.12112781 0.15103136 0.1750081 -0.023767931 0.29014626 -0.11993884 -0.030121379 0.11687589 0.31159917 0.08650432 0.15541829 -0.049667776 -0.052074686 -0.09280446 0.12338832 -0.14938195 0.00024374342 0.07338754 -0.19216625 -0.086853094 -0.056148633 0.010045696 -0.29912785 -0.04084845 0.12860458 0.13238247 -0.22354 -0.0630285 0.24265091 -0.076789774 -0.05156443
of|IN 0.23196702 -0.00419469 0.19768517 0.17616731 -0.005473675 0.10652734 -0.0027340928 -0.006596027 -0.33197623 -0.01238029 0.13644452 -0.051071163 0.07861457 0.1731741 0.008870701 -0.20692681 0.17607845 -0.17520918 0.042192806 -0.016407982 0.09971453 0.0029652943 -0.13713913 0.0947276 -0.1876681 -0.13582717 -0.070571326 0.19726603 0.14618379 0.025600154 -0.012505497 -0.17902505 -0.059647314 0.0718084 -0.14829649 -0.1908602 0.08525974 -0.3267985 -0.20675714 0.054169334 -0.104270145 -0.20192361 0.2027978 0.17328769 -0.07618419 0.08266422 -0.16266404 0.097915486 -0.04695399 -0.01121885
in|IN 0.2707327 0.049000088 -0.1406309 -0.017476171 0.07965811 -0.08000951 -0.13035108 -0.4130768 -0.011188514 -0.015595212 0.11901777 -0.059133068 0.0062825982 0.32284638 0.13291658 0.08508194 0.10229779 0.0373477 0.16112489 0.011158679 -0.10727444 0.14632075 -0.2984867 0.24424383 0.0025782075 0.12943636 0.078453235 0.1272296 -0.019623172 0.10642447 0.1906872 -0.04481058 0.17754714 0.039519116 -0.038331885 -0.10626255 0.10766915 -0.07055453 -0.29027244 0.098859906 0.1319479 -0.083953336 -0.014975519 -0.059877448 0.014440353 0.06940785 0.13443777 0.13770448 0.09718285 0.10782371
it|PRP -0.20824681 0.09613033 -0.0121396575 -0.26896244 -0.0004016959 0.14952387 -0.058857094 -0.21145846 0.18746804 0.18277402 -0.020226633 -0.03839136 0.08335105 0.03194357 0.07000402 0.19112334 -0.15199205 0.08604205 0.06160718 0.18542969 0.03500783 -0.04589068 0.20102066 0.0008664079 -0.13701572 0.050897103 -0.16102324 0.11178471 -0.0026959872 0.067240536 -0.19828989 0.07432975 0.11285731 0.11734517 -0.20510046 0.1349728 0.033454973 0.2749324 -0.14254776 -0.103744894 0.17152417 -0.076644026 -0.28298065 -0.015613538 0.0021037478 0.30663332 0.10731894 -0.026575161 0.134744 -0.1683629
for|IN -0.082747616 0.07667285 -0.09628898 -0.099732324 0.006230729 0.053825084 -0.13003401 -0.07456078 0.06528188 -0.06451578 0.10147387 -0.080854796 -0.060016565 0.03451511 -0.0912864 0.00794425 -0.13362229 0.06636605 0.13075459 0.2003569 0.015642151 -0.06523602 -0.21469301 -0.1132489 -0.14144592 0.013069613 -0.16060407 0.013702414 -0.028559892 0.27943707 -0.14312431 0.10771025 -0.010820096 0.0059937616 -0.06521226 -0.03435752 0.03637173 0.17224716 -0.12976728 -0.44197127 0.12836236 0.1144227 0.15216713 -0.051184367 -0.08122405 0.30478242 0.22079578 0.06982812 0.37587208 0.07512332
you|PRP -0.25905508 -0.07836858 0.13772398 -0.20978555 0.12500888 0.35516185 0.06489163 0.13166423 -0.00012835852 0.092461295 -0.0017216299 -0.022841102 0.09151327 0.27154255 0.02486292 0.005585713 -0.044350848 -0.040592138 0.10615345 0.13848564 0.09430301 -0.02586272 -0.008842912 -0.010231191 -0.054455694 -0.087995626 0.21287234 -0.008412293 0.2951044 0.05797357 -0.24832176 -0.11297133 -0.12758178 0.16969837 0.08383158 0.009558421 0.15950836 0.09083215 -0.06349182 -0.12118535 -0.0017484938 0.15135796 -0.06963565 0.082410134 0.016485069 0.2022205 -0.2413318 0.16540296 -0.21606645 -0.17676042
with|IN 0.033943996 -0.024759497 0.20722257 -0.095628254 0.019079084 -0.06546571 -0.11137378 -0.2509079 -0.36355105 0.19182006 -0.1663824 0.022675395 0.08814551 0.012253202 -0.23859121 0.021359159 0.21893144 -0.25521463 0.082548805 -0.24342185 -0.044343203 -0.01377597 -0.1522946 -0.05319974 -0.079902776 -0.22090071 0.0834812 0.19564675 -0.03456759 0.12406369 0.03047746 0.02785328 -0.06303005 0.0017744236 -0.17963485 0.09503495 0.16088332 -0.12542437 -0.20968649 0.01568542 0.021585617 -0.28124782 -0.0989131 0.06639072 0.07820507 -0.1210037 -0.053569507 0.13112563 0.051556576 -0.09643763
your|PRP$ -0.110775724 -0.22181454 -0.14034876 -0.1124162 0.15114139 0.21395147 -0.1862044 -0.0606604 -0.20140581 0.16276497 -0.0051826336 0.32601133 0.060094986 -0.020696862 -0.01710098 -0.0320223 0.088628516 0.0052268603 0.16139586 0.19087929 0.14590737 -0.13962269 -0.10382517 -0.041546803 -0.020023065 -0.353424 0.02807279 0.1723036 0.032169465 0.09379174 -0.16660307 0.038344536 -0.027661089 0.18270256 0.018206187 0.030317113 0.06604143 0.085656814 -0.08954785 0.10509684 0.043573394 -0.0025801887 -0.24922816 0.19586653 -0.14341153 -0.01298631 -0.11826914 0.09937385 -0.09388855 -0.2829152
is|VBZ -0.14151293 -0.07026136 0.11407185 -0.30451238 0.15105355 0.20465894 0.17301762 0.15089491 -0.0144096315 0.17936392 0.06753662 0.06371924 0.0628236 0.14794612 0.28829187 0.16542971 -0.0085426625 0.112706 0.09034436 0.04962362 0.29898846 -0.16677105 -0.023836324 0.073690206 0.12631367 -0.11778181 -0.03325659 -0.06934228 -0.04338879 0.12624668 -0.11275052 -0.042377125 -0.08164416 0.11927124 -0.05557289 0.013518334 0.06656381 0.037917163 0.0004674746 -0.0584491 -0.10457033 0.070748225 -0.18645084 0.1549233 0.053739473 0.2239058 -0.035629172 0.25242338 0.05252058 -0.3619106
on|IN 0.03339615 -0.02724824 0.1096025 0.124136016 -0.2745495 0.11989859 -0.104939096 -0.19429447 -0.21597257 -0.14217687 -0.067676656 -0.07554667 0.063214354 -0.13646196 -0.15026197 0.041885067 -0.034192253 -0.12040732 0.025328444 0.022462623 -0.14510529 -0.08995413 0.030729352 0.14802562 -0.1529019 -0.14376776 -0.23191753 0.27305245 0.0013712938 0.13292697 -0.17612831 0.14232258 -0.12169994 -0.06810021 -0.15019156 -0.040207688 -0.04940723 0.087193586 -0.12697375 0.17856765 -0.13773763 -0.33292648 -0.075538106 0.3421656 -0.12349351 0.08372736 -0.034554422 0.07587432 0.055142112 -0.10690361
or|CC -0.13273929 -0.0022455608 0.08351202 -0.15299588 0.026670765 0.023987526 -0.14881283 -0.04709359 -0.13844156 0.043268498 -0.074504904 -0.12071195 0.012745995 0.11100294 -0.12495434 0.08612609 -0.0056054774 -0.11659202 0.16503951 0.2369289 0.02039576 -0.10655456 -0.28062087 -0.2977361 -0.17675914 -0.11367698 0.12155107 -0.0033956366 -0.097117394 0.1881166 -0.08376402 -0.25066185 -0.10102424 0.198627 -0.19145562 0.24806431 0.24455936 0.057076428 -0.01479967 -0.2199048 0.2345586 0.035246756 -0.0063472837 0.11540748 -0.022398964 0.24165303 -0.073596224 0.03120243 -0.018430417 0.0717194
until|IN -0.07399857 0.13642058 0.042992804 -0.043812353 -0.113311395 0.16342963 0.06778017 -0.25957635 0.3194583 -0.039805625 -0.14184658 0.0025164734 -0.15308815 0.037120588 0.14233024 0.29012245 0.09919074 0.16053157 -0.012787819 0.11316253 -0.029873522 0.068147086 -0.23953491 0.14314814 0.13165224 -0.0640451 -0.0017769665 -0.12962264 -0.35423175 0.08131215 0.048952308 0.12047331 0.24495435 -0.08869132 -0.056202892 -0.0036835524 0.01864521 0.027359711 -0.018721286 -0.042127226 0.23277153 -0.09328062 -0.14667965 -0.061766233 0.15784666 0.118827604 0.2068761 0.06181597 -0.004999185 0.20058636
into|IN 0.40023214 0.067633614 -0.2294762 -0.03859876 0.0930624 -0.017712906 -0.12842302 -0.023476837 0.041185487 -0.16882569 -0.031523615 0.04688461 0.18562315 0.2468752 0.021590559 0.01744314 -0.08742165 0.0029882267 0.14093034 0.021243868 -0.25201848 0.10972232 -0.13828087 0.12809548 0.05695476 0.008977393 0.08967968 0.2466634 -0.21650712 -0.18478839 0.16450477 0.06259062 0.23844552 0.018847791 0.07894796 -0.1492235 -0.051205527 0.007622333 -0.19521406 0.060971096 0.009574595 -0.25988913 -0.23714869 -0.15031388 0.10010584 -0.02951429 0.08015041 -0.08918479 -0.0169095 0.0029852043
mixture|NN 0.22581498 0.17934999 -0.11042273 -0.13212773 -0.02182802 0.094545014 -0.023935791 -0.20410037 0.2560975 0.009852024 -0.05299901 0.006695337 -0.054342084 0.098206334 0.08974188 0.21269268 -0.14601786 -0.0020933808 -0.15303417 -0.10250166 -0.01607661 0.3146693 -0.10743952 0.09860337 0.023045411 0.18662548 0.0069478727 0.053042985 -0.10182645 -0.16300936 0.30924904 0.034221668 0.14587788 0.11205493 -0.08306516 0.027398178 0.06529929 -0.07873687 -0.1664808 0.14648803 0.1432594 -0.29165414 -0.10034719 0.066259734 0.29820555 0.02756248 0.0029304675 0.19634564 0.060750015 0.015812887
minutes|NNS -0.1523746 0.02588064 -0.18106897 -0.09287129 -0.08951391 -0.05333613 -0.2137753 -0.11040503 0.13804904 -0.07225892 0.047095723 -0.06438455 -0.14272235 -0.07467355 -0.0029993316 0.075758494 -0.14324796 0.118785255 0.019737884 0.08426464 -0.11542952 0.0039043727 -0.043879624 -0.13584027 -0.1241635 0.08732305 -0.13430282 -0.044190705 -0.17613883 0.24397612 0.0062302114 0.14820571 -0.0200791 -0.077382475 -0.13548529 -0.08686373 0.04839996 0.07366015 -0.07140991 -0.33064196 0.22370212 0.10593111 0.094906434 -0.16115108 -0.18726626 0.2851359 0.20380771 -0.0777996 0.33666065 0.21016286
can|MD -0.12595013 -0.07110479 0.2817649 -0.16828181 0.007510534 0.3061132 -0.0772454 0.011543342 -0.2204311 0.10385987 0.044915985 0.03563869 0.19477914 0.09068348 -0.037701856 -0.07034288 -0.025471201 -0.23624025 0.087351575 0.051644456 0.08792241 -0.035270203 -0.08275668 -0.030996973 -0.0042487388 -0.21647461 0.127225 0.025129093 0.34044456 0.071815096 -0.10426079 -0.08110301 -0.14316848 0.18865801 -0.13432728 0.16677953 0.11819735 0.067800626 -0.08255519 0.04264107 0.09277491 0.2801889 0.08218723 -0.034174737 -0.02336623 -0.13756958 -0.13216951 0.26919192 -0.0967342 -0.16619556
bowl|NN 0.11451546 0.16005905 -0.13144682 0.047626823 -0.11107567 -0.19175147 -0.01969094 -0.3181125 -0.01015077 -0.05764217 0.20201069 -0.0428627 0.19054425 0.14733993 -0.14180769 -0.055938244 0.09742932 -0.11225457 -0.062640496 -0.07996061 -0.016612303 0.21905266 -0.0022374368 0.10122579 0.027861746 0.1350682 0.15950717 0.30905566 0.13766518 -0.17481318 0.09945002 -0.046489593 0.089951724 -0.107326895 -0.11816504 -0.03519918 0.13886811 -0.22974992 -0.21877837 -0.048416886 0.16051398 -0.14421481 0.100872286 -0.22565885 0.16111133 -0.2449482 0.07636132 0.09100854 0.06126084 -0.051663373
them|PRP -0.11585113 -0.2525209 -0.16830285 -0.00022745816 0.08790087 0.09879424 -0.011336698 0.007494119 -0.1771389 -0.06612216 0.018481296 0.044883665 0.05435878 -0.15168537 0.16616276 -0.06933764 -0.11984354 0.18134542 0.09031136 0.14441405 -0.22585171 -0.07771483 0.20483008 -0.0064774035 0.08162198 -0.13614918 -0.1726661 0.16385698 -0.09487265 0.11842942 -0.14459401 -0.113157496 -0.093547344 -0.07279712 -0.03201847 0.10210645 -0.14874293 0.1936978 -0.079381414 -0.11904235 0.12784901 -0.1561186 0.057516407 -0.18196544 0.21502526 0.18225852 -0.07969169 -0.03722666 0.31256613 -0.31428865
are|VBP -0.34264237 -0.022167036 0.028095203 -0.124694645 0.14169452 0.1985258 -0.043876115 -0.19908062 -0.08242985 -0.0032712077 -0.017138882 0.118111454 0.013782948 0.14588179 0.1504867 0.25287935 0.03813803 0.15741362 0.084690034 0.13617115 -0.030769857 0.030874604 -0.17915379 0.16371341 0.20564349 -0.318169 0.020465946 0.061369374 0.06258512 0.1773249 -0.13575539 -0.0011478475 0.21449879 -0.1940815 0.21078406 0.17014052 0.0023255718 0.10168483 0.11789452 -0.08320079 0.14667834 0.065180495 -0.07146636 -0.015440743 0.040453903 0.20732911 -0.168884 0.10433492 -0.12746343 0.04185853
be|VB -0.08057072 -0.017426632 0.07421567 -0.14551087 0.24624318 0.21087828 -0.052658558 0.04435402 -0.052996654 0.3741726 0.18117706 0.064673655 0.21209607 0.11115669 0.008615302 -0.07721848 0.10834466 0.16457987 0.041810203 0.09722234 0.24800391 -0.01348702 -0.04619283 -0.04893164 0.16202833 -0.16735384 0.09507232 -0.058033068 0.07739554 0.3533818 -0.26927736 -0.09964317 -0.10683198 -0.022226686 0.052942663 -0.030980598 -0.15223049 -0.008451656 0.0730578 0.026472922 -0.18596572 0.16736549 0.16379309 0.04496183 -0.11900122 0.14946252 -0.124669895 0.14854503 -0.08146746 0.010912417
this|DT -0.010776197 0.10970405 0.14894064 -0.22502281 0.07832376 0.24757129 0.01663543 -0.06605768 0.053003147 0.06270261 0.070713155 0.026374748 0.36625922 0.12672955 -0.035274293 0.31531194 -0.08313351 0.018605825 0.12095939 0.1622248 0.20422058 0.08449433 -0.1285197 -0.07706013 -0.19144906 -0.05753959 0.06271055 -0.069042824 0.25600514 0.046013907 -0.19777289 -0.035092525 0.00038867485 0.27026403 0.07785903 -0.06449103 0.11436599 -0.14360148 0.05277262 0.013702916 -0.02926613 0.04058854 -0.12072008 0.21780656 -0.07975837 -0.015784688 -0.11590484 0.21668653 -0.09584425 -0.20699185
pan|NN 0.27631766 0.1837665 -0.0595654 0.14194465 -0.049550384 -0.20869322 -0.055960704 -0.15311463 -0.18366928 -0.09038123 -0.24024345 -0.054254066 0.15827294 0.00050160434 0.051502854 0.029736146 0.07115839 0.14200325 -0.097882144 0.10788722 -0.12891755 0.12170369 0.1563912 0.09009003 0.028061477 0.015232014 -0.13718289 -0.036418952 -0.2786973 -0.019319253 0.30294922 -0.08666355 -0.26241648 -0.23759918 0.13490093 0.017557392 -0.13910837 -0.004085624 -0.0057247826 0.23009974 -0.04588304 -0.12646134 0.059672087 0.17954116 0.077977575 0.19976315 -0.06942734 -0.13864374 0.060847796 -0.09849097
make|VB -0.150308 -0.06778888 0.1827702 0.024465185 0.2558031 0.23158513 0.19469182 -0.073876224 -0.0029754676 0.083288275 0.1281735 0.22911195 0.12802778 0.2220347 0.027359791 -0.14832854 -0.0120535875 0.020479394 0.16124871 -0.11549039 0.12507525 -0.091304645 -0.04619507 0.030851671 0.15717821 0.14358146 -0.064936355 0.07660329 0.049180105 0.00552904 -0.23865747 -0.21327311 -0.06334343 0.10804657 -0.1258093 0.035033017 0.014741253 0.17152087 -0.07638562 -0.10058534 -0.14170165 0.10060856 0.024697542 0.38902587 -0.11934595 0.13618876 -0.10283499 0.13134508 -0.23613498 -0.089131765
from|IN -0.05530636 -0.049662847 -0.17221929 -0.18140697 -0.0681074 0.016323688 -0.09376831 0.05362307 0.00037827902 0.16429745 0.09535733 -0.06057351 -0.034627814 0.007890802 -0.1916416 0.03578293 0.11349264 0.0736176 0.14583977 0.17690869 -0.38455468 -0.19304147 0.14286351 0.029153446 -0.043812495 -0.034507632 0.037414424 -0.0077143162 -0.15629184 0.21248819 0.02003979 -0.22471918 -0.21798776 -0.12454944 0.07659374 0.1408526 -0.010011246 -0.046432666 -0.18342641 0.3711813 0.10693159 -0.002326174 -0.06404597 0.07420513 0.1544681 0.032851607 0.09353417 0.22185907 0.2599507 0.006450946
heat|NN 0.027308764 0.2371053 -0.017392827 0.08095003 -0.042676315 -0.00031583657 0.14176586 -0.14315368 0.08739507 -0.14852272 -0.019306969 -0.4325189 -0.2052612 -0.046664696 -0.10555321 0.22578596 0.003904188 0.05847175 0.038055938 0.3246866 -0.18197867 0.24496895 0.23269047 0.0022212774 0.003917431 0.14993078 0.044616483 -0.21808632 -0.12766032 0.25604987 0.0061297165 0.038668543 -0.07775777 -0.13820177 0.05899329 0.005042973 0.12055306 0.08815758 0.10687808 0.07654009 0.014850061 -0.026955208 -0.13488372 -0.011616853 -0.053949285 0.0966196 0.20966625 0.039113592 0.07930365 0.07509384
will|MD -0.24531972 -0.04369721 -0.20261498 -0.14165626 0.100757204 0.12413065 -0.11726606 0.06164808 0.027954066 0.313147 0.05108349 -0.024006594 -0.003846717 0.23106135 0.060116872 -0.08245454 -0.11279295 0.1423102 0.13613684 0.12190416 0.2633101 0.02318233 -0.01956429 0.05660509 0.096241705 -0.019669348 0.0884902 -0.04234792 0.032042492 0.29972556 -0.44197142 -0.14200062 -0.099760264 0.038266793 0.0339382 0.022155749 0.05344917 0.009004545 0.11125053 0.003968332 -0.2780376 0.13799821 -0.1346984 0.038716357 -0.12777495 0.03486607 -0.069668256 0.0189714 -0.17689654 -0.062772155
add|VB 0.016440883 -0.012412632 0.3055649 -0.030877387 0.0033380971 0.14286882 0.14379045 0.18059134 0.0150062535 -0.116896704 0.03253898 -0.2865675 -0.016000647 -0.03325371 -0.071072124 -0.053176045 -0.034250006 -0.08348742 0.004428982 -0.07053141 -0.014133123 0.030269103 -0.25186372 -0.09596065 -0.14126265 0.13926826 0.17823407 -0.21143502 -0.05400695 0.022302736 -0.051263742 -0.052147456 -0.14675581 0.16290139 -0.0484311 -0.1201373 0.25650924 -0.22534521 -0.2292983 0.030884484 0.14522603 0.08934692 0.059462596 0.24992654 -0.02690482 -0.15265115 -0.20610857 0.13795123 -0.20414743 -0.23769872
salt|NN 0.122678414 -0.15314472 0.08019601 0.34839496 -0.080657445 -0.14671388 0.15274872 -0.06740727 0.009471919 0.15640263 -0.23658231 -0.055847827 -0.16686346 0.0968523 -0.13103352 -0.11153288 0.16228758 -0.017974555 0.08544748 -0.034583304 0.051549885 0.15781628 -0.13767712 -0.09943543 -0.04647389 0.1353885 -0.0019253717 0.11597486 -0.15446784 -0.11788512 -0.019248135 0.22115643 0.14289406 -0.0015488969 -0.015852386 -0.0057275104 0.05924859 -0.26468962 -0.23623562 0.0861042 0.10036784 -0.24000911 0.15260124 -0.23277979 -0.0117779765 -0.21042612 -0.17747918 -0.021667415 -0.08006355 -0.17121466
chicken|NN 0.22740433 -0.124257885 -0.25370994 -0.078275606 0.19333741 -0.17328706 -0.17300546 -0.15945926 0.04203485 0.053099345 -0.06121661 -0.016804125 -0.03713722 0.024780815 0.008014128 0.15559952 0.09717597 0.057082463 0.20530936 -0.049864464 -0.17167825 -0.3330913 -0.06781636 0.012994008 0.046953723 -0.014689541 -0.22945173 0.11069218 0.009391469 0.1789812 0.25127965 0.12958905 0.011328952 0.07548813 -0.15061031 0.07933855 0.015242006 -0.08255699 -0.025881486 0.25166807 -0.02411542 0.1827455 -0.057997197 -0.030524861 0.115645446 0.34552634 0.07420678 -0.073355965 0.13327153 0.13132778
butter|NN 0.20527083 0.22346905 0.060233243 -0.0040134224 -0.09195628 0.00011872262 0.21508273 -0.2038881 -0.071028285 0.059198152 -0.124993585 -0.18471141 0.34095335 -0.0010852157 -0.08684552 -0.00013326072 0.2167238 -0.0021030859 -0.21094455 0.14453617 -0.076796256 -0.0043850564 0.12190771 0.051537644 -0.041986857 0.05479695 0.33052754 -0.080244265 -0.20734936 0.035612226 0.3406106 0.040989537 -0.08159089 -0.120576285 0.08368052 -0.005891857 -0.004209026 -0.13360198 0.039175402 -0.09945448 -0.06274111 -0.1190285 0.10292232 0.17688231 0.097576804 -0.042750947 0.09970939 -0.049978066 -0.17478773 -0.18935016
then|RB 0.081608005 -0.21478894 -0.030241365 -0.06193648 0.073608935 -0.028672317 0.16259854 -0.068939164 0.012307204 -0.07801008 -0.0009064415 -0.231627 -0.12757382 0.06927763 0.02743008 0.097570926 -0.18184805 -0.0018586674 -0.06482533 0.010991146 0.07614595 -0.051022753 0.09353898 -0.050269634 -0.3490439 -0.029995278 -0.14668353 0.020008087 -0.40432808 -0.0008814229 -0.18263946 -0.24168564 0.023213822 -0.035472423 -0.22953017 0.017444286 0.010513161 0.015489838 -0.20448793 0.022855863 0.15071407 -0.222831 -0.21459487 0.17303132 0.028917164 0.15263249 0.030440995 0.16516435 0.014242146 -0.24174632
oil|NN 0.21989073 0.008215304 -0.12007715 0.04171905 -0.012819842 -0.16363387 0.027098864 -0.07358104 -0.20659982 0.071331374 -0.058848098 -0.398756 0.008077384 0.0623971 0.034624044 -0.030467985 0.20884989 0.04451541 -0.009018046 -0.022525216 -0.10109558 -0.042744208 -0.1044256 0.0038021787 -0.0037045635 0.14240704 0.1689732 -0.078565806 0.05373804 0.15147121 0.10578078 0.023110706 -0.20311917 0.16400939 0.014931884 0.18413404 0.120304346 -0.26105464 0.14106672 0.21998526 -0.39369997 0.119374 0.09428839 -0.11763481 -0.049115848 0.24264874 -0.06086556 -0.11678307 0.020050045 -0.007944016
well|RB -0.015866928 -0.21353309 0.1761523 0.0071680434 0.07722986 0.2008294 0.20271613 -0.15884583 0.03026682 0.031687487 0.06198545 0.11450901 -0.15268469 0.12285068 0.031841815 0.17640848 -0.07347643 0.11685424 -0.114719905 -0.24204192 0.2529303 0.019029537 -0.06538401 0.10451424 0.008992546 -0.0900139 -0.02970411 -0.07865277 -0.16989227 -0.07477537 -0.032535717 0.07175901 0.27765265 -0.003874217 -0.19410849 0.1554452 0.13454089 -0.20845549 0.008519564 -0.010410165 0.18490241 -0.34720573 -0.06115843 0.06212119 0.2490657 0.022776963 -0.14021567 -0.12601076 -0.1357089 -0.123512626
water|NN -0.1512578 0.027348068 -0.32645175 0.13543972 0.064469755 -0.09251738 0.11194474 -0.15474671 -0.17021224 -0.06898431 0.09213399 -0.05729358 -0.11749811 -0.046099354 0.007205687 0.018437078 0.24467018 0.091293074 0.22119486 0.24357468 -0.07505517 -0.0053883125 0.19998147 0.04947097 0.10763818 -0.0011641642 0.21010485 0.17025012 0.0686812 -0.10742856 0.09961564 0.13744299 -0.0452305 -0.08543949 -0.131461 -0.25077215 0.040149752 -0.22273885 0.056470785 -0.10851603 -0.094688505 -0.013755196 -0.32758072 -0.12919353 0.0054640356 -0.289862 -0.08488068 -0.030511225 0.055480413 0.044416126
sugar|NN 0.11283706 0.0300322 0.17006356 0.16949596 -0.13583882 0.019174512 0.093256935 -0.100557394 0.094167486 0.22450618 -0.017424917 -0.30918837 -0.030498495 0.02720562 0.06782966 -0.07018977 0.02702014 -0.20917913 -0.17398979 0.103565216 0.008277945 0.28617236 -0.10727831 0.03407936 0.06810649 0.20310111 0.17726749 0.03647047 -0.09223971 -0.07316178 0.051711522 0.25546038 0.019893255 0.17469919 -0.0022698278 -0.114058234 0.32869247 -0.2694365 -0.09531609 -0.14456445 0.016147373 0.010576664 0.030826245 -0.09817945 0.2538806 -0.16036117 -0.012507967 0.0473609 -0.11851345 -0.10970879
dough|NN 0.14882289 0.064191855 -0.1649433 -0.18103325 -0.029989038 0.13258561 -0.112819426 0.38452023 0.15391721 0.0054682386 -0.16261578 0.028478568 0.08619943 0.04548955 0.08374758 0.056290545 -0.017594151 -0.23448661 -0.044699255 0.08123926 0.08354392 0.12070749 0.19701448 0.27572888 0.013021131 -0.10947379 0.07387527 0.0791506 -0.08678114 0.07430372 -0.0054099276 -0.16685422 -0.17364092 -0.0464361 -0.2609187 -0.093308136 -0.04485458 0.11338342 0.077266484 -0.22574687 -0.007927069 -0.18585747 -0.08427394 0.059876747 0.02316948 -0.02939176 0.14276159 -0.3149764 -0.22699845 -0.015710784
oven|NN -0.0485051 -0.124766454 -0.12739141 0.009949663 -0.1519698 -0.24314615 -0.23012748 -0.13320199 0.10945717 -0.27152923 -0.14781411 0.11592354 0.108254045 -0.012248312 0.13247567 -0.093785286 -7.626372e-05 0.049868718 0.04575726 0.09192926 -0.22753744 -0.0048637176 0.18469071 -0.14055367 -0.12959284 0.06345572 -0.21536109 0.13590011 -0.2021555 -0.026283702 0.24449345 0.05617153 -0.01615893 -0.08114331 0.08116239 0.0760049 -0.12345263 0.21299703 -0.06643701 -0.19610299 -0.008371936 0.23330557 0.003737433 -0.010761437 -0.117715985 0.16150725 0.06390471 0.012394876 0.3328768 -0.11165083
If|IN -0.24563621 -0.099789895 0.034880523 -0.13007396 0.19900893 0.2710165 -0.12900256 0.13040572 0.011596104 -0.104234345 -0.09767953 -0.07035869 0.01193721 0.3953087 -0.049110148 0.092489764 0.16641109 -0.12428887 0.036429718 -0.025902795 0.033574708 -0.01462853 -0.015330528 -0.12250291 -0.105538845 -0.04260821 0.15642585 -0.05777573 0.30634573 0.059011463 -0.22937088 -0.16818176 -0.054554276 0.074040435 0.16531134 0.12801707 0.19448246 0.17394526 0.009452682 -0.09336559 0.0008743733 0.09961519 -0.02768654 0.102537766 -0.07832926 0.097723536 -0.12964827 0.11777588 -0.24093921 -0.19132976
as|IN -0.11449419 -0.019680437 0.09324724 -0.109867595 0.22134261 0.07807205 0.097636275 0.046812374 -0.022373598 0.102723904 -0.046239074 0.08227677 0.32018977 -0.011451339 0.0028623221 -0.06859245 0.07798819 0.14256817 0.10799893 -0.14230344 0.08617821 -0.010921402 -0.19001389 0.031896856 -0.20482694 -0.1048156 0.24300513 -0.22690357 0.16333961 0.0622438 -0.017717477 -0.29861602 -0.19935283 0.22431824 -0.1722654 0.19477794 0.056999538 0.023907363 -0.012678522 -0.08244199 -0.00617917 -0.0017188397 0.11705313 0.13616134 0.09402239 0.2651076 -0.161079 -0.106987454 -0.25379795 0.058563646
at|IN -0.1973984 0.060853463 -0.07127888 -0.21034595 -0.026720228 -0.029785002 -0.20013283 0.18092166 -0.037200436 -0.18061593 0.05197343 -0.09159236 0.027129015 0.15196392 -0.07155816 -0.07425591 0.04687199 0.0047750054 -0.044747315 0.24648009 0.15716232 -0.15286349 -0.07736215 0.038681716 -0.23936586 -0.042162713 -0.2498452 -0.02870556 0.17867163 0.18616125 0.013447003 -0.19210202 0.00063593575 0.15904862 0.12625013 -0.19684313 0.05333533 0.119120516 -0.038668837 -0.20648202 -0.11841426 0.0465108 -0.011855318 0.18483348 -0.12912415 0.27603233 0.03777037 0.07925882 0.32604635 0.095038764
by|IN 0.091773115 -0.037218362 0.20434208 -0.058567505 0.060383804 0.03901401 -0.08574468 -0.0026836689 0.07153343 0.14135742 -0.11927149 -0.05147212 0.11191576 0.024191555 0.1713917 -0.04370671 0.09527709 -0.18743278 -0.09979714 0.16242188 0.38490775 0.08209619 -0.16825047 0.2783371 -0.12806784 -0.14518094 0.05800865 0.14095576 0.16026607 0.24296787 0.11691731 -0.072605886 0.36393934 0.15533969 -0.051700182 -0.09758227 -0.056364372 0.030127931 -0.13937517 0.0825361 0.10065295 0.027834786 0.15776129 0.08735395 0.027785415 -0.08063011 -0.2588111 0.07639293 -0.12958613 0.03323441
one|CD 0.19071838 -0.2608334 -0.074007556 0.131732 0.04057206 -0.100747846 -0.13404213 0.04912883 -0.14638829 -0.23302905 -0.058720488 0.024417205 -0.057002086 0.2282876 0.10786579 -0.13751659 0.0875652 -0.106213264 -0.043893747 0.10206574 0.1651861 -0.13350882 -0.11542742 0.15346836 0.113204345 0.02625783 -0.10692022 0.12187004 0.265156 -0.061455872 -0.061299037 -0.025687525 0.13392468 -0.0017824606 -0.23216295 -0.017981378 -0.07099833 -0.30996236 -0.21819673 -0.15637109 0.074868076 -0.15839092 0.2917814 0.015020036 0.049009934 0.038801584 -0.24295714 -0.013286534 -0.13124952 -0.039905544
ingredients|NNS 0.008085923 0.109773576 0.17337586 0.19718587 0.05281733 0.08530354 0.1518709 -0.21861349 0.1453764 0.073422335 0.053782772 0.08393934 -0.07113369 0.20170593 0.24907084 0.2044077 0.12834257 -0.08667142 -0.18111789 -0.055963136 0.19126284 0.21988444 -0.18123552 0.32038394 -0.029635 -0.14490585 0.21708634 -0.0068966425 0.007549273 0.24314184 -0.2429573 -0.15869015 0.23344584 0.20154156 0.06445879 -0.020344296 -0.013883235 -0.123260826 -0.0059523704 -0.038575232 -0.029058576 -0.0052398588 0.016176237 -0.048829198 0.04566933 -0.104208134 -0.072233625 0.13810463 0.042850602 -0.0055302707
about|IN 0.0577936 -0.015592452 -0.11120052 0.17828162 0.05462774 0.13072282 -0.09329504 0.02490211 0.0049344925 -0.08577479 0.2507881 -0.1642062 -0.21541126 0.123797715 0.060464986 -0.08158202 -0.23341607 0.03978701 0.0599142 -0.041701835 -0.14477736 0.06530041 -0.032420676 -0.10947511 -0.07239129 0.030342098 -0.09780999 0.24288763 -0.081115544 0.23687242 0.08954418 0.083115466 -0.11774276 -0.055342276 -0.1689044 -0.19540247 -0.059678346 -0.26616782 -0.07427576 -0.3276441 -0.022529269 -0.0727648 0.018816702 0.010150587 0.029553449 0.2030697 0.115155675 -0.14194429 0.3109603 0.22849841
if|IN -0.20834586 0.00091648265 -0.0065756687 -0.26406935 0.11708322 0.36682987 -0.07321179 0.10615989 -0.07808606 0.07424529 -0.1001194 -0.1454792 -0.074327245 0.15324299 -0.12108654 -0.14725158 0.13307078 0.040773757 0.068924226 -0.113499805 0.077553935 0.004664409 -0.27792475 -0.044872943 -0.064190425 0.05310571 0.15578723 -0.0645535 0.27755654 0.029668447 -0.106870666 0.0010060427 -0.25689623 0.21336085 -0.010263258 -0.030453593 0.26336432 -0.15845177 0.038735084 -0.035635225 -0.063204154 0.15236287 -0.015761858 0.13480003 0.0356211 0.15951408 -0.19747771 -0.045892436 -0.17639048 -0.1113565
over|IN 0.096158996 0.17154233 -0.03262575 -0.072146945 -0.02359364 -0.10513532 -0.0900041 -0.14307414 0.0870201 0.043439023 -0.022959094 -0.31213546 -0.09761789 -0.001124336 -0.24415864 0.19270764 0.17665277 -0.03519625 -0.027623499 0.06693805 -0.11819652 -0.0039002204 -0.03749594 -0.15202683 0.013863968 0.11370427 -0.010042791 -0.19150768 -0.07297132 0.3358546 0.26871052 -0.26148152 0.10252384 -0.2553392 -0.07862977 -0.032469004 0.1648709 -0.00175084 -0.026527911 0.08641705 -0.215981 -0.1979356 -0.13496023 0.103975385 -0.24096002 0.019780042 0.046238072 -0.067557044 0.06912011 0.1153388
You|PRP -0.13764954 -0.14195406 0.10252111 -0.20175451 0.06567867 0.2124557 -0.10544893 -0.009617129 -0.24826546 0.30535465 -0.14888245 0.018387683 0.08873613 0.22470371 -0.19520587 0.005532773 0.026090022 -0.10106054 -0.13983127 0.12376957 -0.03411864 -0.13587789 -0.18003671 -0.04350486 0.057533894 -0.062402707 0.22651473 -0.09137675 0.2514858 0.05215029 -0.20247771 0.016650023 -0.10766874 0.051836547 -0.025587805 0.085864924 0.16308613 0.03185165 -0.077120505 0.14487451 -0.13486193 0.23343508 0.09573849 0.117356785 0.015203432 -0.011634977 -0.19647138 -0.08551153 -0.2514747 -0.13909428
In|IN 0.08706735 0.14768633 -0.08832242 0.22180888 -0.16193067 -0.085979715 0.20036961 -0.25160968 0.023001214 0.069771625 0.052943587 -0.15130663 0.12231908 0.02615254 0.09476497 -0.06755107 0.0711489 -0.028251579 -0.013378732 0.05596136 -0.117418244 0.1277502 -0.12039138 0.08847762 0.030075995 0.26045886 0.3147162 0.13568377 0.035171043 -0.017587539 0.10522521 -0.062378116 0.00630541 -0.09816464 -0.0805805 0.004550277 0.26902893 -0.29920852 -0.2209617 -0.15927072 0.0286093 -0.089131765 0.2766448 -0.029961986 0.12567945 -0.16981573 0.16657585 0.14903094 -0.1354393 0.023119805
pepper|NN 0.11827471 -0.046828017 0.086279914 0.25972074 -0.14038168 -0.11154812 0.29347137 -0.020088084 0.053188886 -0.0387952 -0.2010699 0.028485315 -0.20353322 0.023691656 -0.08813991 0.058913562 0.07330404 -0.05589703 0.12373565 -0.14956212 0.15420844 0.108664244 -0.0839183 -0.12121345 -0.13218522 0.10991914 -0.15422718 0.13067417 -0.09866051 -0.013637423 0.13243306 0.26209 0.109629214 0.13841559 0.06521675 0.04476075 0.08106921 -0.18240061 -0.22596282 0.06386511 0.090801336 -0.3589536 0.21805806 -0.12067739 -0.050921667 -0.23632047 -0.0679255 0.12519619 0.016801493 -0.103645004
sauce|NN 0.3136522 0.10999084 0.03404438 0.01216012 0.09971251 -0.051166303 0.12408621 -0.23923214 0.13761711 -0.065311894 -0.07146099 -0.12285629 0.0025036503 -0.26882675 -0.05939202 0.14060137 0.13084929 0.107749246 0.15478376 -0.21576868 0.11437855 0.16697587 0.042131726 -0.15903284 -0.054121703 0.17876577 -0.1527239 0.2594685 -0.16185316 0.012778574 0.17391782 -0.051940188 0.019009586 -0.1254024 -0.09323622 -0.050235793 0.055819575 -0.14865617 0.01413187 0.3223522 -0.013256954 -0.29783002 0.19925727 0.036808383 0.03260319 -0.07259852 0.047768738 -0.022521872 0.0852988 0.094727784
Add|NNP 0.10978576 -0.10290121 -0.09062968 0.19660752 -0.04108614 -0.032977343 0.1450361 -0.13840124 0.060559563 0.14116919 -0.112677686 -0.060276076 -0.07668267 -0.058853537 -0.23715459 -0.26359674 0.056295536 0.052127793 0.19056146 -0.012042807 -0.1254487 0.06986932 -0.20050767 0.0026545546 -0.08037686 0.19583884 0.11952873 -0.26979062 -0.13723841 0.14763913 0.26150936 0.12384123 -0.09031932 0.2268184 -0.11306307 -0.2108754 0.11113253 -0.13786587 -0.009449613 0.07442528 0.16065004 -0.010399685 0.15715475 0.03349889 -0.21780376 -0.2538614 -0.09100308 0.12605111 -0.022491727 0.10475117
not|RB -0.055385765 -0.086930394 -0.08125509 -0.1779572 0.26349062 0.15024035 -0.21195419 0.11008728 -0.0076114465 0.2931483 -0.11763151 -0.1067867 -0.029014142 0.15363133 -0.037437875 0.00862433 0.02720002 0.28207624 -0.07609398 -0.124859415 -0.020310756 0.06880318 -0.059424344 0.04476593 -0.12247463 0.008863233 0.25134647 -0.11688214 0.13514137 0.08592182 -0.17422491 -0.10080102 -0.09444327 0.10098521 0.09433072 0.2557366 0.076729566 -0.0668001 0.16871737 0.18508802 -0.09086793 0.177081 0.061913155 -0.0123605 0.016435739 0.3119294 -0.06640192 -0.23059782 -0.15112275 -0.07986506
together|RB 0.019047903 -0.11730682 0.047717404 0.14792293 -0.08562734 0.11622495 0.16698645 -0.2745573 -0.09376224 -0.13699727 0.076744206 0.050990775 0.16308498 0.10605992 0.1255327 -0.0060299695 -0.013160633 -0.004471689 -0.16130546 -0.09042161 0.057813574 0.2258218 -0.15413406 0.23380443 0.15850641 -0.03409743 0.26226145 0.064236134 -0.044807658 -0.25060079 0.085278764 0.033079885 -0.02750169 0.0556755 -0.009770884 0.039346144 0.042260442 -0.35701033 -0.046240315 -0.16156851 0.15542538 -0.11279027 -0.020412907 -0.16463324 0.19360219 -0.1188401 0.24054985 -0.065411106 -0.036272574 -0.25682062
cream|NN -0.12042563 0.07183145 0.33631736 0.18887687 -0.015295243 0.027132431 -0.03376117 -0.2809748 0.20368013 0.25340044 -0.10506522 -0.09805616 0.024092954 -0.10503647 -0.055810686 0.0070951576 -0.120210424 -0.16233099 -0.19612376 0.008421756 -0.026814133 0.17781538 -0.15015803 -0.08999118 0.08613656 0.0027498107 0.05011051 -0.024871282 0.15260299 -0.16037199 0.083537616 -0.046798334 -0.09236923 0.011177055 0.0016269037 -0.10960254 0.2522495 -0.1275195 -0.11900349 -0.04715871 0.09841345 -0.054362647 0.23308587 0.009625214 -0.013286599 -0.19136643 -0.058129903 0.29632768 -0.24892327 -0.15605833
milk|NN 0.08141994 0.23466824 -0.017595084 0.18357512 0.021610323 0.074721366 0.09066275 -0.038914178 0.22398756 0.21646217 0.16493033 -0.1414309 0.11436906 0.03675219 -0.1739075 -0.017874118 0.029667012 -0.15357608 -0.03463366 0.085849844 0.060872097 0.2717086 0.006737244 0.11887167 0.23256153 0.4375128 0.032197464 0.019575512 0.19116713 0.041940402 -0.0052099978 -0.09072048 -0.092138216 -0.044497017 -0.022848237 -0.14157899 0.18849194 -0.23463458 -0.04603203 -0.15814717 -0.1140102 -0.19717115 -0.031811826 0.08812262 0.060908854 -0.15863436 -0.123068176 0.0046402547 -0.10547901 -0.12840736
some|DT 0.18355696 -0.112108245 0.10228588 0.3128237 -0.075432815 0.15487568 -0.21991302 0.15049179 -0.21887718 -0.0532481 -0.0039122254 -0.12090249 0.04538936 -0.027766747 0.17207947 0.08808714 -0.045454852 -0.21193936 0.053947736 -0.094580606 0.032189146 -0.11961801 -0.32224804 -0.09510852 0.13158518 -0.16623339 0.13305683 0.17462413 -0.081739806 0.04070336 0.14612739 0.16991588 0.17070492 0.11419806 -0.006707391 0.053845715 -0.07684157 -0.045858752 -0.2720645 0.11841766 -0.09443807 -0.02667945 0.11209825 0.083785206 0.018773343 -0.16539723 -0.06238754 0.12139589 -0.12093579 -0.26270947
let|VB -0.04941415 -0.06911434 -0.15367052 0.032964773 0.007138439 -0.13014543 -0.15484074 -0.095026985 -0.10957431 0.09295085 0.047408774 -0.12615378 -0.07858076 -0.2941277 -0.012900949 -0.020925347 -0.2531339 0.22568269 0.0121924095 0.16601057 -0.29944238 0.03200775 0.20544559 0.047951803 -0.13899522 0.06590189 -0.15821831 0.1283878 -0.1941505 0.104167104 -0.08419108 0.20017503 -0.038854115 -0.14106669 -0.1844883 -0.09695605 0.047010776 0.23212014 0.011872258 -0.12250848 0.09540981 -0.17719878 0.14560443 -0.06917829 0.09676802 0.074356064 0.24011879 0.016366739 0.23953564 0.12008329
Add|IN 0.2918481 -0.04285988 -0.045678027 0.04671874 -0.16509399 0.13023113 0.14373706 0.003994703 0.03688349 -0.07257947 -0.17044358 -0.047606565 -0.044821832 -0.001688106 -0.012889575 -0.041377146 0.014719241 0.1012214 -0.10944095 -0.23615889 -0.0860887 0.2951503 -0.20213082 0.2364939 -0.08849604 0.14725891 -0.15972261 -0.33211786 -0.24916969 -0.037707593 0.29146662 0.103619136 -0.03776509 0.006488047 -0.16464497 -0.053037677 0.20984559 -0.11198645 -0.024658099 0.16118075 0.16318867 0.1616292 -0.04848456 -0.063028574 0.04515926 -0.090334594 0.0584426 -0.08941683 -0.11264356 -0.003372807
cup|NN -0.04524069 0.14534478 0.16641816 0.19279376 -0.013207007 -0.07621741 -0.09284219 -0.043779768 -0.016883798 0.1156849 0.0015618624 -0.12472806 -0.108034186 0.009274308 -0.058544487 -0.116471104 0.08753296 -0.13038269 -0.17920564 0.052479763 0.22931989 -0.015452795 -0.13453314 0.030172138 -0.06803802 0.18375766 0.16749832 0.0960637 0.054424338 -0.09563299 0.08786478 0.0032612933 -0.106315225 -0.023817848 -0.17660844 -0.26611623 0.09637216 -0.51685447 -0.23068173 -0.069563515 -0.08405569 -0.15919696 0.18331203 0.060587354 0.16345716 -0.091229156 0.05353762 0.0296382 -0.117827594 0.199677
This|DT -0.04693614 -0.039658375 -0.15831786 -0.05029903 0.19885989 0.3404077 -0.12538573 0.051629286 -0.006736037 0.11099337 0.28181455 0.15333776 -0.021514567 -0.0020186878 -0.057213034 -0.01919103 -0.09024621 0.023332 0.26691478 0.20578772 0.065844946 -0.18770865 -0.16855522 -0.040967327 0.12696858 -0.18465905 -0.13728665 -0.023668028 0.005221475 0.23565902 -0.30564937 -0.14445204 -0.013327957 0.037045773 0.03826209 -0.014574535 -0.09856232 0.008204337 0.11461014 0.012797909 -0.35909718 0.07828432 0.036719117 0.0759108 -0.24763007 0.04544754 0.009356587 0.080465496 -0.008192289 0.07404828
Place|NN 0.19046584 -0.37164575 0.08309846 0.09127212 -0.09698602 -0.21987309 -0.19897558 -0.10201559 -0.20896186 -0.0804139 -0.08284263 -0.09134771 0.072746724 0.01731851 -0.118967086 0.053966805 0.09085297 -0.012081331 0.08707259 -0.077268854 -0.12248754 0.10460905 0.094635576 0.2354997 0.054095503 -0.0109446 -0.1799657 0.083810955 0.022645153 -0.13960253 0.20781699 0.061744854 0.13596343 -0.20680802 -0.09296202 -0.12639293 -0.08579763 0.20535006 -0.19596426 0.23862676 -0.06354676 -0.16195658 -0.13537177 0.028688697 -0.106849894 0.17633952 0.14480701 -0.15158674 0.15446918 0.048595555
each|DT -0.106644504 -0.28953487 -0.0036455092 -0.0023822796 -0.09611337 0.05533104 -0.102390036 -0.21796253 -0.09417257 -0.122171745 -0.023180228 -0.033168305 -0.024476489 0.19762865 0.13599735 -0.07718319 -0.005015013 -0.2672764 -0.02764005 -0.028953511 0.037936043 -0.24846299 0.07336688 -0.14681086 0.026533056 0.04881589 -0.23490565 0.15838887 0.024393339 -0.2577496 0.15520415 0.11570857 -0.030333247 -0.118074276 -0.09010092 -0.10552713 0.08254312 -0.20969161 -0.1522305 -0.15531218 -0.14632739 -0.21076082 0.14080653 0.22084351 -0.075919814 0.025534578 -0.21288298 -0.09255636 -0.020528203 0.25799766
before|IN -0.051742427 0.06398671 -0.04846362 -0.14403662 0.052991584 0.08651744 0.016690943 0.009375852 0.0822364 0.011681305 0.01528001 0.041722506 -0.07355318 0.022723569 0.08801648 -0.02995751 -0.1977352 0.06424361 -0.06288675 0.0807072 -0.0043887063 0.11100115 0.06683532 0.21543372 0.02855983 -0.11509072 -0.20958959 0.04500649 0.13123628 0.07425072 -0.029552098 0.07687765 0.0010441691 -0.074884504 0.22279628 0.11721366 0.01538605 0.38567576 -0.26523346 -0.23831716 0.16033402 -0.045033805 0.09754502 -0.26916623 0.015321061 0.3576433 -0.074074864 -0.24156222 0.28054765 -0.06385594
out|RP -0.07551121 -0.19720781 -0.0900665 -0.0753407 0.05699218 0.33867404 -0.13603334 0.19579248 -0.01446427 0.043576088 -0.15617219 0.028834542 0.05514238 -0.033273544 -0.053659778 -0.1753316 -0.20206468 -0.2148292 -0.039626047 0.19826151 -0.044495996 -0.034421775 0.1893208 0.039754856 -0.07847075 -0.21659957 -0.2993821 0.09552853 0.07286205 0.12042541 -0.032240096 -0.09788933 -0.3479107 -0.119685166 0.06346034 0.032802228 0.17865002 0.012772175 0.09989494 -0.053066242 0.15448849 -0.075107686 -0.16623138 -0.19008589 0.0007178655 0.073871344 -0.23655786 0.0019077744 -0.05496278 -0.089254156
large|JJ 0.14620498 0.10903562 -0.00905417 0.13476758 -0.07404483 -0.23198947 -0.1446365 -0.19877365 -0.023409043 0.112950794 0.25719228 0.042096976 0.22863953 -0.0034693799 0.06991633 -0.09607475 0.048489988 0.020410072 0.06382658 0.009545014 0.025764272 0.23553042 0.0028873128 0.2703794 0.21407981 -0.07683907 0.17964172 0.1311751 0.02269519 -0.054210704 0.12574334 0.063839905 0.018279206 -0.0768493 0.02035228 0.01423908 0.063717015 -0.22448292 -0.07971054 0.035144363 0.010588507 -0.2780057 0.06354246 -0.07682106 0.035490565 -0.38608292 0.059740067 0.18637086 -0.24780804 -0.118828885
up|RP 0.025711391 -0.22949518 -0.21987365 -0.389474 0.2066189 0.024185147 0.14439127 -0.019383302 0.007096144 0.15120336 0.100356035 0.111303695 0.15881774 0.06066864 -0.038730767 0.16106704 -0.0030331549 0.1039585 0.11089762 -0.25809377 -0.1507194 -0.0058447192 -0.16765328 -0.0155369695 -0.06287447 -0.025344001 -0.005321967 -0.048398953 -0.07226559 0.15780056 -0.26731887 0.1591422 0.13524362 0.0029416685 -0.14904962 0.060952563 -0.04600612 -0.14561579 -0.0062181633 0.23140237 0.037538406 0.20097174 0.14084578 0.06473581 -0.054263975 0.14912246 -0.28344414 -0.10543587 0.044806387 0.010189377
want|VBP -0.30346596 -0.053999558 0.15681338 0.024969377 0.19142519 0.27999577 0.063350186 0.20665619 0.016513096 -0.056268893 -0.031412132 -0.092622586 -0.10724714 0.17882216 0.04351608 -0.09513319 -0.003460565 -0.12084062 0.1811709 -0.01425041 0.033219017 0.054869287 -0.18010114 -0.1809545 -0.19855689 0.15183753 0.28209394 -0.08514936 0.13538937 -0.02940073 -0.06643036 -0.08146656 -0.18029138 0.102427185 0.031226482 0.01818442 0.32178253 -0.0323005 0.00042917966 0.027743565 -0.07953867 0.23212206 0.018160518 0.15026939 -0.062365 0.13067332 -0.21234421 0.02593761 -0.1728276 -0.15725265
that|IN -0.08959351 -0.4167102 -0.06718588 -0.24875109 0.006179259 -0.020916311 -0.02404241 0.06150162 -0.015292739 0.10813379 0.106760345 -0.009794597 0.1042689 0.18457015 0.07789825 -0.020519782 -0.035922557 0.14398773 0.053295914 0.027487846 0.24188994 -0.058420546 0.12731424 0.39533585 0.15286599 -0.0017578584 0.07393764 -0.1341626 0.14262846 -0.07663051 -0.17059499 -0.17834204 0.051052123 0.036730528 0.014177074 -0.17356594 0.040377308 0.01791931 0.12586537 -0.15737674 -0.19728318 -0.018076103 0.049539957 0.2721528 -0.050003793 0.12958567 -0.07945513 0.06953903 -0.19035451 -0.13769418
When|WRB -0.0043511656 -0.058539238 0.011189714 -0.17051543 0.0971109 0.13955398 0.009298038 0.24758676 0.09310269 0.14394039 -0.00562715 0.023038078 0.04540395 -0.35093743 0.1696715 0.30985263 0.07247324 0.08508813 0.06726736 0.1505066 -0.12037501 -0.013778752 0.114016555 0.05257167 -0.063496225 -0.06394647 -0.14559655 0.17123286 -0.10158022 0.15108325 0.06598028 0.07095183 -0.09199199 -0.3004496 0.1259745 0.20102538 0.15174285 0.23235343 -0.13548565 -0.06693439 0.09726532 -0.16789915 -0.03490775 -0.064785115 0.26750773 0.2054778 0.055798907 -0.079542786 0.06781657 0.0077728443
pot|NN 0.08821313 -0.17309457 -0.13700807 0.06900873 0.17313151 -0.20551854 -0.025734024 -0.26279542 0.019393066 -0.004065732 -0.039823573 -0.20179442 -0.15800834 -0.041605026 -0.13028546 0.17417997 -0.06560065 0.10637567 0.053833555 -0.121803455 -0.15203567 -0.012232614 0.09696856 0.14174046 0.06948252 0.1677398 0.11377688 -0.10890439 -0.068968244 0.35917655 0.09472237 0.34314233 0.1185433 0.012256779 -0.24054506 0.022231797 -0.079963066 -0.0019643528 0.27456847 -0.047353808 -0.22291979 0.0096853925 -0.098697126 -0.13802241 0.07925594 0.08329352 0.13420759 0.08097631 -0.016478732 0.049877167
just|RB -0.2819595 -0.02754689 -0.19190805 -0.25413746 0.26283658 0.11825712 -0.1693105 -0.022001835 -0.10809546 -0.005427763 -0.12790067 -0.11402569 0.031490423 0.14639354 0.05902699 0.1919883 -0.2401716 0.07467431 0.2458045 -0.06584089 0.21667038 -0.09701401 -0.20375797 -0.012780869 0.17819868 -0.12941706 0.015380716 -0.07579717 0.20037062 0.12237711 -0.04328132 -0.071666695 -0.043791134 0.012135011 0.08536864 0.016084382 -0.22774725 0.20875572 -0.12509122 -0.1041247 0.076725535 0.071790725 0.0390683 0.1592105 -0.10120661 0.14332016 -0.21342738 -0.05625223 -0.09502591 -0.04002984
two|CD 0.09175241 0.021126086 -0.35034877 0.017496252 0.1416269 -0.2107108 -0.042674147 0.052157175 -0.09325621 -0.04818255 0.21027927 0.06444044 0.06330581 0.21569562 -0.102083534 0.14061302 0.094619505 0.078230046 -0.08280254 0.13155638 0.16541614 0.09706278 -0.22210862 0.15743816 -0.103296466 -0.140359 0.09269963 -0.16174644 0.13451271 0.20101087 -0.022363206 -0.12176516 0.0341427 0.13492477 -0.045815613 -0.033250567 -0.17430066 -0.14174795 0.067017175 -0.318057 -0.066720925 0.004339745 0.1536408 0.21366505 0.029483536 -0.08580402 -0.07496948 -0.14872086 -0.011947704 0.28520268
meat|NN 0.07456023 0.15337108 -0.09616977 0.11691933 -0.1826186 0.0052509694 0.20859356 0.06645889 -0.06576807 -0.03292149 0.025372537 0.17168641 -0.124658205 0.25029874 0.062833816 0.24738304 0.26210573 -0.035075426 0.2359434 -0.024157247 -0.073066615 0.11609886 0.1037294 0.01998794 0.17869373 -0.15397573 0.07989961 -0.0020451425 -0.09478948 0.047411688 -0.095284164 0.09094944 0.15164073 -0.1434549 -0.056256674 0.06443505 0.07723156 0.1457847 0.012867997 0.2698454 -0.05142138 -0.0330748 0.13469134 -0.3074188 -0.16562806 0.106989555 -0.16845655 -0.108159095 0.13024524 0.27867815
soup|NN 0.12014836 -0.15946914 0.112272725 -0.17494662 0.3238642 0.22006923 0.28403893 -0.0968412 0.08479532 0.16260503 -0.022539616 -0.036809206 0.048607185 0.05584709 -0.27208364 0.041177604 -0.05399726 0.017729528 0.1436438 0.05577335 0.07152546 0.22148627 0.026750077 -0.0032679916 -0.028644612 0.112960614 0.2270053 -0.2436916 0.07302335 0.1861487 0.060621396 0.07604085 0.18442719 0.03953285 -0.07570538 -0.10180109 0.020066783 -0.018865928 0.13943405 0.10298785 -0.045360405 0.08610649 -0.014038253 0.043168243 -0.15555137 -0.1646249 0.28544456 0.27078342 -0.029572155 -0.007186254
How|WRB -0.13491146 0.16072543 0.053570475 -0.044622965 0.108869165 0.078979924 0.10269589 -0.06114445 -0.044030447 0.124695696 -0.1492361 0.055501398 -0.07861365 0.12477179 0.042898145 -0.30894038 -0.10419367 0.18632072 0.24438797 -0.25382408 -0.172935 0.022595918 -0.0037550249 -0.15199901 0.07718492 0.1429654 -0.11059308 0.02582925 -0.13112089 -0.02249715 0.04197609 0.040274724 0.119093634 0.11107143 -0.08525959 0.07617004 0.20364262 0.21161358 -0.112088814 -0.25887898 -0.27612048 0.16180669 0.13113321 0.20548783 -0.035517618 0.014510289 0.13682802 0.14381969 -0.246209 -0.06674927
Mix|NNP -0.0020555363 -0.0022845631 0.09768109 0.0559954 -0.041453507 -0.007587521 0.22334577 -0.108405836 0.049477294 -0.1069311 -0.034894597 0.021886516 -0.14866124 0.10655237 0.117978744 -0.009716862 0.06716033 0.10728985 -0.1978139 -0.39728925 0.078290895 0.47592074 -0.17805713 0.25361642 0.31145817 0.104716234 0.12848416 0.043540675 -0.117413744 -0.058471162 -0.052987825 0.14475401 -0.01712572 -0.06953184 0.10391772 -0.0005883811 0.05756225 -0.17589423 -0.013323683 0.006053369 -0.041753158 0.021423561 -0.045228757 0.060291804 0.10294796 -0.06680166 -0.19177513 -0.12546626 0.15873486 0.028541865
pieces|NNS 0.33052292 0.03430676 -0.017345544 -0.0943097 0.08489392 -0.016112631 -0.018441284 0.09085045 -0.085155934 0.011976395 -0.1225528 -0.08472304 0.3499077 0.013538394 -0.025850132 -0.11871217 -0.10970689 0.25734046 0.13685842 -0.17237017 -0.122366026 -0.10240841 0.027393974 0.06289069 0.25236914 0.09661268 -0.17204462 0.1305337 -0.19603018 0.019766549 -0.038263764 -0.112991355 -0.01744339 -0.26850677 -0.19144505 -0.10843693 -0.15224133 -0.005477742 0.023775205 0.18650246 0.13510413 0.0616023 0.12383068 0.21153124 -0.1548628 -0.18611546 0.08967449 -0.060240574 0.07914062 0.17239954
Pour|VB 0.13755089 0.22326498 -0.15502937 -0.012817256 0.035829883 -0.11131737 -0.30390483 0.087984025 0.100747645 -0.1162551 -0.049354073 0.1936767 -0.018250035 0.119431965 -0.18632437 0.061574515 0.020071147 0.039713796 0.15231624 -0.20067191 -0.09928956 0.2810504 -0.11793294 -0.10717969 0.012918742 -0.046383142 0.053806912 -0.06855749 0.02980333 -0.26962042 0.3441163 -0.18669504 0.05153337 -0.09487004 0.091566 -0.035345115 0.050668567 -0.12041279 -0.26714697 0.041160677 -0.17558211 -0.14107648 -0.038571734 0.03463518 -0.035908666 -0.19366923 0.20200107 -0.022402015 -0.11151806 0.052005973
use|VB -0.31920442 -0.049409144 0.02554255 -0.010746368 -0.033436656 -0.08881581 0.07003865 0.109335124 0.07070031 0.13852106 0.069710985 -0.02647117 0.07796918 0.21648748 -0.12910187 -0.10554727 0.19425517 -0.19508745 0.14881028 0.21417454 0.061827753 -0.04650562 -0.02892495 -0.05887729 -0.07071468 -0.16834442 0.16767968 -0.026532143 -0.028454715 -0.08042634 -0.18243366 -0.048625447 -0.33562765 -0.09111485 -0.036186814 -0.034782134 0.20132338 0.05408356 0.10051242 0.22278453 -0.22402865 -0.10192928 0.028305773 0.09916327 -0.097340204 -0.053980008 -0.02590941 0.04210652 -0.36497533 -0.23116557
2|CD 0.08048064 0.16562156 -0.22825262 0.09236941 -0.113522306 -0.006005641 -0.03745273 0.15295978 -0.05109245 0.0034008007 0.09347994 -0.07163018 0.054910827 0.049822733 0.044930078 -0.20334978 -0.020944789 0.08047763 -0.045596033 0.1259035 -0.062085077 -0.011554905 -0.10336277 0.021223543 -0.21273652 0.11559773 0.06682932 -0.07229797 0.20588282 -0.053926677 0.12466154 -0.08002784 -0.2191007 0.0116749015 -0.057764214 -0.21431135 0.22948834 -0.39156237 -0.26510128 -0.30622256 -0.08280741 0.019784665 0.24250302 0.021065928 0.013867299 0.07503359 0.107747324 0.00448391 0.023739357 0.2736744
The|DT 0.054550584 0.013218951 0.015313161 0.12468234 0.15718238 0.12254542 0.011409806 0.12076261 -0.032197207 0.16793427 0.055423103 0.08256195 0.23078676 -0.08925673 0.22964714 -0.08902576 -0.20246552 0.12975037 0.0060313987 0.27886012 0.11594382 0.01921091 -0.00175352 0.036500886 0.3271078 -0.09874614 0.051238477 0.11175865 -0.16630752 0.10278767 -0.3091505 -0.17392693 -0.07185805 0.011411208 0.25437534 -0.00049955904 0.02187477 -0.004963142 0.12369723 0.036579024 -0.15854125 -0.05739701 -0.006994972 0.08156126 -0.0020577156 0.138615 -0.056437865 0.254701 0.10388232 -0.31397882
mix|NN -0.049913708 0.025515825 0.088040665 0.23973288 -0.0032696445 0.16234441 0.11968836 0.11375249 0.03706764 -0.10046528 -0.0014612309 -0.04918467 -0.06055406 0.2350805 0.12248576 -0.11441494 -0.06908257 -0.051914804 0.0017594512 -0.14197324 0.03475439 0.10794286 -0.20064223 0.04762599 -0.29430455 0.27241862 -0.033238087 0.06818545 0.06710003 -0.07164465 0.17850982 -0.06494067 0.12123487 0.08961769 -0.077522054 -0.16856329 0.24071603 -0.23847441 -0.11898353 -0.0499942 0.07003363 0.07263789 0.3594381 -0.22442256 0.20009099 -0.17629534 0.009207536 -0.0353294 -0.07895683 0.15726036
rice|NN -0.25969914 0.25207335 0.13316603 0.002156299 0.23102427 -0.1062213 -0.009716844 -0.14227974 -0.36118957 0.05162198 -0.015466628 -0.07791262 0.09444122 -0.27632448 -0.085630514 0.028460197 0.0019917248 0.122065656 -0.012410409 0.11711899 0.014655859 -0.031529326 0.20084363 -0.053798016 0.03386241 -0.025632866 0.0050379434 -0.27973685 0.14183293 0.16244154 -0.010131034 -0.11416334 0.090125844 -0.011693069 -0.15027887 0.0801429 0.19573109 -0.19058317 0.040343013 -0.043080334 -0.005364321 -0.04850187 -0.08655058 0.044675622 0.092768155 0.0022316729 0.074830286 -0.18487981 0.3760871 -0.058436435
cheese|NN 0.11168769 -0.070429064 0.3065785 0.003108289 -0.04965558 0.10913648 0.08595507 -0.26777652 -0.027528776 0.02488778 -0.061257448 -0.075872265 0.19865091 -0.19950096 -0.022071445 0.28073606 0.1463387 -0.072983235 -0.13025342 -0.15620725 -0.07173436 -0.0267024 -0.0788985 0.09672184 -0.008869796 0.023791583 -0.11876509 0.21888793 0.059725888 -0.3380489 0.15144303 0.09281057 0.080695644 0.12476054 -0.085898384 0.004046004 -0.00031989074 -0.051439818 -0.022613136 -0.14493468 0.13639952 -0.084052294 0.1228614 0.061798923 -0.12740809 -0.07440732 0.31783694 0.18658519 -0.23006074 -0.12367243
an|DT 0.01075657 -0.16519007 -0.088549785 0.1056576 0.19028664 -0.056242596 -0.30276394 0.23271923 -0.2308077 0.12467223 0.03322254 0.22492361 0.10230098 0.24181911 0.034371197 0.16391777 -0.06859742 0.11896102 -0.04803169 0.37503237 -0.038680874 -0.17712177 -0.14483552 -0.022334166 0.15905397 0.014968582 -0.07246335 -0.08494103 0.13632277 -0.03481604 -0.121118635 -0.100547336 -0.06462161 0.013835378 -0.039462082 0.13536768 -0.14231202 -0.16424277 0.04713023 -0.08180003 -0.06792688 0.07737603 0.06452638 -0.10463345 -0.15357806 0.01096117 0.2633809 -0.1102636 0.14192313 -0.14384961
top|NN 0.15986533 0.16564855 0.26843244 -0.047056224 -0.24007373 0.060069956 0.029584635 -0.1453577 0.02561992 -0.16562283 -0.23917039 0.01554806 0.19542164 0.028702991 -0.062485885 -0.032365717 -0.14182422 -0.114742614 -0.27102444 -0.1801222 -0.27353856 -0.06990987 -0.026212718 0.05494899 -0.00037452052 0.011087492 -0.2612638 0.10226173 -0.023968749 -0.17346185 0.10636348 -0.12503944 0.0020950586 0.058806315 -0.07751402 -0.052334305 0.10362206 0.24776487 -0.025623852 0.21464093 -0.0065584714 -0.11101309 0.17694524 0.0059533822 -0.23432411 -0.008978842 0.0150425425 0.2351612 0.04714384 -0.11588731
more|JJR -0.119898975 0.10678051 -0.054475702 -0.014070359 -0.012756969 0.24512847 -0.025796855 0.3613252 0.1291338 -0.041674796 -0.124033354 -0.20492116 -0.0967966 0.16746812 -0.011970297 -0.05369225 -0.06322727 -0.1874269 0.13520984 -0.025717046 0.15591748 0.030742709 -0.24351116 -0.19209002 -0.23795415 0.12662457 0.03525796 -0.08429967 -0.024443831 -0.050140947 -0.14007737 -0.18743707 -0.23092765 0.113194264 -0.1034737 -0.13416035 0.18824571 -0.004079647 -0.07957006 -0.37245768 0.053430524 0.16222727 0.13665639 0.07273969 -0.07829625 0.07235447 -0.031684984 -0.0017900696 -0.05855619 0.02580035
using|VBG 0.052715823 -0.06637519 -0.08327764 -0.43396437 -0.026286583 0.15241449 -0.16489157 -0.19422399 0.026094828 -0.21472707 -0.027753364 0.1064072 0.06056378 0.122144856 -0.053260464 -0.057878673 0.030783445 0.062690124 -0.268615 0.036092464 0.09691036 0.12745905 0.0630338 0.20512314 0.007124394 -0.15942171 0.2891555 0.14489849 0.11022238 -0.1734766 -0.29810062 -0.07649783 -0.10056849 0.050365865 0.1025252 0.06343183 0.06946431 0.100889355 0.08966259 0.019376934 -0.066260904 0.11530998 -0.018042631 0.03137306 -0.04791435 -0.14183134 -0.14989091 0.11879686 -0.28015402 -0.03057712
while|IN 0.01347889 0.058602314 -0.027657721 -0.1198812 -0.26317665 0.084331535 -0.015001059 0.02869898 0.08707491 -0.082092926 -0.005586696 -0.10415548 0.25414196 -0.11757422 -0.20059802 0.09878592 0.10565634 0.04273681 0.33425546 0.28026214 -0.059004273 0.25305486 -0.02072494 -0.018538436 -0.00074961677 0.10111638 -0.08114234 0.07487439 0.014652991 -0.26543182 0.2656177 0.2546179 0.15883186 -0.061345167 -0.013063867 -0.18964823 0.13275838 -0.060056463 0.09336672 -0.002301475 -0.099608295 -0.03769783 -0.23866624 -0.10381326 -0.0168123 0.18815108 0.18504864 0.04542654 -0.02043743 0.06017388
baking|NN 0.004596159 -0.059722837 -0.105473265 0.11546748 -0.29418525 0.06433487 -0.16174567 -0.06705363 -0.17080955 -0.21259949 -0.022231724 0.055637304 -0.08728043 -0.06952645 0.0039763213 -0.038504567 0.12813808 -0.013879137 0.17818163 0.31606096 -0.17433567 0.09337343 0.10295721 0.053092282 -0.074712455 -0.12219347 -0.23426127 0.08517398 0.010799449 -0.12354975 0.048099328 -0.036979795 -0.02692429 -0.20417744 -0.05049581 0.035281155 0.020767245 -0.09051846 0.21692123 -0.049543142 -0.26086807 -0.06940734 0.11139317 0.034377314 0.058992375 -0.34061038 -0.09276964 -0.07287997 0.24802735 -0.2654651
recipe|NN -0.14083485 0.10001714 0.029327389 0.016537804 0.31264773 0.07659018 0.02359322 0.19709107 0.0906791 0.08754461 0.22280693 0.07827063 0.32660094 0.09750266 -0.026750635 -0.027087912 -0.06974741 0.069886275 0.28529742 -0.03654626 0.28387645 0.049663626 -0.17380284 -0.008517871 0.05679905 -0.14705475 -0.14008413 -0.12200907 0.17567608 0.19348727 -0.24589358 -0.028573284 0.07018527 0.16983171 0.054963328 -0.10848255 -0.10343862 0.036236282 0.09273013 -0.096796356 -0.27550754 0.10381216 0.01014901 0.18657222 -0.0379585 -0.025306776 -0.11992558 0.07634002 -0.120479204 -0.070999995
bread|NN 0.063894205 -0.1353973 0.3002879 0.057597704 -0.23470831 -0.02906087 0.00829789 -0.053308982 -0.049992844 0.07300481 -0.11162591 -0.10728969 0.3780194 -0.10608963 0.0153049305 0.05548179 0.07181095 0.078901105 -0.14399892 0.20334086 -0.0992157 -0.19340554 -0.05952798 0.17997451 0.21902254 0.05986572 -0.079334155 0.18687597 -0.35143754 -0.059190974 0.03825654 0.11181913 0.053883962 -0.12377947 0.12943383 0.19147523 -0.068541124 0.19647494 0.18764119 0.07609547 -0.018948514 0.042947754 0.0062859342 0.1011943 0.10028447 -0.07870523 0.05217958 -0.16340692 -0.0051482767 -0.17736621
flour|NN 0.026500396 -0.24558356 -0.0742189 0.08265463 -0.23103338 -0.07627678 0.012897766 -0.11232079 0.099874705 0.036636297 -0.26065245 -0.04870129 0.012673726 -0.10256712 -0.026209852 -0.096617565 0.024380643 -0.05755198 -0.0470263 -0.066834405 0.029457288 0.15382974 0.027061587 0.2735696 0.14917834 -0.13612932 -0.11138626 -0.04251145 -0.1829576 -0.07049399 -0.03627429 0.075864606 0.06267622 0.14343031 0.106345385 -0.26099595 0.027472598 -0.22169381 0.031094478 0.09235901 0.05196504 -0.1880752 0.17156722 -0.08722617 0.22420108 -0.36645716 -0.06162066 -0.32645497 -0.0024704328 -0.0880755
time|NN -0.20815279 -0.044103973 0.069554605 -0.12806834 0.2170024 0.07087505 -0.049693912 0.21910472 0.019000115 0.12973146 -0.08262584 0.10258438 -0.22118707 -0.05594212 0.04107147 -0.057678692 -0.0071097175 0.054294974 -0.040565718 0.25327194 0.38958386 -0.063298464 -0.016297016 0.0905239 -0.018789966 -0.011452446 -0.24815771 0.18517862 -0.071344115 0.2842679 -0.11012226 0.08400663 0.15532625 -0.15955903 0.10781785 -0.024272965 0.008350063 0.09505894 -0.06264498 -0.01636215 0.080061294 0.03628206 0.161121 0.051299833 0.15899032 0.02575272 -0.09612237 0.22008546 0.017347986 -0.33088076
little|JJ -0.06784946 -0.074221246 -0.025157318 -0.05057613 -0.007846254 0.008812729 -0.22807 0.15839784 -0.065370046 0.16645373 -0.13521916 -0.03645577 -0.18601273 -0.10135534 -0.13280806 -0.03219709 -0.021756759 -0.43252593 0.30377173 -0.035580263 0.13913265 0.08737759 -0.0033628894 0.03714167 -0.042877115 -0.0996881 0.020664807 0.022726769 -0.23274069 -0.24967039 -0.0045482824 0.09711386 0.095487975 0.18695466 -0.048366696 0.13885696 -0.04037364 -0.3529089 -0.0004799938 -0.0044082124 0.064359464 0.018635446 0.003127273 0.12548296 -0.10918373 -0.06417843 -0.17304944 0.03488085 -0.29301217 -0.031101726
has|VBZ -0.06613224 0.04163645 0.09229392 0.14590663 -0.09107081 0.055719644 -0.026862612 -0.07610663 0.32376817 0.11004841 -0.06705233 0.026509682 -0.017230159 0.012681294 0.23663592 0.27826262 -0.12916401 0.26236057 0.17536429 -0.0047969352 -0.23319565 -0.09008925 0.091767 -0.03450603 0.18819495 -0.05816302 -0.066761896 0.20527568 -0.06776287 0.035845835 -0.1525504 0.23025084 -0.09259887 -0.1179786 -0.11016815 -0.24931043 0.3099883 0.0348511 0.14937222 0.06453625 0.12158865 0.0077267764 -0.092869304 -0.14490795 0.15178412 0.059340104 0.022543844 0.15552811 0.09554116 0.09366179
1|CD 0.09877799 0.11129556 0.07138317 0.08238189 -0.21355474 0.0655867 0.023317028 0.0312945 0.16476034 -0.16330506 0.15804426 -0.29002687 -0.039716437 0.1971727 0.050185096 -0.15637928 -0.012495465 -0.008584224 -0.0903898 0.11319552 -0.053431634 -0.010982565 -0.16985485 -0.09585384 -0.23012073 0.25279 0.12258431 0.03597444 0.058498524 0.06468149 0.0100230975 -0.014802567 -0.031244772 0.060697384 -0.2094315 -0.3383693 0.20169087 -0.18949038 -0.31172428 -0.12941039 -0.1221492 -0.021032302 0.091025464 0.038805168 -0.06809902 0.107005835 -0.020961946 -0.24567556 0.08830097 0.13236356
Then|RB 0.06497802 -0.055529986 -0.1251138 -0.0052972403 -0.16715267 0.1934156 -0.24862362 0.11299699 0.14664528 -0.034276925 -0.24106987 -0.09040517 -0.0882462 -0.2523354 0.15917496 -0.12579788 -0.22300878 0.24768938 -0.054575056 0.039702374 -0.08309646 0.09063884 -0.01805453 0.15837662 -0.15703285 0.11460581 -0.17912138 0.1507229 -0.23014683 -0.026966458 -0.0929085 -0.002693259 0.20429349 0.058554124 0.09621025 0.18448207 -0.12550779 0.17906684 -0.14177541 -0.09215181 0.05307095 0.043078333 0.022015616 -0.18789215 0.032597758 -0.17199108 -0.020762516 0.03635663 -0.08538307 -0.2817507
also|RB -0.27011448 -0.09290325 0.26798686 -0.031393897 -0.1452312 0.17414732 0.20687798 -0.05960406 -0.27157477 0.04788887 -0.0007930427 -0.03725144 0.077078044 0.013593383 -0.20668983 -0.07816927 -0.022618672 -0.2820782 0.0019577132 -0.12255406 -0.04550997 -0.06354665 -0.11132648 0.018750262 0.07129487 -0.21394053 0.21631509 -0.079867035 0.13509774 -0.1302863 -0.20884556 -0.113737725 0.052975316 0.04593948 -0.17779718 0.27255505 0.21725136 0.02244562 -0.1023029 0.10522655 -0.062013473 0.050622713 0.1305861 0.08794555 -0.006756507 -0.066864796 -0.1157676 0.09476032 -0.19469117 -0.17212845
have|VBP -0.14500174 -0.17930159 0.033331536 0.0063368822 0.17866607 0.063234635 0.05632494 -0.0039342428 0.14146693 0.042266726 0.13065314 0.28961498 0.061994545 0.037001815 0.0059056105 0.24802788 0.007182118 0.11329502 0.13451713 0.18626125 0.20304464 -0.06336787 -0.019066544 0.11999003 0.2168464 -0.0058591557 -0.12207148 -0.11807516 0.22143644 0.20946236 -0.16467564 0.19978552 -0.07710805 0.026202682 0.07287971 -0.17693053 0.04715108 -0.10072887 0.023029882 0.023636328 0.011306314 -0.10691665 0.018261189 0.102849744 0.045078933 0.055891663 -0.415065 0.12922011 -0.27301088 -0.08769065
but|CC -0.04202186 -0.0061162813 0.19111075 -0.37353233 0.24773443 0.2493398 -0.040447418 0.20899788 -0.053754304 0.07688491 -0.09065825 -0.09004008 0.06995474 0.22064398 -0.08330296 -0.19397013 0.010706704 0.16538964 -0.02728147 -0.039364353 0.07079798 -0.05219181 -0.17201872 -0.18294957 -0.10892128 -0.06699287 0.20070666 -0.048819765 0.121076666 -0.15056266 -0.1596264 -0.22079143 -0.09722501 -0.08834592 -0.0045086863 -0.06202907 0.054090213 -0.12501137 -0.10332632 -0.10607888 -0.042842843 0.19583875 0.16603555 0.09049154 -0.07054884 0.2943034 -0.15567064 -0.048458677 -0.050356343 -0.024940107
paper|NN -0.017580181 -0.18921182 -0.15631859 0.045549437 -0.03908065 -0.14786701 -0.1808017 0.020958895 -0.24805537 0.026037965 -0.15931141 -0.014675664 0.15355839 -0.16112576 -0.08240639 -0.2536559 0.07335806 -0.22283484 -0.028218385 -0.2305406 -0.17439133 -0.010341537 0.12621424 0.06868944 -0.06114528 -0.23806468 0.06780973 0.009750017 -0.08880161 0.0676446 0.05349834 -0.2503169 -0.018078333 -0.09255404 -0.069731876 0.2518143 -0.05275848 0.014174263 -0.06708514 0.22974624 -0.3272778 -0.0078071263 0.0142379515 0.045125846 0.20040585 -0.06887534 -0.24921924 0.025451709 0.120842636 0.0054557803
take|VB -0.20820896 -0.13294543 -0.2094253 -0.05584082 0.05687125 0.17673612 0.06657185 0.17881249 0.10916169 0.049886767 0.1124021 0.15684491 -0.00196018 -0.22071522 -0.03376538 0.3847506 -0.103817254 -0.08901753 -0.023600463 -0.011602197 -0.033914458 0.108867414 0.11455054 -0.19240303 -0.16774544 -0.06653864 -0.24651524 0.07477775 0.094168626 -0.062217485 -0.13471425 0.25575155 0.01842534 -0.24367759 0.020791491 -0.008895931 0.21883495 -0.16093275 -0.11008993 -0.15346482 0.10343609 -0.07504875 0.07409436 -0.12465572 0.02932582 0.16318977 -0.077478744 -0.19007744 0.13040972 -0.012278122
any|DT -0.25034642 0.04076952 -0.18659532 -0.1740168 -0.10362426 0.16496442 0.04010706 -0.041681755 -0.21986817 0.10782996 0.1655265 0.2097915 0.057457343 -0.033522703 0.0020685927 -0.107659906 -0.08091771 0.068020836 0.095820405 0.16196479 -0.114426725 -0.14442264 0.2718703 0.053356327 -0.0017770667 -0.22110619 0.21262397 -0.083734825 0.05341338 -0.08906431 -0.25107896 -0.0677622 -0.14613223 0.31624085 -0.19812578 0.14792253 -0.11347534 -0.026607819 -0.03682398 0.0780154 -0.18249628 0.031649563 0.019435786 -0.025220245 0.0665133 -0.044431563 -0.019914718 0.021545194 -0.07109582 -0.30639544
onions|NNS 0.12432889 -0.079013966 0.037676502 0.19714396 0.036975615 -0.058900867 0.14521113 -0.13066997 -0.0072952025 0.11180937 -0.1492881 -0.009136453 -0.17079529 -0.15966153 0.012882636 -0.038359806 0.15755036 0.031273138 -0.08775181 0.15037939 -0.055104136 0.10353338 -0.31194562 0.105809726 0.18037805 0.1270559 0.17895971 -0.2329224 -0.12893239 -0.20351686 0.14914747 0.13848859 -0.19457328 0.17827165 -0.021468373 0.26051936 -0.0036124482 -0.24648097 0.06559948 0.11977993 0.06611959 -0.13817702 0.21654713 0.06772437 -0.21416482 -0.0802403 0.13971947 -0.0437936 -0.10428333 0.11848676
turkey|NN -0.00063396554 -0.1688669 -0.08074545 -0.05570844 0.115053855 -0.16102704 -0.08723726 0.13041106 0.3624335 -0.049061928 0.06270792 -0.04236517 0.15791057 -0.012438621 -0.110570654 0.0042385133 0.07726599 -0.06005201 -0.0066673975 0.15108512 -0.22383596 0.0086571695 0.09954677 0.07402942 0.014074651 -0.039291974 -0.016681159 -0.29226577 0.1387774 -0.024437599 -0.057748597 0.12896593 -0.061762054 -0.17941977 0.11528981 -0.017519664 -0.019094493 0.16470948 0.049033534 -0.16229852 -0.0823395 0.122743286 -0.22628728 -0.3459156 -0.29463676 0.14785783 -0.124447405 0.16206597 0.19213513 0.100386575
they|PRP -0.13264586 0.2356834 0.017815437 0.0104944045 0.17974669 0.0506506 0.08873769 -0.048441257 0.043969706 -0.14389801 0.021530464 -0.04005614 0.16455618 0.2127572 0.16669509 0.07603176 -0.15323032 0.30321345 -0.015954727 -0.032408904 -0.09657121 -0.06614484 -0.24368502 0.09230662 0.11269713 -0.18033388 -0.02779944 0.07677784 -0.12233124 0.13519841 0.03830128 -0.046229918 0.22111137 -0.19296387 0.06808812 0.1700221 -0.36229149 0.112518184 0.18016662 0.086727925 -0.009784181 -0.04988139 -0.11516826 -0.15001391 -0.14820345 0.08444365 -0.21068357 0.13488616 -0.0541253 0.16470478
Take|VB -0.061838683 -0.16346784 -0.002154336 0.005951606 -0.187843 -0.019449642 0.070718944 -0.18355258 -0.15217935 0.024740018 0.004345873 0.27717832 0.09198686 -0.01742655 0.064842 -0.047983777 -0.15724494 0.06661166 -0.1350346 -0.096488304 -0.15353072 -0.19767812 0.28335655 -6.910863e-05 -0.10047376 0.12936562 -0.2871779 0.3281663 -0.19334951 -0.117222615 -0.015928298 0.04464434 -0.22688252 -0.3235666 -0.09235353 -0.08240435 0.14628248 0.037261013 -0.15310667 0.028499037 -0.099048436 0.0345946 0.14556228 -0.019254258 -0.031127112 0.108169645 -0.07315341 -0.01701767 0.11406749 0.16350934
brown|NN 0.010276921 -0.12668236 0.087948866 -0.070988014 -0.09086385 -0.081299 0.0008773538 -0.16567466 0.2798645 -0.16186178 -0.31730494 -0.14288191 -0.14765958 -0.03337551 0.20610073 0.16633016 -0.03593547 0.082556084 0.0666233 0.17638916 -0.13527714 -0.17513067 -0.06640502 -0.2575302 0.21505742 -0.12919639 -0.050748304 0.057560552 -0.31404218 0.07563052 0.12640175 -0.06277345 0.17887364 -0.14843692 -0.011616489 0.06534737 0.007534846 0.24833639 0.10025744 0.004218495 -0.20218767 0.10135823 -0.02459143 -0.046941284 -0.0564381 0.09296699 0.12017336 0.0041827643 0.08197848 0.19084944
when|WRB -0.07324277 -0.030828934 0.12200847 -0.056983408 0.06973794 0.3239419 -0.09739605 0.07194015 0.15771708 -0.20980139 -0.057764415 0.08612486 0.111736834 0.012417978 0.068230726 0.10215148 0.045097545 0.023587693 0.1825117 0.30925974 -0.034678586 -0.002075963 -0.19521423 -0.06720297 0.18906942 -0.1109431 -0.10887727 -0.032244258 -0.19476144 0.045291524 -0.12089926 -0.08895238 0.19541757 -0.10301616 0.06114997 0.16649538 -0.14369754 0.19985959 0.18973646 -0.123146735 -0.043868016 0.07086251 -0.3800267 -0.10304086 -0.08476125 0.062149756 -0.0743207 0.06367676 0.080447175 0.25254413
that|WDT -0.18702888 -0.077475496 -0.12366384 0.15930055 -0.009422002 -0.04103941 -0.04503836 -0.044845853 -0.028543346 0.11396801 0.25664803 0.21317855 0.063779205 0.21294181 0.036154192 0.0714532 0.07974036 0.009504228 -0.028949182 0.06285541 -0.052480005 -0.2889321 -0.14372508 0.15467262 0.18914409 -0.0668537 -0.09207033 -0.032650612 0.08161302 0.076526724 -0.23093146 -0.053563166 0.07091502 0.25851798 -0.19548772 0.0035689592 -0.013813069 0.062443662 0.31279045 0.1545958 -0.09124029 0.057002056 0.20575203 -0.12276262 -0.16648376 0.13082159 -0.32477054 0.060289573 -0.079962075 -0.0761977
hot|JJ 0.23886989 0.18131994 0.09539107 -0.25820568 0.08264206 -0.18017799 0.0019247192 -0.05163864 -0.12070262 -0.20010175 -0.20291366 -0.09076835 -0.011541804 -0.009975406 -0.021072181 0.108149834 0.12918426 -0.024279254 0.11803717 -0.048707645 0.103634454 0.17426829 0.24243009 -0.11751648 0.29010013 -0.05444116 -0.17214803 -0.21647237 0.07962813 -0.0018267902 0.011153218 0.08926496 -0.1939399 0.056899346 -0.02801271 -0.11095266 0.09127422 -0.18464805 -0.12529665 0.11171105 -0.21409197 -0.07098775 -0.20276634 -0.17955361 0.15626927 -0.09734896 -0.10529716 0.025265682 0.23250027 -0.046350725
Stir|NNP -0.1374927 -0.0014392488 0.13176523 0.1432993 -0.23091218 0.014705698 0.17045556 -0.17504208 0.07414222 0.026559558 -0.11840877 -0.05093228 0.07390332 -0.1192681 0.0277162 0.15362339 0.15613031 0.24573924 0.012135619 -0.21795312 0.003368607 0.1801916 -0.12161622 0.0053571216 -0.0002572682 0.19257882 -0.048048936 -0.31983975 -0.2334979 0.023700843 0.08819221 0.21065335 0.082621746 -0.020451369 -0.107232 0.15625487 0.18521173 -0.23004623 0.043923147 -0.17743035 0.18624426 0.16870287 0.0107633155 -0.093748175 0.08445189 -0.15357012 0.13208073 0.0054821656 -0.013129159 0.22414216
half|NN -0.0041162446 -0.08762477 0.2152775 0.08849086 0.037884697 0.013249366 0.003367077 0.024700979 -0.20541035 -0.050574884 0.14884524 0.1586227 -0.19311033 -0.044316925 -0.054328576 -0.25013068 0.12900552 -0.06796532 -0.24314108 -0.1292726 0.11896358 -0.10591126 -0.024245761 -0.042419694 -0.2621241 -0.16337384 -0.18410459 -0.17734067 0.08783098 -0.04956701 0.20099328 -0.047671255 -0.08068511 0.09319179 -0.22849198 -0.01358107 0.053922404 -0.24925771 -0.18153036 0.054827545 -0.10361471 -0.18003547 0.38580543 0.104529426 -0.027766634 0.030273376 -0.02801671 0.034947738 0.05641396 0.14913923
eggs|NNS 0.11248154 0.1341085 0.0037602116 0.38099128 0.058823 0.02834234 -0.04026571 -0.074426785 0.32083055 0.049487684 0.030517882 -0.06548792 0.14933445 0.15289503 0.15876722 -0.21574096 0.056037482 0.16604671 -0.019434929 0.08707195 0.08481634 0.035729 -0.042903047 0.0027680555 0.20307063 0.14276643 -0.020108556 -0.17798623 -0.028150322 -0.012953281 0.15956146 -0.08347717 0.18858199 -0.008352064 -0.07678025 -0.30849624 -0.16638206 -0.026054231 -0.2883488 -0.117099136 0.114689596 -0.03037498 0.24741475 -0.2158811 0.0974701 -0.05859574 -0.011893435 -0.0645735 -0.076985456 -0.04092089
cook|VB -0.05002679 -0.07067286 -0.10139761 0.07623897 0.11393413 -0.17224893 -0.04569318 -0.064282015 0.26957086 -0.0369623 0.053921606 -0.18410082 -0.12356995 -0.30665177 -0.13279368 0.038077764 -0.22661918 0.20284733 -0.014257889 0.012238951 -0.12208381 -0.115253836 0.025341244 -0.11677743 0.13209152 0.099126376 0.012771503 -0.12136855 -0.07727159 0.25462794 0.104856886 0.017941019 0.26814792 -0.116643146 -0.20787433 -0.023433235 -0.053253442 0.009554688 0.013966961 -0.16893293 0.23817146 0.027563823 0.18738005 -0.053475946 -0.15248807 0.14725596 0.10598287 -0.05845108 0.33260316 -0.045849424
golden|JJ 0.032310527 -0.09785152 0.083265856 -0.08321251 -0.11084265 -0.085135214 -0.040297598 -0.09082075 0.20869455 -0.120423935 -0.32496563 -0.17949592 -0.1474204 -0.0459566 0.23531353 0.1543644 -0.022446046 0.061240852 0.070050485 0.23815809 -0.048027236 -0.18473631 -0.038308352 -0.17000362 0.24855936 -0.17148621 -0.0687292 0.02177603 -0.3362941 0.10230607 0.13398202 -0.124035895 0.1321944 -0.19799025 0.0079187285 0.14835417 -0.025592893 0.23339714 0.06772323 0.046179485 -0.14954704 0.101899736 -0.029731063 -0.030450156 -0.036058206 0.1422606 0.1636872 0.027095636 0.112018645 0.15639447
place|NN 0.16130304 0.20491298 0.04821163 0.062764 -0.13285768 -0.43214604 -0.25282612 -0.08959406 0.11179064 -0.11386853 0.010019509 0.14619166 -0.021676572 0.033660267 -0.039381918 0.105443954 0.07776052 0.0132067865 0.121231504 -0.06922443 -0.16614568 0.078566864 0.033338405 0.09038004 -0.019599501 0.045466304 0.044389024 0.17602701 0.123563476 0.0059482157 0.073647015 0.1223506 -0.02014375 0.061323352 -0.039443005 0.2988158 0.21292336 0.24134567 -0.15758127 0.17995386 0.091184005 -0.11408267 -0.030263385 -0.08889127 -0.03518143 -0.13369301 0.0001698359 -0.043391634 0.32618004 0.18695599
done|VBN -0.1349169 -0.351543 -0.13919006 -0.32041314 0.18139651 0.3103864 0.07088996 0.2690957 -0.035246544 0.07500063 -0.11467831 0.19061483 0.06321463 -0.12737691 0.018893242 0.2337661 0.13104895 0.002755713 0.016730422 -0.007832868 -0.036256917 -0.037786316 0.23929545 -0.16396363 -0.053973828 -0.08513377 -0.13814905 -0.20216079 -0.117690824 -0.0012816886 0.0004956282 0.07859374 -0.035784155 -0.17664772 0.14679533 0.12227943 0.06575166 0.10443839 -0.011051731 0.035306986 0.08106169 0.058662683 0.016638637 -0.09856651 0.08813436 0.21029545 0.058595303 0.013558164 0.19421253 -0.06665673
pie|NN 0.010521239 -0.028222164 0.10669266 -0.07111724 0.03738953 0.12341338 -0.13945486 -0.07646611 -0.04939312 -0.08999266 -0.15000644 0.24535908 0.12171354 0.13425584 -0.15284038 -0.0007120946 -0.24399334 -0.07672302 0.0072940756 0.18077731 0.08178177 -0.041418854 0.14040124 -0.12984514 0.03642579 -0.1111825 0.19404832 -0.075010166 -0.08051427 0.056777667 0.16771694 -0.25621995 -0.03405456 0.04993076 0.14162548 -0.0047065187 0.0039211363 0.30203873 0.044243246 -0.010353617 -0.27808735 -0.080352835 -0.121020995 0.16805203 -0.30891168 -0.14828146 0.097079836 -0.3238253 -0.08039325 -0.0763148
remaining|VBG 0.14353207 0.17628384 0.13394316 0.09917051 -0.14499803 0.033857994 -0.030638712 0.056812584 -0.01874994 0.044373468 0.045857046 -0.02135178 0.07602971 0.008149594 0.08997046 0.12712899 0.2941377 0.18094142 -0.3012113 -0.35609215 0.009257564 -0.043763876 -0.18404968 0.085882336 -0.12183123 0.15303034 -0.22623159 -0.092922494 -0.17641617 -0.18559802 0.04579601 -0.010911336 -0.10306341 0.1426238 -0.038961906 -0.07446522 0.11394296 -0.30780044 -0.004779626 0.048032016 -0.008642506 -0.05467847 0.08648102 0.27992755 -0.18139555 -0.11781618 0.06844839 0.067365065 -0.13490263 -0.04622609
Make|NNP -0.08394907 -0.24510737 -0.14422876 -0.13780695 -0.1564328 0.03466937 -0.09921922 0.060494013 0.009863999 -0.006859705 0.19851457 0.10917694 -0.058883835 0.30017114 0.24288256 0.11797438 0.0006854122 0.36441284 -0.0006967882 -0.15827198 -0.081995785 -0.13371608 0.07714894 0.1699234 -0.056347914 -0.06269423 -0.059117664 0.13075301 0.21119842 -0.053208437 0.14375336 0.09112898 -0.00088975695 0.1250738 0.013754972 0.025047556 0.023275254 0.0431419 -0.011873315 -0.13094838 -0.24229915 0.040819895 -0.075505085 0.15094595 -0.021944754 0.25655314 -0.16019902 -0.29978922 0.03757413 -0.079438895
Remove|VB 0.016686048 -0.043889206 -0.08193001 -0.00019549114 -0.07797521 -0.18378608 -0.10372338 0.07561638 -0.019837413 0.08482228 0.041287877 -0.031232696 -0.010446787 0.047792375 -0.22450717 -0.038326763 -0.19073795 0.14211603 -0.012257371 0.20016174 -0.3844713 -0.14424264 0.2633644 0.11756318 -0.0191007 -0.033132747 -0.09794928 -0.087923706 -0.15506156 0.035207976 0.12526046 -0.20270537 0.13311738 -0.24105898 0.22094935 0.00375674 -0.08369496 0.11149636 -0.24160679 0.24276821 -0.039773803 0.003706936 0.07891369 0.12229601 0.11077781 -0.07199501 0.103063256 0.15493408 0.24195571 0.16109855
sure|JJ -0.0019172499 -0.30829456 -0.07499717 0.031123646 0.020040099 -0.04386483 0.05212652 -0.047254924 0.08519658 -0.12817007 0.18217967 0.08994195 -0.04188716 0.18771562 0.064812504 0.0777601 0.09157562 0.26221704 0.07425494 -0.09471277 0.057952877 -0.04213234 0.105183996 0.07218211 0.18416783 0.05794299 0.1205227 0.36915544 0.105588466 -0.08069958 0.031821117 -0.09846779 0.0037808672 -0.15845492 0.0065098093 0.17331274 -0.22098646 0.16979212 0.0009115602 0.055741854 -0.16066873 0.17119136 -0.034503724 0.21467127 -0.19412291 0.2858308 -0.22434998 -0.006878125 -0.13493255 -0.15184209
To|TO 0.07520211 0.18979415 0.07356356 -0.055546056 0.068374515 -0.11257181 0.042750552 -0.13688844 0.02645112 -0.10847189 0.009358142 0.20122999 0.22458133 -0.046873532 -0.11578998 0.001827956 0.11004485 -0.16746236 0.04921637 0.34273288 0.11255612 -0.03785293 0.06230146 0.098072216 -0.19716623 -0.12566423 0.34164923 0.11747765 -0.03854367 0.22693677 0.05185134 -0.15127979 0.03213613 0.1456992 0.06121523 -0.045992218 0.36366668 0.06973229 0.1247601 -0.047024943 0.027118277 -0.19495857 -0.14940439 0.118766025 0.0623 -0.25322345 -0.036367662 0.11413103 -0.026797839 -0.01301228
cool|VB 0.016487302 -0.056173455 0.024637558 0.03831554 0.05335322 -0.077101745 -0.14587846 -0.023218324 0.06336508 0.042525027 -0.096854955 0.07643443 -0.067372195 -0.2149636 0.08699083 -0.031988136 -0.13227172 0.13126953 -0.17332087 0.16532049 -0.24172147 0.012128288 0.26369256 0.051820397 -0.11148646 0.13631418 -0.32551765 -0.056827705 -0.15602824 -0.022059364 -0.10669567 0.092932135 -0.19569625 -0.10549303 -0.12153918 0.025045685 -0.13038681 0.30540076 0.04939232 -0.12362516 0.084598884 -0.017670238 0.2628841 -0.09916921 0.083485804 0.059390962 -0.0031368188 0.07374034 0.3593685 -0.22634773
serving|VBG 0.04905326 -0.055698663 0.24343379 -0.022383006 0.030128138 -0.012465659 -0.30663732 0.021672912 0.09922772 -0.08583317 0.07580689 0.013567322 0.07019962 -0.270494 -0.21655345 -0.064529195 -0.18057404 -0.025498647 -0.0544511 -0.09900597 -0.043222144 0.034563553 0.029408328 -0.0029707933 -0.046871364 -0.04834589 -0.09072093 -0.13720502 -0.008005944 -0.0061033517 -0.019328853 0.34677488 -0.20466882 -0.05062542 0.08088273 0.21266364 -0.025721312 0.31735617 -0.007802564 -0.08983488 0.21096963 -0.15501179 0.25590035 -0.21332254 -0.10675481 -0.1439896 -0.1895431 -0.03357936 0.15927587 0.069177635
should|MD 0.08957018 0.015313127 -0.05654673 -0.15815386 0.18500009 0.11503925 -0.0135477595 0.06844515 0.09495031 0.20468062 0.17416817 -0.098918214 0.13342124 -0.15453064 0.02023524 0.044487357 0.07288029 0.06028577 0.20065403 0.017566506 -0.0025748052 -0.11900032 0.081592 -0.088094264 0.19706675 -0.06866785 0.005902363 -0.049098566 -0.0012974219 0.40189296 -0.23577338 -0.05932274 -0.13076095 0.054882366 0.24797627 0.043734733 -0.055941213 0.07870702 -0.15272544 -0.008293 -0.2425391 0.070796154 0.14450638 -0.037734218 -0.06965737 0.31741136 0.026408894 -0.1216 0.18738592 0.2698222
slices|NNS 0.2953941 -0.0790181 0.047893703 0.3243173 -0.22049831 0.081372835 -0.07333167 0.16589269 -0.19357176 -0.14071582 0.021320898 -0.055481493 0.09957198 -0.12049199 -0.03423482 0.0002502622 -0.1019836 -0.18095738 -0.21027654 -0.000150803 -0.15024331 0.08875219 -0.08779988 0.10798073 0.093018316 -0.09219236 0.16199043 0.27607843 -0.1826272 -0.26453996 0.09778693 0.060355365 0.026715184 -0.047114678 0.027197536 0.047160428 -0.036876675 0.29233924 -0.0075595286 0.052979935 -0.13815384 0.06782384 0.09404498 0.15761556 0.010738797 0.13992594 -0.1487866 0.2142043 -0.07797751 0.06625439
out|IN -0.10999213 -0.15981795 -0.14437312 0.081752986 -0.01721008 -0.010696132 0.09649895 -0.012112935 0.023162711 -0.043636505 -0.12634729 0.22566447 0.21191728 0.16473106 0.07650622 0.002719776 -0.06262311 -0.0418388 0.002343677 -0.12714985 -0.1934437 0.027345587 0.29617116 -0.06531243 -0.29907072 -0.10055563 -0.30533347 0.12731685 -0.121704675 -0.23073514 -0.1268054 0.11450409 -0.33109578 -0.06999799 0.083029576 -0.1696827 0.031891797 -0.041857004 -0.04753554 -0.22174509 0.01864542 -0.012477188 -0.01979297 -0.11202711 0.1894615 0.13825783 -0.09169786 -0.009947199 0.15268879 -0.12170149
small|JJ 0.29798067 0.060644582 0.07707799 -0.037626922 -0.17067014 -0.059514165 0.13661817 -0.06207 0.0026303742 0.0037327947 0.0904538 -0.36018193 0.15619242 0.078717 0.06909692 -0.036920246 0.014035475 -0.1802522 -0.009023606 -0.016484803 0.1916195 0.11494879 0.2225408 0.08943795 0.2472708 0.22944027 0.18617897 0.051349256 0.100227736 0.19757777 -0.02031553 -0.12641776 0.22819757 0.14474325 -0.07966329 0.040253937 -0.009711404 -0.280275 -0.19770014 -0.16183178 -0.22701965 -0.005695405 -0.0556032 0.05225366 -0.06831147 -0.05241206 0.03153957 0.13989328 0.053935077 0.008346765
so|RB 0.097488776 -0.2214908 -0.0006652825 -0.11183258 0.14530377 -0.1906971 -0.025814205 0.11773558 0.1270299 0.13059732 -0.05249523 -0.091864154 -0.02243956 0.0016074032 -0.07576537 0.20904729 -0.26434106 0.080873415 -0.006627497 0.15284356 0.3015459 0.02313234 -0.05687415 0.36256433 0.050284423 -0.0014353989 -0.13111869 -0.0073555154 0.072943486 0.12411044 -0.39874968 0.18056028 0.005663805 0.10943616 -0.11281842 -0.04126128 -0.15303117 0.041902736 0.13779165 -0.027029242 -0.06878186 -0.020997664 -0.11709809 0.16786851 0.029574439 0.031818613 -0.19035701 0.105324455 -0.18268913 -0.059378214
medium|NN 0.045888565 0.20402697 -0.10616357 0.16478491 0.01494604 -0.03333414 0.21178675 -0.18845762 0.034947034 -0.050946813 -0.009388293 -0.20183463 -0.18586072 -0.045414075 -0.27246627 0.11720289 0.13001375 -0.025833895 -0.01946925 0.18945281 -0.075850524 0.12589419 0.2574019 0.12842926 0.053018562 0.18376361 0.26625678 -0.24613431 0.0025997115 0.15111782 0.15987952 0.14512399 -0.1498847 -0.07665586 0.06039478 -0.034052223 0.07531411 0.03594388 0.266383 -0.05599078 -0.17699341 -0.14075127 -0.048946068 -0.00762586 -0.23218873 -0.10159427 0.18484662 0.0016375865 0.06646432 -0.024055222
egg|NN 0.2027188 0.026106978 -0.18716615 -0.030894361 -0.08659479 0.15411499 0.23871839 -0.030472986 0.19501425 -0.24615447 -0.07692857 -0.1410116 -0.09790655 -0.16225882 -0.10582572 0.06310033 -0.035519578 -0.018531522 -0.17977479 0.02091689 0.16409399 0.17091796 0.062412057 0.32976022 0.22726096 0.07863969 -0.02522359 -0.055964984 0.10723307 -0.22818118 0.11172937 -0.11148164 0.1178418 -0.07526654 0.043341212 -0.20541495 0.057901382 0.09972222 -0.15943179 0.04753336 0.047955718 -0.01714486 0.0980402 -0.06572221 0.29709193 -0.1941493 -0.0907609 -0.11932782 0.09693915 -0.15931407
3|CD 0.09467122 0.010499852 -0.031894892 0.045280527 -0.10149531 0.012325844 0.061813742 0.198828 -0.08273569 -0.032896616 0.19012511 -0.3113422 0.14592806 -0.13007033 -0.052606385 -0.03131277 -0.023970315 0.09341734 0.059557788 0.25199142 -0.07488018 -0.10623325 -0.13689254 0.039676808 -0.2866963 0.07082411 0.042592857 -0.18135156 -0.05425925 0.17376405 -0.020654796 0.0054537943 0.0094345035 0.07668183 -0.00676885 -0.18431677 0.22078703 -0.31839302 0.04217949 -0.14732741 -0.06482209 -0.028984733 0.024793014 -0.06107976 -0.18335855 -0.052116524 0.037022483 -0.25764903 0.13238311 0.37070796
hours|NNS -0.18175584 0.0048215096 -0.058322255 0.05105861 0.02744127 -0.09005953 0.018578308 -0.10245023 -0.02931663 0.05997236 0.24246615 -0.15083203 0.0427655 -0.0479137 -0.060843166 -0.031565666 -0.1292668 -0.06837918 -0.053730085 0.21983223 0.12211503 -0.084720984 -0.109562464 0.17358886 0.051855803 0.08753004 0.13943149 -0.09472885 -0.02279088 -0.037094668 -0.27927092 0.11388159 0.017658759 -0.13824543 0.04509872 -0.005554981 -0.007745485 0.13999766 -0.055608213 -0.22254005 -0.25421175 0.1128795 0.052199297 0.08816128 -0.04341433 0.3311221 -0.16383775 -0.057229076 0.26417032 0.43000492
cookies|NNS -0.029843975 0.14205684 0.04506911 0.24788699 0.063502274 0.17226101 -0.11007071 -0.17410424 0.03094882 -0.023490522 0.008246183 0.16832462 0.030924741 -0.22354783 0.03616341 0.07859975 -0.046917595 -0.046902567 0.04004946 0.026868485 -0.40891415 0.036835603 0.062466536 0.025432127 -0.0026066683 -0.19039136 -0.03855023 0.25016028 -0.1250216 -0.105094574 -0.19174856 0.05256459 0.002452721 0.11613862 0.31708577 0.073910244 -0.038275246 0.07021035 0.10566384 -0.3372453 -0.22570498 0.13887434 -0.004466922 0.0049055275 0.15898885 -0.20359649 -0.1048132 0.028360954 0.06027285 -0.037406165
allow|VB -0.060895775 -0.03523238 -0.3585118 -0.15626909 0.113296226 0.12580882 -0.23909996 -0.05443639 -0.006498328 0.06982994 0.015694274 -0.14869529 -0.1633832 -0.009062706 -0.22081168 0.096148215 -0.42656314 0.067598656 0.06735116 -0.038885113 -0.22840545 0.014955568 0.1474435 -0.18167588 0.09679832 0.042117655 -0.18435378 -0.20633632 0.18395704 0.032713767 0.23534739 -0.0076082833 -0.09934352 0.01359829 -0.07055602 0.029653894 0.08619864 0.07047654 -0.012823645 0.10983795 0.10803998 0.07230935 0.13165674 -0.10989771 0.082400486 0.014986869 0.08446236 -0.094958685 0.22591344 -0.049233984
Put|VB 0.32251567 0.067479715 -0.17993824 0.06779338 0.021462092 0.056681737 -0.09013496 -0.08408907 0.17360573 -0.12909874 -0.24889785 -0.038343925 0.0042333803 -0.18456915 0.18775909 -0.15578541 0.020630779 -0.07413769 -0.010984843 -0.024622848 -0.17667419 0.15952328 0.19942492 0.15629612 0.18985248 -0.066728145 0.2784306 0.06614549 -0.2429082 0.068578064 0.18399821 0.13148056 0.0037093908 0.11295625 -0.05788274 -0.082083754 -0.008363442 0.26529986 0.13938323 -0.07521964 -0.06406388 -0.13505045 -0.07376497 0.04126409 0.11508754 -0.21050678 0.19881897 0.058213755 0.12299766 -0.059238307
ginger|NN 0.09007684 -0.1741219 -0.1180348 -0.09570509 0.20045754 -0.21068527 0.12613851 0.23963375 -0.14455347 -0.031066773 -0.12005031 0.0008613521 -0.080097206 -0.24710771 0.025134556 -0.20027213 0.009507125 -0.0077842255 -0.016761176 0.24778672 -0.106725864 -0.0007327437 0.011484888 0.1966652 0.008462642 0.22749706 0.20812438 -0.04500232 -0.15049355 -0.25802973 -0.016795091 -0.06302967 0.08990158 -0.038540676 -0.23854814 -0.070738755 0.1329574 -0.023819478 -0.073726796 -0.03854373 0.17038313 -0.1612339 0.23670858 -0.2414986 -0.03062955 -0.08168963 -0.19830096 -0.06403754 -0.07208495 0.105559096
another|DT -0.03239209 -0.08291805 -0.067867115 -0.06811956 -0.19784336 0.118196286 0.11766597 -0.40481737 0.15621056 -0.17852275 -0.13085806 -0.16569607 -0.090468585 -0.07481988 -0.026452284 0.039259434 0.05712858 -0.028250525 -0.27409542 -0.03634032 -0.017805085 -0.13831584 0.14426194 -0.1236342 -0.027157193 0.13496916 0.16018772 -0.037149906 -0.062285874 0.14329286 0.059089076 -0.019475367 0.17396674 0.102377735 -0.27786598 -0.13871245 0.11324678 -0.13200635 -0.018158164 -0.14775403 0.19855078 0.19954655 0.3022516 -0.13214244 0.006126673 -0.0668249 0.1574646 -0.06182287 0.11643853 -0.021005563
all|DT -0.09798128 0.0046353983 0.20499012 0.25473216 0.107400484 0.050029397 0.21114734 0.0766445 0.027238 0.18128377 -0.08684751 -0.2124591 -0.08065294 0.19637181 0.1541696 -0.07173344 0.22730105 0.09109528 -0.044281997 -0.012532277 0.2552569 0.15452741 0.12825519 0.098325565 0.016231686 -0.101256825 0.106645994 -0.1352928 0.11879487 0.056932673 -0.32610524 -0.12959763 0.06896141 0.010430969 0.20033845 -0.10448124 0.34582618 -0.15611358 0.012889511 0.058164466 0.017960902 -0.038435623 0.031096792 0.01868181 -0.15253617 0.04542159 0.14112487 0.21275294 0.03294699 0.051373225
olive|JJ 0.16463766 -0.17552999 -0.057420585 0.16574405 0.07296627 -0.23661959 0.028489457 -0.077161364 -0.11502777 0.16126916 0.024072107 -0.29818618 0.008147756 0.008947575 -0.015797662 0.06478972 0.17397271 0.13927786 -0.032521117 -0.0047954447 0.01174313 -0.17185739 -0.20763628 -0.10668821 -0.017097315 0.3029599 0.046763316 0.00026705506 0.064972684 0.17305203 0.033951905 0.043489076 -0.12032242 0.08363323 -0.042171136 0.070683844 0.1394092 -0.22879568 0.18375865 0.12840475 -0.41740063 0.107457414 0.21120821 -0.06974882 -0.12194516 0.120937236 -0.11875249 -0.02333131 -0.08405213 0.082363665
dish|NN -0.03674387 0.24091744 0.1401429 -0.10179625 -0.05750808 0.23920938 -0.07559807 0.092743315 -0.051199842 0.0049344017 0.10172038 0.30496737 0.047075197 0.12774487 -0.1288369 0.07920643 -0.10879162 -0.18435627 0.12403303 -0.094065726 0.29054284 -0.09676068 0.06678847 0.04747059 -0.016758284 -0.14086665 -0.03107785 -0.2428122 -0.07222819 -0.049237996 0.08587995 -0.12429173 -0.017441573 -0.14060171 0.12186098 0.018628614 0.09331774 0.15599868 0.12775499 0.17033991 -0.30578142 -0.14415404 0.21451904 0.0060615335 -0.13538256 -0.15287302 -0.06867241 0.12923287 0.2628875 0.032887984
may|MD -0.020565622 -0.0569346 0.0457856 -0.24171998 0.039678663 0.18119536 0.08802497 0.0009244893 -0.15710996 0.26212388 0.26387697 0.15792222 0.100448675 0.023137642 -0.07842391 -0.016748002 -0.0050614174 -0.015230868 0.17552243 0.10340343 0.023385923 -0.059336893 0.0015175239 -0.020166226 -0.05510103 -0.1978023 -0.1515605 -0.007767422 0.12534788 -0.08679133 -0.37178543 0.18435088 -0.014572418 -0.004948215 -0.028303616 0.2666411 0.09193616 -0.09601169 -0.17637245 0.08444792 -0.15965831 0.34123313 0.012918452 -0.07264476 0.08988244 0.07069558 -0.29227298 -0.046062544 -0.011531226 -0.074696854
Let|VB -0.27617133 0.09660759 -0.2972571 -0.115314186 -0.039295524 0.009414457 -0.20513389 0.046885002 0.12442112 0.015806297 0.13269046 -0.20030934 -0.13012058 -0.011939009 0.0080494005 -0.19031413 -0.26563275 0.0509513 -0.00746575 0.0024584874 0.23639582 0.19788964 0.12879254 -0.020077214 -0.1094182 -0.031617902 -0.07910276 -0.111728266 -0.02918664 0.076485105 0.13589127 0.17479461 0.058273956 -0.1421538 -0.16551372 -0.106121674 0.20134036 0.24658093 -0.039196577 0.060614724 0.067744814 -0.082654 0.06826477 -0.056090496 0.06921654 -0.07192117 0.29132026 0.010807923 0.21599479 0.1941163
juice|NN 0.06849421 -0.1555403 0.28271994 0.012712801 0.0041762474 0.11372504 0.20420213 0.097850226 -0.08418501 -0.19901447 0.06422317 -0.031208975 0.099505536 0.19294783 -0.11131884 -0.11037346 0.07586829 -0.057568237 -0.09853756 0.101681024 0.18606223 0.20342925 -0.2798154 -0.23537531 -0.08723275 0.08322016 -0.022308655 -0.13161625 0.12161521 -0.2167998 -0.11814856 -0.075740814 -0.1869202 0.15334924 -0.0949833 -0.009559648 0.3014826 -0.0765409 -0.08090942 -0.11323253 0.20079334 0.2558644 0.1026266 -0.10766686 -0.0867272 -0.14682235 -0.08067721 -0.04696495 -0.035208173 0.0033374128
baking|VBG -0.026729086 -0.025260517 -0.18080185 0.04701364 0.029139884 -0.13144693 -0.010701929 0.15732259 -0.11186653 0.14958315 -0.055222876 0.13480133 0.13508922 -0.060322933 -0.057800207 -0.17299259 0.013677242 -0.096413486 0.0948743 0.16290605 -0.0128965 -0.094946966 -0.1572272 0.20821148 -0.0941301 0.21840958 0.05715694 0.03566672 -0.086560555 -0.22204792 0.20104796 -0.09750543 -0.13682477 -0.29113978 -0.055465918 0.16351695 0.13426508 -0.14759319 0.15833814 -0.019925818 -0.03237999 -0.227951 0.19126771 -0.13703233 0.062191445 -0.29432362 -0.09989359 -0.05991656 0.31648517 -0.09062504
smooth|JJ -0.15714788 0.25290412 0.028212965 0.08683789 0.027964776 0.23868679 0.10325253 -0.028463906 0.31411278 -0.02235617 -0.10570383 -0.14454168 -0.046336174 0.00477137 0.17404085 0.110721916 -0.025990758 -0.22568354 -0.065197825 -0.021047564 0.07892788 0.20770769 0.029720338 0.17414328 0.13130528 0.107413165 0.090741284 -0.10268025 -0.1940349 -0.15066464 -0.100218534 0.14129059 0.2942369 0.118760966 0.24152288 -0.13369693 0.11853024 -0.25097927 0.05350217 0.033296365 0.08961044 -0.24380612 -0.0055435766 0.09996347 0.045476805 -0.16235091 0.027021814 -0.05161781 -0.116738096 -0.046831217
very|RB 0.025286911 0.08967402 0.00048023538 -0.21779881 -0.03288739 0.18790923 0.15444759 -0.013417129 -0.09343587 -0.08405269 0.09630175 0.08563035 0.016888766 0.13539717 0.022029836 0.0058800355 -0.13508864 0.047296394 0.020368647 0.023262423 0.32419446 0.018218478 0.252867 0.29137993 0.26138577 0.18934086 -0.06438321 -0.199733 -0.051295795 0.10712404 -0.25833482 0.08960368 0.08797744 0.30030584 0.00905723 0.13530384 0.025257915 -0.12006559 0.23687282 0.13895103 -0.1660602 0.0007183599 -0.11817163 -0.02968328 -0.011909151 0.019373775 -0.14062853 0.15700476 -0.06490534 -0.14405875
soda|NN -0.03683341 -0.13567834 -0.1905877 0.08897202 -0.09370453 -0.18934377 -0.04889429 0.13162906 -0.16580169 0.019292118 0.08257729 0.14161037 0.17607078 -0.03788702 -0.0028918628 -0.07209898 0.06906805 0.12150181 0.08869153 0.2403547 -0.03821144 0.034570694 -0.08346934 0.16403908 0.14977826 -0.03255695 -0.014517281 0.095547244 0.041062497 -0.19682856 0.20833313 -0.071384594 0.06072276 -0.26633286 0.09091054 -0.08551791 0.31211296 -0.22366583 0.23231243 0.005940823 0.16507149 -0.03387642 0.10534874 -0.26876277 -0.09541673 -0.22447915 -0.025573626 0.088150606 0.2195933 -0.1276542
rack|NN -0.062554024 -0.17210162 0.011413788 0.082914546 -0.103739016 0.040581096 -0.28417626 0.1474504 -0.07209445 -0.1716644 -0.0741336 0.0735613 0.07770706 -0.30588907 0.027203975 -0.01844573 -0.007896909 -0.03372244 -0.120855495 0.047700267 -0.116065025 -0.15384115 0.35678405 0.13895407 -0.10141553 -0.036677767 -0.35091358 0.029457161 0.031662993 0.060527287 -0.012354455 0.12726168 -0.029274218 -0.07995151 0.021375995 0.02057478 -0.21265009 -0.0003569521 -0.049489 -0.12403665 -0.063491896 0.027606938 -0.030828653 -0.0363519 -0.046380263 0.24954748 -0.045093156 -0.008369177 0.4266247 -0.11417182
tablespoons|NNS 0.3186451 0.08568732 -0.08378049 0.1110425 0.03096116 -0.052236844 0.117806494 0.18066922 -0.2593429 -0.08331535 -0.03591879 -0.14305525 0.10779766 -0.014566222 0.004213792 -0.052695654 0.16902514 0.13045146 -0.10753051 0.10008165 -0.06580261 -0.085871466 -0.096593805 0.07657038 -0.121206515 0.123654515 0.29398173 -0.124557525 0.09896067 0.016023753 0.18205358 -0.013168121 -0.15646495 -0.044587392 -0.17598858 0.009955016 0.038667016 -0.45364526 0.08083177 0.04645756 -0.14413717 0.0016229991 0.24969713 -0.0636156 -0.17130043 0.070695125 0.073299 -0.08916563 -0.039832063 0.17800474
fresh|JJ -0.07231784 -0.058790956 0.458779 -0.16745126 0.16882984 0.068335086 0.10437077 0.03945115 -0.0181662 0.004375027 0.1258923 0.22689146 0.26387545 0.19517745 -0.19419987 -0.17907809 0.075892635 -0.095940664 -0.011472827 0.09973826 -0.019246459 0.12359117 -0.040632173 -0.13371032 -0.00038944735 -0.05145431 0.06414206 0.031982616 0.09747089 -0.100187644 -0.03995568 -0.28372046 0.03343866 0.17071675 0.020822946 -0.06839487 0.1460477 0.036390167 -0.089557625 0.01608004 -0.042570885 0.31158084 -0.08054824 -0.28318906 -0.026367223 0.12119018 -0.060297325 -0.1347997 0.056322087 0.010285134
fruit|NN 0.15704149 -0.22062826 0.26324716 0.050869398 0.034459498 0.033465076 -0.3316065 0.26377526 0.017254975 -0.06856088 0.12945293 -0.06869061 -0.06984273 0.111259416 -0.022662768 -0.1879809 -0.12476946 -0.14713274 -0.10041737 -0.05877138 0.015460639 -0.034480564 -0.27826926 0.10008177 0.19301061 -0.21325365 0.2073995 -0.039913516 0.03704966 -0.056715153 -0.16114259 0.039911307 -0.029245086 0.3094028 0.011039959 -0.027838832 0.086876236 0.043867107 -0.066498786 -0.05469325 -0.22631821 0.15077268 0.11180529 -0.07505007 0.17704071 0.023265287 -0.13084264 -0.028244838 -0.14059733 0.1349226
ice|NN -0.08017154 0.088864066 -0.010280389 0.1912288 -0.019021465 0.089090265 -0.25265902 0.18851626 0.034213617 -0.0634027 0.16555758 0.004089128 -0.12083954 0.18735589 0.14704342 -0.12480475 -0.1213897 -0.03503175 -0.08136275 -0.004238628 0.148576 0.016090715 -0.056388043 -0.0033700117 -0.15873782 0.14917596 0.19843866 -0.0068038795 0.115749314 -0.26471442 -0.05768982 -0.26105246 -0.08541873 0.12206209 -0.0139515 -0.21008971 0.40884256 -0.057760477 -0.15117493 -0.14474192 0.0057092537 0.110166006 0.123271994 -0.27383247 -0.054517675 -0.087755956 -0.112096466 -0.046457957 -0.04686866 0.14524542
soft|JJ -0.2779284 -0.013636074 0.05903793 0.1758472 0.041555945 0.02454294 -0.016939066 -0.20650795 0.18824556 0.07240349 -0.010930499 -0.12795284 0.055048294 -0.14168711 0.07306613 0.27013457 0.23929447 0.07706939 -0.044523895 0.25827086 0.07290203 0.1955124 -0.1252659 -0.11472445 0.3402507 0.109547146 0.042378366 -0.27327746 -0.090666994 0.123559766 0.07173019 0.09099858 -0.1101898 -0.12516403 -0.115045734 -0.01119375 -0.11137364 0.04689899 0.11265771 -0.0070387353 0.114935614 0.10207557 0.11419828 0.043543443 0.10892472 0.021422107 0.079696804 -0.067794956 -0.2025656 0.25978267
everything|NN 0.07536664 -0.33815572 0.06853948 -0.13479272 -0.13971962 0.008102945 0.16454881 -0.22574024 0.09861425 -0.05035169 -0.10518681 -0.08273287 -0.13243176 0.025001017 -0.17300242 0.28856367 -0.19350319 0.16232783 -0.19467361 -0.1520618 0.23131067 0.051433533 -0.025262114 0.21219783 -0.10747353 0.0712488 0.014031514 -0.008588854 -0.29096606 -0.23282985 -0.016584478 0.07363152 0.2776656 0.05567057 0.028283214 -0.070566446 -0.04968641 -0.077801436 0.013683214 -0.024912464 0.072366245 0.08674587 -0.106571116 -0.017837582 0.079985164 -0.024718162 0.22538514 0.11540659 -0.027616926 -0.1349901
skillet|NN 0.22952767 -0.03165173 0.028118148 0.09497929 0.094487734 -0.13688834 0.15448937 -0.079100795 -0.13426211 -0.07679974 -0.15001999 -0.088106595 0.055503942 0.17511629 -0.025225356 0.09941724 0.18230401 0.14694825 -0.21718988 0.10686299 -0.16187243 -0.07623657 0.07215055 0.15681966 -0.046340577 0.25993243 -0.14700486 -0.2721249 -0.13418777 0.05984287 0.38755134 -0.0035005321 -0.10141446 -0.047523003 0.2176432 0.19901519 -0.09383679 -0.24948333 0.16645892 -0.05363973 -0.06450471 0.08275974 -0.06653613 -0.082428716 -0.108316064 0.04814976 -0.09321974 0.03146824 -0.12894712 0.0640985
side|NN 0.09460615 -0.09265296 0.004301355 -0.1255641 0.025406215 -0.02554655 0.11313527 0.11582936 -0.026565544 -0.16965255 -0.054113884 -0.20715584 -0.105217256 -0.014719382 0.12298856 0.16127576 0.0846264 -0.037349105 0.24659762 0.013311679 -0.0056876023 -0.36608732 0.17971438 -0.15922788 -0.1488227 -0.3334678 -0.05658516 0.01133119 -0.09298434 0.09496636 -0.014986194 0.23014456 0.050151143 -0.021400135 0.041449685 0.10335162 0.019722393 0.2404246 -0.10407881 0.13781515 -0.04304357 -0.19543381 0.17400004 0.046721853 -0.19236518 0.12062511 -0.068000354 -0.059161104 0.08734519 0.31531823
prepare|VB -0.10086778 0.14964229 0.079131395 -0.108937345 0.29554346 -0.047960777 -0.19966032 0.26601955 -0.07733161 -0.2673641 0.19981427 0.1282538 0.04841846 -0.06426877 -0.15152134 -0.021897474 0.08257264 -0.11487367 0.08044877 0.052154843 0.04739708 -0.20433283 -0.035467837 0.05674342 -0.06812723 0.17020176 0.10477904 0.0013566171 -0.05797858 0.24882193 -0.003382161 -0.011465054 0.010754181 0.107655 0.15679735 0.047385424 0.09505863 0.26461363 -0.21339297 -0.32124814 0.04943308 0.1752477 -0.0057597775 -0.004472392 -0.05001493 -0.10520131 -0.07473946 0.17776565 -0.21688282 0.01593827
Now|RB -0.17039864 -0.04759207 -0.14912017 -0.0654476 0.33972904 0.012089712 -0.0710494 -0.10635531 0.10240884 -0.03326193 -0.042545907 0.20577078 0.17050253 -0.10581342 0.14613806 -0.05874707 -0.15542163 -0.015894055 0.057358567 -0.16382577 0.008414586 0.010828134 -0.12756774 0.24541387 0.0123224445 -0.12741007 0.16612238 0.018561358 0.13739774 -0.37389907 -0.017916206 -0.12025256 0.017598026 0.03860527 0.025079412 -0.05196221 -0.18378025 0.184636 -0.27110857 -0.22941352 0.08448322 -0.12150313 0.14929917 -0.12517053 0.17065011 -0.15810224 -0.118173875 -0.10089598 -0.051792003 0.022235416
carrots|NNS -0.14816502 -0.2917203 0.04619577 0.07865807 -0.0391146 0.021785647 0.32510558 -0.16047344 -0.2097554 0.13486452 -0.08786231 -0.002972952 0.03284344 -0.14961095 -0.11571738 0.33830705 -0.071334 0.10151682 0.2049854 -0.07146954 0.12809834 0.014443887 0.12022179 -0.08422299 -0.14444157 0.0028032705 -0.03099872 -0.045700986 -0.07638034 -0.032723825 0.04045882 -0.10826988 -0.058568828 0.09476272 -0.19464296 0.013051477 -0.16235039 -0.1302752 -0.05585642 -0.23489505 0.0821062 0.12524205 0.19123402 -0.07700504 -0.09940971 0.016462717 0.15179187 -0.20673217 -0.29850435 0.055047713
vegetables|NNS -0.23355392 -0.08459283 0.067855656 0.19716877 -0.050636772 0.08563038 0.048161592 -0.10976823 -0.035523076 -0.041055262 -0.15388197 0.14167717 0.13934813 -0.08887909 -0.02860206 0.16619144 0.13502283 0.18493907 -0.030938242 0.07597058 0.032172587 -0.3903089 0.1910962 -0.12124167 0.13379982 0.097508654 -0.26069278 -0.10379041 -0.047928117 0.0010634217 -0.24871507 -0.013614005 0.04071763 0.13059655 0.014987714 0.1975465 0.13879366 -0.1411193 -0.061284404 0.21611421 0.04847161 -0.04811631 0.040924698 0.081483915 0.02993482 0.15047836 0.23624341 -0.24824283 -0.13336635 -0.12046459
