1716 50
the|DT 0.16356613 0.06601586 -0.11004087 0.07139339 0.09733844 0.06576693 -0.2914813 -0.074136 0.1429838 -0.022368697 -0.14426164 0.056566417 0.23478995 0.12684706 -0.13440849 0.028396405 0.16166036 -0.037583206 0.22022049 0.16397488 0.1873587 0.117473386 0.2229547 0.08628717 -0.0046892106 -0.060101353 -0.0675282 0.23117787 0.014641676 0.0119015705 0.27922302 0.06923287 0.033814494 0.21011886 -0.1280036 0.32702827 -0.014623924 0.26938963 -0.056798037 -0.075644515 0.01027271 -0.1587502 -0.059983246 0.118868664 0.0479648 -0.123962 0.04535246 -0.023344241 0.018111717 -0.211302
a|DT -0.32344493 -0.0631037 -0.20003273 -0.033191603 -0.044153586 0.03337309 -0.2523343 0.010521435 -0.00015226389 0.21090357 -0.19842188 0.13913529 -0.020980414 0.049150933 -0.16232044 0.006889544 0.087965846 -0.11842866 -0.044570502 -0.124453254 0.04382227 0.14889051 -0.03250865 0.17754577 -0.028427698 0.16684139 0.034333378 0.19536379 0.0004454 -0.0123059675 0.17071687 0.06627473 0.090829216 0.065736406 -0.061570548 0.0927986 0.25349048 0.117935814 0.023487747 0.20284323 -0.17323509 0.12524085 0.14534256 0.14410572 -0.06255671 -0.15377487 0.112403266 -0.031860173 0.29086927 -0.30847254
or|CC -0.017821245 -0.17975722 0.058877807 -0.14465678 0.122934334 -0.019060321 -0.074425 -0.22309567 -0.016511971 0.3449083 -0.17152649 -0.06690152 -0.09921078 0.13986966 -0.09065557 -0.013972841 0.1283105 -0.046175223 0.08630677 0.13600658 -0.06923519 0.052186303 -0.08222523 0.111108504 -0.20779812 0.04826553 0.016260667 0.106700495 0.048532445 -0.29459172 0.2614988 -0.001505758 -0.15058914 -0.08559399 -0.117653735 0.06834681 0.1447194 0.05689739 0.11780548 0.20319094 -0.26267517 0.03493156 -0.06568844 0.15091695 0.15483068 -0.07273892 -0.020140614 -0.26269233 0.17073067 -0.20589736
to|TO 0.019338125 -0.071225524 -0.23179133 0.014423744 -0.03571621 0.23129056 -0.010993704 0.086698666 0.028164597 -0.10715322 0.33778065 -0.05115985 0.11955562 0.03474807 0.115444005 -0.031839963 0.12778035 0.24864157 0.15446986 0.047764122 0.07811892 0.20827389 -0.05273267 0.24426708 0.14519586 0.13330117 0.09167187 0.3385114 0.009830496 -0.10691529 0.19916615 -0.16670734 -0.08790504 0.039966438 -0.089906245 0.16383252 0.17283496 0.20519465 -0.041496433 0.043737598 -0.14017509 0.19293697 -0.084728286 0.050067347 0.102870874 -0.21354625 -0.02256257 -0.13735203 0.018192554 -0.0041982215
and|CC 0.07339665 -0.217519 -0.06341411 -0.13881896 0.176622 0.121465124 -0.04610689 -0.113347106 -0.1833393 0.25585923 -0.22499423 0.116479665 -0.012574269 -0.060271855 -0.058379147 0.008822712 0.07602199 0.2682581 0.22304188 -0.042695682 0.24010302 0.33304423 0.16858244 0.24043389 -0.011335781 -0.030772172 0.021961758 0.08990861 0.05575957 -0.09477317 -0.07742372 0.09663947 -0.0172285 0.00081597676 -0.09828973 0.12951611 0.051086415 0.26948813 0.058224898 0.04360832 0.011002044 -0.19758125 -0.102489844 -0.14340295 0.06633363 -0.21427456 -0.03689462 -0.105011314 0.103351906 -0.14316036
of|IN 0.071191885 -0.081475906 0.062233098 0.012475511 0.13339575 0.067226544 -0.030372825 -0.11581152 0.17693083 0.26690444 -0.38734335 -0.011941814 0.024294838 0.05769572 -0.112318315 -0.017383482 0.19824158 0.04031234 0.061060756 -0.04603812 0.15085505 0.34731394 0.035023376 0.104184866 -0.0065566543 -0.10192751 0.03667692 0.121953174 -0.108136155 0.12020678 0.3249268 -0.05227823 0.10428925 0.129044 -0.09101261 0.0903184 -0.07293051 0.07526301 -0.012189242 0.25580502 0.007195825 -0.18159992 -0.02643458 -0.11556492 0.012457483 -0.23529296 -0.07225011 -0.05900568 0.2826203 -0.054792404
your|PRP$ 0.12921758 -0.039464477 -0.109180585 -0.09040139 0.13607173 -0.07563966 -0.024374902 -0.011693486 -0.02888716 0.32265696 -0.013849934 -0.20723058 0.14862475 -0.087843105 -0.096723676 -0.11067496 -0.08713811 0.09956904 0.010267854 0.016580183 -0.016845046 0.08635612 -0.021464145 0.2320574 0.17275432 -0.019865917 0.024404632 0.10173552 0.13728385 -0.27124426 0.14001852 0.1962649 0.10763426 0.056345757 -0.05160319 0.25013104 0.0887419 0.028628482 -0.081131555 0.07099148 -0.30773628 0.2516834 -0.23022206 0.08216432 0.084431134 -0.15297689 -0.22921176 -0.019330664 0.20325279 -0.15055926
you|PRP -0.20981152 0.014656461 -0.03138721 0.1089253 -0.1899958 0.27408874 0.10219399 0.051293068 0.03882809 -0.054244112 0.19423096 0.02382978 0.16603513 0.027457958 0.05184236 0.0690591 0.20072417 -0.034412008 -0.040145595 -0.14841841 0.039143782 -0.040707197 -0.0041911206 0.21737356 0.05560302 0.120637335 -0.08734219 0.24270202 0.11834446 -0.14888822 0.19077578 0.019231914 0.040867675 0.08600927 -0.07867372 0.3433778 0.05028285 0.09330014 -0.21630108 0.18397115 -0.29651222 0.23061192 0.04273222 -0.15341534 0.011522315 -0.035349168 -0.19771636 -0.13342912 -0.12602592 -0.041858446
in|IN 0.040682476 -0.17779082 -0.0061481236 -0.30419952 0.010172293 -0.02810004 -0.2561327 0.092531405 -0.06611809 0.3367953 -0.15173295 -0.18366845 0.13679908 0.19939286 -0.24109025 -0.10961481 -0.102542795 0.124973595 0.32406855 0.09634661 0.15957062 -0.042039152 0.095387354 0.05020552 0.03378604 0.1439247 -0.03849845 0.26917902 0.14735194 0.029448673 -0.0111829145 0.09123351 0.019788811 -0.045711637 -0.1888921 0.027208228 0.07483307 0.12328404 -0.057551313 0.12515421 0.020099835 0.028551875 0.023983162 -0.0013167395 0.06446861 -0.050070375 -0.15319157 0.06606126 0.19349773 -0.19342059
with|IN 0.10486726 -0.0415493 0.11906197 -0.025398044 0.016634367 -0.008102158 -0.18366557 -0.10889865 -0.16920665 0.10934344 -0.33070517 0.1779063 -0.10195051 0.09564329 -0.07365343 -0.09370366 0.25249234 0.025703307 -0.011309327 0.044562597 0.21874805 0.14456575 -0.04365636 0.20597224 0.0633528 -0.008349664 0.06582857 -0.027918965 0.20899923 -0.1306413 -0.000823783 -0.014717835 -0.009034444 -0.21064273 -0.16824152 0.017725857 -0.0029723863 0.14968246 -0.14045672 0.16163245 0.073601276 0.0025297909 0.017701352 -0.09531017 -0.14909805 -0.166789 0.14520855 -0.19861758 0.15116048 -0.41450074
can|MD -0.030312516 0.007444292 -0.124031864 -0.061314933 -0.20016114 0.04807695 0.097263634 -0.07818744 -0.03992116 0.052303646 0.116915666 -0.13102113 0.041462645 -0.06661898 0.051149976 -0.08412408 0.0027089445 0.009958494 0.26370987 0.09139181 0.20038474 -0.019331349 0.14963871 0.24326679 -0.16475306 0.0051759523 0.032752313 0.15536758 0.10225897 -0.2543721 -0.05370838 0.06153535 -0.09579718 0.1681715 0.1132671 0.09195993 0.12701197 0.07429297 -0.18670776 0.27048153 -0.18921639 0.33422282 0.034903474 0.018345747 0.08395498 0.04414669 0.048303254 -0.14382331 0.23415786 -0.33507815
for|IN -0.16903903 -0.19434214 -0.009850152 -0.093127124 -0.30450657 0.18412265 -0.011319578 0.26375023 -0.043835886 0.12847765 -0.042346913 0.08255277 -0.022709226 -0.1427313 -0.19804037 -0.15338406 0.11388909 0.15293974 0.03488562 -0.03552411 -0.045647405 -3.3040862e-05 0.06056835 0.10397001 0.009072739 0.01392482 -0.32920596 0.1882277 -0.08414387 -0.18762936 0.114826776 0.03809698 0.065735154 -0.012629054 0.15069915 0.2215234 -0.048493963 -0.023216095 -0.20261481 0.050929803 0.08239802 -0.05159622 0.12252734 0.10045679 0.11996065 -0.18345639 -0.026516592 -0.035105683 0.39236632 -0.01421496
it|PRP -0.15282826 0.00271827 -0.059244324 0.12484954 -0.075607546 0.18556197 -0.26236287 -0.09798614 -0.044685412 -0.23130976 -0.006653755 -0.024543224 0.197738 0.039638273 -0.018640019 0.048238497 0.07074277 0.073504545 -0.015196191 0.05258102 -0.04161103 -0.009268755 0.042574145 0.3826514 -0.17524709 -0.024046568 0.07473989 0.3258905 0.20469548 0.00048485765 0.17617902 0.03509682 -0.08343978 -0.045558173 -0.29046902 0.0019497586 0.08049405 0.2877596 -0.17173652 -0.08014386 0.051083587 0.08683398 -0.18183105 -0.06911119 -0.051768802 -0.047888953 -0.09367182 -0.08638193 -0.056246646 -0.2603383
on|IN -0.08700571 -0.15932396 -0.012413352 0.16742957 -0.09404712 0.17549568 0.041850585 0.079162315 -0.01929419 0.007138731 -0.06541081 0.19054641 -0.040951867 0.27817345 0.08703519 0.08324924 0.052352205 0.11511291 0.07373441 0.17690155 -0.008016046 -0.09368519 0.14308898 0.14979115 -0.37191197 0.13108705 -0.2197743 0.13814 0.004551411 -0.0153933 0.2956247 0.12764317 0.0642208 -0.014875957 -0.0034772549 0.19300252 -0.059864964 0.01641 -0.25850382 0.025023188 -0.14799204 -0.2243371 -0.13648762 -0.06012741 0.02070291 -0.15436864 -0.0506692 -0.17855261 0.15825579 -0.18488663
is|VBZ -0.26125664 -0.01984945 0.03175305 -0.028558232 0.025579523 0.3740627 -0.035547763 -0.026654992 -0.096759774 -0.024119318 -0.11834763 0.14660826 0.14427955 -0.08174838 -0.020749679 -0.0626004 0.14400852 0.11338219 -0.039441224 -0.176373 -0.086069964 0.043456856 0.20436138 0.2525704 -0.030975517 -0.20075282 0.012859715 0.21954463 -0.010708948 -0.17254058 0.1468703 -0.25830457 -0.2628318 0.2529995 -0.24274792 0.07550311 -0.048149977 0.14175928 0.100218326 -0.111457594 -0.051270757 0.14171438 -0.02329017 -0.11167418 -0.06258167 -0.04461805 -0.02853924 0.12615855 0.028384915 -0.13785703
be|VB 0.053473793 -0.11215449 0.044700902 -0.18720429 -0.101988986 0.20602554 0.18507007 -0.13758118 0.0022467868 0.097383074 -0.07893376 -0.009587458 0.1571174 -0.1807172 0.020825936 -0.12842174 -0.05367975 -0.08476311 0.18025942 0.028714018 0.08198256 -0.040576786 0.113124326 0.33677962 -0.14379437 -0.20067056 -0.06181692 0.20677565 -0.08881046 -0.06558966 -0.048255116 -0.17702362 -0.2057319 0.2328803 -0.069254726 0.23267959 -0.0944812 -0.094237424 -0.18720193 0.22140458 -0.042039696 0.33510372 0.029806558 -0.065917216 0.13530685 -0.06522271 0.096178934 -0.050821625 -0.0327862 -0.08904532
If|IN -0.27794012 0.033241566 -0.08222845 0.07110477 -0.077509165 0.32079166 0.010455367 -0.006192385 -0.06664926 -0.020685622 -0.047456957 -0.111216344 0.11874212 -0.015517104 -0.001671638 -0.09283503 0.19109887 -0.051907238 -0.017585024 -0.061055034 -0.045029733 0.062389117 0.1292653 0.1574382 -0.08760317 0.091985 -0.067806974 0.2679321 0.06354696 -0.17866682 0.29485536 0.0048429966 0.04135287 0.07782334 0.062999725 0.29358456 0.18233636 0.09063896 -0.10061165 0.20949395 -0.303922 0.19105983 -0.019899396 -0.035263207 -0.12566452 0.13811125 -0.25155807 0.023668567 -0.14200792 -0.09703077
are|VBP -0.17773207 -0.20479698 0.1094914 0.0015834875 -0.009154551 0.34977263 0.2094229 0.029769205 -0.16767289 0.25813252 -0.18241888 0.0068815714 -0.031824823 -0.035570573 0.08997985 -0.21215726 0.05469767 0.12048214 -0.012528811 -0.18443504 0.053862486 0.1848645 0.16898549 0.1909983 0.050944988 -0.14236446 -0.0619626 0.07209932 0.019234626 -0.2921177 0.111867055 0.015595889 -0.14644447 0.08237129 0.04372259 0.23228745 -0.15091115 -0.0012692817 -0.10336785 0.2293242 0.009680705 -0.14311819 0.16157496 -0.014531466 0.020717748 0.051480427 -0.07777833 0.20793174 0.092680804 0.041239653
will|MD 0.0007413404 0.07686808 -0.07946727 -0.038677372 -0.19037683 0.26149392 0.02351857 0.11689975 -0.037344065 -0.17093655 0.039978266 -0.24758153 0.15173164 -0.058614083 0.0955573 -0.18160927 0.06192767 0.14893177 0.24326149 0.15564862 0.11824252 0.05227707 0.1232195 0.34978983 -0.12789339 -0.16651322 0.16048461 0.24195887 0.04695048 -0.015698569 0.14353016 0.024798904 -0.27905518 0.21032527 -0.034779865 0.2150152 -0.12500402 0.008978353 0.05227032 0.024355564 -0.093933254 0.1314376 0.023571244 -0.07917658 0.08142503 -0.17422591 -0.086189106 -0.046763282 0.14192326 0.03732064
as|IN -0.091852754 -0.13387902 0.28595647 -0.13908508 -0.13700977 0.081736974 -0.03260506 0.13745478 -0.11367985 0.18911086 0.1619861 0.16143695 0.032268997 0.14618818 0.090570636 -0.1000496 -0.036886424 0.29543313 0.19617021 0.09999465 0.16319083 -0.011170761 0.13637573 0.2196352 -0.3098757 -0.16133976 -0.006593911 0.049033042 0.22629943 -0.024103394 -0.061878454 -0.15628523 -0.06780609 -0.020282108 -0.07045552 -0.015587652 0.05155352 -0.20657888 0.057689145 0.0813009 0.051764768 0.07732307 0.058642335 0.04212768 0.12849194 -0.12778999 0.21598461 -0.13345294 0.12570018 -0.24037115
from|IN 0.26794967 -0.2605564 -0.11700718 -0.20764953 0.19721198 -0.052158736 -0.046688545 -0.30957973 0.023868158 0.25093904 0.09629197 -0.091726236 0.04859654 -0.016694503 -0.06823618 -0.056742363 0.12549865 0.024230318 0.17404279 -0.014788953 0.052954685 0.17608562 -0.25288978 0.13805796 -0.14378898 0.18162099 -0.07567539 0.053495064 0.037035484 -0.3562501 0.221709 -0.030889228 -0.07789247 -0.11707976 -0.07781029 0.046266936 0.06924869 0.010920868 0.09424407 0.17915067 0.09389141 0.15923685 -0.011883169 0.10469454 0.13053814 -0.09769738 -0.0780099 0.108079866 0.015306613 -0.063977
water|NN -0.09225413 -0.019855056 -0.015991298 -0.13173136 -0.08089192 -0.04959351 -0.18635532 0.06224802 -0.14273928 0.18465027 -0.19247104 0.044548605 0.21383296 -0.16076593 -0.17452365 0.017135346 0.1439287 -0.019093204 0.23584773 0.11647469 0.10592636 0.24013251 -0.20639852 0.07070896 -0.048596304 -0.12291832 0.06582359 0.34817293 0.045388408 -0.05516282 0.06131537 -0.036251992 -0.204863 -0.12531218 -0.24501297 -0.16321294 -0.079725 -0.05541686 0.11411018 -0.1056985 0.17968522 -0.091403306 0.042854797 -0.2025551 -0.070003256 -0.060951047 0.18876983 -0.14836475 0.16238151 -0.12649256
You|PRP -0.11817028 0.059928536 -0.09846874 0.019426458 -0.24825846 0.07311378 0.082253896 -0.061815333 0.0984728 -0.017268317 0.13475212 -0.139772 0.042841643 -0.13704862 0.033047885 -0.020245746 -0.03572608 -0.10157975 0.094981045 0.055716284 0.123721965 -0.04575616 0.030261528 0.14618269 -0.0884698 0.020075163 -0.18150254 0.094819404 0.064626694 -0.20578364 0.14310466 0.22183745 -0.05121064 -0.03863504 0.16412812 0.11272172 0.14449632 0.1749429 -0.25139225 0.27536824 -0.29698616 0.26960227 -0.09687507 -0.05696206 0.060622804 0.052408848 -0.06767648 -0.33901763 0.18826264 -0.16139938
if|IN -0.26928943 -0.05827425 -0.012128226 -0.08060591 -0.06056516 0.26369792 -0.0023237618 -0.0003419738 -0.13667446 0.12251491 0.12075997 -0.13951328 0.18161884 -0.039686646 -0.033331957 -0.11383234 0.058564268 0.11819459 -0.10677982 -0.087955736 -0.013751454 -0.0015351279 0.013292246 0.13022561 -0.06917362 0.0775743 -0.33769327 0.14748368 0.12701954 -0.22848797 0.094456986 -0.03336014 -0.02371493 0.01937375 -0.13207261 0.28343558 0.05391088 0.08189631 -0.25989828 0.11117327 -0.14019968 0.19498886 0.047402747 -0.26613286 0.027991304 0.117689334 -0.29202136 0.02573987 -0.168432 -0.03325116
that|WDT -0.07584678 -0.094851315 0.092997774 -0.15783294 -0.15209702 0.28681856 0.14524968 0.036609206 -0.1670922 0.21134976 -0.20148577 0.09010388 -0.07993542 -0.035315573 -0.1285104 0.025313858 0.2584799 -0.046156604 -0.031544615 -0.14805782 0.043025486 -0.03687098 0.16187304 0.04511358 -0.09282095 -0.04633729 -0.1645155 0.05813166 -0.2007934 -0.28869614 0.009692152 -0.12340987 -0.18234977 0.24741276 -0.010323638 0.05526275 -0.027490271 0.15851668 -0.09936884 0.19875683 -0.027957663 0.20934537 -0.051996168 -0.04244731 0.008312042 -0.08460389 -0.028635295 0.13731295 0.21173643 -0.2837654
an|DT -0.15386583 -0.11670086 -0.002083339 -0.14923109 -0.17607175 0.13463934 -0.034386143 0.1916144 -0.03995745 0.1655256 -0.059751067 -0.02058862 -0.18239236 -0.053787466 -0.12785473 -0.13463286 -0.039735608 -0.028181955 -0.017552482 -0.14216489 -0.03827015 0.0957353 0.21410725 0.06140119 -0.1537648 0.1505003 -0.091740355 0.1401661 0.0742766 -0.37682062 -0.07284146 0.22941102 0.124741144 0.0403348 -0.17968881 -0.03250443 0.10062675 0.11511746 -0.023950493 0.09004404 -0.38016492 0.1823506 0.078988254 -0.07770347 -0.014746811 -0.17317706 0.037799485 -0.09326321 0.17458801 -0.20828956
them|PRP -0.06398913 -0.2771686 -0.016798766 -0.1467146 0.06525435 0.08579963 -0.018328534 0.18944688 -0.018043661 0.2963021 0.13180733 0.018178493 0.026935361 0.23349172 -0.042726837 -0.11381161 -0.2725329 0.12291531 0.036859896 0.0914684 0.012925408 0.051875472 0.08289952 0.070034415 0.00525826 0.053123947 -0.27834767 0.1805191 0.27875355 -0.10203418 0.09079268 0.15048593 0.035520706 -0.14846422 -0.04174002 0.2625867 0.06274752 0.10753217 -0.30335602 0.02333636 0.08889921 -0.045089595 0.15275596 -0.13410951 0.10701369 -0.18092626 -0.072557606 -0.094405614 -0.11135355 -0.061936155
any|DT 0.14768922 -0.06476152 -0.047812086 -0.06282441 -0.03953123 0.054612882 0.07730404 -0.041351747 -0.19375898 0.12576705 -0.040409688 -0.053159416 -0.10808324 -0.20174593 0.20243107 -0.01796358 0.32574683 0.15309142 0.077457294 0.03494579 -0.037061896 0.13076948 -0.16278288 0.08530619 -0.09130241 -0.06841706 -0.038455095 -0.116803534 0.22502117 -0.3593978 0.23138195 -0.085270986 0.04116396 -0.053393412 -0.26053703 0.1348615 -0.07774339 -0.0057218918 -0.15948123 0.10074198 0.045810133 0.20168926 -0.17609186 -0.281654 0.054063287 -0.007674972 -0.00475002 0.00889672 -0.028764658 -0.23866563
not|RB -0.17897637 -0.051136043 0.035215132 0.15190135 -0.1392059 0.3697166 -0.21412374 0.15110824 -0.16313358 0.059684556 0.008100613 -0.06625449 0.09301411 -0.08798938 0.21432658 0.105328694 0.1845956 0.1815664 0.09174866 0.1705507 -0.06044397 0.05529758 0.04972047 0.34455702 -0.17920822 -0.06959425 -0.0381035 0.26400614 0.06827471 -0.07824739 0.04827882 0.0033537862 -0.18251342 0.045287255 -0.06750515 0.12436279 -0.011445011 0.08228149 -0.06321597 -0.0140074 0.021568721 0.12905627 -0.23671488 -0.17682685 0.037311453 0.19013701 -0.14634775 0.016165083 -0.09221598 -0.12616886
may|MD -0.29120716 0.024054125 0.01966084 -0.02799917 -0.21580216 0.27379912 0.14703813 0.0976982 -0.16584705 0.23172073 -0.075211644 -0.06295016 0.10376188 -0.25485396 0.020616785 0.04663954 0.104103655 -0.07701106 0.19588456 0.05475413 0.025097193 0.05953927 0.008293696 0.10662956 -0.039222356 -0.09879396 -0.14500003 0.15943831 0.17264318 -0.23304114 0.03435985 -0.027934346 -0.17686555 0.05070238 0.07586115 0.2773589 -0.029786982 0.04580051 -0.12879379 0.046116095 -0.18629713 0.33310112 0.028279874 -0.16425401 0.04448151 0.16310282 -0.0328965 -0.13038725 -0.079417355 -0.09692062
at|IN 0.045950815 -0.20954482 -0.11707907 -0.078891955 -0.088705 -0.043937743 -0.12615149 -0.19052038 0.18825011 0.1657556 0.03888717 -0.07429689 0.14720707 -0.13175222 -0.42431548 0.05587457 0.09869915 -0.05564387 0.10371329 0.02750642 -0.049869016 0.1693136 0.07931794 0.26665536 -0.014712419 -0.07135228 -0.18958381 0.17894964 -0.20656471 -0.07087108 0.17518643 0.13151939 -0.06981008 -0.04273454 -0.08825753 0.06217799 0.0445037 -0.016180536 -0.045366973 0.24939898 0.22855254 -0.032343484 -0.051172875 0.080036156 0.11346186 -0.04075781 -0.17533483 -0.02517675 0.2486624 0.1521112
that|IN -0.12251694 0.04024593 0.026777979 -0.029760703 -0.10006652 0.21496603 -0.032287586 -0.09688939 0.030963857 -0.072425134 -0.17712875 -0.02373538 0.10454836 -0.12086692 0.14536026 -0.16243732 0.11370818 0.14202543 -0.058517538 -0.1213209 0.016689695 -0.052176647 0.09620876 0.26946288 -0.20603132 -0.01819698 0.05877122 0.0943923 0.3630128 -0.08984387 0.24787915 0.017915202 -0.1785022 0.12407506 -0.17893845 0.29310519 -0.098332666 -0.012112232 -0.106315754 0.19156066 0.05925018 0.15402591 -0.050116125 -0.16435538 0.12101928 -0.14214315 0.015349884 -0.07926291 -0.29976094 0.0077621667
use|VB -0.27561733 0.046986137 -0.043152057 0.12335677 -0.14628409 0.22388761 0.08527544 0.07239985 -0.05447735 -0.055403583 -0.06581506 -0.01257931 0.069132656 0.059304442 0.2562702 0.10076541 0.12660296 0.054356184 0.2286975 -0.035076063 0.19372943 0.01640922 0.07796778 -0.02809462 -0.12615214 0.092547566 -7.68895e-05 0.16680399 0.10194361 -0.28899616 0.0847273 0.045136314 -0.11465476 -0.045051698 0.081530444 0.113158196 0.1416022 0.06566484 0.01790882 0.16045944 -0.33367893 0.15071437 0.0010049992 -0.05572926 0.048248373 0.13444635 0.0845193 -0.29251125 0.19821106 -0.28075692
into|IN 0.003068546 -0.2935781 -0.09594151 -0.13277008 0.1887832 -0.103892 -0.1116341 0.0984179 -0.06781812 0.05936217 -0.21754673 0.026478969 -0.09702344 -0.030956602 -0.10164369 -0.030886577 -0.16378452 0.08184827 0.21946627 -0.04706088 0.29935342 0.121044904 -0.13340229 0.038050577 0.086209275 0.093603246 0.10626944 0.22890869 0.07420965 -0.16762199 0.11792931 -0.12217357 -0.009333086 0.02931924 -0.31457418 0.09165216 -0.089621626 0.079500616 -0.12927103 -0.05967022 -0.028070085 -0.016360978 -0.029160462 0.056611586 0.067982435 -0.31266358 0.13152589 0.15249296 -0.10910084 -0.29659566
up|RP 0.0107951285 -0.2228917 -0.081531845 0.03112284 0.28155488 -0.037445378 -0.26550418 -0.09611235 -0.03771247 0.0070093037 -0.015190195 0.09820676 -0.061269052 0.095032714 -0.07126935 0.063680574 -0.10230156 0.120508164 0.08379375 -0.07891012 0.06092005 0.18826415 -0.012602056 0.31294203 -0.183178 -0.106597036 0.051708218 0.11126491 0.0018846627 -0.095063075 0.19725856 -0.12804759 -0.00011818689 -0.11756675 -0.3050037 0.021907385 -0.08969753 0.20704906 -0.15346277 -0.07010311 0.020513495 0.11075679 -0.10600902 0.14641847 0.10423494 -0.16335262 0.0302857 0.13800034 0.10323679 -0.38584012
other|JJ 0.0457047 -0.061789528 0.19227318 -0.3150983 0.055929616 0.047918547 0.06785872 0.13395162 -0.0153217595 0.18210773 0.019775271 -0.13337398 -0.11819411 -0.030448357 -0.00274463 -0.1124078 0.061662223 0.22029437 -0.067653544 -0.11740857 0.027394986 0.030328976 -0.1282079 0.0909604 -0.09063383 0.14255062 -0.034174085 0.024894444 0.20006183 -0.33815077 -0.04219409 -0.049966846 -0.06142651 -0.014669948 -0.028700052 0.05973408 0.07605805 0.05649992 -0.17425382 0.3691139 -0.08960055 0.19259113 0.084390424 0.019461809 0.20915088 -0.1947719 0.13182811 0.13143145 0.1404155 -0.30342287
have|VBP -0.16565639 0.070911594 0.07220027 0.042903665 -0.008250109 0.24280074 0.25892696 -0.08808259 -0.22135521 0.14642039 0.076610595 -0.024148839 0.15841086 -0.09059842 0.017349545 -0.082399055 0.039890334 -0.0029426306 0.003100365 -0.039297834 -0.02220606 0.03782777 0.0222001 0.07343187 -0.020135706 0.08442632 -0.25892407 0.15141076 0.19914693 -0.17928904 0.14665106 0.054406073 -0.0041472525 0.15313685 -0.007213713 0.27135628 -0.025087237 0.03698532 -0.24464305 0.22888534 -0.23193315 0.24472462 0.1020504 -0.19138658 0.09869911 -0.04956417 -0.18424141 -0.15876491 -0.18977785 -0.15860845
by|IN 0.13849995 -0.07190983 -0.28326488 0.09553584 0.12952755 0.14333315 0.05475072 -0.117568284 0.013351047 0.034389004 0.07128369 -0.12989675 0.08152948 -0.04456615 -0.24129058 -0.15789804 0.22237726 0.12843773 -0.18405712 0.072253026 0.0076923342 -0.013273594 0.11818829 0.317011 -0.12378862 -0.1720045 0.075224966 0.14284958 0.070534274 -0.07468871 0.023637323 -0.10802571 0.063249975 0.10631753 -0.09773195 0.07519079 0.24256292 0.21416932 -0.09648164 0.058854826 0.03170176 0.13777088 -0.07559423 -0.17109199 -0.10005131 -0.10860552 0.09728238 -0.14277567 0.20149425 -0.3291238
also|RB -0.13388695 0.07442659 -0.05218294 -0.042000275 -0.2515414 0.14672224 0.271272 0.026902666 0.08672179 0.10257218 0.038721338 -0.065667175 0.032965958 -0.25739014 -0.05535393 -0.17167656 -0.02605021 0.09560751 0.24424905 0.3099523 0.17237231 0.039187804 0.15642685 0.21313272 -0.076340474 -0.08366627 -0.114069104 0.12276376 0.013932789 -0.24151383 0.050246093 0.120706774 -0.12965009 0.12785594 0.12483594 0.19502126 0.12980373 0.100611195 -0.13369828 0.16019595 -0.21278334 0.18434879 0.009767349 0.023341862 0.0023548787 0.098877095 0.015941665 -0.15165943 0.1700086 -0.08285754
room|NN -0.0030768355 0.03719764 0.066321395 -0.23862569 -0.24952295 0.101646036 -0.06330756 0.13239014 -0.001510288 -0.03187063 -0.047977902 -0.03830674 0.044574674 -0.0026693738 -0.19583401 -0.2990092 -0.19423158 0.14402144 0.0562218 -0.18188018 -0.025387209 -0.0010402969 0.21240093 0.30767727 -0.12414823 -0.09777356 0.12298383 0.06440316 -0.026396072 0.04164937 -0.019281195 -0.06493254 0.19224337 0.066840276 -0.14617099 0.17215028 0.1365099 -0.11360761 -0.19802149 0.28825045 -0.23215811 -0.009841456 0.1235238 0.011790742 -0.063010156 -0.036868572 -0.08605805 0.12019646 0.15423512 -0.2357281
using|VBG 0.10425764 -0.16707534 -0.14830475 0.114564545 0.0797161 -0.033352405 0.1229531 0.121233985 0.0019022151 0.05078284 -0.23423725 0.11178326 -0.00015578158 -0.01474636 0.050729103 -0.027868235 0.15981823 -0.11267792 0.107770875 0.027814861 0.17127544 0.29081196 0.08796132 0.005643748 -0.010271211 0.14373271 0.24857228 0.19888893 0.16644178 -0.2621415 0.058361888 -0.081553034 0.0012228893 -0.13540764 -0.0035394044 0.052392654 0.16743197 0.24078473 -0.00984385 0.14000863 0.040178284 0.070478864 0.024583751 0.032951068 -0.088661574 -0.19213085 0.25925088 -0.16403937 0.14329234 -0.3462777
out|RP 0.118610375 -0.17484772 0.16339724 -0.021471744 -0.012109352 0.018124029 -0.027924716 0.09986337 -0.02783865 0.11158241 0.1523823 0.24085642 0.017472895 -0.0873392 -0.16710222 -0.013054656 0.081392474 0.02633713 0.02255923 0.17938682 -0.004205235 0.20918478 0.059073087 0.31190166 0.014855214 0.12984635 0.0003062352 0.28996584 0.09559043 -0.20682469 0.15429656 0.042627387 0.0791339 -0.14111415 -0.004338394 0.13975622 0.14494771 0.25351077 -0.26044846 0.1632804 0.09796054 0.11351266 -0.2276835 -0.029490855 0.10071343 -0.29779163 0.08484968 -0.05538696 0.054908656 -0.10217394
this|DT -0.20515662 -0.1471459 -0.08470764 0.091193855 -0.20309755 0.19976811 -0.11167787 0.03522016 0.057809312 -0.056405194 0.07590159 0.07712981 -0.026853971 0.043991122 0.19097558 0.04224938 0.21779993 0.10831762 0.13779691 0.0035660905 0.036806162 0.05616573 0.26297113 0.3734264 -0.026831985 -0.014810404 -0.22142968 0.16632445 0.060328573 -0.060830228 0.114225835 -0.08959903 -0.0816961 0.018462567 -0.060958985 0.3249005 -0.070319556 -0.025628438 -0.055148985 -0.030762922 -0.14671323 0.21621569 -0.019232916 -0.04897766 0.069487795 -0.05470606 -0.098826274 -0.37150836 0.10373516 -0.078301005
soil|NN -0.023923347 -0.01337088 0.11138137 -0.049058396 0.056174133 -0.04307941 -0.023260877 -0.014568735 -0.020971997 -0.056564126 0.020475877 0.19168495 0.15744205 -0.0979429 -0.23896329 -0.11782039 0.03177206 0.029635096 0.15077817 0.14439021 0.085443035 0.3820899 -0.08572493 0.2866488 0.00010166321 -0.054377258 0.25825623 0.34883407 -0.0426235 -0.0023386632 0.015640717 -0.08032319 -0.119514674 0.11273168 -0.092449255 -0.10001604 0.0043354174 0.23757644 0.08491633 -0.06452359 0.23178244 -0.02132151 -0.21815786 0.14894912 -0.027214546 -0.22194612 -0.18950059 -0.117643595 0.054433584 -0.0657179
like|IN -0.088670805 -0.01934996 0.09940435 -0.112990834 0.09550515 0.13081104 0.25671545 -0.05210339 -0.107429706 -0.11190763 0.08302506 -0.10673186 0.09643076 0.051224973 0.023156065 -0.24047531 0.011584004 0.0779177 0.09756586 -0.011362643 0.05558504 -0.121720016 0.04141389 0.12218658 -0.38034242 0.32851043 -0.039559294 0.0062909713 0.21334822 -0.24296655 0.20698966 0.0146597335 0.09830694 -0.0015527277 0.057975244 0.104218304 0.15217888 -0.044737857 0.05386589 0.24032824 -0.10053153 0.014498876 0.19804876 -0.12184584 -0.029709743 -0.0517177 0.070504844 -0.21192865 0.17880459 -0.22343282
make|VB -0.03215423 0.07332274 -0.05970295 0.013920513 -0.04645186 0.23664185 0.02613935 0.051844433 0.023283204 -0.14240132 0.098356076 -0.043057892 -0.05651498 0.16210246 0.033838537 -0.11864313 0.024603793 0.12156157 0.07230723 -0.2128428 0.2986719 -0.022779541 0.08720825 0.3227827 -0.1104526 0.023525886 0.11327107 0.18179017 0.07174168 -0.21549909 0.16572165 -0.11779776 -0.0371999 0.09757793 0.083556525 0.19111332 0.14513817 0.038131844 0.006431691 0.19597691 -0.37112638 0.1363403 -0.08473978 0.18572508 -0.08078283 -0.034626197 0.047710463 -0.06298756 0.07147936 -0.31594208
area|NN 0.050094243 -0.08103472 -0.12656477 -0.09834335 -0.0879273 -0.12916777 -0.39074636 0.0370438 -0.247121 0.06753561 -0.25780475 -0.0369755 0.14748043 0.036809545 0.045944855 -0.00044349305 0.04710534 -0.05357421 0.19208297 0.029338654 -0.002674184 0.20079614 -0.14009848 0.26600578 -0.2424063 0.0065478613 0.15365009 0.12655152 0.028636407 -0.13251509 0.10373402 0.037845604 0.018183855 -0.04011192 -0.3690412 0.020198613 -0.14038733 -0.01736352 0.005480263 0.047604702 0.025070308 0.0437203 -0.00567651 -0.05511721 0.00017216889 -0.117565304 0.003281502 -0.006100392 0.20129587 -0.3235461
should|MD -0.09875606 -0.031613853 0.009288385 -0.08467296 -0.18483812 0.17775661 -0.03311201 -0.2594321 0.08569465 -0.054321997 -0.033164315 -0.0032566676 0.15949415 -0.17520219 -0.091232866 0.007882117 0.1613811 -0.065853596 0.22135086 0.018465785 -0.010030057 0.040520392 -0.01774221 0.42040443 -0.11721057 -0.30331716 -0.18099102 0.21608739 -0.16071731 0.053965114 0.031866763 -0.16545752 -0.2036244 0.1171229 -0.052472956 0.17582917 -0.19207484 0.069575205 -0.18307899 0.13326462 0.13557307 0.15660292 -0.13232806 0.049457934 0.02716947 -0.065876245 -0.11549852 -0.08558232 -0.004863192 0.023987578
This|DT -0.09583211 0.15814649 0.005018023 -0.0562715 -0.11066869 0.23129416 -0.044435743 0.051952228 -0.13477327 -0.055600565 0.04860681 -0.097956955 0.16089919 -0.035802543 0.010611058 -0.22709431 0.09387637 0.27989575 0.119332634 -0.077989034 0.10667004 0.1820196 0.1767444 0.20373733 -0.1206693 -0.140958 -0.047134835 0.19593054 0.041025605 -0.26909056 0.16715494 -0.02289446 -0.24221076 0.32157776 -0.05463517 0.209913 -0.11531018 0.0036714303 0.07289431 -0.09115233 -0.1878127 0.19305359 -0.03498785 -0.10228283 -0.049573097 -0.044247918 -0.15658538 0.110099226 0.12149192 0.04111699
they|PRP -0.083845995 -0.14340585 0.28023663 -0.07633491 -0.08536252 0.29269326 0.07213516 0.11831558 -0.15446623 0.16934282 -0.030212145 -0.06926411 0.20415919 -0.12603287 0.13460806 -0.17488702 -0.0516394 0.12576753 -0.05279323 0.0011796287 -0.004605985 0.06966245 0.036100715 0.23736553 -0.099449724 -0.123631716 -0.09553337 0.16050333 0.2672295 -0.09574933 0.095497705 0.019862244 -0.1545127 0.004975333 -0.008268267 0.2884287 -0.18547508 -0.023658276 -0.22049539 0.09318176 0.16516985 0.112740286 0.13895048 -0.09638571 0.24958564 -0.05015426 -0.10412246 0.0134811625 -0.18186961 -0.022432283
some|DT 0.02226916 0.0049275113 0.06272644 -0.12907879 -0.12558894 0.07248665 0.18355441 -0.1826213 0.27610448 0.026835812 0.053212363 -0.023746267 -0.14967042 -0.1401048 0.0974811 -0.18038128 0.067194454 0.23321852 0.06891607 0.32484198 0.08626651 0.036524855 0.22603354 0.35023463 -0.031564508 0.14084443 -0.025185993 0.054795057 0.010434464 -0.095103785 0.007747415 -0.03656851 0.11051581 -0.005496493 0.027061524 0.11344579 0.13449502 0.055558152 -0.1850162 0.1649015 -0.22961542 -0.014527387 -0.068641506 0.04369188 -0.076734625 0.047718577 -0.15354344 -0.34218562 0.15001242 -0.018117333
color|NN -0.050095186 0.07996384 -0.0079670185 0.0037359074 -0.16868296 0.31187218 -0.022658393 0.049021903 0.07833431 -0.11582865 -0.22294731 0.12427717 -0.060913898 -0.001529686 0.057160497 -0.076598294 -0.054613344 0.19796315 -0.09878786 -0.23133025 0.035025354 0.09187118 0.26990643 0.016987728 0.15730307 -0.02678313 0.033100914 0.08789582 0.06553975 -0.0074716173 -0.068051636 -0.079254165 0.11606061 -0.009010392 -0.05440581 0.23817243 0.07438314 0.1863368 -0.23982073 0.26602852 -0.17714256 -0.026631694 0.13461095 0.0039248927 -0.08839893 -0.025417766 -0.014474747 -0.1794705 0.36480373 -0.24713352
small|JJ 0.03398261 -0.16027717 -0.08891658 -0.064523764 0.049667224 -0.043264747 0.051681772 -0.054621287 0.0318072 0.1040491 -0.05878796 0.15402724 0.06553112 0.08909935 -0.09787617 0.100774154 -0.032667834 -0.212902 0.21977817 -0.03794855 0.29512575 0.15189806 -0.08477717 0.07628084 0.051014125 -0.009937836 0.0858881 0.27614412 -0.1153303 -0.06606195 0.1275782 -0.120735414 -0.0024742172 -0.0554262 -0.12531461 0.11445264 0.09185821 -0.024102982 0.058293093 0.19416131 -0.34743953 -0.1308255 0.057168096 0.2495062 -0.16690885 -0.21520747 0.17880015 -0.11229247 0.17234789 -0.30353987
plants|NNS -0.09622162 -0.08462077 0.23009346 -0.2283122 -0.08542093 0.14170821 -0.07155816 0.2555509 0.06904913 0.30838633 0.045757085 0.08056484 0.07347696 -0.063187614 -0.19390078 -0.1382922 0.06355124 0.113211006 0.053336363 0.11637218 0.018142123 0.13405609 -0.004747963 0.2112621 0.044251148 -0.008150048 0.027358854 0.14173111 -0.023895472 -0.12398745 0.054839626 0.018606529 -0.27243072 0.23390254 0.058710255 0.10587999 -0.12951902 0.16112496 0.055974882 0.16087331 0.21459615 0.10369999 -0.22987127 0.16836283 0.24365847 -0.11540572 -0.15523542 -0.00032878725 -0.08432732 -0.10275051
For|IN -0.14590044 -0.13052006 0.042673633 -0.20582674 -0.2006552 0.2648134 0.089941606 0.0074240435 0.13058904 0.03142194 -0.20696041 0.21714742 0.14757353 0.15138736 0.09287564 -0.12010246 -0.0441524 0.01616158 -0.043464188 -0.16362688 0.23840903 0.07850467 0.0712493 0.0077731814 0.12874702 0.102216564 -0.11718303 0.101790756 -0.032987144 -0.023909876 -0.04196311 0.03477436 -0.06016869 0.06422742 -0.12942769 0.18289976 0.15920398 -0.0133934915 0.030631006 0.17258745 -0.37241426 -0.059447136 0.27482677 0.0668181 -0.2072633 0.031880036 0.0018393385 -0.23074406 0.16954426 -0.07771932
one|CD -0.085974604 0.038507316 0.13549797 -0.13867177 -0.17356163 0.034280896 -0.13715936 0.21437855 0.29881343 -0.13106714 0.005884703 -0.02248082 -0.053855818 0.11513483 -0.1900169 0.066796996 0.090479806 -0.09300676 -0.09986888 -0.2353581 0.12452062 0.20856085 0.07003079 0.25022534 -0.14075916 0.024387566 -0.03642131 0.31174865 0.033736173 0.1551765 0.18202698 0.0384489 -0.07748329 -0.23682861 -0.18002193 0.14185502 0.0111180255 0.13729645 -0.15344313 0.18516718 -0.16583739 0.025366277 0.030343225 0.089183964 0.06155121 -0.08700203 -0.026907848 -0.095553674 0.17293458 -0.16337468
The|DT -0.06226075 -0.107590616 -0.060207654 -0.3282769 -0.06831332 0.17464374 0.11221017 -0.12603189 -0.009974348 0.07082738 -0.22878535 -0.17236999 0.17943944 -0.15457432 -0.115593046 -0.1866608 -0.037901986 -0.039141666 0.1942827 -0.034198243 0.14177488 0.19273137 -0.017235499 0.3269624 -0.06753915 -0.030256122 0.032593023 0.24765015 0.02670536 -0.010861759 0.08946416 -0.12385862 -0.27811489 0.22484042 -0.019807553 0.14276046 -0.07895931 0.023474773 -0.06270316 0.19776143 0.08162016 -0.050818898 0.249099 -0.019890267 -0.07134709 -0.17157583 0.08137976 -0.041296117 0.05436387 -0.060572006
have|VB -0.2062854 0.00682336 0.049969662 0.021460982 -0.16913201 0.2627535 -0.003417325 -0.008670276 -0.04424704 0.050747473 0.108696975 -0.104705825 0.12595065 -0.20868039 0.07242505 0.013884751 0.24630116 0.04819161 -0.0066470313 0.16054437 -0.08702166 0.11140611 0.08116222 0.37235615 -0.02537043 -0.0035572804 -0.17612597 0.22725238 0.006329138 -0.16666804 0.07924781 -0.023781434 -0.12595433 -0.067243055 0.11173708 0.23944029 0.03309172 0.05990361 -0.2556352 0.19336472 -0.056663588 0.2952965 -0.10501677 0.05445555 0.06038287 0.11642898 -0.1984983 -0.027026506 -0.12817255 -0.12941037
paper|NN -0.01962289 -0.26628453 -0.09926345 0.049771737 0.15124173 -0.07315074 0.00013027404 -0.09433366 0.11944369 0.18722051 -0.032628894 0.1471052 -0.05641914 0.11726112 0.2415358 0.045804925 -0.09886194 0.0062336903 -0.079104856 0.27748764 -0.052720476 0.04789482 0.07418098 0.10521137 0.07933124 -0.03139299 0.07342232 0.11511136 0.2489409 -0.09416827 0.06967958 -0.21472959 0.090128295 -0.2413032 -0.20170595 0.159707 0.10297387 -0.005768193 -0.30942664 0.12630948 0.120860025 -0.09085965 -0.0091900155 -0.14215021 -0.01732158 -0.1691787 0.16933013 -0.24637184 0.060643792 -0.21775681
when|WRB -0.11828968 -0.22271274 -0.039123807 -0.038186617 0.01940811 0.3248357 -0.12901919 0.08677893 -0.2632694 0.031233426 0.07730024 -0.1400699 0.12613034 -0.0852366 -0.0055687004 -0.1808078 0.06121418 0.36439484 0.09629266 0.0021298546 -0.17098969 -0.04017641 0.058416888 0.35308236 -0.018027788 -0.07164577 0.01237592 0.11902466 0.16237436 -0.09237222 0.042451907 -0.058520053 -0.009447515 0.18344146 -0.2602797 0.18198591 -0.1477513 -0.102084935 -0.13268739 -0.05485252 0.07606928 -0.023520172 -0.035732973 -0.093795024 0.11386792 -0.14667521 -0.14236204 0.13530025 -0.06185337 0.07850526
keep|VB -0.15851705 -0.23263973 0.113499165 -0.16874968 0.11805627 0.12735948 -0.124518305 0.022807825 -0.07831194 0.06533498 0.12484491 -0.21508946 0.09156115 -0.058284413 0.06402006 -0.14221647 0.13491671 0.31023097 0.18496494 -0.033979904 -0.041763797 0.040937144 -0.26340583 0.41659522 -0.07308087 -0.039149154 -0.09332436 0.0782195 -0.009283575 0.010173016 0.067429 0.09915528 0.12242049 -0.00046370234 -0.20585334 -0.031376284 -0.0041239057 0.041901037 0.015973318 0.0672228 -0.017535951 -0.064502224 -0.014842891 -0.08087502 -0.046675798 -0.06907061 -0.4259753 0.13736874 0.09497411 0.0007811069
paint|NN 0.03953175 0.0032747826 -0.24832186 0.06545441 -0.21843979 0.12876298 0.074949525 -0.08994663 0.13174 -0.07575932 -0.09869465 0.17325258 -0.19417812 -0.24999303 0.101082414 0.019036392 0.12133822 0.043955896 -0.007628825 0.17365189 0.011086145 0.11286255 0.19799183 0.04785395 0.14982733 0.049782284 0.028968737 0.13980208 0.06895225 -0.17947805 0.061864592 0.032903075 0.13563813 -0.26920864 -0.059077885 0.20712863 0.18619262 0.27330205 -0.17107388 0.009004277 -0.14645623 0.10543413 0.053554546 -0.06980209 -0.06936137 0.09644788 0.04100387 -0.28837505 0.2502376 -0.12075618
Use|VB -0.045300983 -0.1474451 -0.103930704 0.17227952 0.038367454 -0.21873625 -0.047525182 -0.099405274 -0.07976667 0.14108062 0.015200541 0.20790508 -0.053215366 -0.00850074 -0.1413189 0.12465308 -0.021558307 -0.0131446365 0.051646207 0.037786275 0.09727772 0.18791537 -0.05509012 -0.038992822 0.054196857 0.06582122 0.11259461 0.18732075 0.09972524 -0.1828905 0.11231828 0.03084321 0.1913194 -0.15009697 -0.19834493 0.004003754 0.14550169 0.20958374 -0.17765613 0.07987277 -0.042467747 -0.014437057 -0.19211148 -0.043655988 -0.007286495 -0.2938372 0.22494504 -0.23501603 0.1955478 -0.35672984
remove|VB 0.059107848 0.01113605 -0.087390445 0.1920902 -0.11500584 0.049537107 0.28321257 -0.23073855 -0.13395785 0.06357039 0.0074451566 0.22880341 -0.01608876 -0.09116746 0.17236419 0.053980254 0.15572366 0.1559289 0.11126023 0.16868283 0.1259832 0.23777704 -0.09368702 -0.014470231 -0.09539317 -0.056492604 0.034494042 0.060126822 0.22800958 -0.30323175 0.23785816 -0.17157112 -0.2182802 -0.089432016 -0.19963028 0.10754109 -0.031340707 0.19880359 -0.066993944 -0.09479714 -0.014206055 0.13648057 0.0017801367 -0.22117245 0.08529036 -0.03311572 0.019752042 -0.16437954 -0.022869762 -0.06476933
but|CC -0.16893275 0.07384607 0.14496128 0.043108046 -0.26865605 0.40721774 -0.123311274 0.09468925 0.049477935 -0.04870953 -0.08381839 -0.005427135 0.015137426 -0.10750127 -0.036222436 -0.067068085 0.03380598 0.12052084 -0.042592607 0.18952273 -0.0016614265 0.24593869 0.16217272 0.40784878 -0.22826147 -0.10705966 -0.03488308 0.20781007 -0.13044043 0.019091532 0.008822644 -0.08991941 -0.14824778 -0.0016323847 -0.049148694 0.025923355 -0.0062926365 0.20671497 -0.17913646 0.0045198873 -0.08467765 0.11554307 -0.067301326 -0.13535957 0.015219562 0.15252604 -0.14776388 -0.12608859 0.020095702 -0.08060977
garden|NN 0.123653755 -0.1754464 0.101607084 -0.13336068 0.072216146 -0.15741144 0.05207278 0.18514252 0.12577844 0.21126474 -0.012856861 0.062174663 -0.023095364 -0.07268416 -0.26890278 -0.04441941 -0.014111622 -0.12985691 0.17528154 -0.012385403 0.14828107 0.24521627 -0.057173982 0.22568765 0.11202277 0.055635754 0.25855798 0.24408616 -0.06998099 -0.19134808 0.104932256 0.022020683 -0.080204144 0.0427217 0.052798573 -0.124113746 0.10769973 0.07594293 -0.023328375 0.28317654 -0.017804736 0.082349695 -0.23627056 0.23331681 0.07619842 -0.16396932 0.04825494 -0.017497016 0.22895928 -0.07248222
plant|NN 0.019171108 -0.08620586 0.17570993 -0.14248116 -0.088150926 0.113841884 0.055544928 0.1863532 0.17845538 0.19693601 -0.045016043 0.12420985 0.15584037 -0.100602105 -0.26723096 -0.13319817 -0.03699411 0.07478434 -0.08518528 -0.053615354 0.06160404 0.22806053 0.007226467 0.21079426 0.010510532 -0.013310181 0.046817444 0.18555315 0.093614645 -0.054743826 0.04439653 -0.0069131916 -0.27704915 0.3202388 -0.06761966 0.054708544 -0.06614387 0.20647196 0.08183213 0.16048132 0.28929207 0.12156846 -0.1947664 -0.017109208 0.15641 -0.2210076 -0.062338594 -0.12483568 0.020215936 -0.080926515
over|IN -0.022159439 -0.065565236 -0.1159454 0.023340583 0.20891115 0.01437286 -0.17033316 -0.2707788 -0.12407873 0.020156445 -0.118294165 0.107082956 -0.154191 -0.03319582 0.18695767 -0.013335195 0.13490838 -0.027334647 -0.05245029 0.11336394 0.06506203 0.13096191 -0.0321191 0.20962143 -0.14577608 0.12083898 0.08075372 0.19275339 0.11206657 0.03641097 0.15178742 0.17956392 -0.0060334327 -0.034808014 -0.22252183 0.06796842 0.08753893 0.3479462 -0.00026347782 -0.01564583 -0.07629725 -0.06872039 -0.16285446 -0.0041501895 0.09021514 -0.33644566 0.036092818 -0.0043284213 -0.0102187805 -0.37411815
stain|NN -0.13706003 -0.0195059 -0.32967067 0.31024364 -0.092322886 0.14006591 0.03443205 -0.18232937 -0.07481041 -0.02403119 -0.051705953 0.1870518 0.024806708 0.03723337 0.13844147 0.06721566 0.34373417 0.03029594 0.19276616 0.04034201 -0.047729388 0.1336663 0.063340455 0.0039906097 -0.111970715 -0.0638389 -0.07749758 0.16154052 0.15728821 -0.19779539 0.2489039 -0.18882741 -0.09826113 -0.006063977 -0.054523118 0.1509329 -0.012636624 0.08871535 0.020790774 -0.0015690962 -0.10535185 0.10928837 0.08437384 -0.23874427 -0.06972475 -0.07155179 0.11070192 -0.26362357 0.08385538 -0.1474957
home|NN -0.017339297 -0.02804157 -0.09107294 -0.11226896 0.04869273 0.073616624 -0.027102895 -0.057611883 -0.10474515 0.34415078 0.039146747 -0.10590826 0.037500262 -0.22853658 -0.25438854 -0.1492275 -0.0687718 0.008289589 0.1772072 0.06541293 -0.05410733 0.08540378 0.28759947 0.21149142 0.01120891 -0.08038275 -0.028056163 0.10616111 0.03629716 -0.36785123 0.022815116 0.1919889 0.06337075 0.107208714 0.07577577 0.22342013 0.15350646 -0.13509527 -0.009885072 0.20271517 -0.11654066 0.20628604 -0.15509169 0.013101393 0.071950026 0.11271332 -0.17627278 0.08779034 0.13089393 -0.065302014
wall|NN 0.025001358 -0.14627576 -0.055727065 -0.09136398 -0.06804885 0.21926431 -0.020788906 0.12251225 0.14677116 -0.11535665 -0.086932704 0.10549719 -0.09007676 0.16545202 -0.03922519 -0.10963536 0.0066918605 0.017214796 0.05316366 -0.19094557 0.07728673 0.010575616 0.27627185 0.24133123 -0.11722403 -0.077954344 -0.06167484 0.14469701 -0.08875927 0.041358747 0.004129335 -0.07423919 0.10326315 -0.04737719 -0.114490464 0.22702049 0.22269599 0.08565872 -0.17556812 0.054304864 -0.37650865 -0.086161986 -0.00478446 0.07959487 -0.18808693 -0.04844278 -0.07376643 -0.13476051 0.21997163 -0.34975085
around|IN 0.100636214 -0.006562056 0.028211793 -0.12757522 -0.043165304 0.00015572752 -0.079461046 -0.17175552 0.18118522 0.09487036 -0.14053293 -0.1407785 -0.04818242 0.011362442 0.07117925 -0.20234051 -0.15168688 -0.13684796 0.020007236 0.17422958 0.12394303 0.042461127 -0.017314421 0.3311304 -0.030706549 -0.033499308 0.11742985 0.03834415 -0.058057405 -0.08576528 0.18853614 0.19643237 0.15096849 -0.060023837 -0.08556473 0.004071482 0.14919747 0.15967184 -0.18835905 0.22308305 0.019949004 -0.16111998 -0.16234478 0.22593719 -0.121164605 -0.04666865 -0.14954023 0.11491136 0.29565558 -0.30513358
Use|NNP 0.12377483 -0.17349635 -0.027959729 0.0039261417 0.14143549 0.11540737 0.00709158 -0.076845184 -0.060553215 0.1045929 -0.08167497 -0.13331902 -0.04405262 0.21110582 0.05473384 -0.13213195 0.07373301 0.26232347 0.12814113 0.15975474 0.23220474 0.066823214 -0.09448343 0.038200688 0.028623777 0.15354389 0.15565169 0.033887725 0.13565531 -0.18153504 0.11807954 -0.03385435 0.15495016 -0.29576614 -0.19532998 0.039053112 0.10559752 -0.019236082 0.010572905 0.103626765 -0.27275604 -0.27372265 0.026543112 -0.106511004 -0.054592174 -0.04799306 0.14700428 -0.12174348 0.25611207 -0.2551402
large|JJ -0.10225527 -0.0724834 0.18205409 -0.19711703 0.03526449 0.06424244 0.13668373 0.19621633 0.01795627 -0.063421234 0.038371433 -0.08842999 0.12664467 0.08780109 0.014112061 -0.17244734 -0.09656611 -0.057983864 -0.040577233 -0.19366893 0.18689285 0.097525366 -0.053395715 0.31205523 -0.13314511 0.09813794 0.12847048 0.24511296 0.007172507 -0.057008296 0.05468333 -0.1333275 -0.17089085 -0.03374667 -0.05711998 0.036717206 0.02902901 -0.032529075 -0.024561271 0.29819062 -0.3237721 0.10780784 0.09626141 0.2065738 -0.006967009 -0.27727178 0.05157955 0.025577473 0.09198218 -0.2728077
old|JJ 0.09389215 -0.02246763 -0.03586589 -0.04538754 0.016099526 -0.0154700605 0.23112229 -0.07747823 -0.017019704 0.22101787 -0.00091346545 0.11039616 -0.31100035 -0.023931604 0.021140868 -0.02997946 0.0036371816 0.013104668 0.005387663 0.06323857 -0.001565331 0.16865093 0.012510994 0.13662156 -0.18386212 0.16784063 0.040106755 -0.14461057 0.25863683 -0.30973405 0.097407125 0.15613922 0.09671881 -0.21841829 -0.21410352 -0.028572043 0.17157727 0.13098833 -0.045719393 0.15149748 -0.203472 0.17304702 -0.11299658 -0.073858 0.06388429 -0.087448575 0.12082119 -0.16822883 0.13426049 -0.31176305
all|DT 0.123681225 -0.07220601 0.09288282 -0.09204597 -0.1909543 0.35140154 -0.07865733 -0.017671758 -0.083320744 0.12658647 -0.14920667 0.057177357 0.12342742 0.010542852 0.11624056 0.10250313 0.099952795 0.35793594 0.20201488 -0.01916346 0.03929458 0.10319161 0.01624858 0.18669134 0.039507966 -0.33243895 -0.13347031 0.02902994 -0.05272747 -0.0627543 -0.09463242 0.17499031 0.14811648 -0.056469448 -0.25006023 0.16288623 -0.046344336 0.046729784 -0.09245625 0.042132173 -0.15627758 -0.07549478 -0.19870459 -0.0786601 -0.009992235 0.04746753 -0.11656304 -0.035318363 0.0892569 -0.27324873
more|RBR -0.30151558 0.039403804 0.06277794 -0.13588639 -0.11355894 0.39586273 0.09260794 0.11274705 -0.017461628 0.07349429 -0.014907561 0.01850204 0.026416829 0.03153208 0.07828329 -0.2596134 -0.09770112 0.11656203 0.08696879 -0.17973396 0.19359401 0.0757999 0.19558312 0.19474337 -0.16845621 -0.08137562 0.035513353 0.16358344 0.09603306 -0.1400783 -0.05756621 -0.13544874 -0.18703353 0.1014551 0.16909733 0.26534203 0.05343732 0.021161504 0.04301468 0.17393847 -0.19558547 0.15683296 0.20716359 -0.08482405 -0.074612446 -0.015901346 -0.04202491 -0.026548944 0.09279326 -0.085290164
could|MD 0.05155153 -0.035190064 -0.017499384 -0.177071 -0.038706224 0.213633 0.08199945 0.09677538 -0.055620857 0.25013065 0.031523984 -0.14701419 -0.04596825 -0.15138775 -0.11244732 -0.13619988 -0.07116292 0.039010268 -0.056681976 -0.032764755 0.12239427 0.009221416 0.17121126 0.23559378 0.03959688 0.027571158 -0.16741136 0.042771198 0.10948942 -0.23833081 -0.04948435 -0.010101551 -0.13054727 0.22599488 -0.06434595 0.19928388 0.13070852 0.09509467 -0.051684756 0.23677692 -0.3456025 0.31510216 -0.10122529 0.015615217 0.0048816595 0.052175652 -0.02342853 -0.069685064 -0.15031125 -0.29265502
such|JJ -0.1267096 -0.2289136 0.36515898 -0.11679664 -0.03510151 0.1477049 0.06066726 0.16455817 -0.12475397 0.23573068 -0.043315653 0.18640676 0.0036398864 0.12905301 0.10631305 -0.15684974 0.0066339853 0.3518705 0.119996436 0.12465599 0.08983895 0.052933604 0.14382757 0.027593901 -0.17777716 -0.042096887 -0.049212575 0.1118957 0.016804269 -0.105360374 -0.06466583 -0.13726288 0.09384089 -0.084091716 0.05357417 -0.02459678 0.046829026 -0.15705384 0.05150977 0.17917205 -0.094683215 -0.11061308 0.1587182 0.061593685 -0.008388838 -0.21494447 0.19186261 -0.103200085 0.25699362 -0.103201754
want|VBP -0.1306266 0.027158193 -0.14886373 0.025924213 -0.020072583 0.3504567 0.12917392 -0.07165099 0.13237989 -0.100631565 0.14124884 0.0061572306 0.10268323 -0.0023930487 0.0626988 -0.102751866 0.119436 0.09983005 -0.078180686 0.05599395 -0.11859245 -0.113976575 0.22963151 0.171385 -0.08767318 0.020901134 -0.016637044 0.15086506 0.09579262 -0.09739625 0.12960683 -0.24141192 0.10701835 -0.022274565 -0.08167521 0.33605677 0.20259681 0.13224316 -0.22319557 0.2731163 -0.19939876 0.13147914 0.12868288 -0.16900863 -0.015775455 0.05695814 -0.06540697 -0.20452559 -0.012596265 -0.087640665
more|JJR -0.27350417 0.044788323 -0.016131528 -0.09383535 -0.12174752 0.26024613 0.021766227 -0.013477733 0.084036976 -0.023764824 -0.12272402 0.06571218 0.020697372 -0.12360475 0.03643858 -0.19584157 0.18269286 0.27159292 0.105200626 -0.044569515 0.10923357 0.20673771 0.27479878 0.24878977 -0.17922975 -0.10703027 -0.07214134 0.31280237 -0.09714569 0.018724632 -0.079668745 -0.20201436 0.10543156 0.098065704 -0.037718352 0.20583087 0.14498937 -0.10200896 -0.022362337 0.0009006602 -0.045818172 0.013672047 0.05492671 -0.034372773 -0.15555297 -0.12676553 -0.13806102 -0.19392866 0.115311116 -0.13966855
then|RB -0.05585604 -0.20387639 -0.100196436 0.21084203 -0.023828989 0.07359873 -0.26757362 -0.052180704 0.08749337 -0.14647861 -0.15066455 0.21410511 0.12315004 0.09433843 -0.06400868 0.091194876 0.07819936 -0.034829564 -0.04132022 0.14391354 0.12652946 0.1994205 -0.09084479 0.058307245 0.026013894 0.056661893 0.042659074 0.34048304 0.119028576 -0.023182448 0.09675138 0.102679834 0.038730513 -0.27737454 -0.06654011 0.07364299 0.10446484 0.3526118 -0.22539787 -0.03463271 0.08888544 -0.23050354 -0.0011151548 0.028656965 -0.107675835 -0.15895669 -0.09560954 -0.15487488 0.11190975 -0.114268966
space|NN -0.10657444 0.02316394 -0.06805028 -0.22917183 -0.023613634 0.21464431 -0.07830577 0.064151146 -0.05052901 -0.07922703 -0.024754027 -0.24111034 0.024839744 0.02911717 -0.083325006 -0.25376853 -0.045872655 0.16182509 0.04694683 -0.11700705 0.057008438 -0.044621717 0.2943871 0.3819278 -0.14692849 -0.09159383 0.1732509 0.047033556 -0.06428592 -0.018194498 -0.012129172 -0.022018055 0.11654539 0.13821143 -0.08234987 0.14970948 0.13748515 -0.16113815 -0.037871394 0.2596437 -0.2462099 0.012091264 -0.0062571852 0.039425354 0.021100838 -0.1257727 -0.13154289 0.12282429 0.21828073 -0.22400457
off|RP 0.20386478 -0.15292577 -0.088499755 0.14873475 -0.13246176 -0.02393389 -0.09351092 0.07836216 0.014665869 -0.087134585 -0.05155534 -0.07227459 0.105263345 -0.074297674 -0.19396569 0.030702922 0.041817512 0.003356443 0.0614903 0.03537296 -0.004423169 0.12084282 0.15522972 0.14317386 -0.22689632 -0.16864789 0.07859446 0.15536427 0.077235796 -0.21232072 0.1731866 0.018051995 0.042806756 -0.12562096 -0.22156471 0.12395625 -0.1635094 0.080425404 -0.38999832 0.1457409 0.24092487 0.05159852 -0.17949659 -0.19751509 0.17218295 -0.026687017 0.20239204 0.0119587565 -0.02132763 -0.2261771
flowers|NNS 0.10417698 0.004863611 0.3452117 -0.32388845 -0.10458612 0.09041506 0.16837543 0.08012763 0.031099087 0.29295918 -0.07048728 0.14346306 -0.0047854865 -0.040522173 -0.20247674 -0.1532883 -0.13455959 0.11443047 -0.032502826 0.14514801 0.25672826 0.12296942 -0.0431472 0.1535393 0.11040756 0.103677824 -0.048537266 -0.022815613 -0.020140754 -0.056718297 -0.08717195 0.112605214 -0.14351252 0.16186698 -0.03932411 -0.09536506 0.05289003 0.29832983 -0.064880766 0.25510472 -0.011653293 -0.02043666 0.009125831 0.11919164 0.05375021 -0.06104152 -0.051836625 -0.12733965 0.14201787 -0.21000203
down|RP -0.1421162 -0.2308899 -0.12222589 0.13806735 0.09979048 0.08413148 -0.05496753 -0.18944636 0.14696008 -0.074522175 -0.07362674 -0.026356522 -0.02128731 0.16205108 0.13063219 0.048749983 0.10099625 0.060158953 -0.03391548 0.056280386 -0.087338194 -0.10860604 -0.034050476 0.29276288 -0.030777473 -0.024934039 0.11592384 0.35332152 0.21922033 0.05403819 0.21622951 -0.21884619 -0.16258757 -0.15940033 -0.19205517 0.053061824 0.009712465 0.20157658 -0.099605456 -0.07520928 0.14180198 -0.030439576 -0.23355435 0.05032622 0.0040799887 -0.22420505 -0.041096788 -0.18078789 0.13482781 -0.13572857
before|IN -0.15376693 -0.012030452 -0.19595076 -0.0041749626 -0.043436453 0.03591051 -0.11286154 0.021401756 0.16722333 -0.02367452 0.124852255 0.0094188815 -0.11105921 -0.07008161 -0.007082249 -0.027452527 0.29597616 0.2563891 -0.029992294 0.19649924 -0.23376456 -0.03350775 0.06680012 0.23478906 0.010777802 -0.12837031 0.003220919 0.20088454 0.09422427 -0.038976412 0.2912216 0.019925645 0.09373063 -0.09787968 -0.2560751 0.103184186 0.09577312 0.29267263 -0.17668991 -0.10445386 0.1533271 -0.10571051 -0.17595239 -0.121787965 0.1875122 -0.042030696 -0.12755446 -0.10375236 0.024166048 -0.14776973
sure|JJ 0.1936117 -0.141301 -0.012448983 0.0072246906 0.061734643 0.2795208 -0.08649288 0.15296571 0.023987332 -0.060666047 -0.0057720807 0.031160245 0.14296594 0.12202676 0.1868675 0.0784936 0.28141835 0.23515607 0.03137692 0.10282546 0.14589524 -0.032921717 0.107290044 0.30987504 -0.00014248042 -0.027263183 -0.0294051 0.14537963 0.0701565 -0.13967907 0.06233206 -0.09735357 -0.00714593 0.18142834 -0.066703424 0.3586364 -0.052971106 -0.20289882 -0.019982096 0.055187013 0.13648777 -0.041970123 -0.2787219 0.11483827 0.13769212 -0.032014303 -0.094616525 -0.062637195 -0.11176622 -0.20318377
items|NNS -0.083796486 -0.24127182 0.2771519 -0.11262022 0.14316468 0.25114542 0.14041387 0.15071498 -0.12696017 0.27380097 0.06385879 -0.20502186 0.016964912 0.11045784 0.057321385 -0.17641385 -0.022364754 0.20933256 0.034284692 0.2386933 0.1822977 -0.13941877 0.09946809 0.18646184 -0.043494705 0.15617053 -0.11224378 -0.042002507 0.07874874 -0.19107157 0.0957081 0.025200346 0.042599533 -0.10244867 0.010703122 0.11463737 0.12041277 -0.17379992 -0.01785726 0.1836043 -0.21475612 -0.025556104 0.13029258 -0.0071938396 0.07771864 -0.096775606 -0.025536975 -0.08007359 0.22719958 -0.0055777603
wood|NN 0.044151958 0.027214345 -0.2151612 0.05160331 -0.08127738 0.079077765 0.2738336 -0.15163882 0.08758284 -0.1507831 -0.13635516 0.061901003 -0.037728753 -0.16092157 0.23496434 -0.16805916 0.095479615 0.0333327 0.1497453 0.16328248 0.043043684 0.09042569 0.14032145 0.14307542 -0.09774171 -0.051813167 0.26533163 0.12835075 0.292427 -0.20157626 0.15345293 -0.06845698 -0.023210334 -0.03396383 -0.02802414 0.06420988 0.13812786 0.26512817 -0.01906608 0.07284721 -0.08069714 0.07754435 -0.003543799 -0.058191974 -0.06994972 -0.10741553 0.11528503 -0.2917241 0.17688109 -0.21734175
has|VBZ -0.16704854 0.008234234 -0.14202946 -0.052904055 -0.14210658 0.11259213 -0.09409471 -0.22788893 -0.07387544 -0.028025948 -0.13500781 0.13876949 0.005250898 -0.1056241 -0.26016372 -0.011320029 0.23800117 -0.04325838 -0.00016401293 -0.032900747 0.050155245 0.11873167 0.04155897 0.10026057 -0.16982993 -0.09917564 0.070556745 0.26975825 -0.08712616 -0.23932256 0.01588598 -0.0634028 -0.23765357 0.25484 -0.15843204 0.030979134 0.12906712 0.2113404 -0.02217181 -0.070380785 0.012592553 0.30634266 -0.1615559 -0.028425016 -0.075155094 -0.064011194 -0.10441704 0.12361248 -0.0867628 -0.28372145
place|NN -0.1378796 -0.092369646 0.053507566 -0.38647655 0.013068178 -0.0043374873 -0.15968667 -0.11448323 0.05139213 0.23417126 0.09045417 -0.042663697 -0.03765077 0.17131071 -0.00085823855 -0.11932192 -0.2132465 0.040545076 0.10899141 0.11416569 -0.037570298 -0.13515659 -0.06667435 0.30705985 -0.11645033 0.14944528 0.055506833 -0.0032328542 0.12242821 0.00517634 0.07465307 0.2679274 -0.008179882 -0.0038000676 -0.31182957 -0.042301975 0.18288654 0.11085661 -0.02564655 0.14714998 -0.021863656 -0.12873732 -0.03746083 0.079326674 0.075808145 -0.20812416 -0.19482704 0.030222274 0.091206126 -0.2428893
new|JJ 0.07161139 0.14350434 -0.09453065 -0.14681792 -0.17435384 -0.035108574 -0.17125063 -0.07091935 0.22616172 0.0040359967 -0.07128036 -0.0939749 0.1464169 0.05716713 0.0046874485 -0.13869621 -0.1568188 -0.012391096 -0.08343719 -0.0038457583 0.12772231 0.11319158 0.034783836 0.14498623 -0.09717829 -0.037687633 0.10839012 -0.13396586 0.14726697 -0.16793728 0.22083285 0.20625128 -0.022155713 0.18974166 -0.042897686 0.15935369 0.06501833 0.13817762 -0.1283429 0.47604945 -0.007355863 -0.009605323 -0.24462841 -0.08541774 -0.022112153 -0.102108665 -0.15960257 -0.026244748 0.06327624 -0.2557598
furniture|NN -0.11353222 0.035200525 -0.03783102 -0.13416807 -0.015867397 0.11999517 -0.09850527 0.04415333 -0.16251683 -0.036863584 0.0033988366 -0.13529788 -0.15317662 -0.014369007 -0.0364186 -0.2832181 0.0006001903 0.2328389 -0.017934812 -0.054308016 -0.07211063 -0.03555414 0.22584087 0.34551787 -0.20588198 -0.02529767 0.20327906 0.009588715 0.16073164 -0.08389949 0.002775206 0.008796937 0.24365371 -0.03280629 -0.14564803 0.113130175 0.1510596 0.023215884 -0.12387918 0.10086048 -0.15060367 0.007808038 -0.011947722 -0.12084998 0.063261084 -0.12677658 -0.10276056 0.10237084 0.12170176 -0.44761136
cloth|NN -0.19864196 -0.06085947 -0.112657234 0.27063644 0.10990884 -0.04402875 -0.11286981 -0.17054698 -0.17483792 0.10104441 -0.13286045 0.15383369 -0.0747698 0.18958507 0.1112062 0.17515467 0.15883404 -0.010245501 0.055563483 0.046039205 -0.0038796363 0.07641746 -0.074905485 0.1367936 -0.13881794 0.029317982 -0.0054065664 0.06535664 0.13520728 -0.0705741 0.11402438 -0.011587772 0.116438895 -0.21659009 -0.17777887 -0.027670475 0.078153685 0.19700338 -0.11395104 0.01216272 -0.073310785 0.02949371 -0.15199962 -0.24337919 -0.046989784 -0.13790172 0.111978486 -0.2915257 0.12693007 -0.3905142
leaves|NNS 0.081758276 -0.17422463 0.18420126 -0.24612342 -0.25666085 0.13652316 0.019832604 -0.040558744 0.040666852 0.26733565 -0.069843635 0.17952548 0.081266984 -0.131335 -0.12142961 -0.025592586 0.016272116 0.10578568 -0.07990998 0.09748854 0.017222757 0.122601666 -0.17454739 0.05403995 0.08856559 -0.06315113 -0.028992426 0.05576586 0.1450681 -0.13800152 0.108171925 -0.012551324 -0.24321808 0.03042803 -0.30783215 0.07340712 -0.00044562737 0.22934484 -0.0688955 0.00090119673 0.4227386 -0.13554658 -0.047969863 -0.018837648 0.25274596 -0.026450284 -0.0150787 -0.065358944 0.022423308 -0.041639656
each|DT 0.014324804 -0.17828104 -0.0571891 0.032336578 0.02744479 0.09978776 -0.05574993 0.09388729 0.39475355 -0.16741677 -0.02817852 -0.018307844 -0.022224344 0.21690665 -0.12316533 0.052230548 -0.075194016 0.06665921 -0.109717585 -0.12706041 0.053858966 0.01997762 0.08038757 0.1489836 0.064446464 -0.02488836 -0.15128314 0.18118936 0.083198965 0.079894975 0.26778993 0.0035079021 -0.011607295 -0.10440093 -0.2943761 0.189496 -0.054266263 0.022194171 -0.20929423 0.24861811 0.14689578 -0.11714395 -0.026813716 0.032648228 0.22686568 -0.277641 -0.073436305 -0.13550106 0.11046193 -0.17501447
colors|NNS 0.015275873 0.013073733 0.1273641 -0.1560134 -0.054424796 0.24719356 0.18816292 -0.084922045 -0.031592578 -0.008321932 -0.024651537 0.08171051 0.08258636 0.036480203 0.022800371 -0.20918423 0.01230514 0.19089086 0.054510947 -0.055492017 0.051329974 0.040396433 0.29874215 -0.021710018 0.0055033197 0.10955021 -0.14849551 0.040794708 -0.06080345 -0.07601991 -0.10913344 -0.18794075 0.16702673 0.018654369 0.03576886 0.1898742 0.20561458 0.07209872 -0.08102322 0.30617413 -0.24448498 -0.021481877 0.20223661 -0.073865905 -0.23653743 0.023096807 -0.07245927 -0.15262897 0.3814491 -0.109566726
oil|NN -0.16728432 -0.06492742 -0.11796406 0.1366674 -0.12265076 0.02145141 0.06875791 -0.07901672 -0.2002746 0.044117216 -0.101644404 0.004526345 0.115083694 -0.021163508 0.15553981 0.06488029 0.23965806 -0.015043632 0.34288087 -0.10991802 0.03352222 0.230991 -0.060880106 -0.041154303 -0.24950284 0.040609002 -0.109169565 0.0948661 0.059757315 -0.3955535 0.1897546 -0.1012325 -0.17978618 0.004430359 0.047433984 0.04081293 -0.077900454 0.07172477 -0.099810004 0.07337771 0.09299933 0.18517956 0.23423417 -0.23487696 0.04226662 -0.011889006 0.09968454 -0.17449711 -0.044955853 -0.12571718
Make|NNP 0.0737943 -0.09898897 0.02930329 -0.04516948 -0.09906202 0.15988728 -0.1395416 0.09799647 0.0804069 0.10204702 -0.06718277 0.16664517 0.110436454 -0.12415463 0.08188666 0.090020396 0.07141675 0.25739697 0.03751055 0.03833275 -0.0948771 0.035928 0.08101245 0.34733644 0.06254289 -0.25101835 -0.075522676 0.07595636 0.027381368 -0.113648415 0.074903496 0.074941926 -0.16460234 0.16987784 -0.2893426 0.3068985 -0.13983016 0.12934065 -0.062479436 0.034794327 0.09444226 0.06400254 -0.095590584 -0.01576985 0.18967491 -0.010477026 -0.04247529 0.15822668 -0.29721048 -0.24877669
away|RB -0.13297099 -0.30001107 -0.07873443 -0.013199005 0.10192228 -0.032088224 -0.30342785 -0.23664773 -0.06892389 0.10303473 0.014675876 0.022775201 0.047921326 0.030016122 -0.029888136 0.0312648 0.18964042 0.09042538 0.05570838 -0.13685866 -0.00010576584 0.21398148 -0.2805549 0.1298951 -0.15798296 0.0050994353 -0.16216183 0.19490476 -0.07590083 -0.15235388 0.30511698 0.056185037 -0.07479803 -0.2090203 -0.16261072 0.08341572 -0.19718097 0.12298945 -0.11540634 -0.0569751 0.13405655 0.18078111 0.02593131 -0.05533704 0.106902406 -0.10387572 -0.219588 0.04931197 -0.053860188 0.005226835
areas|NNS 0.1686844 -0.23053834 0.11681045 0.008342323 -0.023960454 -0.008757047 0.03285758 0.26157942 -0.26647446 0.32195443 -0.026960064 0.059574187 0.0022512008 -0.13018234 -0.17534865 -0.020013439 0.3039713 0.05345424 0.16481687 -0.0019997973 0.08415052 0.10026243 0.025053207 0.0803678 -0.09117438 -0.028754065 0.00892549 0.12954342 0.07376288 -0.29173657 0.13566113 0.002650302 0.14202814 -0.05905016 -0.21766171 0.11007303 -0.27092206 -0.016236134 -0.071557246 -0.004207495 -0.004436685 0.11137824 -0.05347612 -0.07864496 0.17847113 -0.14189258 0.012130629 0.08893582 0.07723961 -0.2764995
time|NN -0.13231492 -0.11017971 -0.13139793 0.054202136 -0.10267933 0.32818553 -0.01555778 -0.13875294 -0.008329571 0.071190424 0.12967165 0.0066148033 0.13431686 -0.041935407 -0.0032069113 0.0072310907 0.29878637 0.24807325 0.009738918 0.12007738 -0.01233013 -0.14902991 0.10346327 0.20802371 0.025367733 0.08535385 -0.22467744 0.25768778 -0.069616966 0.075974725 0.121644825 -0.11479322 0.09320458 0.138035 -0.09105899 0.14843419 0.00508121 0.13962674 -0.13996024 -0.109656006 0.040902108 -0.051899374 -0.108035676 -0.20615193 -0.06682929 -0.12746261 -0.3302428 -0.103513986 0.21188599 0.1111523
bleach|NN 0.042181447 -0.17106235 -0.18930173 -0.04312967 -0.14291567 0.031159513 -0.1466142 0.1679967 -0.09669756 0.181021 -0.12761624 0.08681569 0.09490944 -0.12220083 -0.032853838 0.10336039 0.15271929 -0.04632923 0.3119525 -0.019948803 0.24910298 0.14630409 -0.10944629 -0.01449563 0.06792949 0.08308053 -0.018011138 0.09678688 0.008858767 -0.024300778 0.1037647 0.092039675 -0.124224 -0.043103293 -0.42746362 -0.027732177 -0.16753031 -0.046653632 0.09533104 -0.2247148 -0.08687743 0.013354069 0.07480146 -0.19297032 0.05755246 -0.12795424 0.17467593 -0.29842618 0.09864948 -0.09166624
two|CD -0.14983398 -0.1978704 0.09008531 -0.22288243 -0.02461031 0.15463272 -0.15625362 0.00060656253 0.19754674 -0.04686391 -0.113085 0.014362834 -0.116387025 0.13142256 -0.17941311 -0.068429925 0.047655467 0.11160585 -0.10809233 0.011425892 0.11065303 0.09362474 -0.18593974 0.16313048 -0.0006862775 0.043457 -0.019132981 0.23613252 0.0444551 0.25448632 0.12792704 0.10792098 -0.17036083 -0.16142753 -0.28738424 0.06626461 0.058081225 0.2077409 0.027536819 -0.03047412 -0.079202384 -0.27141833 0.051304936 0.12730354 0.10179081 -0.26151985 -0.080084376 -0.036642537 0.2552313 -0.086916536
well|RB 0.009144983 -0.09332106 0.06986229 -0.023420189 -0.20562261 -0.0046767276 -0.03451893 0.022875935 0.065860674 0.1879998 0.09700312 0.06873364 0.18594028 -0.013962086 -0.005549452 0.041398734 0.15376884 0.23330534 0.14780459 0.24848305 0.051057182 0.019426867 0.2153908 0.20101818 -0.20749901 -0.29820856 -0.06667553 0.15279882 0.20891094 -0.084716685 0.029149044 -0.05383509 -0.058375787 -0.06604492 -0.22656213 0.026139941 -0.005409031 -0.12980545 -0.101359546 -0.026791623 0.19112307 0.13544923 -0.013283882 -0.21517889 0.1571455 0.113791734 0.16297679 -0.29253048 0.12693687 -0.17531656
about|IN -0.24584535 -0.14630087 0.12251212 -0.18640982 -0.09830211 0.22466147 0.13032077 -0.010622085 0.14467262 0.13146517 0.087523006 0.119348295 0.10955283 -0.030853536 -0.003258437 -0.11019669 0.039314646 0.034398805 -0.13302217 0.010282457 -0.10294085 0.197396 0.026674146 0.09573017 0.11119335 -0.06412417 -0.09022261 0.41010928 -0.031417668 0.012876875 0.18676476 -0.17025682 -0.2708471 0.06041524 -0.10336816 0.32117733 0.018027548 -0.12768634 -0.0670425 0.14372188 0.08651157 0.0057260203 0.105119236 0.057478372 -0.07862626 -0.044285912 -0.24872524 -0.102821864 0.07383231 0.1661832
so|IN -0.26413992 -0.04206286 -0.053991206 0.0220713 0.027878964 0.15402068 -0.22481926 -0.012972665 0.03866886 0.039653447 -0.24657866 0.1083738 0.086991884 -0.10962717 0.050174046 -0.00060005375 0.10138546 0.20043771 -0.041364696 0.08526952 0.11224585 0.08958015 0.07717517 0.29555234 -0.0622083 -0.18813506 0.060905267 0.3376953 0.2650149 -0.025846029 0.08592622 -0.03576493 -0.27838048 0.062970735 -0.13611518 0.24259529 0.014257256 0.1326571 -0.01548455 -0.09257649 0.09655705 0.08601441 -0.17218785 -0.0640706 0.03010275 -0.10716184 0.00072977704 -0.0026584656 -0.29230678 -0.091753855
solution|NN 0.015270083 -0.053118076 -0.22358188 0.02818102 -0.15940213 0.07999592 -0.13516356 0.119623706 -0.01912083 0.082554005 -0.090880916 0.15367179 0.043737274 -0.04585805 -0.0984391 0.13685669 0.2437421 -0.044862784 0.19391869 0.01632192 0.19453757 0.1704389 -0.07623321 0.051673315 0.012128373 0.06119771 0.022454873 0.22348744 0.07156725 0.045628108 0.12252463 -0.026375309 -0.10435792 -0.09320806 -0.38587555 -0.04931045 -0.01956645 0.02745171 0.12005343 -0.2588427 0.019751426 -0.03448219 -0.05791283 -0.21298994 -0.017598508 -0.13493833 0.18541543 -0.38275602 0.19379176 -0.13284813
these|DT -0.15243737 -0.09283056 0.17084697 -0.015899338 0.0264238 0.08435231 0.08940562 -0.119053945 -0.22181344 0.02461817 0.07259237 -0.112109244 0.0056954124 -0.1255634 0.1355863 -0.27002403 0.11027385 0.17576014 0.11292324 0.008073232 0.1599252 0.12803422 0.07558418 0.20715427 -0.24015273 0.10768828 -0.2135449 0.0687088 0.064434 -0.22325268 0.26374635 -0.011322632 0.11192199 -0.27739146 0.001231124 0.22799706 -0.15390958 -0.13552092 -0.20831153 0.17091721 -0.110471666 0.118154794 0.029537 -0.10068085 -0.013558086 -0.026412766 -0.19848312 -0.09140448 0.019920299 0.043855734
food|NN -0.101303756 -0.14325531 -0.01446294 -0.07202748 -0.06867317 0.03463077 -0.08223263 0.17552797 -0.2621521 0.16667955 -0.053560082 -0.113678284 0.16308433 0.045000374 0.102493525 0.08186337 0.12869689 0.012715768 0.23188287 -0.033513118 0.13263874 0.15557173 -0.30176967 0.011090327 -0.25186554 0.12796772 -0.21724948 0.12837416 -0.03485257 -0.27533472 0.1338718 0.11901579 0.030302156 -0.11709521 -0.0064305337 -0.033743385 -0.18774995 0.016690103 -0.15418102 0.1560169 0.22973964 0.008246523 0.17580348 -0.1453726 0.15720631 -0.09884724 -0.07559732 0.12675466 0.025759935 -0.20913103
help|VB -0.047822125 0.09343862 0.019742765 -0.10172102 -0.23533945 0.105008386 0.078726605 0.059917312 0.04974625 -0.10289056 0.05286455 -0.3393082 0.089312136 0.01407205 0.053759888 -0.32797378 0.124746464 0.12964469 0.15428849 0.09082289 0.07934468 0.039120533 0.09151758 0.25910103 -0.10790302 -0.1406555 0.1927023 0.062132232 0.21385984 -0.21482919 0.21650971 0.12402896 -0.14991406 0.22155295 -0.04427488 0.3046694 0.05884964 -0.041230552 -0.002414677 0.13448964 0.0022410958 0.13335986 -0.018471325 -0.07375362 0.059639458 -0.07458838 -0.21456498 -0.0017328413 0.098826304 0.0016557054
A|DT 0.049442355 -0.07522745 0.15478964 -0.17671622 -0.15558448 0.032254484 0.08346436 0.12905596 0.1114431 -0.0058321324 -0.116204865 0.18445146 -0.04289824 -0.1286252 -0.18885367 -0.15240294 -0.15155222 0.09143017 0.18462309 0.015481842 0.039213136 0.22551192 0.08508839 0.38366413 -0.011001385 -0.19539066 0.24385704 0.17585973 -0.012295732 -0.15482758 -0.04818822 -0.16445595 0.051603045 0.15026668 -0.19838022 -0.0013566128 0.06984608 -0.041555997 -0.029294256 0.16472572 -0.118864216 0.13221107 -0.05330755 0.1889809 -0.040580854 -0.18067005 0.16861588 0.10104174 0.115873694 -0.20049615
even|RB -0.16464685 -0.18532823 -0.16579533 0.05855731 -0.0376232 0.20500934 0.07989356 -0.0060590017 -0.05938185 0.22516245 0.020762516 0.12562989 -0.089612655 -0.12809265 0.114220284 0.01997175 -0.14450404 0.044893328 0.1119618 -0.11236893 0.17785665 0.13129571 0.038646396 0.11587752 0.12348007 -0.24704358 -0.23111226 0.23279761 0.12896514 -0.3317173 0.021815877 0.010530524 -0.11080092 -0.020890307 -0.0357664 0.27348334 0.03874994 0.047549874 -0.2650107 0.0117664775 -0.2590035 0.16642253 -0.014605624 0.053145435 -0.025197877 -0.08023461 -0.15990055 -0.12394364 -0.011076286 -0.13262722
bed|NN 0.0040950337 -0.081550114 0.10706219 -0.18273228 0.11061695 0.1528853 0.056503568 0.032374997 0.20827185 0.04597569 -0.09657313 -0.06444108 -0.1733895 -0.140125 -0.11962143 -0.23965114 -0.09369506 0.07648856 -0.1904102 0.08460436 0.084863044 0.09860343 0.0499659 0.365249 0.03198177 -0.03707061 0.113880195 0.15627773 -0.06364513 0.13176897 0.11027046 0.15445085 0.08211319 0.17689952 -0.10483253 0.0042090653 0.19971243 0.19419947 -0.15249023 0.16014741 -0.16194749 -0.19143279 -0.14324069 0.13444337 0.03751561 -0.26022187 -0.014988764 0.09430223 0.18156989 -0.17864195
create|VB 0.11591833 -0.04848989 0.0674503 -0.099862374 -0.08274956 0.16053505 0.11568855 0.11997829 0.016305523 -0.10083335 -0.22665069 0.014791392 -0.13448907 -0.001529993 -0.12954003 -0.10654925 0.008220777 -0.019765988 -0.06689822 -0.24568069 0.15967767 0.2949707 0.16699342 0.15463963 -0.08263796 -0.029835565 0.10826416 0.16846098 -0.09571041 -0.10279947 -0.12211475 0.020964164 0.12181313 -0.037074506 0.007862549 0.06012447 0.1135767 0.05606801 -0.12061477 0.18528494 -0.33316138 -0.023284502 0.2102859 0.055177588 -0.0823464 -0.13187572 0.09887425 -0.13623202 0.31617332 -0.30407548
as|RB -0.055201627 -0.16377912 0.16319223 -0.04787475 -0.19449565 0.033188857 -0.089761 0.07016113 -0.008848432 0.1949733 0.2260114 0.14322479 0.15863346 -0.020061199 0.06188686 -0.017734027 0.030379482 0.19501936 0.19112866 0.18259645 -0.03726188 -0.11681296 0.13657008 0.3760371 -0.24541253 -0.24714713 -0.057660528 0.05484709 0.19608927 -0.0067605185 -0.11734278 -0.09601822 -0.044451114 0.080330156 -0.1504532 0.057418976 0.08248143 -0.19302322 -0.060554374 0.004831228 0.26144522 0.16039833 -0.03222542 -0.02702042 0.09495534 -0.022134682 0.12773588 -0.1909641 0.07152362 -0.17743844
so|RB -0.26704377 -0.11543723 0.013264198 0.11361957 0.007514505 0.1340352 -0.0887744 -0.022677891 0.08412068 -0.17610587 0.023726977 0.0106954845 0.10843985 -0.08532929 0.056259677 -0.04524664 0.14289843 0.18256482 -0.1390556 -0.014877342 -0.015282847 0.012172488 0.062034145 0.3783232 -0.1389656 -0.11176388 -0.023463946 0.25082386 0.24176198 0.007511211 0.2978223 -0.041985057 -0.11150784 -0.12229228 -0.09784188 0.23494612 -0.13866952 -0.053235646 -0.16054644 0.057959944 0.08256194 0.15496375 -0.13031776 -0.10079168 0.0828827 -0.19156921 -0.29405156 -0.053824518 -0.085838184 0.07943608
container|NN -0.15457495 -0.114911355 -0.052859355 -0.13190801 0.27492774 -0.035322443 -0.19686523 -0.1552847 -0.093905844 0.12917681 -0.1864788 0.1301752 -0.03837506 -0.08005331 -0.023373688 -0.089390606 -0.032031458 0.042494014 0.085716456 0.11849509 0.08493062 0.07408442 -0.13734566 0.09342912 0.0023266464 0.1290738 0.039807014 0.08901391 0.16672897 -0.11140164 0.1029774 0.17489256 0.01559415 0.10709614 -0.34280434 0.06580537 0.02332817 0.32138053 -0.011308983 -0.19689478 0.1382199 -0.056242328 -0.18172292 0.0056681437 0.14757292 -0.20245409 -0.056065176 0.029563716 -0.21999002 -0.30081436
than|IN -0.3257466 -0.09688354 0.1545573 -0.20442738 0.083300166 0.24733245 0.064304225 -0.12648371 0.0017495534 0.1430091 -0.0917067 -0.023867663 0.043387167 -0.069900125 -0.18807963 -0.24700357 0.039149158 0.098159984 0.018233161 -0.08641429 0.1835911 0.17428091 0.14644377 0.17003238 -0.08093045 -0.057872407 -0.00082262483 0.31529757 0.0029341585 0.04099888 -0.03646519 -0.19697338 -0.3263268 0.23151477 -0.01701403 0.22556019 0.047604878 0.103052065 0.16621913 -0.10101572 0.11324121 -0.004584078 0.054358963 -0.024567923 0.0790683 0.001530581 -0.09825663 -0.10388648 0.043671865 0.0804476
add|VB -0.017298102 0.05393722 0.1176807 -0.09474663 -0.10123988 0.19532576 0.061555766 0.25077152 0.022899544 -0.083222404 -0.21193771 0.097293966 -0.105301194 -0.13488927 0.0046472396 -0.2530075 -0.071057215 0.18882275 -0.17054668 -0.007990973 0.1672364 0.26698223 0.07417193 0.24652776 0.076093696 -0.009288422 0.1850789 0.16610475 -0.05605492 -0.10423361 -0.028562928 0.051768105 0.011005794 0.026684968 0.07734438 -0.03956739 0.12456812 0.13285242 -0.10135166 0.2272671 -0.20176359 -0.0507413 -0.009923583 0.039306983 -0.05443545 -0.11699286 -0.06145662 -0.093357176 0.35038313 -0.28779522
towel|NN -0.16941126 -0.1660839 -0.22776338 0.16443338 0.124994606 -0.014789499 -0.17487626 -0.14772934 -0.03856461 0.12148721 -0.123901516 0.19407716 -0.09627105 0.21015683 0.023803774 0.019815486 0.026337594 0.016148362 -0.04012804 0.15110375 -0.10367335 0.097461134 -0.0015897967 0.13619928 -0.10809919 -0.053645577 0.121402964 0.21067525 0.21207361 -0.052283306 0.097550415 -0.18971182 0.012006369 -0.22602725 -0.27861235 0.10259277 0.06985128 0.03764675 -0.14587857 -0.025912933 0.16256481 -0.13016857 -0.019149346 -0.124772176 -0.03807991 -0.24436964 0.14368393 -0.20425186 0.10685409 -0.2826884
white|JJ 0.055313297 0.027121138 0.080901965 -0.10876338 -0.256083 0.05341266 0.10540088 -0.0882393 0.039132915 0.08788106 -0.25960052 0.23124965 -0.040386707 -0.037242576 -0.069129184 -0.06964443 0.12823331 0.07239386 0.0041360236 0.12649629 0.19261949 0.24514593 0.07041905 -0.034478433 0.07045623 0.0752448 -0.021653173 0.09322543 0.01753958 -0.009026694 -0.13153453 -0.07966366 -0.039788518 -0.13772309 -0.16984457 0.07020192 0.122164704 0.2452874 -0.10758225 0.09707374 -0.14090921 0.13807096 0.25874203 -0.12527281 -0.08613657 0.28792673 0.15598595 -0.30416247 0.20096657 -0.20816413
dry|JJ -0.22937156 -0.12804589 -0.11233517 -0.11046018 -0.06347408 0.055005755 -0.288975 0.09075883 -0.053408306 0.16605113 -0.054337993 0.1452722 -0.01894548 -0.013726195 -0.074005485 -0.10264421 0.109968394 0.14863174 -0.010533191 0.25060427 -0.26534507 0.0003684512 -0.10190236 0.1737956 0.003330778 -0.11728457 -0.011680312 0.116730876 0.064855516 -0.058124922 0.11033351 0.11144358 0.12643075 -0.19784558 -0.3666246 -0.09195199 -0.079902895 0.09921466 -0.1126004 -0.11101032 0.29300708 -0.15883836 -0.0048052953 -0.13355865 0.14298221 -0.07263436 -0.12236911 -0.011945796 0.06115501 -0.23618382
cleaning|NN -0.18477815 -0.018647082 -0.26461276 0.1186808 -0.10949184 0.17912059 -0.06172228 0.020572647 -0.08224666 0.14098163 -0.0696989 0.083863676 0.15464944 -0.09956308 0.18398924 0.15395764 0.29245457 0.14342278 0.37908423 -0.13813563 -0.031956043 0.074454 0.16996013 0.0051782 0.034645334 0.041320365 -0.250191 0.15687141 -0.030653426 -0.2279458 0.2204803 -0.018898642 -0.11058823 0.042493097 -0.044017345 0.15902372 -0.121866025 -0.01008455 0.1202147 0.01910747 -0.022299062 0.17617857 -0.020045606 -0.11178667 0.00056884787 -0.031360935 0.10199172 -0.25455394 0.10805869 0.05927655
glass|NN 0.139346 0.036605183 -0.096023135 -0.2057732 -0.08949629 -0.013129245 -0.23408814 -0.24580671 0.10014205 -0.19214478 -0.22020103 -0.1016618 0.13116427 0.21063754 0.080504216 -0.0063735386 0.055342812 -0.057900697 0.029865207 0.1500531 0.3185475 -0.015114332 -0.10036361 0.09191143 -0.23147255 0.028268654 0.18432093 0.066466086 0.16478316 -0.11575825 0.15677738 0.1423852 -0.20970993 -0.093409605 -0.11246709 0.007549851 0.1426984 0.060994886 -0.008200531 0.029802497 -0.06708 -0.1902876 0.071383044 -0.045357235 -0.17479901 -0.10172389 0.00033030967 -0.09110498 0.23264456 -0.24608216
out|IN 0.013017137 -0.13541475 -0.19735047 0.14699902 0.20043923 0.070416346 -0.16924728 -0.072304174 0.020637644 0.17089646 -0.04330687 0.06473466 0.14000323 -0.016550815 -0.11637339 -0.24789286 0.13927783 0.2368009 0.070937306 0.12358474 -0.04205676 0.0752028 0.011396261 0.19144465 -0.051496863 -0.07215446 0.0899373 0.15909296 0.20723565 -0.14986432 0.28327549 0.21625713 0.066171244 0.13859633 -0.25400522 0.2127184 0.108001396 0.0783011 -0.014336037 -0.13693413 0.0176538 -0.05512179 -0.17104441 -0.010176806 0.16254222 -0.26431078 -0.0911824 -0.043285467 0.04821755 -0.16154152
clean|JJ -0.13693956 -0.08536003 -0.18906656 0.21233165 0.02545862 -0.076465175 -0.17652345 -0.098639764 -0.088770695 0.14768617 -0.29623315 0.08831754 -0.04776009 0.111879684 0.08451214 0.12254915 0.11484193 0.06493024 0.08696829 0.12058695 -0.010134467 0.07982456 -0.034591865 0.15809962 -0.046416566 -0.14918333 0.10381808 -0.007090619 0.18125914 -0.09916294 0.07435078 0.02897322 -0.019196367 -0.17034961 -0.3282898 0.018703444 0.046241466 0.0872328 -0.079749554 0.091585025 0.03177614 0.059793636 -0.23572172 -0.2529735 0.07181601 -0.044282887 0.16169141 -0.20445926 -0.0041382858 -0.40722793
where|WRB 0.08060696 -0.052735902 0.082641155 -0.12275988 -0.08645789 0.08992425 -0.1083944 0.05370969 0.079103306 -0.10562085 -0.012851122 -0.13727935 -0.060203433 -0.023305122 -0.26667404 0.016543627 0.11276571 -0.04086493 -0.01765248 -0.0913232 0.10334513 -0.025889654 0.17167315 0.2756285 -0.008656862 -0.04802902 -0.023931103 0.28138292 0.07758533 -0.07491232 0.21955472 -0.0027715948 -0.011658063 0.12938179 -0.20403926 0.28539902 -0.013203405 0.21676926 -0.2542308 0.08268377 0.050877918 0.007125174 -0.3218789 0.15761828 0.20573339 -0.0871708 -0.176772 0.12381656 -0.11458273 -0.21336879
different|JJ 0.034203257 -0.09156905 0.012626497 0.017227301 -0.023234745 0.1529268 0.19265606 0.13588668 -0.008555952 0.0064226137 -0.22122653 -0.011827076 0.054055426 0.018057834 0.0055009923 -0.10418931 -0.020263918 0.048394546 0.14016242 -0.25450024 0.104317605 0.20343265 0.15850753 -0.077261046 0.020089086 0.06376945 -0.16126153 0.058021765 -0.10033812 -0.17517217 0.015054236 -0.08978414 -0.01562982 -0.049756166 0.21379302 0.12886424 0.042093404 0.07021012 -0.10601156 0.39008912 -0.16464251 -0.03474667 0.15613836 -0.020409914 -0.093883134 -0.04199686 0.058254626 -0.10471328 0.50279105 -0.16658826
do|VBP -0.26471186 0.031352207 0.23635843 -0.014154295 -0.17986834 0.39870977 -0.038045615 0.061781965 -0.17324983 0.09395263 -0.10117601 0.065241106 0.12004529 -0.1304343 0.0633877 0.07694206 0.27640593 0.22661287 0.14081569 0.1176862 0.01992984 0.09367791 -0.023620738 0.17942183 -0.163498 -0.012754519 -0.099778 0.27491578 0.1008917 -0.044901226 0.025369443 -0.07291779 -0.1892245 0.07685363 -0.061544307 0.23006363 -0.072092324 0.10085228 -0.024391785 -0.086691976 0.058036122 0.1178437 -0.044097863 -0.1453758 0.13155685 0.15098315 -0.121709935 -0.1561487 -0.07557199 0.020057429
book|NN -0.14087448 -0.24669573 -0.034336735 -0.23839892 0.2101255 -0.010260352 -0.07280706 -0.1054406 -0.1597894 0.15778165 0.09858079 -0.23031917 -0.08919668 0.060093228 0.039742835 -0.074178346 0.07064506 0.15397532 0.14041375 -0.0391423 -0.06975737 -0.08221629 -0.15665981 0.1576898 0.03457473 0.33777916 -0.059431486 -0.049531322 0.30352804 -0.058870282 0.22990589 0.25121477 0.025968285 0.07890016 -0.17789717 0.09637317 0.081942774 0.1221565 -0.037896197 0.03910056 0.024885805 -0.034789514 -0.22501414 -0.05920041 0.052824788 -0.2321725 -0.15997367 -0.02752964 -0.052849416 -0.10347566
their|PRP$ 0.06989131 -0.13434038 0.03710129 -0.106899574 -0.043515224 0.16273464 0.030802356 -0.07696501 -0.037391037 0.2321351 -0.029246151 -0.08816761 0.38699257 0.055542696 -0.07720665 -0.09683648 -0.15146297 0.30707842 0.17902642 -0.09471847 0.1135572 0.028242916 0.02438592 0.02422568 0.0582344 0.06448255 -0.21613783 0.10316416 0.23386614 -0.23312582 0.13589688 0.023216182 -0.17794415 0.050725285 -0.09662039 0.23977554 -0.07538395 -0.044071678 -0.07663742 0.05196897 0.1909012 0.0456497 0.08860519 -0.01908739 0.25455573 0.00627421 -0.17429028 0.014800273 0.16917719 0.20679308
Keep|VB -0.17005527 -0.18039179 0.084842935 -0.31233162 0.06305698 -0.0037188856 -0.23971482 0.039360557 -0.1244413 0.20417537 0.061075326 -0.15035538 0.055010997 -0.19744998 -0.063182674 -0.25927073 0.060657408 0.3621537 0.13910294 -0.032462254 -0.06316003 0.03568187 -0.19385327 0.24925658 -0.15311308 0.037454803 -0.09533609 0.036639933 0.1035659 -0.18654017 0.051414005 0.09431164 0.0034773455 0.05955619 -0.15760827 0.028710693 -0.08867629 -0.047491442 -0.11296651 0.09351736 0.20007421 0.027931819 -0.012261389 -0.095888704 0.0832786 -0.1361255 -0.23989412 0.14327157 0.018792998 -0.08127349
way|NN 0.07287823 -0.024410315 0.010655611 0.005918142 0.013475275 0.11708701 0.08695977 0.29796648 -0.035629656 0.051131256 0.19168702 0.09288994 0.06552202 0.050790153 0.26123372 -0.1537271 -0.003610229 0.13635568 0.057579096 0.017354097 0.18683498 0.24809293 0.17506813 0.29526353 -0.051001035 0.07794147 -0.16220324 0.2694489 0.11233187 -0.21091898 0.015370298 0.0104261115 -0.13064745 0.09422475 0.061594333 0.13781002 0.037154213 0.23426823 -0.118786104 -0.12520246 -0.17235926 0.20833206 -0.057629175 0.20897326 0.05946296 -0.20131981 0.011343916 0.08704052 0.11398039 -0.12046596
just|RB -0.10824446 -0.14019807 -0.06556354 -0.11664683 0.10052935 0.029258184 -0.14847016 -0.08614048 0.18572544 -0.18126674 0.036710605 -0.1309963 0.2554306 0.1359059 0.075590044 -0.16940922 -0.0990223 0.14491229 0.058559842 -0.068854414 -0.075430885 0.040408593 -0.12650847 0.38432312 -0.1348949 0.05775037 0.012534857 0.079304986 0.13591798 -0.021628572 0.120781064 -0.062291164 -0.08399437 0.12619127 -0.14573139 0.12691145 0.105659105 0.094277866 -0.1991019 0.31131598 0.11945479 -0.056033958 -0.06340683 -0.076227166 -0.005250368 -0.25810578 0.024168737 -0.1883634 -0.106753364 -0.2695035
too|RB -0.19697414 -0.063808106 -0.005120852 -0.06265473 0.047525994 0.14408419 -0.023009658 -0.10763287 -0.11608994 0.058848117 -0.018989168 0.02164407 0.16840759 -0.036801223 -0.084355906 -0.20969124 -0.09121007 0.1626258 0.0145893935 0.24354729 -0.07782995 0.23901865 0.15435095 0.16426842 -0.11141798 -0.06623476 0.20467834 0.35764837 0.046372104 0.025040919 0.10645219 -0.3252587 -0.27619797 0.14880547 -0.29587916 -0.022025596 0.07540744 0.03609224 0.03473984 -0.096921556 0.18367253 -0.073390566 -0.053543396 -0.11866492 -0.1102582 0.049383614 -0.0950588 -0.058155745 0.0013166214 -0.13244227
brush|NN -0.14600505 -0.086431175 -0.17933565 0.24439687 -0.13724846 -0.026045041 -0.085010506 -0.09739462 -0.09112108 0.043040026 -0.15923263 0.2568689 -0.115417264 0.011843794 0.087758645 0.13710378 0.08955732 -0.054304473 0.12405438 -0.056765247 0.17745997 0.19138134 0.021187268 -0.06493182 0.029801995 -0.0040783505 0.095392115 0.16376321 0.08859453 -0.115414955 0.20583531 0.14966987 0.016713247 -0.19226821 -0.22237317 0.13409752 -0.05107281 0.268905 0.025126614 -0.14727697 -0.18185942 0.009893606 -0.033285074 -0.08248347 0.0017032569 -0.14409196 0.107652135 -0.33068073 0.14934821 -0.2636361
need|VB -0.19341694 -0.017807782 0.053514343 -0.046974286 -0.24681354 0.14362283 0.07776425 0.014781657 -0.048361264 0.05606195 0.029272448 -0.011878456 0.07631098 -0.009214645 -0.091995046 0.074039206 0.061348215 0.02000461 0.109095074 0.044887975 0.04677444 0.07000446 0.13347256 0.04250721 -0.13010734 -0.03820775 -0.13009751 0.22579293 0.13731894 -0.06711985 0.24420613 0.1133563 -0.14572324 0.05340354 -0.24107477 0.4164062 0.017371997 -0.09978409 -0.047060855 -0.052213967 -0.14769448 0.24522634 0.10001968 -0.30363643 0.20734364 0.033974 -0.048067972 -0.3037645 -0.12417249 0.08384891
box|NN -0.029985124 -0.16652985 0.108006224 -0.1866146 0.3857512 0.05227427 0.06095944 -0.2079407 -0.047985326 -0.0029727311 0.09600448 -0.16611847 0.15412992 -0.035745665 -0.20563373 -0.09745829 0.10127944 -0.16731472 0.01185045 0.048790444 0.093332484 -0.0044064387 -0.0888153 0.12368533 0.12745798 0.18166497 -0.2139504 0.25395247 -0.07264216 -0.049331266 0.2501513 -0.05754228 0.064618185 -0.016691325 -0.14229557 0.07155994 0.029417371 -0.029923536 -0.006787661 -0.0051261405 -0.25642896 -0.077025026 0.0044146413 0.17018548 -0.042394053 -0.22044155 -0.30333734 -0.1426277 0.09669391 0.014824693
soap|NN -0.12747288 -0.016655317 -0.20142983 0.08741494 0.022058012 0.03526673 -0.09761807 -0.02683785 -0.23034655 0.07530322 -0.12639068 0.057593778 0.19393231 0.07967818 -0.05241039 0.03989682 0.27150637 0.099260345 0.19384791 0.034262907 0.10572188 0.1406309 -0.15992007 -0.03286055 -0.16240022 0.016047152 0.05330729 0.18380553 0.11927124 -0.18307492 0.15762171 0.10441851 0.018095566 -0.194958 -0.12323156 -0.043239355 0.056251045 -0.05291825 0.14024226 -0.087736525 -0.011132573 -0.16296937 0.20918779 -0.3166687 -0.11468753 -0.058281362 0.19317962 -0.31077546 0.17968816 -0.1676406
Place|NN 0.06455775 -0.27969706 0.017250022 -0.3439366 0.042378843 -0.040134016 -0.039333012 -0.038787737 0.1421843 0.13746162 -0.08577418 0.027060293 -0.120093204 0.088622876 0.04682914 -0.011933932 -0.10666813 -0.016705735 0.021783052 0.04388415 0.19721864 -0.008179545 -0.14937624 0.14476013 -0.007585095 0.1998044 -0.06941808 0.16323018 -0.0913627 0.03831819 0.019825142 0.15514179 -0.008967941 -0.0380907 -0.30248213 -0.05197273 0.14074063 0.2501706 -0.08390826 0.041628465 -0.12364777 -0.23608284 -0.03522894 0.22550897 0.016616013 -0.23660544 -0.122822896 -0.029334242 0.20053229 -0.31032383
until|IN -0.164196 -0.102286 -0.1596476 -0.0033105998 -0.07723842 0.18612145 -0.26142976 -0.115153946 -0.06858452 -0.040653072 -0.055230167 -0.009669504 0.19119017 -0.07053165 0.039551485 0.09239725 0.23802568 0.081609696 0.012916156 0.06451539 0.039866466 0.05843418 -0.32055318 0.22903806 -0.028770555 -0.07374718 -0.18227367 0.19266303 0.13665448 -0.16564596 0.15076847 0.051261146 -0.076444685 -0.120930515 -0.16025324 -0.04916325 -0.053631946 0.27083087 -0.16306074 -0.059683107 0.32466176 -0.10771556 0.0008767281 -0.22522005 -0.03703189 -0.07364429 -0.11899619 0.04671034 -0.10898054 -0.14178738
surface|NN -0.11752592 -0.09974498 -0.2181189 0.11618371 -0.04576958 0.084883265 -0.07156145 -0.09965273 0.018489689 -0.1965984 -0.24332714 0.12630667 -0.0921736 0.06893901 -0.00499809 0.17688741 0.2763502 -0.07522061 0.050096888 0.022731276 0.11048151 0.10080589 0.044063523 0.065306686 -0.123766616 0.029732104 0.07862493 0.26404652 0.07849545 -0.039614063 0.24488401 0.054214135 -0.07512166 -0.09510798 -0.10953882 0.019635445 0.14706482 0.35689783 -0.0036929485 -0.107286386 -0.0074957903 -0.07811915 -0.07703054 -0.15350892 -0.074059226 -0.16957347 0.10125584 -0.35177773 0.1886954 -0.1691721
stains|NNS -0.17389806 -0.1379425 -0.060863253 0.16519089 -0.09661511 0.08239041 0.02530188 -0.11823834 -0.27725503 0.17800827 -0.084274106 0.21452948 0.050840613 -0.004543426 0.16106558 0.098088846 0.26822603 0.0007526712 0.19551249 0.037730455 0.16749004 0.18652567 -0.18180068 -0.060391806 -0.07377958 -0.06925194 -0.037257876 0.10911324 0.13105744 -0.16095193 0.16055574 -0.0064640827 -0.13900553 -0.022684788 -0.17468017 0.14939453 -0.11937375 0.057039388 0.10545582 -0.19177397 -0.13467707 0.16879517 0.06987858 -0.2325569 0.16641133 -0.0039869584 0.10773446 -0.28761807 0.057894226 -0.12850964
might|MD -0.18168847 0.05160362 0.10867188 -0.1427018 -0.084511586 0.13535213 0.1486774 -0.026810843 -0.034136258 0.08927922 0.10273696 0.016069977 0.11942694 -0.08833455 0.19584247 -0.15508851 -0.042813726 0.10009761 0.12342182 0.016083816 -0.16445974 0.0044187675 0.06536168 0.16216575 -0.0021352507 0.15168785 -0.18516707 0.1553804 0.058447972 -0.17981598 0.19649686 -0.14452408 -0.032720953 0.13364631 0.033430956 0.4460444 0.07302694 -0.11237662 -0.24791305 0.3438609 -0.18384767 0.20997901 0.05147695 -0.05241692 -0.027774168 0.025356922 -0.038157303 -0.07252272 0.06471527 0.07415002
use|NN -0.2630278 -0.15721558 -0.18548658 0.10746448 0.093566895 0.118221804 -0.10143466 0.16117151 -0.14266464 0.022621533 -0.0964796 -0.04859891 0.2770282 0.27277544 0.122095786 -0.29014745 0.13727091 0.24813621 0.19834214 0.06548336 -0.015336936 0.054446284 0.1248549 0.13095212 -0.22021669 0.1503053 0.08761907 0.03991372 0.25585634 -0.2495259 0.10618982 0.123665884 -0.0012699517 -0.05743561 0.025519775 0.058291264 0.070113175 -0.075607315 0.13198245 0.10243228 -0.09942926 0.08518868 0.17518783 -0.043828912 0.020583684 -0.027496647 -0.0029234723 -0.06072515 -0.015721112 -0.15154761
which|WDT -0.13754855 0.0052189003 0.039109256 0.030301707 -0.04572331 0.23570293 0.36261177 -0.055216298 -0.11798566 0.08135288 -0.13627248 -0.025511896 0.14730398 -0.18392493 -0.041624118 -0.25272897 0.11544882 0.07822934 0.19792776 0.12132565 0.05513709 0.1541007 0.23564935 0.15546468 -0.09871932 0.0042153466 0.058369797 0.21527159 0.1177507 -0.3382603 0.05257625 -0.11912535 -0.2016824 0.22809839 0.12507914 0.13501887 -0.019251285 0.07818164 0.11871288 0.10413763 0.0043304395 0.15101813 0.09948589 0.00054001086 0.015002002 0.095801406 -0.010271415 -0.0061814026 0.19072093 0.06560754
very|RB -0.33390006 -0.047444895 -0.07347198 0.013660732 -0.065137856 0.3109149 0.123146236 0.042104278 -0.26308897 0.18330052 -0.2042103 0.067993805 0.044986084 -0.00376662 0.13902757 -0.064027704 0.10266699 0.14349933 0.04271829 -0.07447205 0.1442207 0.09126057 -0.036625497 0.06389739 -0.025156194 -0.2570766 0.1380968 0.14061517 0.016888749 -0.15929273 0.19738345 -0.103993915 -0.25690544 -0.065578714 -0.07730732 0.19750926 -0.030094039 -0.109104425 0.028461777 -0.140329 -0.025303576 -0.07980524 0.31444097 -0.1803428 -0.116235316 -0.0799673 0.02179711 -0.022435991 0.10064523 -0.12707148
good|JJ -0.03984804 0.049107444 0.09331073 -0.14343403 -0.12370254 0.24331948 0.018016873 -0.012470519 -0.08075836 0.13628393 -0.2864777 0.24922343 0.05356676 -0.28934827 0.14483052 -0.22774628 0.2163518 0.18026891 -0.024736488 0.052313436 -0.047300372 0.0654682 0.20362869 0.090472974 0.1355171 -0.16234021 0.12855431 -0.006966219 0.08101423 -0.15746751 0.04422369 -0.024082936 -0.02275889 0.21471424 -0.16772783 0.18597585 0.22935128 0.18364194 0.075044684 0.0689698 -0.16783148 0.09108647 -0.07045561 -0.14635962 -0.03346137 0.1359787 0.120885834 0.005397513 0.16074802 0.0028507605
want|VB -0.17232028 0.04419553 0.05769351 -0.056088425 -0.19572896 0.336717 0.09982344 0.13894768 0.08259346 -0.0067363507 0.014742672 -0.012261783 0.08223245 -0.08732869 0.053818487 0.008074379 0.04347142 -0.031882063 0.0326423 0.120200776 -0.05193721 -0.045925487 -0.052363295 0.12609586 0.082014926 0.13678907 -0.06128395 0.232299 0.16578157 -0.1994816 0.15939055 0.011462111 -0.076697305 0.12833789 -0.013667874 0.38992313 0.14174297 0.13164482 -0.10977571 0.2245904 -0.3127725 0.21490183 -0.14432701 -0.019555682 0.028466556 0.12368006 -0.20773697 -0.16678071 -0.09386985 -0.053773914
It|PRP -0.21760966 -0.06899376 0.0375373 -0.08447754 -0.060474876 0.29959163 0.11104451 -0.17764847 -0.040461063 -0.020074634 -0.025481047 0.10857539 0.13340166 -0.20800744 0.03649252 -0.23440476 -0.003776204 0.23524939 0.2596378 0.06199062 0.06793015 -0.08546676 0.09377282 0.36677316 0.019383099 -0.25524554 -0.10536683 0.1788375 -0.07399024 -0.08241893 0.0693901 -0.0771699 -0.2055964 0.26874876 -0.22917965 0.16223298 -0.0016942087 0.03365694 -0.015021968 -0.07764618 -0.13085039 0.10729734 0.020028187 -0.031263918 0.1013402 -0.0029020829 -0.08599483 -0.01926448 0.038348604 0.080423474
store|NN 0.10866799 -0.03254345 -0.17762703 -0.03392727 -0.12205499 -0.0073054573 -0.0073645688 -0.11480622 0.17174368 0.29346636 0.041280743 -0.04457807 0.1998774 -0.17816493 -0.16459353 0.026161902 0.047904275 -0.124209315 0.19636178 0.15321137 0.0254911 0.153794 0.18218412 0.17342423 0.09314116 0.02119828 -0.034687277 0.06647907 -0.08888852 -0.30858415 0.118810914 0.11007842 0.0058410643 -0.055069488 0.15018551 0.05616841 0.25478834 -0.07011059 0.028543072 0.43098107 0.052930575 0.093618564 -0.09226854 0.08530848 -0.048469428 0.10380066 0.040034175 -0.039702903 0.2472993 0.077776074
filter|NN 0.08702804 0.016410125 -0.10416853 0.09304402 -0.09271956 0.052973952 -0.0430106 -0.06036274 0.026822465 0.13982405 -0.010220369 0.1383101 0.28071424 0.08135123 -0.12952383 0.121544905 -0.10271146 0.2699265 0.28262937 0.07525997 0.05557183 0.09976121 0.17762412 0.2179624 -0.15374123 -0.17794958 -0.08390818 0.124889374 -0.062192135 -0.05274605 0.18743886 0.0823193 0.009153955 0.06648671 -0.25031054 0.09148133 -0.06894571 0.061878018 -0.093806565 0.045592066 -0.27341074 0.14961055 -0.3569919 -0.24716312 0.021490045 0.07047771 -0.029387973 0.0742222 -0.13597165 0.027909093
books|NNS 0.015033759 -0.037642524 0.2000518 -0.21941732 -0.0720984 0.16556653 0.21217611 -0.03414664 0.07637482 0.106062904 0.0343246 -0.10471461 -0.12254677 0.061455358 0.03316748 -0.11095118 -0.06781563 0.08981134 -0.04775031 -0.1142886 0.048601355 0.1441961 0.11875342 0.36624736 -0.16613011 0.17406432 0.02104961 -0.16122338 0.15304978 -0.13594446 -0.051771075 0.19478872 0.11077063 -0.06591078 -0.03642636 0.055689737 0.12609312 -0.041238543 -0.056992367 0.36345446 -0.21266164 -0.05114641 -0.061373167 0.12754576 0.10828491 -0.14305998 -0.060621876 -0.13778692 0.16783933 -0.28074223
top|NN 0.11560502 -0.15289232 -0.030126413 -0.0022556165 0.16412528 -0.009214796 -0.09939165 -0.33043653 0.16834337 0.045108885 -0.11112585 0.19207108 -0.15043513 0.18525049 -0.052618705 0.08321877 0.06507746 0.053925853 -0.1078062 -0.0013578912 0.14287288 0.12790117 -0.04294729 0.25709796 0.08621399 0.064168036 0.015321017 0.074365914 0.036518097 0.07147786 0.2636287 -0.109188855 0.0013479856 0.06780367 -0.24492656 0.050853945 -0.037396234 0.22379929 -0.06975401 0.12745559 0.12362418 -0.272979 -0.22295453 0.0015605815 -0.053274926 -0.26957077 -0.07748118 -0.06823177 0.19633791 -0.19324283
get|VB -0.17071581 -0.04571451 0.06836007 0.12044237 -0.14522015 0.15240818 -0.094193466 -0.19614598 0.030742336 -0.026583772 -0.14684811 -0.0018179354 0.0358592 -0.04671306 0.092918254 -0.14366701 0.056884386 0.19472095 -0.13240486 0.10077863 0.009641507 0.17605968 0.085966274 0.19453605 0.15447833 0.13271715 -0.08384112 0.06101389 0.37922978 -0.16893841 0.077782534 0.08705799 -0.119412564 -0.045827493 -0.022845244 0.27376163 0.10628316 0.2638939 -0.16575961 0.19804133 -0.20158906 0.16152568 -0.09948462 -0.032139193 -0.03936525 0.09113141 -0.14438452 -0.19188203 -0.052684795 -0.17655118
while|IN -0.11760382 -0.23133345 0.030304765 -0.14158168 -0.077384554 0.200891 -0.13923906 -0.251131 -0.09576276 0.036510915 0.02846968 -0.14051026 -0.05089204 -0.08469661 0.1786127 -0.18966605 0.054372877 0.39517403 0.23455071 -0.101335004 -0.06705968 -0.03625443 -0.05469184 0.2027192 0.013500165 0.04883042 -0.17210618 -0.06832533 -0.07606048 -0.18377115 -0.01661652 0.08818739 0.092241116 0.23475662 -0.1510646 0.12074473 0.07173606 0.112609945 -0.12497878 0.09246003 0.05514422 -0.026863256 -0.10591982 -0.046587262 -0.100286216 0.047040373 -0.27675462 0.16748062 0.1958061 -0.0031108998
They|PRP -0.004651491 -0.061709933 0.10804444 -0.018127406 -0.06258609 0.3041925 0.2592244 0.019740475 -0.16855213 0.17684029 -0.017911563 -0.06867526 0.11654198 -0.21160096 0.030744925 -0.22119921 -0.037689544 0.031116875 0.24121341 0.22194473 0.1935443 0.074113764 0.19403923 0.25684062 -0.06462188 -0.031005507 -0.11787235 0.026991237 0.08155974 -0.30797347 0.03697798 0.013739549 -0.026738318 0.1095901 0.16177718 0.17218708 -0.07614098 -0.15105179 -0.10795468 0.31410718 -0.12981072 0.15358435 0.040843442 -0.04813785 -0.016341459 -0.040431496 0.07368101 -0.024434997 0.089834586 0.00791932
used|VBN 0.032057475 -0.04759918 -0.024859412 -0.25708172 -0.26256126 0.19445653 0.06582631 0.15254298 -0.12808643 0.12809548 -0.100513265 -0.090280846 0.030624308 -0.3417854 0.017181413 0.08908237 0.21591946 0.08012385 0.3009476 -0.043337658 0.17134246 0.04724531 0.05533019 0.13594481 -0.03439084 0.012471755 -0.014072292 0.037848435 -0.11773184 -0.33594465 -0.05986767 -0.039634682 0.026362004 0.13768734 -0.111707956 0.1324036 -0.05286408 0.03462119 -0.13532737 0.2003294 -0.011377796 0.32649934 0.01530693 -0.16048975 0.11439737 -0.009674575 -0.004861513 -0.013041338 0.07794035 -0.1444035
how|WRB -0.18761432 -0.026734278 0.039865848 -0.022294972 -0.059956383 0.2198619 0.12919681 0.0018241394 0.026121167 -0.20335698 0.15136181 -0.0888682 0.18311143 0.008294743 0.13188565 -0.026315909 -0.06658945 0.03833333 0.034814604 -0.19931193 -0.010041949 0.14234328 0.13375515 0.29064503 -0.24020149 0.04475476 -0.14220853 0.185782 0.068395175 -0.08969269 0.32837063 -0.0064080036 -0.06512303 -0.009639892 -0.040234692 0.28014824 -0.060989574 -0.1160035 -0.22190829 0.26077107 -0.17845015 0.20921978 0.13135247 -0.08053169 -0.028410388 -0.12874499 -0.047314655 -0.12636644 -0.10127808 0.013556194
cleaner|NN -0.054630995 0.0095374705 -0.22447456 0.18819664 -0.26571724 -0.028966304 -0.2091378 -0.04649331 -0.14092067 0.0038129392 -0.1343527 0.19260639 0.09285108 0.0089120185 -0.08346752 0.23889554 0.31982207 0.011782054 0.2489289 0.10190197 0.100865036 0.10414184 0.015215499 0.035730362 -0.18222933 -0.14157872 -0.013545492 0.22120103 0.03798763 -0.13100274 0.14622848 0.061797023 -0.123841286 -0.07116185 -0.15314731 0.06862619 -0.1195957 0.12567672 -0.16015702 -0.096306264 0.006063596 0.08585208 -0.10601435 -0.24366458 -0.011734384 -0.03480973 0.14263281 -0.19373804 0.03903736 -0.22401157
fabric|NN 0.09897634 -0.10850324 -0.0653345 0.17401265 0.15911172 0.046661913 0.04684101 -0.055449337 0.06047204 0.061780956 -0.029238781 0.021334734 0.108660266 0.06691757 0.16444294 0.024824126 0.11202091 -0.06001534 0.004121724 0.27058607 -0.0016944712 0.018513974 -0.06395575 0.21728198 0.002307801 0.013387142 0.10241284 0.12871358 0.21620715 -0.18980679 0.1720053 -0.2147247 0.16652383 -0.25483 -0.08657418 0.041804258 0.054075096 -0.14492923 -0.14135832 0.12697545 -0.10474832 -0.095484436 0.089117125 -0.14408676 -0.10648356 -0.1742282 0.22901899 -0.357845 0.0955142 -0.29933083
pieces|NNS 0.025797619 -0.16846226 -0.0028878564 -0.09736627 0.06615637 0.030289335 0.20946465 -0.19579116 0.19063449 -0.0045878496 0.06136417 -0.06660154 0.075573236 0.03741717 0.21222591 -0.07437237 -0.17769082 0.015169103 -0.028079769 0.22105263 0.18465771 0.014655069 0.011865533 0.21012186 0.045284428 -0.012923673 0.016484229 0.17256577 0.118184835 -0.03950907 0.2316434 -0.23229164 -0.019516101 -0.17026618 -0.16692255 0.10390865 0.14090885 -0.05998901 -0.2887529 0.29505265 -0.15803027 -0.088575825 0.12541804 -0.1271987 -0.1744367 -0.09117245 0.07607914 -0.18242435 0.17302729 -0.14780094
what|WP -0.14678557 0.008642132 0.16874912 -0.030357148 -0.09508468 0.23689303 0.2662389 0.026202736 -0.018953681 -0.05392702 0.1675994 -0.022006813 0.1423263 0.011960762 0.1007527 -0.17736293 -0.033475246 0.003977234 0.060062848 -0.16043967 -0.003737032 0.06492795 0.11132995 0.26786917 -0.0078088883 0.10761871 -0.16650264 0.08401596 -0.006339612 -0.10688892 0.2045453 -0.04391458 -0.03416047 0.21452679 0.08329694 0.40320218 -0.030958641 -0.01036873 -0.21629746 0.3125464 -0.20363657 0.12759832 -0.02670679 0.05044574 0.057213057 -0.13864227 -0.20549814 -0.087727524 0.015603975 0.04445654
Try|VB 0.011804384 -0.06545762 0.14252144 -0.09875171 -0.0019834847 0.15680562 0.053826526 -0.16683704 -0.014116655 0.012610293 -0.1619266 0.032117367 -0.0503313 0.029450824 0.12216897 -0.054847192 0.09027169 0.15554512 -0.13877904 0.07419383 0.11629872 0.13234559 0.078796044 0.1054505 -0.1273229 0.087038085 -0.023725048 0.06941662 0.100458175 0.028576264 0.030085342 -0.11611691 0.09024644 -0.1503611 -0.10648782 0.05935787 0.25613695 0.20876588 -0.24614932 0.24043733 -0.07951488 -0.11868439 -0.045303937 -0.20217986 -0.013939246 -0.07435872 0.03895319 -0.20514429 0.44063693 -0.34824303
need|VBP -0.17091319 0.10026431 -0.115208775 0.08528847 -0.33173695 0.20008954 0.23876278 0.099941224 -0.033339377 0.046576127 0.03632331 0.045988623 -0.015403542 -0.12888479 0.11268575 -0.046666637 0.28765076 0.030388303 0.15022777 0.0445766 -0.043328024 -0.0024641564 0.011088037 0.29307872 -0.03588907 0.029706568 0.08620033 0.15013166 0.27076504 -0.17919111 0.11700166 -0.1552162 -0.07006087 -0.059628915 0.0045447964 0.14433016 0.004347251 0.14442171 -0.06527893 0.1006611 -0.05081548 0.23264565 -0.011743284 -0.0993662 0.07585584 -0.16624379 0.12572367 -0.34914306 -0.05044527 -0.090840384
pillows|NNS -0.14227866 0.022100551 0.054271128 -0.1335995 0.095682964 0.4064239 0.18721041 0.13133843 0.12174759 0.0033349684 -0.2772469 -0.10606744 -0.14004096 -0.12793726 0.10375502 -0.2347669 0.04841591 0.03226748 -0.17851391 0.00413313 0.0072369734 0.04498444 0.14545852 0.3327345 -0.12664768 -0.15512133 0.04491001 0.21255219 -0.10181039 0.051933177 -0.013579652 0.064055964 -0.03723674 0.09724802 0.09609993 0.020433623 0.1155816 0.06814332 -0.062140927 0.10402559 -0.23530798 -0.16373035 -0.029669916 -0.022612723 -0.08181649 -0.206151 -0.06503394 -0.06796924 0.21470499 -0.11080193
