1716 50
the|DT -0.3677182 -0.30767733 -0.48384172 0.0007162812 0.17546445 0.61337316 -1.3316418 -0.4137181 0.81139785 -0.9411777 -0.87874013 -0.030767996 0.13366818 0.4351823 -0.3228519 0.5466436 0.6255576 0.16715783 0.43710998 0.014062442 0.57280636 0.55816096 0.099216394 0.92012304 -0.2501531 -0.9120592 0.36197165 1.1628342 0.2527742 0.17702594 1.5354817 -0.31051332 -0.39913234 0.7407352 -1.2272072 0.8205712 0.080094494 0.90605724 -0.83651364 0.046584684 0.30835953 -0.37963593 -0.19886741 -0.31190684 0.31357858 -0.1540655 -0.36536944 -0.35308972 -0.2855592 -0.18260191
a|DT -1.0246726 -0.2597558 -0.25845337 -0.06560606 0.31654653 0.15958731 -0.5168089 -0.09834785 0.5510385 -0.38098788 -0.9011951 0.28758943 -0.536245 0.41439822 -0.7409897 -0.296072 0.41966128 -0.030619266 -0.32196537 -0.5715938 1.1000295 0.87346506 -0.41815645 0.47164923 -0.08174769 -0.062479008 0.51151204 1.4685593 0.4996916 -0.1568279 1.1446037 -0.20941338 -0.112071924 0.23918521 -0.51948535 0.30830902 0.7769468 0.64936334 -0.65888816 1.3046985 -1.230996 0.47600004 0.3221697 -0.0120087145 -0.029374802 -0.20124888 0.056933474 -0.32800257 0.90828466 -0.5509591
or|CC -0.6643598 -0.55759126 0.09210419 -0.5339909 0.51176804 0.17633851 -0.0021860155 -0.38499615 0.17547959 0.47663102 -0.85736567 -0.29891402 -0.3980295 0.30192333 -0.39442557 -0.07839395 0.37326723 0.36894017 0.24167892 -0.19073921 0.45840943 0.78672636 -0.43964413 0.51007265 -0.570945 -0.28357157 0.43997976 1.0502745 0.72864145 -0.6443302 1.2363862 -0.37778527 -0.5972167 -0.34152073 -0.2583871 0.72279227 0.7041197 0.6361205 -0.635244 1.0176855 -0.55507046 0.3587696 0.10140726 -0.337743 0.5790111 -0.014189891 -0.23641296 -0.37346855 0.36557725 -0.7375934
to|TO -0.88301176 -0.46695662 -0.37003312 -0.022998957 -0.030032137 0.8685872 -0.58201087 0.119846955 0.4408092 -1.115891 0.2719321 -0.5454921 0.122672774 -0.067229874 0.41333264 0.07835681 0.76382005 0.45062432 0.51423717 0.23210092 0.46024388 0.2725949 -0.15366758 0.91018903 -0.017909104 0.07884938 0.36556348 1.1477607 0.05932427 -0.31590277 1.42165 -0.7798046 -0.5672913 0.42110768 -0.059669387 0.70357794 0.5533349 0.20839904 -0.6485997 0.17355621 -0.6604599 0.56059456 -0.29384714 -0.49523544 0.59847516 -0.048067093 -0.4409499 -0.31200117 -0.30716372 -0.015485933
and|CC -0.5197959 -0.4209851 0.38156602 -0.31986347 0.42506257 0.76044744 -0.45228967 -0.23151796 -0.038490657 0.23399511 -0.955511 -0.012214341 -0.13229728 -0.097318865 -0.3546362 -0.43889856 0.773529 0.72095066 0.7578909 -0.3767249 0.9258423 0.80527174 0.5389207 0.64817196 -0.08244113 -0.51083875 0.35500273 0.9591015 0.39254475 -0.42120895 0.98906004 -0.40267208 -0.646474 -0.005064721 -0.35075775 0.66361225 0.48457903 0.5547459 -0.50167894 0.3883778 -0.12259277 0.26161584 0.17419721 -0.5726724 0.61665684 -0.29481426 -0.3652369 -0.24634023 -0.044574067 -0.33032128
of|IN -0.057380944 -0.7256494 0.062969655 -0.33277956 0.5265155 0.84146965 -0.13405827 -0.54266834 0.7393098 0.4070222 -1.2336677 0.18090221 -0.2429287 0.61382496 -0.53382874 0.14327918 0.5059104 0.088516705 -0.08038107 -0.51597446 0.9888418 1.1605929 0.36072072 0.8580934 0.06909161 -0.7763031 0.6483777 1.3495353 -0.020474102 -6.677606e-05 1.8126997 -0.36499014 -0.34329313 0.9168305 -0.47298872 0.66629416 0.22622952 0.3040284 -0.60382295 1.0865582 -0.0860551 0.06594364 0.61623865 0.03733081 0.13684203 -0.50921935 -0.42910597 -0.4268906 0.66385114 -0.20438962
your|PRP$ -0.4305263 0.44965637 0.0016682864 -0.5955707 0.38133866 0.100642815 -0.4346032 -0.1093527 0.5944654 0.7515994 -0.61328214 -0.7504387 -0.16298902 0.21397506 -0.5541215 -0.19170572 0.3080894 0.30427703 0.55738515 0.10151721 0.37941584 0.43252084 0.094861865 1.0968965 0.20025371 -0.09953436 0.16786419 0.9429298 0.8184439 -0.711512 1.3263102 0.14185768 0.14473654 1.0733058 -0.28533545 0.94154966 0.36824483 0.08607591 -1.4614079 0.9831658 -0.7544539 1.0326037 -0.07621641 -0.24298507 0.5894592 -0.16264318 -1.0488786 0.31280255 -0.008368052 -0.7305886
you|PRP -1.1156355 0.27427033 0.24078523 0.40140006 -0.9917328 1.3534117 0.68907076 -0.12979598 0.20482568 -1.1661743 0.91045475 -0.7698406 0.802707 0.04080904 0.43872905 0.49114713 1.2030624 -0.016684145 0.0057775723 -0.08102396 -0.43307802 -0.67853534 0.04561788 0.3265238 0.07658915 0.57296556 0.0078039463 0.73855454 0.6185885 -0.38360733 1.1396587 -0.05064582 -0.28587565 0.60247374 0.15468304 1.1811447 -0.37756753 -0.36482802 -1.0616839 0.97722906 -1.1743866 1.4642831 -0.025523435 -0.38530612 0.37742665 0.629624 -1.143496 -0.0045127077 -0.623539 0.44402453
in|IN -0.60943156 -0.42699867 0.21414262 -1.4107302 0.8763719 0.35420066 -0.52209777 0.21358697 0.65493816 0.7107122 -0.70834774 -0.5794776 -0.0134593 0.8595599 -0.9680503 -0.38472548 -0.17296949 0.6307264 0.89367825 0.0013938253 0.13773488 0.23112138 -0.042410083 0.811518 0.056239445 -0.31368473 0.2674231 1.8033271 0.365006 0.022209978 0.6763785 0.24858943 -0.42499018 0.3562564 -0.9389243 0.35759246 0.5474558 0.35697728 -0.7649707 1.0072765 -0.27239084 0.29516196 0.05259267 -0.30146918 0.70458406 -0.15552104 -0.9331567 0.0514265 0.15825471 -0.54922533
with|IN -0.2704279 0.22323331 0.30091247 0.14066948 0.47714257 0.32319385 -0.7032467 -0.13829467 0.19812156 0.1218507 -1.6608394 0.36508986 -0.47055155 0.72784346 -0.506365 -0.23860717 1.757725 -0.046707667 0.41272384 -0.24311794 0.8728101 0.97517866 -0.62019825 0.7603713 0.10660828 -0.59281033 0.5274484 0.68810135 1.0016365 -0.12336523 1.1654761 -0.7385445 -0.499077 -0.6429739 -1.0939169 0.5281673 0.5475507 0.65432495 -1.0901634 0.5827162 0.13866508 0.2804479 0.44697168 -0.6927286 -0.03931542 -0.09425812 0.0907208 -0.9872372 0.3342774 -1.0902765
can|MD -0.32063943 -0.3133039 -0.15468293 -0.19633621 -0.4962622 0.1689008 0.24363613 -0.17995965 -0.017314086 -0.53761715 0.58962315 -0.7718281 -0.020838467 -0.82284445 0.23765758 -0.79522455 0.36659727 0.2188179 0.23406409 0.29650092 1.1482723 -0.10740926 0.90280753 0.66482574 -0.71863633 -0.5012295 0.48553976 1.8789093 1.0213565 -0.5091999 0.19514096 -0.13033779 -0.45259345 -0.17107859 1.0218166 0.4270817 0.19893214 0.7916086 -0.7515289 1.1347822 -1.1590422 1.2984105 -0.098054655 -0.20250389 0.49298528 0.1714205 -0.21281302 -0.33777684 0.8530959 -0.5966114
for|IN -1.2261145 -0.8659996 0.102591075 -0.6070869 -1.0153404 1.2025838 -0.093393944 0.5908178 0.28883913 -0.22172143 -0.34175858 0.23208265 0.23211904 -0.18216538 -1.2435244 -0.8649207 0.80203235 0.53818136 -0.2523979 0.15702783 0.19659707 0.45251027 0.2695407 0.6050932 -0.35359704 -0.08202594 -0.6495418 1.331418 0.16949806 -0.9476829 1.298943 -0.7575316 -0.4713526 0.2621509 0.69740856 1.0726228 0.79182625 0.2476874 -1.0654515 0.5098962 -0.18784924 0.5813152 0.3696263 -0.10886991 0.68545985 -0.30709887 -0.7099255 0.22815092 1.619774 0.28164876
it|PRP -1.2302061 -0.21207802 -0.17179173 0.5452901 -0.2243626 0.9660377 -1.380372 -0.25100574 0.08531283 -1.9102714 -0.6200921 -0.7647198 0.57917535 0.7792179 0.75679404 0.62273157 0.3462344 0.18837023 0.032625176 0.017155275 -0.1051741 -0.3871141 -0.14424089 0.57996494 -0.52571136 -0.7564551 0.64727145 1.1738714 0.51976365 0.071844265 0.79479563 -0.33387852 -0.13443552 0.38501838 -1.0038143 -0.40039638 0.09477369 0.63875645 -1.2301445 -0.77148026 0.17936324 0.4148429 -0.7955112 -0.8450173 0.15268612 -0.08710847 -0.1269905 -0.091062605 -1.3146871 0.11361076
on|IN -0.8134959 -0.7608133 0.40122256 0.2126471 0.15551978 0.45714754 0.53143984 0.054753754 -0.08384352 -0.5343398 -1.0171312 -0.00696895 -0.048942994 1.2352738 0.19019851 1.0379477 0.7128793 0.39960125 0.13041592 0.28843164 0.035148706 0.08676604 0.21528074 1.2027131 -1.2967525 -0.031524274 -0.80803937 0.7330531 0.90677834 -0.3423345 2.1533017 0.20562069 0.21526305 0.2858634 -0.52778405 1.1064358 -0.5523123 0.70000976 -1.13615 0.23256022 -0.8728953 -0.33459878 -0.21655604 -0.45188016 0.19139394 -0.22137207 0.32351056 -0.80612445 0.79805 -0.69347394
is|VBZ -1.8269457 -0.17493632 0.27810726 -0.56960744 0.25934696 2.1832392 -0.62761515 0.17726456 -0.40040243 -1.367881 -0.4680697 0.07253519 0.3909063 -0.10272898 0.29391402 -0.37912917 0.4325368 0.1012179 0.048881937 -0.75542754 -0.5436843 -0.14819707 0.98344034 0.5329421 -0.1938658 -1.3376714 0.3801565 1.1792643 -0.22704537 -0.62001324 1.0372026 -1.1475286 -0.8867223 1.87648 -0.41061577 0.34603104 -0.27271816 0.106886566 0.080069385 -0.7981735 0.07955734 1.3023574 0.0015207003 -0.088092186 0.5298782 0.6452525 -0.38294554 0.64706886 0.24379545 0.18904682
be|VB -0.35825703 -0.5441279 0.025982728 -0.7185423 -0.012871673 0.9416503 0.64056844 -0.22798502 -0.17581192 -0.37757227 0.23241383 -0.5839897 0.44796258 -1.0279626 0.30548364 -0.957414 -0.42993492 -0.69696885 0.7546572 0.7101672 0.36231804 -1.1529143 0.52637094 1.1309248 -1.1368619 -1.2756206 -0.34644967 0.67729753 -0.27288082 -0.24855672 0.16638593 -1.4160912 -1.0719088 0.9992284 1.167607 1.6622117 -0.6859063 0.02401553 -0.5677838 1.3048979 -0.27963665 1.6227145 0.17084002 -0.90058666 0.7401311 0.26196447 -0.70169044 0.13658698 0.0899128 -0.027327498
If|IN -2.172165 0.28997746 0.17414458 -0.09663164 -0.25900635 1.3708414 0.880102 -0.56941926 -0.003507751 -1.0459504 0.45072818 -1.1536268 0.9776195 0.4249095 -0.16728167 0.0690597 0.76906115 -0.87000316 0.030638296 -0.35737696 -0.011237694 0.48380306 -0.29912996 0.18320158 -0.73326 0.31077728 0.24449408 1.4044359 0.77955735 -0.26161325 1.6188567 -0.17565483 0.0074196598 1.2504176 -0.055470124 0.86037874 0.80041623 -0.4718647 -0.9301257 1.0782552 -1.0174309 1.4210902 -0.1020969 -0.4428585 -0.6514635 1.2032418 -1.4696815 1.1865453 -1.2177263 0.54769206
are|VBP -1.2246146 -1.2985735 0.7572115 -0.28652307 0.14411747 1.6925728 0.8919085 0.17344517 -1.1096134 0.65066916 -0.3518642 -0.78068143 -0.48107693 -0.05857464 0.25289428 -1.1554174 0.14141801 0.31600598 0.3127011 -1.0686712 0.15562907 0.95315677 1.8018674 1.4155486 -0.064228155 -0.15753412 -0.017399278 0.6096099 0.44491416 -1.5160022 1.006454 -0.1966425 -0.5825054 0.5776435 1.0527585 1.0740539 -0.50857025 -0.29890832 -0.70539296 1.3244387 0.27483055 -0.11224225 0.69150805 0.114059575 0.10239748 0.8131407 -0.85768956 0.98583055 0.24215475 0.38044846
will|MD -0.8244122 0.3334061 0.12170061 -0.6490426 -0.4983437 1.4499654 0.17607608 -0.61676645 1.0432692 -0.8583583 1.3564521 -1.1286601 -0.041098926 -0.23981738 0.15924376 -0.47967762 -0.16115513 0.4957824 1.1160538 1.0429679 0.658908 -0.33319616 0.7713261 1.4687967 -0.8390436 -0.6344152 0.053763352 1.1827632 -0.26676717 -0.411235 0.7521667 -0.55322427 -1.5513438 1.5528916 0.53850156 1.2309084 -0.9108772 -0.5078434 -0.084718384 -0.39556405 -0.76919556 0.48489586 0.021407053 -0.93836516 1.2043419 -0.0108309435 -0.4618942 0.28872865 0.48752382 0.18110687
as|IN -2.1059787 -0.98808974 2.0934417 -0.3795206 -1.1603262 0.13224633 -0.28718138 -0.14784181 -0.07201937 1.2894977 0.82856053 0.80248636 1.0283794 1.2250928 -0.15186931 -1.013717 0.51848894 1.1610808 0.67411447 -0.113819756 0.2963698 0.9775431 1.0144441 1.3389354 -1.408468 -0.66442215 0.08927644 0.86839217 0.47432095 0.08394305 0.35641137 -0.712072 0.04653586 -0.41034937 -0.2113241 0.18313311 0.58099884 -0.27517304 -0.20549266 -0.08326533 0.06478558 0.3469306 -0.799931 -1.1758311 0.7496541 -1.2468239 0.483924 -0.89679337 0.42623416 -1.4893805
from|IN 1.3941579 -0.7415436 -0.8437935 -1.210489 1.436535 -0.4643491 -0.24844521 -1.949457 0.50487614 0.9848492 -0.16039857 -0.30506504 -0.625787 -0.0036979625 -0.4672191 -0.115505956 0.6824834 -0.039702516 0.8208167 -1.0681874 1.362187 1.0827689 -0.8740414 0.28316846 -1.0099484 -0.23265673 -0.33717698 1.2514235 0.42515656 -1.8136543 1.8523955 -0.9389039 -0.6481045 0.3129386 -0.2936629 0.23964122 0.6379256 -0.03414312 0.006008726 0.5757764 0.20987315 1.5479989 0.55665 -0.39384145 1.0807765 -0.44322392 -0.6519979 0.41287726 -0.97285575 -0.40617695
water|NN -0.84902894 0.29138464 -0.7548855 -0.47677103 0.27133444 0.0678983 -1.3286374 0.13471965 -0.9862346 0.19380802 -1.6278744 -0.30404615 0.8015815 -0.61307085 -0.08870618 0.44966474 1.3670532 0.676771 1.7501749 0.45831245 0.7808007 0.951536 -1.4033232 -0.65899086 -0.31200865 -1.2603053 0.16517036 2.7173007 0.37270743 -0.007358499 0.34907034 -0.031208562 -1.871208 -0.63630515 -1.4815192 -1.0221226 -0.11563818 -0.09811747 0.1633635 -1.3425623 1.5909497 -0.7317044 1.0295643 -1.6242901 0.08517259 -0.1868759 1.2626253 -0.8797388 -0.25454262 -0.6098466
You|PRP -0.8714778 0.54667413 -0.42508677 0.3692054 -0.98522973 -0.4068661 0.4618504 0.0027855046 0.7255116 -0.6715848 0.7250285 -0.512989 -0.19589058 -0.8784198 0.1777337 0.44534284 -0.40147993 -0.57724506 0.39816377 0.62558067 0.842713 -0.7084355 -0.61269176 -0.28181598 -0.17721227 -0.3494301 -0.082367755 1.1197995 0.4546561 -0.546031 -0.23178388 0.88101315 -0.35367087 -0.80241454 1.6125671 0.7670819 0.41655424 1.6005236 -1.3242851 1.3820083 -2.3585703 1.9403344 -0.907313 -0.15146704 0.40044644 0.24426316 -0.8139751 -0.45975217 0.74892193 -0.38664585
if|IN -1.5237154 0.021041822 0.23205195 -0.24858963 -0.27684435 0.969547 -0.26028484 0.1810242 -0.22403064 -0.18976764 1.0055715 -0.25706235 0.7464426 0.057654858 -0.59750855 -0.40004826 0.77757716 0.40874967 -0.24039677 -0.44520062 -0.523507 -0.4966468 -0.5621954 -0.049916677 -0.8146287 -0.15690035 -0.6453966 0.57596725 1.1340368 -0.8599198 0.6782013 -0.7014556 -0.42413753 0.95136034 -0.058438573 0.6237136 0.7182952 -0.98965156 -1.4723264 0.5472578 -1.0517342 1.2052984 0.16097225 -1.3352798 1.0292417 1.0287399 -1.8814592 0.6257359 -0.61702114 0.39797443
that|WDT -0.8857107 -0.518975 0.6458933 -1.2646635 0.30827954 0.9718865 1.2168536 -0.4426572 -0.193345 0.4228582 -0.90562046 0.09348215 -0.8594911 -0.10463704 -0.80274636 -0.5978246 1.3899785 -0.4723345 -0.36564937 -0.3428366 0.3941295 -0.049488395 1.0649506 -0.055975012 -1.3629006 -1.0942388 -0.25778407 0.5329973 0.0107370885 -0.8507747 0.22277322 -0.39514726 -1.397632 0.9629723 0.37467265 0.19783519 -0.0648096 0.8698564 -0.4065196 1.0601577 -0.62014294 1.7265525 0.059609536 -0.17394793 0.53001714 0.32477966 -1.0386305 1.0639566 0.8437227 -0.6373064
an|DT -0.65677756 0.038759 1.2188702 -0.43406317 -0.3646876 0.66782796 -0.33954018 0.717808 0.4874847 -0.31417927 0.11939588 -0.61757374 -1.4456683 0.07554697 -0.98658264 -0.8078401 0.4495352 -0.40398672 0.960806 -0.40343136 -0.34734377 1.0223979 -0.22256665 0.37844813 -0.7207488 -0.65426415 -0.36949423 1.2928013 1.0405095 -1.3043702 0.44467154 0.47785863 0.36183128 0.64426243 -1.0416656 -0.33666494 0.8543055 0.9708934 -0.26283222 0.6639936 -2.2204165 1.076712 -0.0605174 -0.4697651 0.35471305 -0.24388488 0.42046347 0.35988274 0.47349435 -0.8936962
them|PRP -0.5810203 -1.1034023 -0.06235073 -0.12278573 0.90408194 0.2742672 0.48114082 1.32542 0.90163165 0.11032197 0.6911246 0.084858835 -0.22799136 1.0662012 -0.20651335 -0.6552246 -1.1888517 0.8182123 0.3377147 0.32462496 0.056781422 -0.067061 0.2696973 1.3174675 0.00042055242 -0.08512043 -0.7627004 0.6725359 1.6972895 -0.8743022 1.3636141 0.78737885 -0.47641575 -0.6109335 -0.18877147 0.8181759 0.30318224 0.7198074 -1.6531426 -0.13219428 -0.05657128 -0.05340349 0.66088414 -0.454682 -0.24604535 -0.26713666 -1.4913545 -0.02465779 -1.3300003 0.20643994
any|DT 0.24155284 -0.100512125 -0.12175821 -1.005746 -0.049924463 0.988326 0.39458135 -0.7254724 -1.0766045 0.44199762 -1.209167 -0.6347268 -0.55974436 -0.13722074 0.69900256 1.150455 1.6900544 0.43891212 0.3213807 -0.43321103 -0.4308579 1.4198079 -0.5359755 0.19080648 -0.79391444 -1.1637577 -0.4058536 -0.39488345 0.29131293 -1.2300286 1.4785761 -1.1897373 -0.0025050982 -0.16668129 -1.1843766 1.0184628 0.09083072 -0.6473293 -0.54419506 0.6622605 0.7899365 1.2046925 -0.3903379 -1.8098409 0.057485647 -0.4677694 0.10443166 0.6906141 -0.94083565 -1.2604582
not|RB -1.2150953 -0.15544757 0.7545614 0.48696098 0.30232614 2.6910508 -1.101711 0.70117426 -0.29472667 -0.13903716 -0.5732799 -1.6265032 0.81424946 0.18982582 1.5470685 1.2013565 0.83363336 -0.14428003 -0.4140712 1.1208255 -1.1183256 0.11256783 0.002510824 1.5844754 -1.441816 -0.9914853 0.13763684 0.7686893 -0.32769266 -0.47121003 -0.11935156 -0.024287242 -1.5784974 0.78846115 0.5341762 0.53489745 -0.6354878 -0.6098041 -0.91210955 -0.8866964 0.09791863 1.2875091 -0.98931366 -1.0773159 0.813956 2.353975 -0.48206553 0.22275035 -0.4888191 0.33641538
may|MD -2.5017798 0.024613153 0.687231 0.027516795 -0.19210616 0.9245607 1.3476939 -0.02426701 -0.7871152 0.39486492 -0.73856896 -1.2419814 0.7462657 -1.5049342 -0.13124485 0.15373485 0.15367305 -1.3382771 0.9269505 0.9865693 -0.12413005 -0.1256881 -0.059433866 0.14120008 -0.5374043 -0.5165013 -0.54837364 0.7750131 0.82751995 -0.59444535 0.22757755 -0.73710966 -1.2276855 0.6978987 0.99368656 2.0230448 -0.8973925 -0.042047236 -0.19475444 0.47605842 -1.2999312 2.0937407 -0.58915806 -0.9174138 1.2118174 1.2264448 -0.64674073 0.14461693 -0.927542 0.38269997
at|IN 0.37460047 -1.5839757 0.09102268 -0.30752462 -0.33658367 0.02353487 -0.4031898 -1.355704 1.3016733 0.6172108 0.06551191 -0.056537036 0.73864853 -0.48771685 -2.8279006 -0.5526371 0.3051185 0.05758777 0.75861394 0.010216316 0.016335953 1.0070684 0.8334861 1.986106 -0.4396216 -1.3749484 -0.7629559 1.583532 -1.0554584 0.12160071 1.0661414 0.39916217 -0.98504496 0.4222452 0.019107345 0.1288546 -0.04319321 -0.12955016 -0.49553987 1.6243763 0.92058307 0.049412988 0.029387949 0.45479295 1.7684125 0.1642713 -1.8486402 -0.049391184 0.42547917 1.3711172
that|IN -1.4634174 -0.23198165 0.9764151 0.21602158 -0.19375508 1.2667346 -0.30373928 -0.5783828 0.5773123 -1.1798408 -0.80737245 -0.86104995 0.01109725 -1.402415 1.0586168 -0.3686453 0.43974644 0.8228246 -0.3810535 -0.17748995 -0.53336996 -0.64645934 1.0625919 0.22616301 -1.0678644 -0.7125671 0.837466 0.052506253 1.233149 0.5813284 0.6828449 -0.32432315 -0.56250846 0.7563716 0.07431855 1.4096298 -1.7825013 -0.71629316 0.03672763 0.8103874 -0.37123215 0.7252962 -1.0266213 -1.07164 0.06027924 -0.33510664 -0.5682642 -0.13118066 -2.8151557 0.25122002
use|VB -1.4180607 0.5904795 -0.62079924 0.5576328 -0.43808365 0.59420097 0.43605137 0.52627516 0.30374837 -0.44951215 -1.1030753 -1.041572 0.06864754 0.59785634 0.7267714 1.4224962 0.46091422 0.53933054 0.7015421 -0.45273677 0.22296727 -0.53257674 -0.31211245 -1.0103292 -1.0587498 0.83280045 0.76652515 0.9715245 0.60769475 -0.9687023 0.39967173 -0.050835233 -0.75211334 -0.4848217 1.1468506 0.7945179 0.07674796 0.65631354 -0.33843708 0.9571959 -1.9992731 0.76647955 0.31835657 -0.8099166 0.7149982 1.2804859 0.41558868 -1.1406565 1.7518109 -0.32657906
into|IN -0.5246215 -2.1460826 -0.35043398 -0.6881379 1.3992047 -0.7306725 -1.2326523 1.42052 -0.22216779 -0.78886396 -1.5617086 0.52051574 -1.4200977 -0.2553806 -0.60448015 0.25985304 -1.0889143 0.52837723 0.48612016 0.41316828 1.401897 0.4744962 -0.44553784 -0.4068867 0.19638313 -0.2405939 0.53680766 1.6429305 0.8849428 -0.86672956 1.457906 -0.6686697 -0.8797025 0.4365432 -1.7631736 0.7257514 0.56007284 0.36425057 -1.1027094 0.19474116 -0.17590308 0.9665629 -0.248801 -0.043282755 0.5765978 -1.043442 -0.14052816 0.80425566 -0.026198642 -0.56370795
up|RP -0.02060104 -0.5512485 -0.26890457 -0.24538882 1.6321574 0.21135281 -1.5373011 -0.14553607 0.24271975 -0.87124264 -0.009274825 0.25933415 -0.0102943415 0.8783484 -0.66787845 0.6377394 0.07610422 0.34579492 0.7617979 -1.0537723 0.2118401 1.7028676 -0.31431943 0.9327743 -1.3643644 -0.92026013 0.9095379 0.29379758 -0.18936305 0.58078456 1.6340468 -0.4462244 -0.04733078 0.14204112 -1.750288 0.1281505 0.3526221 0.8472284 -1.2969534 0.3666268 0.9961513 1.3173896 0.3013832 0.5882783 0.8043322 -1.0587807 0.00771024 0.6945961 0.4094286 -0.9662745
other|JJ -0.40952688 -0.2568751 0.9035992 -2.096963 0.6406966 -0.50870365 0.3429983 -0.467732 0.28007543 0.45991504 -0.8006544 -0.23657037 -0.48242038 0.09482483 -0.39993006 -0.09550743 0.64122754 0.9817764 0.026769398 -0.24171405 0.41742018 0.13289972 0.075252585 -0.35119945 -0.2874897 0.12765166 0.17629658 0.3243669 1.1351008 -2.22382 0.45932418 -0.7414031 -0.078470185 -0.5617778 0.72318447 1.2025182 0.6375965 0.34306568 -0.081624985 2.2235093 -0.88261765 1.3342615 0.5385497 -0.21413022 0.8554128 -1.3115159 1.115946 1.2836063 1.039206 -1.7867256
have|VBP -1.0921212 0.8560821 0.040120035 0.23224302 0.4970265 0.7696934 1.9631267 -0.93595266 -0.5157413 0.5509069 0.5869176 -0.6127217 0.8243055 -0.20556398 -0.17502636 -0.09567116 0.67894924 -0.5461725 0.3583008 -0.22866605 -0.68209535 0.1293182 -0.22116578 -0.12157328 -0.829675 0.067367226 -0.41123435 0.7165082 1.3043369 0.19694775 1.1452004 0.3969679 -0.4718537 1.2087286 0.16704634 1.4251865 -0.77026135 -0.0075604627 -1.2286632 1.0719361 -0.8095594 1.7122568 0.48930746 -0.61408424 0.6860365 0.09575884 -1.7350928 -0.2254105 -0.6322197 -0.15431806
by|IN -0.06849765 -0.5812744 -2.0481472 0.5079813 0.3823978 0.5020648 0.81860626 -0.32872376 0.4860627 -0.21086854 -0.19901034 -0.6024725 -0.45795578 -0.2131484 -1.1733578 -0.04646155 1.832908 -0.43148625 0.23229672 -0.15410857 0.6650377 0.7218378 0.34506324 1.5084186 -0.670584 -1.546227 0.34283635 0.75176084 1.1106969 0.83794403 1.1145394 -0.005195973 0.28498954 0.66473657 -0.3964449 0.11949274 0.45845595 0.8693804 -1.095908 0.48176485 -0.4592246 1.55772 0.40998858 -0.42132407 -0.48579663 -0.08979082 -0.3518188 0.0421855 1.5500697 -0.9273721
also|RB -1.2989701 0.10824219 0.25889224 -0.08563711 -0.9025193 0.53258973 0.8293334 0.3429484 -0.051829197 -0.04544735 -0.011331086 -1.0590242 -0.89696246 -2.5153565 -0.2366502 -0.9317313 -0.5493206 0.43138543 1.1427952 0.9769834 1.0532175 -0.4353838 0.38374013 0.14159997 -0.55316424 -0.9870627 -0.045908924 0.6494656 -0.11791529 -1.0355695 0.23054136 0.34282258 -0.8795768 0.5592215 1.5334154 1.6377064 0.7031077 1.0432976 -0.57942736 0.83625704 -1.7458447 1.0808246 -0.27021822 0.65210015 -0.08313362 0.20192404 -0.119020216 0.32123908 0.2659516 0.701872
room|NN 0.111242056 0.8664271 0.43324235 -1.0337359 -1.5411364 1.2652016 0.31484205 -0.026169997 1.5355852 -1.6521839 0.6105106 -0.11521958 -0.4231834 1.7025263 -1.7230741 -3.0238867 -1.0405515 0.8924383 -0.5325527 -1.1164645 0.21428084 0.2551798 0.21032484 0.034912866 -0.9500287 -0.09094075 0.9497419 0.6163033 -0.6028892 0.6465085 -0.7274875 -0.46375492 0.79426926 1.0779461 -1.4375709 1.5560123 1.1516248 -2.130727 -1.7677999 1.0407534 -2.2155323 0.6777419 -0.0870183 0.25908884 -1.1731168 0.5627371 -1.0428966 2.4030461 0.26063415 -1.1495972
using|VBG 0.01164694 -1.3810995 -0.93127507 0.81533986 0.6776964 -0.24121359 0.9442212 0.42279452 -0.35537478 0.12882887 -1.5330666 -0.042322304 -0.7558247 0.40266913 0.15048927 0.48069498 1.5520244 -1.0906675 0.32650337 -0.9442049 1.1813095 1.3643503 0.67370665 -0.10567504 -0.41541484 0.24285348 1.4559973 1.750276 0.015831657 -0.6745612 1.1107695 -1.0813175 -0.112152785 -0.7293562 -0.43985474 0.4893551 1.3641043 1.7626841 -0.7032974 0.901425 0.2807111 0.541157 0.7429482 0.17484969 -0.8723179 -0.3614787 -0.2241131 -0.43758497 1.1096878 -1.3189588
out|RP 0.7294316 -1.1706795 1.2348758 -0.34937456 0.3375836 0.3523295 -0.79302955 1.1786773 -0.45294324 -0.36616722 0.71320796 0.65957075 -0.0116944965 0.31730407 -0.19767861 -0.4224591 1.403184 -0.8399117 0.17887618 0.2255872 -0.82617897 0.4866941 -0.26445204 1.2278572 -0.14332464 -0.6946026 -0.09037929 1.3960861 0.18600175 -0.73095757 0.6401538 -0.744164 0.18890584 -1.1916562 0.0066381283 0.65562123 1.5402328 1.2556967 -0.74904317 0.38113937 0.6330671 0.9934747 -1.7875663 -0.757508 0.04586054 -1.124217 -0.13661814 -0.66986316 -0.49780756 0.57671976
this|DT -1.0817946 -0.36700436 0.22445464 0.65464765 -1.1327565 0.96048945 -1.616981 0.042436842 0.968031 -0.46149945 0.67520064 -0.4804944 0.49627608 0.5866471 1.3907987 0.47096178 1.2427651 0.72952694 -0.09555579 0.20109536 -0.7761657 -0.16715544 0.4890525 1.5142313 -0.16180289 0.036201335 -0.7719678 1.2019067 -0.12847415 -0.5720689 0.22802678 -0.33444715 -0.26970333 0.6777123 0.1025226 1.3894068 -0.23844028 -0.010489374 0.3369974 -1.2221905 -0.29757842 2.1406913 0.3243245 -0.0021565477 0.45379603 0.5953231 -1.0659912 -1.8013577 0.38411063 -0.37386826
soil|NN 0.21340963 -0.49966705 0.8231559 -0.16374895 -1.040286 0.11761551 -0.14697194 0.12670106 0.059552703 -1.7685498 -0.8602264 1.3201796 0.11278976 0.3685959 -0.6597276 -1.0227829 0.13646784 0.47312576 -0.23471926 1.2733294 0.93657905 2.1439755 -0.29430696 0.8176596 1.1731018 -0.5226428 3.1162484 2.3315163 -0.8765306 0.8806759 0.416579 -0.033610765 -0.41048855 0.5896538 0.45746675 -1.9670005 0.47341278 1.6138706 1.3163867 -2.1249912 2.3830023 0.15066525 -0.59008265 0.7264835 0.60314804 -0.68236244 -2.018154 -0.32776546 -0.997516 1.0290729
like|IN -1.014188 0.32508197 0.72141904 -1.3929892 0.5885729 0.9424116 1.3914447 -1.0029606 -0.3819901 -1.8727487 0.6580194 -0.4154147 -0.4829177 0.15147334 -0.5242644 -1.0412499 -0.120880224 0.68246084 0.80897486 0.13400254 0.6915132 -1.3841295 0.36565337 0.5860323 -1.8101964 1.1917571 -0.48985738 0.5445261 1.013105 -1.1833018 2.3545709 0.3352389 0.16156067 0.14874241 0.8028476 1.1798332 1.229336 -0.04669188 0.20810325 1.250164 -0.35419187 0.704326 0.9554603 -0.28627282 0.41486132 0.27573964 -0.30415756 -0.89674795 0.54875225 -1.1305331
make|VB -0.23950185 0.019102037 0.4419828 -0.14400135 -1.0094743 1.4063946 0.50270003 0.52946573 2.0887377 -1.2841372 1.0407035 -1.6123263 -0.15904239 1.0597452 0.2301323 0.17053698 -0.6101775 0.41563383 -0.54290116 -1.117195 1.8801651 -0.70919335 0.03600146 0.37714988 -0.47293803 1.0528172 1.2290292 0.95154744 -0.084679954 -0.979581 1.5839336 -0.89515734 -0.33738202 -0.16813986 0.81174743 0.82669175 -0.4920198 -0.11054472 -0.30436727 0.5875889 -1.9357954 0.7500363 -0.45321468 0.7193476 -0.31623822 1.3204559 0.48165435 0.6974703 0.7791346 -0.6664538
area|NN 0.25263202 0.20106559 -0.77806467 -0.76799375 -0.13091417 0.020784616 -2.0417721 -0.15518694 -1.1959575 -0.7769136 -1.7086265 -0.21790373 0.5880275 -0.30988052 0.11414058 0.43432194 0.8022193 -0.9323937 0.26497838 0.05816602 -0.3707036 0.56952345 -1.3064808 0.9255836 -0.7421514 -0.8219848 1.366353 1.5732515 0.25325713 0.3935776 -0.09048735 -0.047261667 0.22329357 1.2952334 -2.0855038 0.95571333 -0.5600615 -0.6005425 0.394643 0.5197964 -0.728092 0.7063282 0.3529366 -0.80758286 0.5002823 -0.51828605 0.067097954 0.74093056 -0.28642452 -1.2037483
should|MD -1.6505474 -1.3542185 -0.67883676 -0.27651274 -0.2622271 0.9782684 -0.115770474 -2.3420985 0.27430645 -1.5821314 0.08403434 0.61994135 1.1082721 -1.210496 -0.25962684 0.214062 -0.45713305 -0.5194745 0.84254587 1.4521006 0.0684821 0.025309196 0.5364262 1.9794503 -0.5358421 -2.230716 -0.7502276 0.33177623 -0.37154108 0.8189634 -0.4486893 -0.7517793 -1.3051637 0.31098413 0.91684335 1.0717981 -1.7391391 0.70416236 -0.04875618 1.151522 1.2650656 1.6003361 0.71145594 0.34236273 1.15857 -0.0238282 -0.8961027 0.29926103 -0.28161365 0.86444193
This|DT -0.20361622 1.1553862 -0.5091633 -0.3813358 -0.3627978 1.0438341 -1.9072336 0.3744045 0.081716605 0.20190372 1.8234375 -0.8282533 -0.3212892 -0.3496147 0.5930915 -0.08446432 0.74980694 1.204505 0.8792109 0.22490905 0.6480021 0.9219225 1.6923786 0.1371574 -1.1771448 -0.81497645 -0.51105523 0.8963316 -0.002135753 -1.6019846 -0.068329915 -0.6885978 -1.6871153 3.4646647 -0.096594356 1.2633778 -1.2661502 -0.91158015 0.022711158 -1.2461674 -1.2649009 0.8311047 -0.4414132 -0.41298768 0.45616385 -0.18705302 -0.9022323 1.0494775 0.587786 1.2015702
they|PRP -1.0695928 -0.50206983 2.0065603 0.17297138 -0.07741222 2.5877368 -0.06194837 0.11669306 -0.9136308 1.325693 0.93792367 -1.1783868 1.2861586 -0.43298483 1.1439586 -1.2726706 -0.706364 0.50450826 -0.9595194 -0.26499832 -0.42840832 0.52545404 1.0185949 1.1773059 -0.42218933 -0.8355309 -0.15167613 0.41508728 1.5389298 -0.55683595 0.494967 0.7735012 -0.723043 -0.0074268477 0.63543254 1.2889783 -1.4258047 -0.08809057 -1.3280154 -0.10985591 0.9695109 0.40350956 0.21569483 -1.1510024 0.7134209 0.4577056 -1.1684835 1.1856397 -1.7205646 0.786832
some|DT -0.8232552 0.2518715 1.5343702 -0.3058162 -1.0731838 0.89909697 0.7572391 -1.0343752 1.9747391 -0.07429139 -0.11459019 -0.6403495 -0.840022 -0.8904084 1.7276412 -0.7853282 0.7826609 1.1298186 0.19043133 1.5505222 0.5659372 -0.7156351 1.2512699 0.9406741 0.07625257 0.60438496 1.0798126 1.1089034 -0.3344985 0.025085079 0.6116719 -0.87749505 -0.03152507 0.11118968 0.8405768 0.27239844 0.7385362 0.712971 -0.86962295 0.8434682 -1.3626878 0.87435913 -0.5541518 0.3640585 -0.7501634 0.9274393 -0.9894146 -1.0160114 0.68385684 -0.6146745
color|NN 0.054007336 0.66081756 -0.28751263 1.2481098 -1.3577858 1.8183488 0.10604274 -0.0018010046 2.3239899 -1.643239 -0.5763018 0.7392211 -0.19616327 -0.1547491 -0.84210694 -0.5319504 -0.10313685 1.1109177 -0.5511279 -2.329292 0.62072444 0.7139347 1.4675187 -0.21721828 1.1853702 0.43579403 1.2258749 0.063467234 0.7655231 1.4063275 -1.2304955 -0.4522998 1.2953713 -1.1326096 1.1831719 1.7771928 0.07698533 1.3284792 -1.5691305 1.5945933 -2.215938 0.85144144 -0.64881617 0.027260613 -0.8126899 0.39736292 -0.31523287 -0.319394 2.9373925 -0.1930683
small|JJ 0.22667833 -0.97010934 -1.0223473 0.33180365 0.73544395 0.3992391 0.12876417 -0.63659734 -0.45597804 -0.60585135 0.2780116 0.0012974875 0.40733787 0.80378383 -1.3059626 0.13121347 -0.18445909 -0.033874374 0.6546715 0.06422206 2.03217 0.9090664 -1.7555906 0.16527624 -0.48937073 -0.71143216 0.4475123 2.5428166 0.48245674 -0.18625039 1.4852568 -0.9507376 0.0007607426 0.05944871 -1.5347856 1.8518652 -0.686473 0.050595473 0.67475927 1.8743542 -2.3803816 -0.42088357 -0.18543491 1.1298215 -0.29257718 -0.5310204 0.6963888 0.30188414 1.0463072 -0.51081806
plants|NNS -1.3409461 -0.86613655 2.0969436 -1.2701461 -0.1576723 0.22820829 -0.22281499 2.412981 1.1078175 2.3895216 -0.046343807 0.4457473 -0.47946173 -0.5714411 -1.3958809 -0.7240703 0.3920352 0.95899117 -0.899074 0.8308083 0.3125822 0.2606814 0.031624086 0.48161992 -0.059612308 -1.3834274 1.0908823 0.3806504 -0.7477894 -0.26999092 0.3770142 0.3934715 -1.9616942 1.2705606 1.1830575 0.15729056 -0.4241638 0.5572771 -0.37688342 0.321136 1.9604013 0.9222509 -1.1455915 0.9807034 1.3434391 0.8896786 -1.3934145 0.69730306 -1.134576 0.5565273
For|IN -0.34084284 0.22338408 -0.084441565 -0.62280446 -1.3246711 2.5808835 1.4036142 0.05961931 0.6035827 0.8097746 -0.48848712 1.1925616 0.84283155 2.0398333 1.3401102 -2.6025295 0.6792549 0.117282316 0.44493115 -0.82227236 2.0060093 0.6469099 -0.2578896 -0.6994636 0.28402123 -0.66535276 -0.48402965 0.8015089 0.6538707 0.7970184 -0.41239303 0.07327837 -1.5078281 1.2741141 -0.17770167 1.5827476 1.2067174 0.64077204 -0.6884289 1.958743 -2.2877626 0.9383421 1.1575105 0.4963865 -1.251148 1.3220468 -0.1390932 -2.084932 0.8370336 -0.057565156
one|CD -1.0271883 0.2206741 1.0398558 -0.81254786 -1.2659448 0.10788697 -0.33161074 0.14194214 3.0394974 -1.5844214 0.8664687 -0.6674299 -0.6626766 1.5250618 -2.3441207 1.0596309 1.006409 -1.2540712 -1.3819741 -1.3735955 0.5450462 1.5284317 0.22282778 0.4123763 -0.2975115 0.16924205 -0.514479 1.4087589 -0.6660289 0.59101987 0.42155388 0.8429515 -0.24808528 -1.2746949 -1.3548706 1.5666897 0.31921396 1.1178511 -0.03997918 0.4677652 -1.1979997 0.4596556 -0.6472287 0.69255453 -0.27023962 -0.07303047 0.3416196 0.61432004 0.5004346 0.65067744
The|DT -0.8202065 -0.8906416 -0.8062864 -1.9047781 -0.45706934 1.3816417 0.9548048 -2.146925 0.17478605 -0.994126 -0.09574259 -1.0297632 0.6990081 -1.0402743 -0.4794732 -0.6183319 -0.73794067 0.36385313 1.12598 0.27094722 1.0941772 0.22362581 -0.036960475 1.3774393 -0.13386734 -1.1392851 0.4651036 1.2558969 0.68515015 0.8319711 0.7775903 -1.6108077 -0.6554792 1.8119643 1.0095639 0.43575233 -0.4211028 0.4496464 0.19820464 0.7573743 0.47302547 -0.022989592 1.6035472 0.22588542 0.75653625 -0.3387689 0.51565665 -0.3582719 0.42945823 0.19809982
have|VB -2.4203062 0.28181645 0.7417427 -1.0771127 -0.04256786 1.953324 -0.5426921 -0.69336456 -0.4872727 -0.986042 0.56783485 -1.9821346 1.0238318 -0.7621466 -0.1436821 1.2232418 0.5341268 0.01921997 -0.46967474 1.286698 -0.46539712 1.1709042 0.015557933 0.97484434 0.065561555 -0.1695213 -1.067682 0.46140596 -0.61407685 0.23911811 -0.45157328 0.11601112 -1.2776177 -0.69348747 1.5287261 0.9250935 -0.72948927 -0.16049154 -1.25865 1.5216559 -0.9582145 2.515336 -1.1384251 0.85381514 -0.04144126 0.5186127 -1.2582837 0.56925195 -1.8733134 -0.052675225
paper|NN -0.4663503 -1.410216 -2.2911227 0.6852765 1.4462826 -0.9719447 -0.38220173 -0.58948547 0.7926792 0.50376683 -0.1614667 1.1791441 0.9830899 1.6196908 2.343272 0.4587213 -0.4136838 -0.72206235 -2.15289 1.5143371 -0.93170416 0.5291272 -0.40588942 1.3310512 0.93704283 0.27263752 1.4288667 1.1447057 1.3464161 -0.48109856 -0.69830656 -2.842248 0.43571746 -2.4609058 -0.8808255 0.8027781 2.023271 0.056150988 -1.666971 0.97066194 0.56519294 -1.1137263 0.10801693 -0.92248034 -0.20132966 0.03453805 1.5693812 -2.3182962 0.42918375 -1.7660875
when|WRB -0.7160177 -1.222391 -0.8503506 0.14139532 0.8471322 2.2662127 -0.7728221 0.66663927 -1.3563814 0.0814991 0.56921625 -1.1162415 0.2125131 0.46801317 0.8985958 -0.591699 0.13718082 1.0537845 0.45016414 0.115655966 -2.5978973 -0.063018404 1.456153 0.8618167 -0.4457705 -1.1092951 0.7897581 1.1578768 1.5821269 -0.29947948 -0.9967016 -0.5108797 -0.5404066 1.9625912 -0.5504859 0.99110556 -0.51128685 -0.39309746 -2.5479617 -1.2316959 0.27016944 1.3088663 1.1379434 0.46272328 1.626445 -0.01577506 -0.92321265 0.3542815 -0.8107772 0.65833706
keep|VB 0.5457918 -0.48520318 -0.26713988 -1.1848837 0.65142316 0.54735124 -1.0241016 -1.0872208 0.6813055 -0.2685134 0.41768134 -0.60547644 -0.511577 0.5345576 0.600195 -0.5266992 -0.21271403 1.0953814 1.3343854 -0.088486314 -1.0938157 0.3642566 -1.168375 1.9835633 0.2089455 -0.7160565 -0.16942209 0.023769006 0.15227276 -0.3756254 0.69679326 -0.061782546 0.11067947 1.2050694 -0.06837165 -1.0606824 0.5625633 -0.18029909 -0.7164295 0.31310272 -0.44777265 0.12436932 0.7192613 -1.4992169 0.95253414 0.51723444 -2.5049458 0.96497756 0.27133295 0.92047155
paint|NN 1.3191329 1.1731933 -1.2791061 1.0077709 -2.5306232 0.64722836 -0.8727134 -1.4426078 1.7036028 -2.052874 -1.496458 0.79162824 -1.6053782 -2.0005457 2.0999858 0.4063582 1.1191771 -0.1175243 0.56826687 1.2257115 -0.25837842 1.2433436 1.2246914 -0.054585878 1.4209003 0.7362966 0.10670797 0.89297426 -0.065374315 -0.3711888 -0.3748416 -1.0735208 0.7970689 -3.5044432 -0.06254904 1.3300357 0.9333129 1.6763475 -1.9880503 -0.9997612 -1.2573143 1.1090924 0.4212332 -1.8804352 -1.1283652 1.1172402 0.05226358 -1.9743427 1.3208474 -0.15286689
Use|VB -0.5749345 -0.08895845 -1.4925505 1.5909592 0.250331 -1.2275283 -0.13510591 -0.9062617 -1.1962725 0.57175875 -0.20699053 1.0327909 -0.21320963 1.7413913 -1.3113556 1.3358604 0.44419104 1.2460222 -0.9519864 -1.1213074 1.2819165 1.6628685 -1.5247579 -1.1144961 0.0810514 -0.28439963 1.2810502 2.1812227 1.6963546 -0.7087629 1.974402 -0.8020696 1.1491076 -0.7135693 -1.6515489 0.806989 1.0470573 0.94527644 -1.3690443 0.081970975 -1.3333936 0.5702416 -0.9053931 -0.24309863 0.81296515 -1.3647302 1.495362 -1.8265302 0.04116342 -0.8699291
remove|VB 0.2036714 0.2137069 -0.024933808 1.0546085 -0.9297429 0.59043705 1.4170527 -2.1144788 -1.3566369 0.06625861 0.45086846 0.60576797 -0.008988437 -0.6474082 2.0577078 1.2140472 0.97470474 0.6661496 1.124803 -0.44900408 0.6279313 0.29341897 -1.6135539 -0.48897076 -0.8763364 -1.4787514 0.38400772 0.22836281 0.17232412 -1.8932703 1.9415174 -1.4755043 -1.2767494 -0.7741527 -0.9684144 0.48887104 -0.59389627 0.6324035 0.15979224 -0.78900087 0.8649312 0.097013146 -0.57771087 -1.7640043 0.5914076 -0.06263598 -0.21823104 -0.20506366 -1.5253942 0.6836368
but|CC -0.8552071 0.5601619 1.5537132 0.43019006 -0.5080183 3.1015077 -0.85007733 0.48156363 1.0521864 -1.2862693 -0.01895422 -0.22324376 0.10007591 -1.3240294 0.36333996 0.43899792 -0.29385334 0.36975825 -0.29370987 1.7616407 -0.39561474 0.15356736 -0.24663536 0.72175753 -2.7440355 -1.222004 1.0781901 0.3062584 -1.2010156 1.1970248 0.8065393 -0.76510745 -1.0429108 0.65306365 0.8682636 0.4898445 0.048714966 -0.012634839 -1.0755315 -1.0255889 -0.5573786 0.529939 -0.24655554 -0.7117705 0.8781232 2.0491724 -0.39089605 -0.9941083 -0.40973693 0.93598115
garden|NN 0.94796145 -0.51434296 0.17096582 -1.4414124 0.18910664 -2.4262452 1.1458164 1.7114763 1.7468302 0.83299553 -0.56780696 1.2272484 -0.46233085 0.7904303 -0.90602523 -0.31095153 0.048833095 -0.8627189 1.3223422 0.09075503 0.89064324 1.9858351 0.032937825 0.72223127 2.5362015 -0.10379661 1.9988054 2.293004 -1.282542 -0.67997515 1.6606033 0.72935647 0.010521383 0.70026696 1.7697357 -1.48664 1.29408 0.15921453 -1.2076348 2.1395812 -0.6773544 1.1191881 -0.9515864 0.5741429 0.7788538 -1.4966834 -0.19741778 0.3821612 0.23324178 0.71470636
plant|NN 0.54741746 -0.9944554 1.1895423 -0.34119573 -1.2576698 1.126275 0.35889497 3.0496194 0.7843109 -0.012524858 -0.44524658 1.0535214 1.0555314 -0.29717124 -2.2795746 -0.46198577 -1.0630914 0.7551893 -1.2673168 0.39139703 1.5054572 0.13071646 -0.35172838 0.34369174 -0.44048703 0.3844731 2.0975254 1.5752584 0.055110995 1.152729 -0.3681703 0.213322 -1.8447744 2.4317358 1.009147 1.0375701 0.9173226 0.49539313 1.0050474 0.25202906 1.3705287 1.6976352 -1.8003094 -0.68054324 0.17711832 -0.5775122 -1.7314566 -1.1255933 -1.0943505 1.688271
over|IN -0.1905886 -0.71670586 -0.91394514 -0.4200325 1.6369785 -0.09284104 -0.8642692 -1.9160547 -0.07203461 -1.6994196 -1.7530953 1.1597286 -2.0246272 -0.44211057 0.80707675 0.110105276 0.91131747 -1.178808 0.31677726 -0.5527489 0.9067836 0.15024161 -0.16064197 0.9500849 -1.2516656 -0.9060244 0.7673539 2.1937828 1.0325419 0.28037098 1.2819071 0.91689754 -0.3408423 0.7663695 -1.8687415 -0.09295652 -0.24303916 2.3916633 -0.80862963 -0.053079218 -0.55857337 -0.5815838 -0.77212733 -1.2814363 0.872784 -1.0758492 -0.093217626 0.4359768 -0.092085026 -1.2959957
stain|NN -0.84256285 0.3423974 -2.8193846 2.4807673 -0.6659443 0.55883044 0.90993905 -0.9092045 0.90356046 -1.8790915 0.52910775 1.1035558 1.4245286 0.8700935 0.77766395 0.84220916 2.1564302 -1.009014 1.1260592 0.80103487 -0.41269216 0.563786 -1.6744508 -2.2957885 -2.038474 -0.35959378 -0.2534092 -0.8449385 0.4629106 0.055186186 0.5079276 -2.4790194 -0.86935693 1.8084149 -0.809182 0.9379219 -0.56043303 0.6867098 1.0616102 -1.7936871 -0.91974944 -0.47514617 0.064381294 -2.7771251 -0.3666898 0.5311233 1.4992921 -0.3298788 0.41526148 0.028495885
home|NN -0.15753573 1.1847295 0.17457251 0.30417365 0.59961206 -0.2630639 -0.80338985 -0.061369084 0.5297716 2.4894788 0.04474353 -0.13548632 -0.17941938 -0.6678182 -2.8102336 -0.7989556 -0.54057795 -0.3079243 1.518421 1.0932189 -0.52675366 0.7756679 1.4504288 -0.06706726 0.4484934 -0.45386618 0.33392093 -0.36697924 0.4764576 -2.0081134 0.91461164 0.7886306 0.9339303 1.6507385 1.4276758 2.0430772 0.6061191 -1.3325223 -1.3894706 0.7629018 0.35919797 2.5784066 -0.14691865 0.7212254 0.5117379 0.9654252 -2.0050433 0.62127876 -0.18543057 -0.710327
wall|NN 0.26363084 -0.25660083 -0.58957314 -1.4047234 0.11831929 1.0399541 -0.17004979 0.59371734 2.0653434 -1.9403883 -0.018493684 0.7137992 0.6835233 2.8168204 -1.2375427 -0.48133013 0.38860574 -0.49909812 1.1202403 -1.2914788 1.1238613 0.20258875 0.90868837 1.2956526 0.00039303978 -1.3129394 -0.8894757 -0.10541685 -0.4332 1.4066347 0.20787494 -0.6682317 0.40989545 -0.19530675 -0.3986084 0.6972764 1.0845538 0.431056 -1.3336563 -0.67980754 -3.1625924 0.15266967 -0.2770967 0.6640834 -1.8333627 1.4202387 0.43154788 -0.02664114 1.7785434 -1.2061846
around|IN -0.4474995 -0.11852596 0.7034524 -1.315544 -0.7425428 -0.17266782 -0.33836567 -1.9844908 1.6508558 1.6781031 -1.599914 -0.7763446 -1.2616146 1.2527171 -0.08368446 -0.9594846 -0.8209436 -0.9881712 0.20675907 -0.036823995 0.7035316 0.7282925 -0.18777606 1.4708306 -0.817258 -1.3968848 2.2066207 1.3986809 -0.19971044 0.42872918 1.6453165 0.2956422 0.76523733 0.65496606 -0.15112971 -0.43373653 1.0271126 0.76735675 -1.9060233 1.294962 0.22669765 -0.08181974 -0.39200693 2.1103442 -1.0879405 -0.6123287 -0.7053993 -0.48833323 1.8555182 -2.29801
Use|NNP -0.07090636 -1.3673143 -0.2775859 0.28074265 0.15017137 -0.47534806 0.04053737 -0.4749668 -0.96835893 0.88994277 -1.6823574 -2.1140451 -0.6833914 1.770313 -0.9305427 -0.32475418 0.8049843 0.85101944 0.63296366 -0.41426796 1.1777098 1.4477037 0.117788926 0.16749977 -0.38615498 0.6712831 2.2104335 0.42823482 1.5855784 -0.58484864 1.7883618 -1.7945539 -0.30708334 -2.7272437 -1.8492094 -0.5528135 1.0079792 -0.007183049 -1.2595112 1.3784109 -1.5705911 -0.39618248 0.21262497 -0.30372593 0.60552996 0.9934326 -0.1958456 -0.72035444 1.8180912 -0.95752656
large|JJ 0.48899522 -0.71012163 1.1667944 -2.2520568 0.9545818 0.21807534 1.3419387 1.4166809 -0.6817574 -2.8348749 0.5481583 -0.6075496 0.7192509 0.87058955 -0.3423937 -0.43186238 -0.20502494 -0.40452343 -0.90023464 -0.88134706 1.8727258 0.6109231 -0.7762621 1.1148951 -0.89968264 -0.4331422 1.161336 1.1497102 0.7183634 0.5026164 0.4518579 -0.11294356 -1.1412747 0.48546594 0.12890221 -0.6614146 0.89959913 -1.1047224 0.9982136 2.0775588 -1.8820584 1.9630011 0.7326959 1.9778355 -0.543986 -1.1344184 1.1943963 0.49350724 1.2231116 -0.23754494
old|JJ 0.53707755 0.7125414 0.7295381 -0.8363497 0.45703572 0.5707128 1.4051945 -1.1516432 -0.08622992 0.85171616 0.6399783 0.086865634 -2.840772 1.3027773 0.9795081 0.6073098 -0.027702281 -2.0679579 -1.5921254 -0.011010768 -0.4227253 1.5053568 0.018679436 0.0069961934 -1.5163223 -0.7980688 0.4082323 0.38101974 1.2685691 -2.9916303 1.2867196 0.99553996 0.15084937 -1.5074672 -2.120768 -1.3057312 1.293373 0.5198462 0.493745 2.1190321 -0.07816286 1.5050843 -0.6249731 -0.7722438 -0.30055898 -0.7771367 1.3119497 -0.37872916 0.3751759 -0.70980364
all|DT -0.08541249 -0.6365741 0.31845856 -1.1418507 -0.50137585 2.095656 -0.28803578 -0.5448278 0.2553967 0.39507207 -0.8086675 0.68530566 0.28920364 1.6828434 0.4842708 1.3992445 0.71475995 1.4357053 0.14015506 0.044536795 -0.9375394 0.74972147 0.6893143 -0.07882863 0.3684169 -1.7568024 0.93026 0.4596508 0.72180295 -0.07067812 -0.60276186 1.4499339 -0.039061297 -0.5701381 -0.27606037 0.7664102 -0.3897308 0.57318777 -0.4828906 0.22967461 -0.06412979 0.321725 0.47228923 -0.34327826 1.1583349 1.468233 -1.2244328 0.13469523 -0.6781313 -1.2426522
more|RBR -2.2075708 0.0022771242 1.5406319 0.39625683 -1.1301825 2.205092 0.4435879 1.4603704 1.9003936 -1.0564628 1.6558917 0.48322648 0.06917608 0.33909312 0.3243922 -2.3569894 -1.1405296 -0.16924948 0.687877 -1.099476 2.6998844 -0.9314054 0.3016877 -1.2158755 -1.2631942 -0.32267597 0.9012546 1.426899 1.0761123 -0.36757386 0.32317093 -1.3790917 -0.6238512 0.08057107 2.529478 1.7630427 0.7665685 -0.981176 -0.022598729 0.10551356 -1.3130481 0.82471806 -0.017094815 -1.4292023 -0.35740873 0.4605238 -0.055468813 -0.27380747 1.3177533 -0.109244026
could|MD 0.20671175 -0.389601 0.25363317 -0.7416154 0.7769366 0.1536017 1.2059401 1.4500598 -0.11473732 0.69771725 1.2364627 -1.3151504 -0.2332419 -0.33572072 -0.698711 -0.24894448 -0.37658545 0.37821296 -1.0337692 -1.2719349 2.2159345 -0.9039129 0.83137923 0.8544793 -0.06597679 0.44567087 -0.7591877 0.796644 0.18142642 -1.114406 -0.46256196 -0.4381607 -1.8633823 1.7508063 0.15933947 0.35779712 0.26030368 1.4240375 0.04714933 1.2510909 -1.6647279 2.6136463 -0.717098 -0.6909221 -0.4136636 1.4241861 0.36619407 0.21084048 -0.20704319 -1.0774919
such|JJ -2.0067923 -1.8777509 2.851911 -1.3898851 -1.010216 0.46301618 -0.07250718 -0.30459917 -0.36443892 2.1514244 -0.5235969 0.9442578 0.092403166 0.8142194 -0.34238377 -0.9869919 1.0499666 0.76053035 0.8730201 0.16166279 0.36661884 0.9766621 0.7651807 0.39522293 -1.6254023 -0.42241487 0.14788803 0.7786786 -1.1876701 -0.31486094 0.42896083 -1.3591721 -0.16948535 -1.7057306 1.2357666 0.36112362 0.92104745 0.29762137 -0.0056033563 0.6948865 -0.9437336 -1.4546676 0.1885906 -2.20781 -0.19808805 -1.3262576 0.31235766 -0.61734766 0.50943 -1.8077552
want|VBP -0.8302484 1.2979854 -1.1640573 0.45984522 0.30163172 1.1502179 0.5204698 -0.5588358 1.2293257 -2.5766175 2.126813 -0.17507163 0.8979321 -0.93359566 -0.20127314 0.32461557 1.682559 0.56232107 -0.828595 0.2653047 -0.2966686 -1.703047 1.1056936 -0.89552087 -0.13703601 1.0491303 0.45900187 -0.054759886 -0.74294776 -0.27996808 0.9966416 -2.534925 0.3477897 -0.28122118 -0.1654004 1.4892445 1.2620598 -0.70927185 -1.7425312 1.1127594 -1.8238897 0.7638157 0.5623433 -0.8215325 0.016988415 2.1432734 -0.38735107 -0.059460107 -1.3261704 -0.17147517
more|JJR -1.9387851 0.1450842 0.9833447 0.20821151 -0.9863021 0.626373 0.1322054 0.19025984 1.6799554 -1.3132194 -0.22567877 0.67735636 -0.40203995 -1.1614561 0.6443858 -0.93651676 0.96456677 0.62445873 0.59846026 -0.5075775 2.0127308 0.8707487 1.3569992 -0.40715164 -1.0421805 0.24090484 0.10001655 1.6129817 -0.1962 1.4406917 -0.36991078 -0.95284265 1.7198907 -0.096632645 0.25353843 0.7602544 1.1682036 -1.452385 0.09393512 -1.7104216 0.078588285 1.3740661 0.023722578 -0.32071182 0.38624707 -0.32347047 -1.2867656 -0.44370186 -0.54332197 -1.1447066
then|RB 0.6690988 -1.070394 -1.008104 0.9777873 -0.5356227 0.5106137 -1.7321426 -0.6108619 0.6365103 -1.3331915 -1.4998764 1.8667114 0.43968138 1.2817037 0.11535545 0.20463026 0.43024683 0.19999641 0.19989358 1.1030313 0.9868119 1.6669104 -1.2096701 0.12451449 0.6230722 -0.12253114 0.4280132 1.7528595 0.9531925 -0.17756493 0.29336143 -0.12990557 0.2399842 -2.2205455 0.28422448 -0.048684843 0.1110596 3.5527012 -1.435616 -0.7115571 1.0838381 -0.8220062 0.38161212 -0.5034024 0.25236887 -0.9383451 -1.0287912 -0.69422936 0.293411 0.03050292
space|NN -1.3674909 1.3320475 0.20674583 -0.5643662 0.5962116 1.1133847 -0.98913854 0.18953364 0.52105266 -1.7025394 0.7002355 -2.0158837 -0.8810939 0.30387715 -0.94709766 -0.7927428 0.19599083 0.13164775 0.76837337 0.24083754 1.4318033 0.53949076 2.364023 1.5751802 -0.21281487 0.08766202 2.0567217 -0.056427732 -1.26554 1.569275 -0.5899304 -0.58750355 1.4114114 1.1998975 -0.8698559 1.3415039 1.1535392 -1.8905723 -0.46962735 1.0019346 -1.710408 0.1383308 -0.7458864 0.8426086 0.4743973 -0.90616935 -1.6247859 1.0114484 1.1230984 -1.1253808
off|RP 0.29348418 -1.0286336 -0.11096433 1.8699621 -0.11793017 1.0744692 -2.0649729 0.812608 -0.31892973 -0.06206803 0.0031873 -1.0157121 -0.21534002 -0.36719847 -0.5313387 0.25138018 -0.3332382 -0.21018808 0.44653028 -0.46332845 -0.32027122 0.06289162 1.0748688 0.874436 -1.578628 -1.4380004 1.0049782 1.4244554 -0.997363 -0.8894126 0.16218205 -0.64944494 -0.4184962 -0.18698077 -1.3756413 0.4654588 -0.9720879 1.3158123 -2.4590905 0.027433014 1.1914991 -0.3123054 -1.0623777 -2.2146935 2.032585 -0.24338898 1.7506543 0.7296416 -0.7245494 -0.9817692
flowers|NNS 1.1007642 -0.1185047 3.9278035 -1.2409157 -0.073388666 -1.1081494 1.8605784 1.5057137 1.3946187 2.3389924 0.56340337 1.9850078 -0.41270384 0.82365596 -2.2126527 -1.3297402 -0.35947222 1.4892192 -0.1327148 0.9407825 1.5480467 -0.21518132 0.035895754 1.25171 -0.11214133 0.9327986 0.5301878 -0.38185552 -1.1839355 0.6504338 1.0871263 1.2428118 -1.985788 1.5785614 -0.020649798 -0.095903024 0.92233354 2.4485397 -1.69199 1.5427234 -0.1742548 -0.2918462 0.74241066 0.116840474 0.17826435 1.2637805 -1.5946252 -1.4450538 -0.844438 -1.4781706
down|RP -0.43507725 -1.0411727 -1.0894188 0.29962492 0.32531923 1.4116777 -0.17865911 -0.9758376 1.4649527 -1.045183 -1.0747868 -1.760466 -0.71490705 1.5139613 2.0809205 1.1275762 0.63311934 1.0337948 -0.6867048 -0.88725126 -1.7511333 -0.7039409 -0.66823936 0.74752456 0.33964655 -0.67633975 2.5997992 2.319335 0.21476133 1.0053816 0.3744634 -1.5389587 -0.66364443 -0.53443336 -1.1306326 -0.4457062 -0.58648485 1.6267596 -0.6891979 -1.6597023 0.4442979 -0.35413694 -1.8196344 0.4959515 -0.4496647 -1.7348684 -0.8187314 -1.5929524 -0.17531024 -0.04766544
before|IN -1.883939 0.14470069 -1.2010607 -1.058754 0.16901161 -0.009979098 -0.65023625 0.54702634 0.6072949 -1.3199924 0.32518056 0.14424095 -0.4282936 -0.5084861 0.770791 0.52266616 2.370392 0.49526003 0.10395162 0.98387283 -1.7798365 -0.051987663 0.5202222 1.7284075 0.64018816 0.23602144 -0.74179554 0.57332486 -0.7260065 0.15561202 3.4604666 -0.6304399 0.98441416 -0.8638541 -1.5420061 -0.6007584 0.7123424 1.3749036 -2.1372662 0.39715225 2.0015328 -0.6896901 -0.5906936 -1.5002507 0.21405096 0.01627362 -0.9653092 -0.45415372 -1.1138996 0.121438324
sure|JJ 0.3365195 -0.96823686 0.69834656 -0.6463946 0.29780486 2.239712 -1.2561074 1.3243997 0.14055768 -0.06266761 -1.1772306 -1.1092236 1.6854458 0.9416264 2.0882268 1.5248798 0.77571404 0.30658287 -0.96667063 1.1312313 1.6402841 0.032898862 1.5974708 0.61631924 0.7236375 0.6846515 0.67028964 -0.0680111 0.5878763 -0.8371906 1.6429485 -0.9550642 0.5401576 1.6697394 0.55952823 1.4989538 -0.77081865 -2.0371153 -0.37594736 -0.0397077 2.6426504 -0.3588551 -1.0928936 0.79253834 -0.041219156 1.2461323 -1.6294016 0.33895516 -1.8683002 -0.626701
items|NNS -1.4420562 -1.9500513 2.6307597 0.23460025 0.13431032 0.8205485 0.5003881 -0.2740332 0.6340229 1.8322634 -1.1374049 -1.4299952 -0.17958966 2.2525003 0.36628175 -1.9482934 0.6142452 0.04828789 1.0322696 2.076129 0.68065184 -0.72660345 1.502637 0.77730995 0.6041811 0.9652976 -0.3961333 -2.1881382 -0.492126 -0.9868734 1.010831 0.70031005 0.28175485 -0.10424119 0.35037845 0.319818 1.0350269 -0.05960354 0.32648346 1.6197231 -1.3544492 0.9522665 1.7073026 -0.5117031 -0.24380045 -1.759812 1.1463345 -0.068780705 1.9099551 0.5703813
wood|NN 0.3646983 0.41975445 -1.7451885 -1.0047481 -0.42745152 0.122706234 2.2233129 -0.5827506 -0.13821344 -2.1479266 0.28177297 0.73364174 -0.64072037 -1.2693611 0.84460187 0.5864271 0.41156518 -0.24089302 0.99676657 2.6629074 -0.59667397 -1.199731 0.40012383 -0.2691189 -1.2282151 -0.069269866 3.4055622 -0.04242508 3.548403 -1.0050054 0.98675275 -1.3622365 -0.03373174 -0.48328197 0.72601414 -1.5676719 1.3301626 2.0487838 -0.96347487 -0.31999314 -0.94323874 -0.003716232 1.4050766 0.48135626 -0.9692756 -1.3066007 -0.6074535 -0.7315667 0.62711424 0.16440733
has|VBZ -0.47899568 0.7069883 -0.45304388 -1.096441 -1.4708229 1.2875425 -0.056933366 -0.79719144 0.019031508 -0.8519117 -0.42135268 0.4221956 -0.20448264 0.26744527 -0.91752243 0.06395531 1.1649512 -0.70099735 -0.08734151 -1.957845 0.017624296 0.0068235346 0.5331459 -0.6478869 -1.6154951 -1.1324868 0.14537674 1.6808665 0.12483213 -0.10405965 0.02972943 -0.59780264 -1.0201054 1.9726593 -0.6670363 -1.927186 0.20470266 0.35353166 -0.5992274 -1.2982554 1.1091673 2.8839953 0.08288786 -0.82655954 0.16745438 0.25490394 -1.196492 -0.48541442 -1.0671723 -0.2181281
place|NN -0.9005758 0.10034979 0.70682126 -2.13512 1.2767787 -0.72303015 -1.8960428 -1.8074778 0.34191173 0.59174055 0.19382544 0.52768785 -0.65162754 1.479521 -0.32515138 -0.7643018 -1.1708399 0.5458634 -0.33077744 -0.7473967 -1.2389479 -1.4187753 -0.69658494 0.9913691 0.16524328 1.2626905 1.1772429 -0.21386816 0.4369341 -1.0295391 0.5136409 1.7671643 -1.5969743 0.45964327 -2.712824 -1.4652022 1.9339708 -0.087002635 -0.9916155 0.92212635 -0.9689676 -1.2275052 -0.22664967 0.046763748 -0.13901974 -1.7953597 -1.0698446 0.5354763 -0.009425552 -0.1579556
new|JJ -0.82777774 0.95829517 -0.20827653 -0.8695748 -1.6768794 -1.907901 -0.81570715 -0.7741149 1.5039446 -0.68291646 0.6412945 0.7624304 0.77227616 1.1166077 1.0724523 0.46723142 -2.7400951 -0.66415745 -2.5471475 -0.23581693 0.85462016 -0.3666906 0.14913972 -0.8714026 -0.42982173 -0.8098327 1.6352628 -1.0777293 1.4965981 -0.19988129 1.0126388 0.29588193 1.755475 1.6300075 0.44363844 1.2784175 0.339238 1.5507909 -0.534734 3.4175127 0.21620423 0.08582726 -0.9056356 -2.2031198 -0.3964626 -0.106109805 -1.3897189 1.0184575 -0.03930815 -0.5976498
furniture|NN -0.2109508 0.7246227 0.07661912 -0.94851947 0.76919204 0.08285187 0.4949056 -1.5094683 0.064799964 -3.1040351 0.22673354 -0.43412706 -0.71784747 1.1620097 0.10156729 -2.2861335 0.4316035 0.53051364 -0.6955701 -0.2655519 -0.89733446 0.109710515 2.0227473 1.0465484 -0.25745445 -0.19697106 2.228979 -0.62062865 2.1708782 0.29011095 -0.4238282 -0.081853874 2.6931953 -0.044125747 -0.47717178 -0.39836746 1.3930937 0.08016385 -0.16943042 -0.5840974 -0.7920008 0.22540145 -0.7147448 0.15669319 0.6790136 -0.9042093 -1.4714594 1.8398975 0.9498964 -2.13159
cloth|NN -1.5227715 1.5158014 -1.4970568 2.4650671 1.0785701 -0.2689459 -0.8860301 -1.6002016 -0.399409 0.7415763 -1.5897864 -0.15878262 -0.9707345 2.4128978 1.7491926 1.6944766 2.3146167 0.035011854 -0.3241644 -1.3155303 -0.21497132 1.4007277 -3.153735 -0.17633916 -0.74838287 -1.4417546 1.4578792 -0.4396804 -0.07890492 0.8732079 -0.5389696 -0.41385385 2.14413 -1.0717701 -1.8268656 -1.3940018 2.506115 0.646073 0.49989182 -1.5035475 -0.23743123 -0.33216769 -1.2891477 -2.1234963 -0.19491485 -0.059701744 0.8705468 -2.6673892 -0.7872757 -1.0713876
leaves|NNS 1.3596959 -0.5582705 0.6547856 -0.412339 -1.9740695 1.4575667 0.112190776 -0.6715779 0.5364623 1.8856361 -0.751781 1.2024415 -0.084638804 -0.37478372 -0.73460805 -1.0654726 -1.2663512 0.41330704 -2.2862318 0.36861703 -0.41860318 0.99698156 -1.1301605 -0.033302277 -0.6493668 -0.5128064 0.42428783 -1.3409251 0.25562528 -2.1340013 -0.35233068 0.010748637 -2.7484045 0.58965445 -1.3847214 1.0235286 1.3892531 1.1725398 -0.37881592 -0.7620608 4.0211945 -1.2603576 -0.21322048 -0.6550737 1.951763 0.8851001 -0.25032845 -0.053930473 -0.93669254 0.7797647
each|DT 0.25792468 -1.4636859 -0.16231519 0.46056747 0.35659507 0.93842596 -0.33198047 0.5159071 2.9303818 -2.6505713 0.8369868 0.23822908 0.84544057 2.072686 -0.30272913 2.2646043 -0.03364518 -0.26960754 -0.921971 -1.6454533 -0.002590221 -0.04737473 0.21896732 1.1211655 1.2608302 -0.9322032 -0.7261002 1.2207103 -0.12775226 0.5838326 1.2598706 0.78915477 0.23910871 -0.33073202 -1.216297 0.89529467 -0.6691988 -0.23103127 -0.44692495 2.0735018 0.3748233 -0.9196577 0.019636229 0.08949362 1.899862 -1.8161153 -0.007665356 -0.91742444 1.1754655 -0.3091661
colors|NNS 0.23891194 1.0707017 3.1432314 0.6083736 0.067112155 1.913276 1.8573636 -1.2866096 0.70234406 -0.7733846 0.82619923 1.2589777 -0.11063063 0.9524215 -0.26339835 -0.8455723 2.238229 0.7263583 0.9970459 -0.5842283 -0.69177234 0.70307016 2.5800812 -1.8514726 -0.24253349 -0.023878967 -0.42290002 0.11296248 -0.6469905 0.39052132 -1.6603684 -0.57208246 1.2450091 0.63851845 1.5211178 0.9152421 2.8349893 0.43570375 -1.2016664 1.9798318 -2.2145455 -0.03240083 0.63864076 -1.2041211 -2.5999098 0.85796136 -1.6971087 -0.5481393 2.5070517 0.054741874
oil|NN -1.2078887 -0.6625847 0.07679514 1.2318038 -2.0919344 -0.33584076 0.15282957 -0.56021047 -1.0808839 -0.6347191 -0.0073252306 -3.0595956 0.1429102 1.283429 0.7081284 1.4281574 0.85487723 -1.3336248 2.8474698 -2.3386939 -0.37592706 0.61172825 -0.94377184 -2.1112645 -2.1017778 -1.1495334 -0.92464125 -1.1336808 -1.3713402 -2.379591 -0.27856356 -0.9935369 -1.1863539 -0.4572169 0.80052686 1.2309386 -0.5061948 0.60462946 0.46314126 -0.43582287 1.5278878 0.54970336 2.7043447 -0.17323351 0.8788382 0.3968643 1.0985786 -0.64715254 -2.2729497 0.5981725
Make|NNP 1.0089582 -2.1127226 1.5550551 -1.7237531 0.29666474 1.6259015 -1.0474826 0.14173642 0.10818982 -1.3316007 -0.075243264 0.8129262 1.924882 0.93154174 1.5544094 1.1150842 -0.21044254 1.4158318 -0.6846738 1.3204638 -1.5085608 0.2934212 1.2974381 2.6288698 -0.058502 -1.875705 -1.0363674 -0.32206523 -1.1069349 -1.3814098 0.8113198 1.4079504 0.1171156 2.0044594 -1.0721748 1.730056 -1.3623867 0.08123717 1.5345782 0.08238638 1.5561264 -0.4324428 0.78749293 -0.37371013 -0.3886709 0.8489588 -0.33461383 2.0356965 -3.7272935 -1.8247725
away|RB 0.030812649 -1.2549652 -1.1768354 0.15606488 0.7542031 -0.6723034 -2.521107 -2.6696048 0.56614804 1.4391985 -0.60715115 -0.15053609 -0.58062416 0.22200236 0.62136215 -0.857659 -0.26227868 0.6347224 0.5761788 -2.1505654 1.0167229 0.7396589 -2.5367913 0.103944525 -0.750508 -0.5788545 -0.838585 1.2040782 -1.4182167 -0.5410503 2.390258 -0.13348776 -0.08965129 -1.5832196 -1.2626916 -0.1608374 -0.9073975 -0.17894173 -0.43487868 -0.7058035 -0.48653165 1.6531733 1.0209901 -0.88607645 1.9135274 0.09987206 -1.7193353 0.811881 -0.68731695 0.29009667
areas|NNS 0.7927735 -1.3454137 1.3009471 -1.6037982 0.18285553 -0.7107168 0.34716278 1.4484284 -2.8866951 0.50585425 -0.17299436 1.1176962 -0.6413764 -1.4665622 -1.2757378 0.4614267 2.2287898 0.027673632 0.68802214 -1.239545 0.13036567 -0.074803695 0.38786894 0.13849115 -1.4814819 0.37218174 0.73208183 2.8285396 1.9034065 -1.0040511 0.38329527 0.26318422 0.43284255 -1.9044552 -2.0584462 0.95909554 -1.0348881 -1.3556081 0.5651796 0.07920791 -0.31829438 -0.15309073 -1.3119279 -0.0036324165 1.7591388 0.9621735 0.123549126 1.0436794 0.5185538 -1.8028449
time|NN 0.20717497 -0.1664534 -0.67500776 0.929195 -0.030199498 1.5166391 -0.84472126 0.33292964 0.5266594 0.35972112 0.9104176 -0.03511231 0.098376 -0.83134836 0.27565545 -0.70672125 2.4338512 0.7544411 -0.0021833454 1.4784585 0.62920654 -2.432519 0.62180966 -0.7964636 0.17303738 0.4545497 -1.3024424 1.5378044 -0.77106726 1.0785499 0.38230765 -0.54917437 0.5470632 1.6291596 0.33124658 1.0046511 -0.16560224 -0.47912306 -2.2273095 -1.9488653 -0.38994214 0.053617045 -1.0502031 -0.453636 0.55530936 -0.4027536 -2.11187 -0.9701644 0.8110336 1.5017035
bleach|NN 0.41972327 -0.9775695 -2.1545188 1.0562515 -0.06900623 2.6033344 -1.7176296 2.7945855 -0.65855724 1.443967 -0.7860319 -1.3229622 0.4509683 -0.6434652 -0.73941576 2.254381 3.603502 -2.0762956 0.25923502 0.5059639 2.7240262 0.41257843 -1.2954285 -1.0338374 0.1987225 0.64396155 -0.1898926 -0.6426093 0.6131769 2.1067133 -0.69461036 -0.11361303 -1.7929887 0.036179822 -3.2486472 0.53493726 -0.34997946 -1.3968579 0.14760894 -2.9712985 -0.40754908 -0.1888773 1.0403823 -1.4294772 -1.3182118 -1.3797265 1.4454423 -1.1759977 0.2722191 0.5834694
two|CD -1.7103912 -2.0784566 -1.0673072 -1.1187404 -0.47899732 0.5175788 -1.1632553 0.6276006 3.1647325 -0.8318562 0.6559011 -0.53092694 -0.65078455 0.5563362 -2.9152849 -0.23529753 0.17863175 -0.08136455 -1.0963304 -0.049427133 2.2562878 0.82920855 -1.0640422 1.1116766 1.1367738 0.21426634 0.52000415 0.58507234 0.4978686 1.8999673 0.33108735 1.5163937 -1.6699419 -3.2515423 -1.4685086 -0.054764092 -0.43658024 2.3402822 0.10907366 -0.20137604 -0.844103 -1.6620549 0.22112422 0.15331683 1.2150692 -2.1590395 0.19834505 1.1584584 1.3049054 0.54893464
well|RB -0.20734549 0.087380655 1.274349 0.19203253 -0.57017213 -0.19549891 -1.6223632 0.9004402 1.0192312 1.6129225 1.1689019 0.16898638 2.9493856 1.0502216 0.3305154 0.41451874 2.1119058 0.35747853 1.448455 1.6201717 0.15920103 1.0145584 2.6823769 1.1078925 -1.3448211 -2.0605671 -0.20745312 -1.0115476 1.4992378 0.7429322 -0.041924488 -0.9634687 0.056639988 0.17777343 -0.6292908 -1.2940035 -0.27902997 -0.47615764 -1.1910233 -0.66682047 1.8871517 0.3792212 -0.079893745 -1.7873008 2.0173264 0.5319267 1.9738235 -1.3669119 0.25715292 -0.22165853
about|IN -1.605462 -1.3650736 1.9653343 0.77887607 -1.3933426 1.9673325 1.8886776 -1.1689242 1.2030258 -0.6630074 1.0515511 0.20887436 0.3191595 1.2472042 0.676255 -0.7609355 -0.17087482 0.65966403 -1.2264156 -0.18355475 -1.2715374 1.7723156 -0.048486523 0.0094178 0.4381079 -0.000613421 0.21798639 2.630076 -1.1153344 0.7705353 1.105159 -1.2017803 -1.9383506 -0.2665595 -1.1487751 2.3623972 -1.3766302 -1.2248579 0.22095233 0.5872817 1.1221852 -0.51525354 0.16243753 0.10867044 -1.9899206 -0.4144464 -2.327295 -0.22452134 -0.18411358 1.4254919
so|IN -1.9619389 0.28055963 0.99155813 -0.046588738 -0.16039097 0.4565637 -1.2648633 -0.77877647 0.058102097 -1.4242995 -0.8589791 0.15481488 0.4439248 -0.87649935 0.98471236 0.45226887 -0.40653118 0.42643738 -0.8546526 1.2449524 0.9463123 -0.2236706 0.07274878 1.1138779 0.40164015 -1.1192081 0.6553787 1.5608618 0.90861386 0.15864581 -0.28076768 -1.0507191 -1.3145524 0.32176372 -0.7591139 0.9768544 -0.7632007 0.19265461 0.041668702 -1.5065426 1.0011333 0.4578001 -1.3420238 -1.9415594 -1.5762933 0.25389132 -0.62954277 0.4919312 -2.9621887 0.4086615
solution|NN 0.6442899 -0.028282687 -2.651901 0.9848624 -0.7542385 2.322532 -1.5076418 3.4942567 0.27149865 -0.54614943 -1.983778 0.9400405 0.19021152 0.456167 0.094201095 2.194023 3.1676805 -0.51187867 2.1328077 -0.19117601 1.765311 1.9155618 -1.5746738 -1.7691338 0.7516646 -1.3661965 -0.76498824 -0.519582 -0.7973138 1.1300148 -0.36418086 -1.7733884 -0.27996024 1.0146292 -2.518865 -0.42432585 1.2382823 -1.79526 0.21510641 -3.5849028 -0.9914197 -1.1484153 -0.025617123 -1.6048372 -0.27447033 -0.5390639 0.7198671 -1.6138182 0.69344246 0.9089136
these|DT -1.1178684 0.68711835 2.0302055 0.8026893 -0.6596911 1.3058699 -0.49545294 -0.48308843 -1.4946872 0.23635282 0.33425516 -0.89003736 0.6430002 -0.42580017 -0.28973138 -2.0553706 0.49719998 1.2516013 -0.36045575 -0.09306797 0.78211015 0.042687893 1.0737168 1.594567 -1.1552585 0.40841624 -1.1945232 -0.20108442 0.10824668 -0.27372253 1.8654511 0.02200504 0.9671692 -2.5472155 -0.6897367 1.549913 -0.43243325 -0.8240037 0.27430487 -0.38382152 0.1894176 1.3951224 -0.5162472 -0.19013444 -0.5848918 -0.1936009 -2.0387688 -0.39682123 0.068375975 0.29901972
food|NN -1.5067137 0.20598996 -0.39477628 -0.6875198 0.8175079 -0.52327126 -0.24042483 -0.15192407 -1.5890305 0.7895482 0.32724983 -1.7285461 0.69479954 0.09871665 0.5624823 0.3252468 -0.061999243 0.26595178 0.58298117 -0.82761014 0.91229874 1.7093934 -2.4713366 -0.97804797 -1.456024 -0.6122765 -1.641108 1.8631648 -0.13285075 -1.6745081 0.038325336 0.7976954 -0.15612233 -0.8065156 0.66156566 -0.019791698 -0.56291604 -1.0002314 -0.8971711 3.0971277 1.637995 -1.6456577 1.6756992 -1.5739318 3.268819 -1.5583025 -0.06208488 1.1963559 -1.2730238 -0.57933545
help|VB 0.16079596 0.75059754 0.4411475 -0.07576312 -1.9686083 -1.5012019 0.48948333 -0.79281324 1.4085087 -0.9109422 1.9301398 -2.5550933 -1.9834867 0.54170156 0.69078994 -2.246195 0.036748607 -0.56605667 1.401863 0.004206636 0.17338172 -0.12356016 2.485184 0.77739495 0.19218294 0.08981224 1.0722983 -0.043702915 0.6189493 -1.367777 0.13571766 0.1851558 -1.4775941 1.7606654 0.5695798 0.69412 -1.1812447 -0.5947407 0.49435493 0.05532912 -1.4615161 0.33698696 1.1324322 -1.031561 0.7945477 -2.2897835 -1.9455482 -0.2307258 0.021776937 1.6224356
A|DT 0.2616771 0.24130368 0.13765956 -1.8729296 -2.3992326 0.21974847 0.98615235 0.10343928 0.46049675 -2.1826208 -0.08702434 0.9943045 0.3956169 -1.1848122 -0.7167962 -2.0233562 -0.9639025 0.8875117 1.6247041 0.7359619 0.37075853 1.6058544 0.37508866 0.9055034 -0.43836603 -2.2039573 0.66647536 1.5108001 0.15176062 -1.6252942 0.83368117 -2.229624 -0.22094475 2.195726 -0.6579866 -0.30195177 0.9089709 -0.72257954 -0.036020063 0.9596918 -0.6869068 1.6629418 0.8347036 1.7451487 0.27177003 -0.28794003 1.9643027 0.7440987 0.60656315 -0.84382045
even|RB -1.1911148 -0.71934485 -0.5773626 -0.4914432 -0.29628772 0.6665394 0.327512 -0.16708373 0.16096964 -0.121470734 0.9225034 1.3264402 -0.2984766 -0.3411649 -0.65795326 0.3111236 -1.036809 -0.97648114 0.54020077 -0.16161217 1.7954091 -1.0147774 -0.592236 0.49823475 0.42316917 -1.0865337 -1.5142827 0.92145723 1.9751247 -0.9079206 -1.1781285 -1.9668841 -0.9347819 0.15752232 0.88319105 0.10548121 -0.05058267 0.15858245 -1.9218241 -0.4391288 -1.1246581 0.9993739 1.0661052 -0.5591048 -0.4855047 0.9832902 -0.3498109 -0.71287847 -0.3120215 -0.12288616
bed|NN -0.41067907 0.4172072 0.18208626 -0.042625148 2.8106604 0.024966048 1.1816304 0.071553506 3.9777298 1.1817646 1.1211134 -0.25940177 -2.0064664 -1.3182851 -0.6676147 -1.5247542 -1.4882585 0.69465965 -1.1030831 0.3388516 1.3983815 0.59056246 1.7884374 2.966387 0.28155676 -0.6278181 2.1124246 -0.6716772 0.5178274 2.1200967 0.5686467 1.9823782 0.426829 1.0086455 -0.6214167 -1.1866289 1.8179841 1.0141945 -2.5589113 0.8430629 -1.5266293 -0.91706103 -0.87583977 0.9444941 0.5630117 0.4135953 0.40879014 1.5402412 1.4003255 1.080794
create|VB 1.450296 0.31643787 -0.457422 0.78788733 -0.720212 1.2445717 0.4807319 0.19408152 1.1821637 -0.9267913 -0.5676825 -0.3567399 -1.3406802 0.10997443 -1.8885912 -0.9754159 0.55875444 0.73848855 -0.776819 -2.6774185 1.57411 3.2789683 1.2429156 1.4971508 0.8364818 -0.8735546 0.34512085 1.7138172 -0.72932565 0.38661444 -1.4713638 0.21755283 0.9639354 0.23107658 0.50342864 0.96595645 -0.21393697 1.9660138 -0.63674206 0.45736673 -3.358546 0.30118454 0.9855338 0.6056291 0.41614884 1.1391097 1.1913579 0.9525045 2.7095203 -0.64315856
as|RB -1.4876156 -1.0335381 2.167807 -0.02837697 -1.1056204 -0.58948547 -0.5401729 0.54438066 0.790508 1.7143239 1.7744449 0.49270597 2.4663148 0.18917255 0.86686885 -0.49998933 0.56121516 1.2679781 0.07236572 0.679343 -1.4268428 -0.01783418 0.869894 2.9347212 -1.4825226 -2.1723745 -0.2390873 -0.29238895 0.9595188 1.62669 0.05628385 -1.142078 0.05155059 0.34637153 -1.4955183 -0.013269704 0.5592405 -0.989431 -1.0511053 -0.3997836 2.6442225 1.9646626 -0.64894664 -0.75247175 1.0720445 -0.23814844 0.8869494 -1.7595571 0.5647392 -0.47383282
so|RB -1.2132388 -1.5804367 0.46414775 0.47856972 0.04794526 1.8169092 -0.6922526 -0.6280015 0.46907213 -2.574874 -0.33871537 -0.40668178 0.94994485 -1.430768 0.67581916 1.057659 0.012066363 1.6421347 -1.5965767 -1.0109742 -1.6793667 -1.2586778 -0.053939894 0.29716662 -0.63689506 -0.70702624 -0.4906729 1.2719786 0.85657114 0.7527937 0.37327665 -0.6471548 -0.6520947 -1.1291347 0.22221784 0.2470062 -0.8945251 -2.3919258 -0.79236937 -1.7861015 1.0107732 2.1242726 -0.9835304 0.5585258 -0.23525964 0.080084875 -2.6821663 -0.34512037 -1.5597357 1.0344639
container|NN -2.184022 -0.7464159 0.7981278 -1.6806318 2.413792 -0.18827076 -2.3193932 -1.9073364 -0.44376913 -0.24515347 -1.5719235 2.0735016 -1.0295973 -0.85857207 1.1288269 0.6868843 -2.3128228 0.48009324 1.0889595 -0.21833186 0.659584 -0.16177006 0.12008456 0.12943615 0.037211474 1.2608563 1.3396534 0.46204346 -0.7980778 -1.2919507 -0.2723755 1.1168673 0.51147693 1.0909939 -1.7627664 -0.3075824 1.8980373 1.7423253 -0.19369337 -1.7557931 2.3309696 -1.7799337 -0.24296781 1.9219284 1.8381401 -1.5476886 2.694556 0.68706 -3.922547 -0.12448978
than|IN -2.8991253 -1.8939381 2.0094588 -1.1888108 -0.18281172 0.7802134 0.22264759 -0.11180772 1.1279138 -1.2652751 0.65187764 -0.3511789 -0.7961503 -0.08082236 -0.77125007 -2.6326385 -0.6007483 -0.4147475 0.6455449 -1.3907338 2.4098556 0.123246506 0.9597041 -0.95340526 -0.67842805 0.15193377 0.51869136 1.2409906 -0.7994587 0.5047927 1.379851 -1.927222 -0.43691522 1.8584156 1.3915849 0.6918719 2.2174344 -0.47850716 1.5959258 -1.727308 2.0666525 0.683397 0.5070524 -0.23302816 0.26988238 0.765319 -1.2358732 -0.3025624 -0.28805247 0.847485
add|VB -0.07957595 1.2653403 0.11305541 0.18714927 -1.183075 0.6685132 0.5396939 2.3871062 0.26350823 -2.2144682 -1.2150702 0.54428834 -1.9515352 -2.502791 1.1595602 -1.4431357 -0.3123283 1.781181 -2.0104477 0.6702303 1.5506171 2.255482 0.97380966 1.1757442 1.904676 -0.20981708 1.7812275 -0.1895291 -0.9050332 0.6544919 0.4213166 0.6666827 0.38350916 -1.2680553 1.0137867 -1.2059518 1.7049917 0.9602452 -1.5374695 0.27798158 -1.0114343 0.0067449757 0.2221748 0.32699755 -0.12814894 0.1930363 -1.9049928 -0.061375115 1.6783835 -0.18502186
towel|NN -1.588236 -0.321017 -3.1008964 2.4672194 0.44559184 -1.3215846 -1.99135 -0.098373555 -0.7215214 -0.83126885 -1.0375301 1.1564934 0.2617128 2.1720026 0.539369 0.4386439 0.13848111 0.34294608 -1.9323006 -1.0080383 -1.3739269 0.9621784 -0.90475106 -0.24003817 -0.28818628 -0.9836061 1.8485299 1.1820397 0.77063614 0.029306961 -1.9716046 -3.1759615 1.6239412 -1.1364952 -2.7537093 0.34289685 1.1060585 0.7212504 -0.32628372 -0.13749911 0.862821 -2.2779555 0.63680345 -1.5728052 -0.58581746 -1.5365256 1.1831748 -1.7668979 -0.54669803 -0.7725829
white|JJ 0.18796313 0.36519596 0.65973806 0.04684994 -1.3847004 -0.5989217 0.7797255 -0.9173589 1.3746032 1.3363194 -1.451587 2.1519372 -0.88177997 1.3505794 -1.4057457 -1.0827733 1.1756426 0.18240623 -0.2143655 -0.094458826 0.8203841 2.8880465 -0.24863727 -0.27894044 -0.67385656 0.91142714 -0.17261508 -0.51132584 1.6506671 1.4592477 -0.5813298 -0.6525677 0.17305921 -0.9762981 -0.4365324 0.5679804 0.34732303 0.7558956 -1.4186188 -0.67086124 -1.6410698 1.7157071 1.9337168 -1.3742347 -0.8758607 4.9869266 2.399575 -1.9351751 0.8132047 -1.0553071
dry|JJ -2.2711112 0.27967948 -1.7380091 -1.4947252 0.67179525 0.12922975 -1.5187281 1.0678557 -0.26110604 -0.28480032 -1.006802 1.0949932 -1.174294 1.1121178 -0.5636363 -1.3256596 0.62791777 -0.76665956 -0.965793 1.593156 -3.6131952 -0.81087315 -0.73101705 2.0719702 -0.011180011 -3.1184468 -0.37283987 0.593742 1.26321 -0.5902786 0.9877692 -0.07933875 1.9141127 -0.2278973 -2.5240893 -2.6642518 -0.34422043 1.1143416 -2.1465867 -0.68013173 1.6716895 -1.6975092 0.6899717 -1.3160694 1.767226 -0.12776169 -0.54490805 0.14589159 -1.920028 -0.32590172
cleaning|NN -2.0304637 0.41312316 -2.404402 1.2969306 -0.7991196 0.58867425 -0.37185496 -0.10804259 -1.2720267 0.42263436 -0.77196985 -0.77893215 1.3339893 -1.5751963 0.5750168 2.4274983 1.9488618 0.44403207 3.0258336 -1.6544046 -0.045846082 -0.0342307 2.3757272 -0.9795012 -0.18748704 0.51397085 -1.093792 0.53830874 -1.4594289 -1.5457587 2.3432775 -0.49379125 -0.6122724 0.01717406 0.3023277 1.9896946 -1.7461675 -0.8894156 2.09077 1.152446 -0.05186819 1.4279015 -0.44690496 -0.8754912 0.4725568 0.44151965 -0.0941607 -2.47374 0.14722449 0.8832878
glass|NN 1.3632225 0.64264834 -0.3717264 -1.3652406 -0.59234834 -1.2748368 -2.6932578 -2.2033894 0.8212908 -2.6471584 -2.260947 -0.90523565 -0.28329533 0.90385765 1.4049231 0.028052647 -0.61311096 -0.3538022 0.1722488 1.4834296 2.4544888 -1.2469944 -0.83064467 -0.45546058 -1.586272 -0.86314756 1.1040832 -2.334073 0.7109719 -1.6107063 -0.09597119 -0.18501593 -2.2604651 -0.558674 0.9283605 -0.14598383 1.2620195 0.85417336 0.115831256 -0.018424617 1.2503755 -1.6600754 0.44124997 -0.7209459 -1.8887302 -1.9568119 -0.73310846 -0.15022424 0.9834386 -1.663792
out|IN 0.21270825 -0.9169755 -0.88811976 1.4372153 1.2134404 -0.6040683 -1.697991 0.5375254 0.113546506 1.440206 0.15580502 0.085397914 0.61348903 0.7464095 -0.13127704 -1.0740322 -0.26202103 0.20969374 0.116497345 -0.78496355 -0.40985358 -0.097055875 1.373352 2.0183651 -0.8512475 -0.10225577 1.0059893 1.0169159 0.6921734 -1.2074225 2.0274234 0.22279754 0.7515508 1.514717 -1.1223364 1.1509516 1.2238495 -0.29573655 -1.7162497 -1.4258493 0.38052508 -0.6688815 -0.3598942 1.3684362 -0.3277964 0.12197549 0.65686625 -0.5510171 -1.6943252 1.1653161
clean|JJ -0.65364397 -0.35735083 -0.959942 1.9248191 1.2647613 -0.942813 -1.1962183 -1.0933328 -1.0508621 -0.77640754 -3.3139486 0.044272028 -0.27305046 1.3186047 -0.035037152 0.8308442 -0.14672226 -0.19486457 0.5973791 -0.8641137 -0.7689608 0.15633243 -0.9681408 1.2893491 -0.38203168 -1.5109106 0.80158556 -1.2728051 0.6992954 -1.4849489 0.60566145 -0.6020941 0.79644996 -0.66521364 -2.2436752 -0.8175251 1.2903204 0.46560293 1.2945771 0.61941594 1.5956827 0.24305475 -0.70461744 -1.748224 1.010703 1.0611757 1.3969362 -1.9998432 -1.0570227 -1.5649596
where|WRB -0.8802519 -0.4673719 -0.3445328 -1.8381035 -1.1001519 -0.47054124 -0.26617256 0.080991544 0.07791191 -1.0072532 -1.159565 -1.3025067 -0.3592307 0.10124158 0.13618398 0.024311157 0.79154325 -1.0084568 0.0074553867 -2.5926268 0.5984158 -1.3104546 1.8212805 1.0403284 0.0308556 -0.08630193 0.5499796 2.268521 -0.0014399729 -0.0773452 0.13979258 -1.0001518 -0.15852489 0.5010882 -0.8606055 1.0545949 -1.1467896 0.5221586 -2.3838255 0.28874812 -0.14658797 -0.20769718 -2.4540877 0.7172992 1.5523005 0.8511659 -0.8923586 1.3629347 -0.7961834 -0.9594668
different|JJ 0.10956316 -0.75424993 -0.7572434 1.0663354 1.0378181 0.7004352 2.129812 2.1369908 1.1204674 0.4097127 0.27608097 -1.1494701 1.0361362 0.74357283 -0.6018592 0.39830926 0.019990189 1.7155644 0.1616588 -3.688068 1.1330761 2.0395353 1.0795071 -1.307969 -0.31745875 0.3416877 -0.5339089 0.4957803 -0.43173692 -0.027651466 0.27116534 0.6269702 -0.6736378 -0.9208523 0.81735575 2.0225453 2.4134297 1.3108944 -0.9579554 2.882288 -1.8488737 0.64523035 0.21212989 -0.34980315 0.1370933 0.3432887 0.21691376 -0.05592687 3.6975164 -0.021059973
do|VBP -1.9713324 -0.08458157 1.4078859 -1.0436654 -1.0405204 2.6337519 -0.9672864 0.3926914 0.4589829 -0.26126942 -1.1784849 -1.7744035 0.33662876 -0.35340047 1.1244192 1.414331 1.1249608 -0.35115543 -1.0592842 1.4213264 -1.1987735 0.07159441 -0.7798905 -0.77787364 -2.7731218 0.036413237 -0.009290141 0.6471477 -1.3897768 0.40471268 0.08887992 -0.36805695 -1.5688183 0.07449751 0.54363203 0.9821048 -1.0072058 -0.4807739 -0.2585925 -2.2606604 0.36350843 0.8536679 -0.52101415 -1.7149676 0.63595766 2.329582 -0.32368642 1.1758968 -1.5111377 1.0718877
book|NN 0.037034817 -1.1722782 -1.4460077 -0.69874465 3.0494652 -0.90461206 -0.06016035 -0.20713682 -0.69015646 0.42416942 1.1842921 -2.9597557 -2.207172 2.0720146 0.54320544 -1.064903 1.5041136 0.57360846 1.7972538 -2.8271234 -1.6854458 0.50308317 -1.1481524 1.829506 0.49275255 2.5534964 -0.6206955 -1.2262222 3.1237433 -0.17920026 0.26265153 2.996699 -0.4454542 0.098182514 -1.812941 -0.8819646 1.0941881 0.29379907 -1.0521635 -0.1609769 0.024772944 -1.0340489 -2.219634 0.81957966 -0.83817834 -0.076293 -0.25030136 0.23304065 -2.7523153 2.3240201
their|PRP$ -0.38745943 0.14655529 -1.0147159 -0.47423306 0.9287657 1.3788002 -0.29647583 -1.0003166 -1.9691638 0.8123251 0.8252584 -0.09071843 2.397056 1.0470964 -0.09550347 -0.3524806 -1.9587557 2.7688646 1.2266929 -2.3909414 0.8343304 0.09200172 0.8349086 1.0373108 0.9764224 -1.0506215 -0.32430914 -0.31570515 3.4493542 -1.4272972 1.9384927 -0.19636102 -0.7129596 0.70093715 0.22871467 2.033757 -0.6397022 -0.9671485 -1.7996956 0.47543076 1.1819443 -0.10278735 0.9352076 0.15199731 2.1419687 -0.31141177 -1.5658267 0.089824006 0.95726264 2.3957505
Keep|VB -0.5966734 -0.8285017 -1.1928631 -1.9253374 2.62519 -0.22387274 -1.4038471 -0.7465949 -0.05654308 0.6144566 0.5841782 -0.8015242 -3.0231986 -1.0049558 -2.076624 -1.4118006 -0.5896045 2.7763474 -0.027830796 -0.28077868 -1.1951452 1.3240851 -0.2029778 0.70192266 -1.1136504 -0.5925302 -0.48798308 -0.19695851 1.4341903 0.028325971 0.02349236 -0.09270308 0.064214356 0.863337 -1.3760842 -0.5846976 -0.16228352 -0.8098489 0.3639724 0.88806784 1.8115879 0.06875803 0.66457 0.26226926 2.243053 -1.7497422 -2.0262926 0.053249348 -0.47009525 0.6932742
way|NN 0.75359124 0.86441314 -0.16385514 -0.38631833 0.6966057 1.0574077 -0.8007747 1.2908263 0.04524589 0.21131732 1.3299314 0.18894176 1.167791 1.4232529 2.8156126 -0.21663238 0.5650544 1.0728334 0.87077403 0.5552025 0.054435 2.7311726 1.9619695 1.483647 -0.3550528 1.1272819 -0.6046312 1.4112515 0.4733911 -2.0443373 -0.46375152 -0.06516533 -0.46623942 0.89287674 -0.38847533 0.41474938 0.16043682 0.958547 -0.84383464 -1.2659259 -1.2402822 -0.287129 -0.107451856 1.6205019 -0.07920657 -2.4577138 -0.36100474 0.82610554 -0.10071047 1.9788246
just|RB -0.28647017 -0.27784076 -0.6062424 -0.93143 0.701574 0.7043744 0.7308325 -0.18925601 1.1553516 -2.3910682 0.8519122 0.66290724 0.7292713 0.47619292 1.0005366 0.58611864 -0.5114331 1.3962768 -0.5611246 -1.0721693 -0.13957137 -0.7530179 -0.9341057 1.4290833 -0.2312636 0.32498503 1.3014739 0.40476218 -0.32733628 1.2248133 -1.1446494 -2.1567647 -0.17215379 0.57819533 0.08860298 0.48971388 1.7885205 -0.5399561 -1.4314508 1.5794374 0.104880124 -0.24961983 0.2514736 -1.5701467 0.89037395 0.15600732 0.19101985 -0.6368514 -2.3096936 -0.16051775
too|RB -1.8074852 -0.19316152 0.51637185 -0.26207346 1.5524795 2.239661 0.1748094 -1.8439785 -0.36423492 -1.3899121 -0.36654606 -2.0207798 1.599976 0.40620586 -0.772085 -0.515474 -1.7270006 0.1457603 -1.4966184 0.38186273 -2.497365 1.6292733 2.0095415 0.50880694 -0.52838266 1.7687256 1.9012334 2.2392201 -0.02780552 1.8299298 0.29720226 -2.09295 -1.6119014 1.3543172 -2.2349024 -1.5378001 -0.33073133 -2.3606448 0.31469887 -2.530424 1.0683968 0.61080074 -0.49153933 -1.4521576 -0.659779 2.6326668 1.1200863 -0.7501214 -0.35627916 -0.33133936
brush|NN -2.2414916 0.63504064 -2.3675654 3.3592124 -1.6366762 -0.5817706 -0.7479696 -1.383641 -0.9122826 0.82170117 -1.9466623 0.52866316 -2.651821 0.6538876 1.3707604 2.0963378 -0.029331222 -1.3600199 -0.246061 -1.2504202 1.3056251 2.6369941 -0.97859967 -1.4211538 0.39009774 -0.10296233 1.3799026 1.2164278 0.49031413 -1.2614394 0.86204594 1.2921977 1.4857999 -1.7672259 -1.8078451 1.2187955 -0.6212717 2.0533268 0.7454797 -2.2413368 -1.1429274 -1.5065707 0.43550053 0.4779467 0.3731425 -0.6711104 0.14372315 -2.3013513 0.2948757 -0.06708838
need|VB -2.5541856 0.3831188 0.3924826 0.20704503 -0.8933734 -0.18878798 1.4264886 -0.85301626 1.2005794 -1.2628038 1.3568463 -0.44302246 -0.22664334 0.44132748 0.16781703 1.8000441 0.3439825 -0.90645623 0.20292622 0.8331693 -0.37542862 1.1271527 0.7861554 -0.65718 -0.06376327 -0.39206117 -0.4527823 0.5407474 -0.18164498 0.07559594 -0.36186764 0.767481 -0.49795836 -0.33813605 0.35403982 2.694051 -0.3106269 -1.4069997 0.92729086 -1.7209415 -1.3885416 2.0167687 0.5859662 -1.7670584 1.491378 -0.22553578 0.25038102 -0.015103302 -0.93788964 1.1599766
box|NN 0.8291351 0.20488371 -0.3389642 -2.8253846 3.7419991 2.1381016 -0.9331 -0.82386863 -0.09280649 -0.23668538 -0.82216215 -1.0689334 0.89090014 0.12740478 -2.1410568 0.077744804 -1.1238964 -0.5013605 -0.61930233 0.29044834 -0.43019065 -1.9778986 -0.49208415 2.5089815 1.0290977 -0.12372928 -0.7174913 0.6469715 -0.4571579 -0.8008302 0.62676626 -2.9858916 0.78139704 0.59546614 0.5519291 -0.58112246 0.25620526 -1.3962884 0.7833867 -0.32225284 -1.3753825 -1.1122736 -0.8095508 2.780718 -0.5580663 -0.9502821 -1.8290201 -1.3763144 -0.46560472 -0.4415097
soap|NN 0.0045161503 1.8760136 -2.2380447 1.6982428 0.16039127 0.31817406 -0.10739891 0.6422106 -2.3418746 -0.18845583 -0.5555369 -0.18493153 2.8278852 0.7706058 0.38522744 0.6028964 3.355728 1.5460466 2.1799898 0.4610321 1.5954611 0.6795935 -2.2515624 -2.8196325 -0.92383003 -0.77897114 0.9985662 0.55113596 1.7823911 -0.48627737 0.76854324 1.4121718 -0.54942524 -2.2717469 -0.46808106 -1.3536931 1.9093918 -0.028037451 0.71394163 -2.384377 0.18102634 -1.8828591 2.762444 -2.13351 1.6777753 -0.1607615 1.4729291 -2.4337165 0.06747192 0.04760895
Place|NN 0.2956494 -2.4992678 -0.67515296 -3.8152497 1.2094688 -2.010822 -1.3513019 -0.22549023 0.94390345 1.2211742 -2.1452775 1.2095412 -1.3129212 0.9356207 0.050418936 -0.033879135 -1.5991226 1.1126803 0.534315 -0.6017969 2.4844377 0.33152828 -1.2644439 2.0487556 -0.77535176 1.0390418 -1.2687197 2.176732 -1.0225688 1.7764295 -0.090790555 2.342399 -0.18572357 -0.38979748 -1.483837 1.0007293 -0.66775906 2.9025977 -0.39348242 1.6443688 -0.5932817 -1.1332216 0.67163265 1.2786016 1.4397223 -2.2063696 0.033944882 -0.16381088 1.5162315 -1.7859479
until|IN -0.6264729 -0.3315361 -1.023083 0.9135274 -0.5670431 1.5840298 -2.4587705 -0.9088294 0.1619317 -1.1979178 -0.33288074 1.9382155 0.3277414 0.32800403 0.2132467 0.3627296 0.71429425 0.46893468 0.4380104 -0.5381759 -0.41716406 0.0394631 -1.9789392 2.002237 1.8871794 0.21871807 0.08680263 1.1087439 1.8748746 -1.7560847 1.0410634 1.7337998 -0.0031101415 -1.7491256 -0.60994744 -1.0232849 -0.9494556 1.83839 0.2086642 -0.22984727 2.8137612 0.15733543 1.1429944 -1.595335 0.14663035 0.13193104 -1.2533412 0.05509883 -1.8934405 0.4430078
surface|NN 0.59421766 -0.06254505 -1.36293 0.2195949 -0.8055856 1.5264034 -0.23920514 -0.74129313 0.39898536 -2.296809 -1.7062265 0.6915897 -0.38145152 0.95619273 1.1818898 2.0084069 2.6791148 -1.25551 0.37563002 0.094873585 1.5855416 -0.7457634 -0.53502566 -0.4227433 0.47696468 0.35944653 0.8911531 0.913806 -0.1824575 0.92163986 1.0128182 -0.094062075 0.16046867 -0.72830284 -0.15346366 -1.4570394 0.3498391 2.4035604 -0.33445448 -1.733297 0.3007273 -0.7038834 -1.2041589 -1.7287431 -0.5391971 -0.14034387 1.5016295 -2.0094104 -0.63418186 1.1752955
stains|NNS -2.8064806 -0.50257474 -0.119645804 2.2403982 -0.44394898 -1.542046 0.11953424 -2.0184865 -0.8817631 1.4204677 -0.27450663 -0.5581473 -0.36863574 0.72235674 1.7316793 0.8269971 3.0974543 -1.6929255 2.3951998 0.17325015 1.0822957 3.073951 -2.8080094 -1.2336756 -0.2964238 -0.22500764 -0.639659 -0.5659868 1.1085786 0.109889366 -0.54368466 -0.23129775 -2.220559 -0.49151632 -0.55640876 0.27019146 -1.0566481 -0.24763706 1.2711799 -3.5807183 -1.7390528 1.4673924 0.9376248 -0.9711067 2.0965574 0.1417619 1.0483403 -1.3715826 0.32762513 0.05329396
might|MD -0.6163013 1.0034515 0.48522368 -0.66991335 0.64582473 -1.4347359 0.48665705 1.673138 -0.6461571 -0.094643496 2.1146681 0.13246776 0.46656343 -0.84031653 2.3529975 0.22147839 -0.7670155 -0.602749 0.83713 0.3792016 -2.6903014 -1.2863975 -0.20951806 0.22082047 -1.2030209 0.2768682 -0.15191352 0.1501919 -0.25287592 -0.72207034 0.13757999 -2.165545 -0.8303462 0.019301262 1.3984637 3.7366533 0.8568653 -1.46291 -1.0590155 1.0510404 -1.6368986 0.8897244 -0.78568524 -0.49846292 -1.8144003 1.193075 0.05282974 -1.6419284 1.6028599 0.9411334
use|NN -3.6056023 0.39894724 -1.5131476 -0.9069248 -0.21348967 0.35515916 0.13486992 -0.61560136 -0.99326134 0.19809043 -0.2963212 0.71979684 1.5275625 1.695117 0.47058374 -1.8917285 -0.26985842 0.81527346 1.6301951 0.09315359 -0.57418156 1.1718258 0.5326409 1.4404922 -0.68514115 1.5143716 0.27873433 -0.9100034 0.93021804 -1.5085098 0.8218077 -0.10549417 0.3725798 -1.4355861 0.81328356 -0.9336217 1.0606502 -0.28473428 1.7233009 -0.016376292 -0.80885327 -0.4721398 0.61926514 0.16887787 0.47811422 1.0119447 -1.4715823 -0.4593843 -0.6883683 -0.17873739
which|WDT -1.0754368 0.13912188 -0.19540018 1.5340787 0.1517245 0.79361033 2.7003822 -1.4315786 -1.0228372 -0.13904057 -0.8516533 -1.1460612 -0.023728866 -0.64032394 0.46523216 -2.4007647 1.5175148 -0.18142425 0.75100845 0.07566017 1.0481681 0.14916772 1.7422304 2.7233245 0.75548464 -0.18342699 0.93989396 1.448874 0.81887037 -1.8582509 0.08415939 -0.7621808 -0.7673966 1.3789026 1.149009 -0.013969441 -1.4501514 0.96496224 2.0239048 0.6195896 0.08730801 0.21789299 -0.1958434 1.3327698 0.14879006 1.4268315 0.036682047 0.20983404 1.082871 -0.0016602776
very|RB -3.6140387 0.86611885 -1.410889 0.07929882 -1.3873413 1.7999914 1.372692 0.16479275 -2.8547847 0.70163196 -1.023184 -0.5611089 -0.8339617 -1.3972872 0.7355689 0.035817202 -0.7659995 2.3935766 -0.79275227 -1.5624605 0.2746358 -0.8608873 -0.29127222 -0.31316653 0.44180432 -2.2263052 0.21793558 -0.25843808 -0.7970724 -0.5205087 0.53747463 -1.3238002 -1.6444075 -0.8177844 0.224756 2.1194835 -1.9851972 -1.318046 -0.43253163 -0.7068885 -0.55585855 -1.2015556 0.81842816 -0.7791134 -0.1383241 1.1293324 -0.28726542 -0.036345873 0.8836596 0.61717254
good|JJ -0.49023044 1.1991127 1.8036917 -1.4326137 -0.34030393 0.59164953 -1.0722513 0.8621081 -0.9563065 -0.49430555 -1.0748346 0.5541181 -0.5132426 -3.1666331 2.0476477 -1.4362843 0.90743095 1.0257103 -0.7108957 -0.6600534 -0.98891956 0.1467774 3.4281032 -1.1670678 0.25504583 -2.105491 1.2229697 -1.3786803 -0.6419269 -0.76524734 -0.1890847 -0.5146989 -1.0316564 1.5079219 -0.91981345 -0.45271343 1.6235102 1.6086649 0.33538473 0.43938908 -0.9597171 0.6305078 -0.045484085 -1.0675927 0.7868949 1.4571377 -0.4976605 0.398725 -0.42625353 2.0451248
want|VB -1.652298 0.9348696 0.4763091 -0.94189227 -1.1509346 0.8548422 1.6115992 1.7089589 0.84994173 -0.69168425 0.21221402 -0.2976557 0.1288205 0.6956696 0.94230455 1.2339059 -0.21793345 -1.1001177 0.77750576 1.8617517 -2.3243842 -2.0899549 -2.2539368 -2.4339411 -0.4540112 1.669412 1.0489149 -0.37101012 1.0422567 -0.5605381 0.24206679 0.32663018 -0.9647187 1.3812585 1.1980692 1.8194716 -0.83851254 0.5402592 -0.9995821 0.019213254 -2.7753832 1.0835768 -2.4749694 0.78972 -0.7204789 2.9950535 -0.5614883 0.5333294 -0.0060079065 -0.36771837
It|PRP -2.7590878 -0.69376636 0.8423899 0.8137678 0.4598877 0.5088694 -0.14618306 0.47565335 -1.9195632 -1.6120113 -0.021144545 0.50058126 0.87266684 -1.8417641 1.1985286 -2.1671667 -1.6873181 0.85686815 0.65957147 -0.310175 -1.0988252 -3.391371 0.16994043 1.5822322 1.151332 -1.7634217 0.17710014 0.34186336 -0.2755459 -1.0747187 1.2053758 -1.3772255 -2.265729 1.7292151 -0.097825326 -0.21611811 0.0017371546 -1.096795 -1.3465544 -1.2042857 -0.5639331 0.7727399 0.4620603 0.023570942 1.2556515 1.9650084 -0.0035454966 -0.45037737 -0.3092411 2.4004066
store|NN 1.2410856 0.72679436 -1.9989177 -0.4479399 -2.0418773 -1.6341708 -1.3761607 -0.6123032 2.0227342 1.6923553 1.637884 1.2670285 2.6768098 -1.3075417 -2.2457964 0.14995174 -0.5578686 -1.3840245 2.5282855 2.0107515 0.65062493 0.5147039 0.8659165 -0.66282564 1.7269294 -0.10224328 0.268261 0.6702103 -2.3421502 -2.7880893 1.6829985 0.3438324 0.8444014 0.6298576 3.1798007 -0.8168425 2.1872637 -0.77409416 -0.27940112 4.775259 1.4314137 -1.0499933 -0.27884343 0.2636962 -1.0459142 2.3859196 0.0226698 -0.49930117 0.19041398 1.8035148
filter|NN -0.09833594 -0.6153336 -1.5837116 -0.055327885 -0.71852756 0.47349784 0.9344434 0.3549833 -0.7266883 0.83703476 0.5745667 -0.479074 2.8594656 0.27528933 -0.43104213 3.5703213 -2.4356713 1.9459609 1.6705706 -0.7471713 -2.0069613 1.0600544 2.0923383 -0.047945496 -1.6943104 -2.8703568 -1.2080233 -0.20131198 -3.1107674 -1.0351014 0.66823983 0.6992302 1.1914963 0.9643191 -0.4061741 -1.0923616 1.5611162 1.3082461 0.3416569 0.67483145 -1.3980055 0.73097783 -3.8553674 -3.4578967 -1.5057877 -0.27453318 0.11399595 0.89959645 -2.6801739 0.8155112
books|NNS 1.1665784 -0.056487963 2.5959396 -0.6070429 1.0298549 1.4502779 1.942412 -1.4998605 -0.31830484 -0.9744628 2.4364312 -0.36227098 -2.0831492 1.3767892 -0.8767939 0.23443562 0.5508348 1.242135 -1.960931 -1.2607377 1.7359952 1.3206127 0.2787645 3.0225446 -0.1797778 1.4532938 0.4263793 -1.7708396 3.1421475 0.014421089 -1.5140952 2.4304035 -0.19872554 -1.7719305 0.20016949 -1.1256326 0.28928262 0.1655072 2.2040348 2.4362855 -1.5220288 -0.9029094 -1.6415316 2.1121323 -0.4367618 -0.27351093 -0.6141426 -1.3536606 0.22381978 0.83039796
top|NN 1.9473373 -1.477607 -0.7508395 -0.6519923 1.7755525 0.64282024 -1.3880172 -1.6653783 1.830646 -0.9790255 -2.4926858 1.7687007 -0.6174442 1.535667 -1.3645447 0.49376774 -0.24988064 0.6080222 -0.8775267 -0.6367494 1.8619835 1.5236118 0.84113306 3.0544937 0.4997288 -0.54532665 -1.1467171 -0.66105384 1.1874925 1.6213939 2.2878292 -0.75877213 0.31216684 0.97396237 -0.532966 -0.81909573 -1.7685494 0.58204794 -0.13267258 0.72191894 2.3185172 -2.2037559 -1.0447783 -0.61866 -0.7142739 -0.79772663 0.16631438 -1.7861229 1.9516199 0.89145666
get|VB -0.45097467 0.7742883 0.21511665 1.6806198 0.07248474 0.35021472 -0.22487381 -1.1715137 0.16616988 -0.6707493 0.55713975 -1.8884355 0.17764837 -1.3525808 0.67883486 -1.1767267 0.39238995 1.0080177 -1.5345372 -1.8799671 -0.3920371 0.2984874 -0.121074535 0.05296628 1.2972218 0.013080933 0.40430745 -0.498759 1.2348036 0.62988496 -1.2153089 -0.016186036 -1.0072635 -1.3534023 -0.03769353 0.34419554 0.33342838 1.5577766 0.44460303 0.16518548 -1.9001123 0.51229316 -1.6138792 -1.2758734 -0.3154184 1.3214022 -1.3586164 -1.8903748 -2.3821871 0.055940267
while|IN -0.6941298 -1.1257746 -0.68492985 -0.2731982 -0.9761299 1.0371875 -0.5544115 -2.018961 1.2125413 0.57395774 -0.50727266 -1.1319921 -2.4919715 -0.9025821 1.0038012 -1.1610935 0.22453603 3.8773263 2.4070618 -1.6875103 0.7974256 0.090461895 -0.8821374 0.41251835 -0.64617556 -0.2965347 -1.4607794 -0.23547882 -0.6412273 0.0059106583 0.048913833 1.055842 -0.58187187 2.931137 -1.0760798 0.6033891 1.0119995 0.5823315 -1.6645867 0.6065379 -0.21414462 0.6161833 -0.45132285 -0.37196773 1.3072542 1.1173581 -0.59588015 0.97808456 0.833529 0.19878918
They|PRP -0.41973406 -1.0932648 -0.11634326 -0.92069376 -1.5753123 4.155467 0.32401508 0.77044386 -2.6086993 -0.0110842865 2.8734462 -0.33663964 -1.1060239 -2.745564 0.7093996 -2.2485478 -1.8345602 -0.5678713 0.55780554 3.8590734 2.727258 -0.023659999 1.4091556 -0.5287351 -0.9904237 -0.7865728 -0.10009221 -0.2646478 0.60668063 -0.93355286 -0.62640774 -0.7988395 -0.7121129 0.07456321 2.8772507 1.6223571 -1.4973863 -1.3523668 -0.74177057 1.1332815 -0.3894962 0.9564976 -0.28920922 1.0304338 -0.32287592 -1.8235556 0.9372945 -0.031269267 -0.5583833 1.7393836
used|VBN -0.23834804 0.8363484 0.0022673781 -2.9046485 -1.3171861 1.6065207 -0.8780093 1.1445513 -0.84510267 0.3492195 0.15526433 -1.3426516 -0.95801854 -1.6413041 1.4156044 2.3972867 0.30560005 -0.51016605 1.3609982 0.31136054 0.992737 -0.93198746 1.2026738 -2.8634064 -0.15899223 -1.3177713 1.0410762 -0.033273324 -0.92029697 -0.4781952 -0.2600662 -0.22534363 -0.64847505 0.32819936 0.5254087 0.76393384 -1.7267823 0.7876752 0.62423456 2.4176207 0.2884941 2.615703 0.7287707 -1.5036936 1.4656097 1.0385337 -1.0977153 0.5445637 0.058002584 0.46767408
how|WRB -0.15292148 0.34317413 -0.068173565 1.0974171 -1.4180955 2.2308407 2.2111442 -0.07313124 0.24312772 -2.0320733 2.7895083 0.005980026 2.5517886 -1.4317386 1.7615907 0.14594111 -0.8688063 1.0078778 -0.6078658 -0.46356666 0.4420786 0.3762667 1.802083 0.12504277 -1.0240393 2.383387 -0.46872854 -0.8109098 -0.11703369 -0.4210768 2.8505163 0.72592527 -1.4328295 0.69439864 -1.0234323 1.2494094 -0.4120591 -1.5515625 -1.2804704 2.5494645 -1.3111079 1.4642491 1.4488894 0.14431897 0.13245727 -2.64427 0.23048599 -0.13677733 -0.7143481 1.0407703
cleaner|NN -0.9165456 1.450186 -1.7545406 2.6756432 -1.5654684 -1.592141 -1.2235558 -1.8255044 -2.0470388 -0.5209914 -1.6228297 0.9724277 0.87014115 2.294562 -0.53062797 2.6755474 3.008469 -2.2469907 2.475087 1.4499798 0.2408954 -1.015198 -2.8664577 -0.97741365 -1.5245519 -2.530516 0.063333824 -1.7577269 -2.0817683 0.10521025 -0.8476423 1.0486319 -1.2456955 -0.56975883 -0.99064165 1.569574 -1.9864582 -0.16443317 -1.5675199 -0.6616517 0.9229569 0.23121385 -0.85837466 -0.5843753 -0.66117996 -0.43279853 1.4383956 -0.0970497 -1.0261234 -0.8893493
fabric|NN 1.4148924 -0.8219102 -0.07994387 2.5937471 2.2577631 1.42295 -0.7656237 0.35057834 -0.60198396 -0.5076711 -1.0232632 1.0090253 1.9306736 1.4382926 1.8362198 0.930677 0.1460086 -1.0324097 -1.5652155 2.3636396 -1.5914054 0.36830187 -1.2452697 1.3490002 1.0687582 0.114238225 2.5048227 -1.2972279 0.617763 -1.1776326 -0.007364451 -2.379061 1.5521892 -1.0355564 1.3452817 0.49280515 0.7972932 -0.58333194 1.0798064 0.4268678 -0.95059615 -0.27909884 1.2276326 -1.0558671 -1.7573472 -0.15031083 2.2383363 -2.3317094 0.37803486 -2.549985
pieces|NNS 0.23387851 -1.2796679 -1.335376 -0.6798466 -0.44552058 -1.195365 3.020934 -0.8378302 0.1083445 -1.6960369 1.8664931 0.11234649 0.07910442 1.8010489 0.114687026 0.4719432 -1.8238709 0.6281764 -1.6546036 2.4260242 1.8165929 -1.7004638 -0.28682902 0.10863651 1.1715624 -0.38913652 0.9667362 -0.69240475 1.8578566 -0.14914925 -0.1792218 -0.3195405 -1.1308683 -1.1208345 -0.5383023 -1.4202352 1.9789734 -1.2201897 -2.0864613 2.0177665 -1.0629243 1.4240549 0.9115422 -0.77181935 -2.9487736 -1.8314519 -0.0172229 0.49565518 0.8627626 0.77060574
what|WP -0.91261244 -0.10542017 3.3622468 0.9774116 -1.6199696 1.1959572 2.4171731 0.4820182 -0.06768711 -1.8803244 1.8258458 0.0040043294 0.83878106 0.27775866 1.3344554 -1.0100517 -0.48840544 -2.1995754 -0.3669696 -1.7696935 -0.2070124 -0.49335325 0.5244234 1.3583437 1.5869713 3.1616368 -0.48763105 -0.81179535 -2.3668659 -0.021321524 1.2531029 0.66751736 0.1709201 1.9019914 1.0282142 4.0073915 0.4301609 -0.54211354 -2.0403256 1.6174561 -0.8838956 0.12833573 0.2884029 -0.1719826 1.6993107 -0.04143232 -2.0831397 0.5745772 0.13672769 0.48451158
Try|VB -0.5037149 -1.953976 0.41240218 0.24753888 -0.3228367 0.7342448 0.38338438 -0.13437514 -0.020406723 -0.39454928 0.2153664 -0.051351786 0.009042263 -0.2961374 -0.40030542 0.9168198 1.3058743 0.4011373 -1.8262155 -1.2290559 0.3910106 0.9451624 1.2442176 -0.5072013 -0.18777803 1.5292493 -1.2078742 -0.9635311 -0.47501454 1.8212028 0.4271426 -0.091766655 0.33890042 -0.360214 -0.8804014 -0.9875264 1.4089056 1.9962952 -0.7455006 0.6972068 0.71669006 -0.5110062 -2.8611865 -1.4198825 0.27638388 1.3455485 0.7464987 -1.0757159 3.2044287 -1.3050199
need|VBP -2.0065298 0.16888775 0.07937285 0.12172004 -2.6956387 0.772747 1.6068591 0.29942396 -0.24373206 -0.70519036 0.9659608 -1.0021957 0.7531957 -0.8318509 0.38943842 0.89444506 1.5245674 -0.42251113 1.1528986 -0.3834565 -1.0447665 -0.65334916 -0.839952 0.9333655 1.5693849 1.9104971 0.7221278 -0.35630384 0.1298656 -0.64429635 0.7477462 -1.8018509 -1.6632918 -0.725779 0.74603903 -0.035038903 -1.5388547 0.58948094 -0.42499357 0.06252867 -0.8221228 0.6115425 -0.41530257 -0.9086904 1.0676695 -1.383519 0.32622394 -1.811178 -1.563815 -0.8759536
pillows|NNS -0.109327495 1.0766174 1.9570168 -0.16311947 1.5260662 3.2648938 3.0735443 1.2256944 2.3538384 -2.096197 -3.9594522 -1.6568577 -2.1926003 0.06661758 2.7665813 -2.138774 -0.13638516 -0.9357231 -2.874166 0.10994631 0.19758646 -0.5179989 1.5875072 1.7722545 -0.5577239 -2.157536 0.59751517 -0.43202558 -0.97664785 1.3976243 -1.7803106 2.448808 1.0674361 1.2158943 2.7197406 -1.6265466 -0.07085616 0.38303754 -0.40079305 -0.37986025 -3.4313252 -1.9174583 0.4978894 -0.11654987 -0.4329989 -0.16703798 0.61171365 1.3795618 1.1088754 1.7357013
dry|VB -0.29050836 -0.5632024 0.8725539 0.46867374 -2.1815825 1.5159596 -2.3282964 1.2369536 1.4162194 -2.9280884 -0.5790065 2.1872237 0.2620166 0.7177231 1.8874525 0.24380216 0.4551587 0.32111502 0.4912504 2.3297782 -1.19543 -0.8470716 0.5105389 2.6173074 -1.184169 -2.490982 -0.66277003 1.2394328 1.7015289 -0.11760573 -1.4346281 -0.39951858 0.113435075 -2.9903388 -1.0371934 0.18297076 -0.15945919 1.8651863 -2.5689344 -4.364402 2.774743 -0.9576218 -0.21850783 -1.1849395 -1.0711265 0.9855558 1.1805606 0.01968748 0.38041416 1.6279365
do|VB 1.1519233 -0.9743204 0.15249167 0.66785496 -0.8384812 0.8614683 -0.8544407 0.32523876 -0.48165148 -1.7104688 1.707077 -1.6234946 -0.41392848 -0.5569599 2.8896391 0.51090306 0.31265363 0.08216469 -1.2881346 -1.2789702 -1.1813916 -1.3270727 1.2463416 1.0291101 0.82127243 0.025968926 1.0276067 -0.3286497 0.67848647 -0.9065001 0.38593897 -0.14170195 0.8003328 1.0311744 0.015196617 -0.02950307 -0.23005766 -0.4885436 -0.69375896 -0.6744244 -0.34405077 2.6976724 -0.20494975 0.17834438 0.7947563 1.2943465 -1.045557 -0.3207267 -1.5362053 0.5068003
walls|NNS 3.418468 -0.23848173 1.6475892 0.27536982 -2.3289409 0.35846514 -0.022040846 0.6923524 0.9744874 0.46779326 -1.4927988 0.02610183 -0.2393008 0.7908079 -0.56705105 -1.2760288 2.8287885 0.5412758 0.5962721 -2.2688944 0.9290512 -0.6596552 1.5677136 -0.123340204 -1.276719 0.20122711 1.0716978 0.8559825 1.0999224 0.13198046 -1.7278029 -1.426019 2.2025647 -1.3797137 -0.7866019 0.61842495 0.33645022 -0.3052382 -1.4939749 0.96922207 -1.9162904 0.51578605 -0.49026892 -0.6908236 -1.8662633 1.314819 -2.4271207 -0.1595585 -0.48321217 -2.6794236
piece|NN 1.4591637 -1.8924949 -0.93179935 -0.4444342 0.38404796 0.1343373 -0.32049862 -2.470794 -0.17954329 -0.59769946 1.0561161 0.1342462 -0.71165365 0.58537865 1.6008122 0.8224425 -1.7156975 -1.5360554 -2.5225525 2.0163991 0.785577 0.24676347 0.605658 1.259346 1.0392839 -0.41588408 1.9380807 1.2156628 1.4631447 0.32529643 0.23094754 -0.84033006 2.6920063 0.64787185 0.22481123 -0.6601312 0.4465676 2.1195664 0.082324 1.6440763 -1.1451077 -2.4188187 -1.8223093 0.49376458 -1.1828079 -1.9899454 -1.0209475 -1.2993245 0.42826384 -0.37035322
air|NN 1.2508076 -1.2212274 -1.106618 -0.2731908 -0.29419434 -1.5803164 -2.2707922 -1.3739545 -0.3390395 0.029633973 2.055494 -0.37664673 0.023361834 0.009083444 -3.7649398 -0.06454741 -0.22109197 1.283285 2.0714307 2.8154442 -2.3346996 0.9687333 4.2224984 -0.878817 0.09736388 -1.5485201 2.0028605 -0.66979015 1.5083005 -3.4319894 1.0010225 -0.05325543 -0.92052156 -0.11395386 0.027099457 -1.6848243 -0.01312244 -2.4013844 0.5593397 -3.004639 -2.1923034 2.4598565 -2.3075385 -1.4333539 1.5550706 -0.45334774 0.7497915 0.53450054 -1.7962822 0.07005523
materials|NNS 3.0215948 0.7790701 -0.8937102 -1.1778413 0.20657009 1.722635 3.3230913 0.45768696 -1.756858 -0.03430246 0.2167782 -0.8465855 -0.52036107 -0.11843666 1.3637199 -0.5792061 0.4195282 -0.7683182 1.5490249 -0.65807027 0.81998426 -0.10127844 0.21230936 -1.2180338 -1.5077677 1.0313237 0.87136006 0.6753583 1.2276298 -2.6831212 0.4004368 -0.06937499 -0.65959805 -1.0364836 1.2653153 1.2527686 -0.65666103 0.95537853 1.7905211 2.9274049 0.56620824 0.41925254 1.9008101 1.207865 0.7467007 -1.4402239 1.0439194 -1.8807769 0.8814063 -0.76921666
possible|JJ -1.5740649 -0.5730714 2.4509943 0.17918181 -0.045064215 -0.4522927 1.1009502 -0.5273035 -0.5587551 1.3040744 1.6214148 1.5350326 1.3960783 -0.8310184 0.5340759 -0.7128444 0.7404443 0.31412992 -0.8171568 -1.247351 -0.5150729 1.803466 -1.21693 3.945006 -1.7830365 -0.7619762 -0.33991674 0.84429383 0.8913141 2.5144243 -0.081418626 0.08448733 0.21418774 2.6858332 -1.5639262 0.3080761 1.4197009 -1.8647647 -0.15163726 -1.5929743 1.879474 1.7461537 0.015017122 0.87364817 0.34546134 -0.17508663 -0.1138232 -1.6562841 -0.8811386 -0.007849464
during|IN -3.9868443 0.4138763 -1.0358052 -1.351285 0.024079682 3.929554 -1.8757252 1.4322267 1.6734092 1.1784554 0.6687551 -2.3238647 0.5877818 -0.5077801 -1.4204007 0.20400654 1.842304 1.8574624 0.29490831 1.7658949 -2.7657766 -2.3171809 1.3587493 -1.2045488 1.7611127 -1.9512573 -1.5556152 -0.9772725 0.16261818 -1.3730145 0.459594 1.0554982 -0.5587864 0.20391405 -0.57864094 -0.07575317 0.2590176 0.45020416 2.4469595 -0.45581067 -1.8130145 0.72566473 0.5860651 -0.7761837 1.5979872 0.912626 -2.8500388 -0.52017385 0.17977218 2.0565994
local|JJ 0.16360936 1.1007257 -1.0095334 -1.1653439 -1.0544103 -2.813741 0.34014097 -0.41970688 0.61545527 1.630308 2.224494 -0.640724 4.014082 -0.9763962 -2.6348996 1.3126184 -1.9830812 -1.6794842 1.660288 0.2711748 -1.1875262 0.2404219 -1.0818678 1.8960981 0.7121268 0.71804583 -1.898075 1.3454179 -0.2322012 -3.2361333 1.7760913 2.8660116 0.49225268 0.8463676 2.7545688 0.18941544 1.7314951 -1.3857337 0.14678748 4.1113706 1.5313078 1.2044312 -1.0677887 1.5609663 1.3046411 1.1106122 1.3553255 -0.50281614 0.7076966 2.6362092
find|VB 0.13193992 -1.0253129 1.4913793 -1.5231022 0.017039208 -0.22880529 1.5327677 0.54612863 -1.5350997 -0.31858668 1.4442472 1.0878725 2.3891594 0.2053951 -0.45846185 0.48610833 -1.1208906 -2.9727254 1.1052518 0.3668952 -1.0635682 -0.80381715 1.0777755 0.032070376 -1.2438831 1.4382147 -1.8352563 1.1386399 0.15565427 -1.1156846 1.5604304 0.4240766 -0.31618598 2.2213473 2.2437043 -0.26366606 1.2429281 -0.1357437 0.07724682 2.2259948 -1.6774462 0.81653035 -1.7225857 0.26988733 -0.97733986 -0.2824469 -0.8502723 -2.6567683 0.71925455 -0.31773496
look|NN 0.3997888 1.1481874 0.14681086 0.5561883 -1.3776221 1.6706944 2.2823231 -0.1734098 0.6976739 -1.89045 0.32181346 -1.0013243 -1.1982666 1.4815458 -0.71851534 -1.5761777 -2.274494 1.0939153 -1.5085479 1.0445187 3.2984374 1.4503269 -1.0889046 -1.7014034 -1.0917612 0.5686838 -0.7804262 -0.3196015 -2.1448097 -0.25519365 0.5919171 -0.71354634 2.248197 1.4154589 0.03732191 0.9365562 1.0815938 -0.6927965 0.03321819 3.6556914 -2.134608 -0.36543375 0.8450256 0.542786 -1.1360468 2.3075502 -0.16772535 0.52659106 0.7729632 -1.1026083
Consider|VB -0.40030783 -0.8852361 -1.0841312 -0.058278933 2.0066679 0.5728494 1.9169589 0.69894046 2.5328765 1.1976941 -0.81941473 -0.08651596 -1.8007699 1.3646508 -0.96892184 0.3367739 -0.20270625 0.21524784 -0.8930405 -0.19927125 2.652758 1.3212478 0.5581483 0.6733931 -0.22039232 1.569807 0.7425374 -1.7118841 2.6022549 -1.2958244 0.7478703 -1.3811854 -0.3031624 1.0127459 -0.34397036 -0.8114611 0.8075324 1.9232403 -0.8950976 0.63941705 0.37854713 -0.36424342 2.0098188 -0.36490446 -2.627465 -0.55576646 -1.1300006 2.1488378 2.1191108 -2.3341053
few|JJ -3.003799 -2.8370726 0.030653212 -1.5076478 -0.8709157 -1.4091523 -0.7795659 1.5839257 1.190361 -1.2106626 -1.0262357 0.691738 -0.6042317 0.8140908 -0.25918147 -0.7441291 0.30223182 0.11426959 -1.7496396 -0.15552807 1.2474908 0.4333021 -2.75321 0.06048606 1.5462638 0.4975827 -1.9729084 0.6832867 -2.1306825 0.86198986 1.961321 0.15455447 -1.8820083 -0.43212348 -0.45983475 0.09378304 0.30324474 1.5037291 -0.89060265 -0.64308614 0.9705952 0.35225806 2.1300998 -0.89108133 1.1247872 -0.40056005 -0.47125226 1.341721 1.4545754 1.7690427
