180 50
the|DT -0.0014283246 -0.17033331 -0.20079264 0.059239656 -0.108927704 0.035945043 0.047668643 0.08002838 -0.10713983 -0.14526723 0.057865474 -0.09854726 0.39059073 0.14987174 0.1532633 0.0030377826 0.008326646 -0.016394755 -0.030042782 -0.22485085 -0.10409571 0.016502528 0.108273104 0.020656992 0.07061299 -0.07777647 0.069833145 0.32453302 -0.11105409 0.0026478409 0.15992557 0.0850269 -0.12307575 0.135285 0.041616693 -0.06024462 -0.1360572 0.24890083 0.039168246 -0.12796567 0.14245796 -0.21305576 -0.09924198 -0.12544462 -0.15575391 -0.21082939 0.035287775 -0.26782733 0.0571195 0.21522212
and|CC -0.17979331 -0.020715697 -0.36521155 0.14613351 0.04375302 0.10257551 0.16300102 0.05151845 -0.23304331 0.014853232 -0.059079643 0.009610753 0.25226918 0.123012766 0.03128224 -0.14214769 -0.19489023 -0.10620488 0.13780378 -0.28891972 0.10995444 0.10805726 0.074349925 0.09690684 0.17517574 0.10847888 0.006139588 -0.07572304 -0.23667584 -0.0900619 0.1402299 -0.21027113 0.111578085 0.19073324 -0.22711211 0.02409667 0.0793579 -0.07694426 0.06829078 -0.010007848 -0.07038363 -0.07823624 0.0019906638 0.14294969 -0.027906708 -0.20960376 -0.07264562 -0.13427892 -0.054993417 0.16003276
then|RB -0.011031219 -0.1470033 -0.33256447 0.22453494 0.06874487 0.07669288 -0.032679155 0.053628538 -0.08883712 -0.030234244 -0.09379775 0.1189761 0.32284257 0.017372036 0.0025824371 0.11064817 0.085589014 -0.0730254 0.08435432 -0.18084644 0.0135060055 0.15036735 0.18993607 -0.045616966 0.18133555 0.052473206 0.09660494 -0.22631435 -0.3559283 -0.09686194 0.08789457 -0.082016826 0.112312876 0.08513545 -0.05685362 0.13869601 -0.012638761 0.13486896 0.23053682 0.078881234 -0.07606887 0.052983228 -0.1681102 0.14251417 0.034095425 -0.2273055 -0.097179204 -0.17981344 -0.14726779 0.022774192
Click|NNP -0.13226898 0.17024083 -0.28408253 0.2635763 -0.15226543 0.1047085 0.023223046 -0.16164094 -0.06501313 -0.16567966 -0.010916189 0.022745054 0.20286874 0.14286987 0.0022031246 -0.04982296 -0.13380523 -0.1301298 0.14853838 -0.21922979 0.2539978 0.18608919 0.20481525 -0.15485594 -0.04082146 0.1288503 0.1301607 -0.09302667 -0.19943924 -0.0077979486 -0.12442375 -0.16881856 0.022271821 0.09754468 -0.18309559 -0.13130729 -0.16625994 0.0740773 -0.047912892 0.05827185 -0.061704937 0.0955056 -0.16228193 -0.10090006 -0.06593597 -0.21941572 0.07337425 -0.18192916 -0.045848735 -0.07954615
click|VB -0.09705772 0.092006505 -0.33652228 0.26062503 -0.14498474 0.21349363 0.018213486 -0.086472474 -0.14745475 -0.18319906 0.016729906 0.03973342 0.1552404 -0.08586894 -0.030373946 -0.093454234 -0.0036323334 -0.073797256 -0.033230707 -0.21404248 0.12552533 0.10378844 0.17189905 -0.032832492 -0.17749971 0.06341311 0.0405524 0.01026737 -0.31372395 0.0066194944 0.2013435 -0.21668686 -0.022234002 0.19017546 -0.07656777 -0.18308939 -0.06315732 0.18946806 0.011980618 -0.055386115 -0.15672995 0.11796843 -0.06233884 -0.2121076 0.07486336 -0.22541223 0.081886716 -0.1494948 0.050872013 0.03021143
to|TO 0.081087105 -0.0531952 -0.2745911 0.15651457 -0.07651202 -0.088997886 0.05387015 -0.027392006 -0.16118445 -0.10509982 0.1653011 -0.15554434 0.16858757 0.00016844786 -0.051591314 -0.040611304 -0.09271058 -0.12176206 0.16112623 -0.05321617 0.37399197 0.12588382 0.18681207 -0.049066808 -0.036679238 -0.14563394 0.12019384 0.09666412 -0.25297832 -0.061455317 0.061192885 -0.14271747 0.0020356604 0.13021643 -0.24021886 0.13609728 0.10455789 0.12830004 -0.12763233 -0.12195791 -0.13999408 0.18680696 -0.27689484 -0.21420816 0.026843194 -0.07274466 0.0017646326 -0.12148873 -0.01598887 -0.13673328
click|NN -0.18527246 -0.0061812866 -0.113193385 0.10518521 -0.05708158 0.28227618 -0.00035066516 -0.00686696 -0.07893584 -0.072970025 -0.07094332 -0.13442267 0.26647863 0.20131943 0.08277956 0.0040108343 -0.11490216 -0.044676024 0.27350986 -0.21203803 -0.12326837 0.008937426 0.21691197 0.05092551 0.11777268 -0.04011604 0.17415851 0.026073558 -0.35897568 -0.1281301 0.081810586 0.00069097814 0.14802259 0.089786984 -0.22533548 0.029814271 -0.1033471 0.07537439 0.08861289 0.29169825 0.058431633 0.0743934 -0.10817405 0.092222646 -0.1289102 -0.18049479 -0.024186363 -0.1885369 -0.040840037 0.016329354
ok|NN -0.010873144 0.11182795 -0.21685159 -0.04285016 -0.20163654 -0.027255332 0.12240189 -0.044335052 -0.11094125 -0.16172424 -0.09449235 -0.2657962 0.47296378 -0.00061462267 0.14732398 0.09889015 0.096671686 -0.15666088 -0.035361547 -0.017794138 0.19812839 -0.05065096 -0.04583459 -0.1574408 0.069004014 -0.08280475 0.011149199 0.145819 -0.2769957 0.09818372 0.19880484 -0.001383709 -0.06036706 0.07533861 0.04056156 -0.24138202 0.013762529 0.22289854 -0.0017684222 0.020147119 -0.19466369 -0.01538566 0.17196245 -0.15375765 -0.10946857 0.05011429 0.03320431 0.07000831 0.08805024 -0.06914396
box|NN 0.10798647 0.1063148 -0.2055189 -0.07154018 -0.20585918 -0.11739388 -0.06787239 0.03721546 -0.041297212 -0.21019347 -0.02289365 -0.062356 0.49336824 0.12669806 0.05580264 0.004031863 -0.030657656 -0.23515332 -0.10764108 -0.14720273 0.15019488 -0.078435555 -0.113746 0.043273434 0.12623794 0.07831522 -0.041715518 0.1451973 -0.24813843 0.088801645 0.09457646 0.09069905 -0.07650075 0.10671597 0.08075137 -0.14355679 -0.1306104 0.17120108 -0.06009375 -0.048036374 -0.13141908 0.06352457 0.015494258 -0.11925809 -0.17199147 0.0020000003 0.1866035 0.16410081 0.16533224 -0.19749431
In|IN 0.010928904 -0.094477914 -0.120538 0.09408611 -0.27091488 0.10232451 0.028796887 0.032515794 -0.217299 -0.047676932 0.13892727 -0.034635633 0.33676055 0.10280224 -0.010555301 0.13195372 -0.034817267 -0.000552265 -0.039456066 -0.1131716 -0.20753431 0.124847814 -0.028634192 0.35530853 0.057135887 0.20625779 0.028550752 -0.14740273 -0.030917019 0.04951364 0.14463188 -0.16190432 -0.05106952 0.058091104 -0.04883089 0.08265536 0.07105403 0.19616581 0.09372531 -0.05751126 -0.2623017 -0.2270784 -0.16562504 -0.08610402 -0.050344586 -0.15945612 0.06151137 0.02773499 0.17975517 0.24348278
start|NN 0.13516667 -0.0071366327 -0.09357708 0.0108300345 0.15551934 -0.12020391 0.13283284 0.06822888 -0.17467812 -0.21012387 -0.090824835 0.29784063 -0.021372959 0.15614176 -0.12427717 0.027770156 -0.0128157595 0.078639515 0.23735824 -0.026356976 0.1672009 -0.025889525 0.1765035 0.18515693 -0.15386128 -0.092875764 0.060553353 -0.16441295 -0.22889382 -0.12595947 -0.10115135 -0.24079679 0.10821684 0.3090495 -0.1243096 -0.0837793 0.14577588 -0.078816324 0.111522384 0.048771143 -0.0585905 -0.020476023 0.25554252 0.08804198 0.12071487 -0.1773645 -0.021189714 -0.08635823 -0.18289295 -0.07754832
properties|NNS -0.20079023 -0.26894772 -0.04764226 -0.16455284 -0.21922112 -0.06426393 0.15004507 0.13020234 -0.15262726 -0.0074461373 -0.3024518 0.05422876 0.046210714 -0.08986792 0.12744607 0.17703503 0.009192009 -0.09871988 -0.04366383 -0.08675747 -0.009357613 -0.11171444 0.05753237 0.073485464 0.07373467 -0.023993636 0.031722676 0.06662151 -0.20879036 0.022638457 -0.059438955 -0.10375298 -0.013693213 0.05065116 -0.10325747 0.15143022 -0.0013502539 0.11340962 0.25281328 0.35646337 0.10214575 0.10464881 -0.10269708 0.13278832 -0.23139852 0.06109932 -0.07978582 0.07979829 -0.2371505 0.2537236
point|NN 0.17809552 -0.05349234 -0.09553591 -0.010945766 0.01605345 -0.12929536 0.09958202 0.1111776 -0.12706813 -0.22262242 -0.13259785 0.27378434 -0.10317733 0.078942455 -0.22553338 0.05374334 -0.00092062494 0.07684336 0.16484998 -0.0035289845 0.19816451 -0.049259868 0.16501954 0.122657634 -0.14198852 -0.16374883 0.02082403 -0.14420709 -0.14873424 -0.18671384 -0.14704938 -0.21821271 0.13428865 0.30760103 -0.058408413 -0.119942725 0.16586426 -0.04428273 -0.020282174 -0.025276897 0.01718799 0.017521968 0.2078182 0.01884655 0.052994292 -0.2876312 -0.05349381 -0.111504845 -0.24988495 -0.090300575
click|JJ -0.031402726 0.17891893 -0.15520678 0.11682948 -0.20639493 0.17531885 -0.08416805 -0.08470418 -0.11546626 0.10016211 -0.21444364 0.20473287 0.25064573 0.025921166 -0.11052319 0.032276265 0.03986352 -0.024981132 -0.16147037 -0.2918837 -0.21702242 -0.07929288 0.01874151 0.1916111 -0.03378483 0.06788371 0.20083378 0.011189484 -0.1603498 0.041318644 0.10049657 -0.07557163 0.046865262 0.20526128 -0.03466244 0.022478733 -0.03833667 0.31620744 -0.037897244 -0.14674118 0.057651397 0.15478104 -0.10908911 0.055906247 0.1035466 -0.079421625 0.03141017 -0.17917722 0.05182937 0.30773693
settings|NNS 0.035972722 -0.07487472 -0.24926704 0.071833625 -0.18708771 -0.14888902 0.20422287 -0.0035856448 -0.113637485 -0.30514523 0.1613144 -0.21592583 0.11514522 0.15245582 -0.08917739 0.030891817 -0.108813636 0.05992613 0.17550291 -0.05195213 0.36742797 0.009153429 0.25418797 0.08921622 -0.10507959 -0.0948118 0.014062467 -0.09902552 -0.13048127 -0.1464434 -0.060615815 -0.18333562 0.16980533 0.16562451 -0.09677708 -0.29934788 0.13842998 -0.053324804 0.003948391 -0.008019227 -0.0032458785 0.088647336 -0.13199498 0.08515841 0.029171603 -0.10894255 0.10108914 -0.029125657 -0.0074428595 0.0820989
tab|NN -0.31536347 0.11408859 -0.20938976 -0.09396708 -0.15700392 0.023887018 -0.041055594 0.13638481 -0.016045444 -0.4283918 -0.046147335 0.07692759 0.2095786 0.087710366 -0.092708066 0.14038555 0.12862235 -0.08894778 -0.07576509 -0.23712336 0.00510958 0.0018065734 -0.06074429 -0.03141105 0.035885695 0.019541614 0.10936318 0.18711981 -0.14403357 0.08466708 0.13789588 -0.05930687 0.23152561 0.02541595 0.076478064 -0.14641511 0.0060350494 0.01909147 -0.11718167 -0.06558992 0.07425531 0.06497857 -0.22237416 0.050433505 0.0032838446 0.07492603 -0.058510773 -0.15541238 0.30241573 0.20255378
On|IN -0.19773646 0.14303514 -0.06862996 0.04731987 -0.18107633 -0.15789789 0.06763576 -0.0017012821 -0.1018409 -0.21096013 -0.026124736 0.25786108 0.13916597 0.11643254 -0.027887784 0.008673026 0.07852313 -0.049208697 -0.10138607 -0.25842664 -0.06200269 -0.07236212 -0.082238555 -0.15105876 0.011766884 -0.014924627 0.34314018 0.11127273 -0.093963385 -0.07202422 0.1278253 -0.33237836 0.24961208 -0.025415936 -0.10466199 0.06579311 0.06395101 0.049177937 -0.18708993 0.017087955 0.032519422 0.056021575 -0.10320247 0.19583264 -0.10892452 -0.10507053 -0.043341298 -0.3147664 0.02969066 0.1475022
in|IN -0.21180429 0.05569067 -0.12888588 0.00886267 -0.11069806 0.02080589 0.015886743 0.15507698 -0.18038535 -0.03747021 -0.0011884685 -0.051647797 0.44682857 0.12803158 0.08634484 0.080594815 0.027783519 0.071685016 0.009819072 -0.18026127 0.00066914427 0.009745549 0.12356452 0.28172493 0.15523688 0.22101714 0.24423195 0.02471649 -0.002721995 0.10734167 -0.07279103 -0.10860089 -0.006587684 0.02347848 0.08620711 -0.16044061 -0.024969466 0.20480101 -0.1884032 -0.044262603 -0.0758134 -0.0549283 0.0024761853 -0.0022354308 0.035712484 -0.2866107 -0.012933813 0.15427366 0.24279688 0.21858831
control|NN 0.04886339 -0.02226008 -0.10615738 0.03007677 0.08048133 -0.1189392 0.17366031 0.040137604 -0.086910665 -0.32718098 -0.096160956 0.24566986 -0.0081457 0.06744694 -0.14490062 0.16780348 0.052247614 0.11548523 0.3294807 0.10900906 0.19452119 0.043085292 0.13038333 0.18868585 -0.1892419 0.016260782 -0.060285803 -0.29589605 -0.048044108 -0.1337836 -0.118243605 -0.14662035 0.1166996 0.23484981 -0.14687234 0.01250908 -0.038768373 0.0387726 0.103509076 0.14796974 0.08939496 -0.1767299 0.15479392 0.013376094 0.16949554 -0.17669925 0.10095355 -0.14521433 0.0028978533 -0.04586482
panel|NN 0.06691931 -0.014353986 -0.07753932 0.012644417 0.0875994 -0.07966735 0.18689528 0.06121086 -0.10310517 -0.32017234 -0.0037081959 0.12865452 -0.024166478 0.07961172 -0.10759742 0.22851442 0.052024946 0.10309516 0.28072438 0.072402835 0.25433123 -0.032575052 0.1527288 0.26349077 -0.26916447 -0.048231594 -0.011743688 -0.29412252 -0.07892002 -0.19421901 -0.13438582 -0.19695467 0.061082684 0.11656364 -0.045998484 -0.11354384 0.0014420594 0.05398887 0.21926242 0.10153101 0.049284928 -0.1535355 0.15632567 0.07884969 0.076375075 -0.14251529 -0.043902338 -0.13468856 -0.1443272 -0.024283348
tools|NNS 0.21712591 0.03443145 0.1859449 -0.081538275 0.013804522 0.078911185 0.07677242 0.024523724 -0.2456008 -0.11016231 -0.12033617 0.35129225 -0.1941654 0.008431437 -0.21809556 0.23540404 0.071373016 -0.09072628 0.08521253 -0.03150125 0.16636603 -0.021846721 -0.034319967 0.20565666 -0.09190568 -0.08740385 0.15614174 0.0056495215 -0.14941026 -0.11747228 -0.029724762 -0.19191164 0.10089672 0.13624024 -0.15512197 -0.027404044 -0.00630896 0.107583195 -0.16720666 -0.19583462 -0.10420851 0.027418615 0.021280725 -0.051262267 -0.07896792 -0.2277448 0.09517975 -0.27939233 -0.15334104 0.15489051
options|NNS -0.04986771 0.12383795 0.18943015 -0.16892374 -0.1181072 -0.078764565 -0.10494861 -0.049334545 -0.13922626 -0.14818807 -0.20547417 0.22064947 0.15290374 0.017141175 -0.19906627 0.38037023 0.08309217 0.042262346 0.05669715 -0.21383317 0.041371748 0.04134882 -0.035588287 0.1341597 -0.0749582 -0.18038194 0.0932877 -0.08443824 -0.063249916 -0.20942418 0.119726256 -0.15432699 0.10682757 0.10492064 -0.08112097 -0.0362984 0.033365592 0.19629735 -0.05880087 -0.21897589 0.0075583803 -0.016648527 -0.10057299 0.03483476 -0.0030832423 -0.24566948 0.103378996 -0.29707253 0.01154675 0.17646284
internet|NN -0.11247367 0.04098732 0.13658515 -0.06538018 -0.1830719 -0.011258322 0.09600159 0.099813476 -0.105807275 -0.21791565 -0.22644289 0.11585816 0.10607572 0.053954434 0.09438093 0.4037212 0.046911858 0.1504973 -0.15075517 -0.22685328 -0.16367118 -0.05638811 0.024885254 -0.060936917 -0.102859065 -0.07489955 0.2494896 0.006451934 -0.1133823 0.09723021 0.09401987 -0.16138102 -0.017174097 0.123730876 -0.16583516 -0.056255985 0.04829672 0.11012432 0.107386895 0.02208002 -0.08757947 -0.068088084 -0.08329959 0.12690122 0.066951804 -0.076584734 0.006240447 -0.18071489 0.051148456 0.42155173
Double-Click|NNP 0.10986222 -0.15096882 -0.14927587 -0.06775413 -0.1735787 0.08297489 0.037597254 0.11004028 -0.232623 0.09939161 -0.068383604 -0.060314972 0.028600669 -0.07778883 -0.12179537 -0.054441795 -0.088010535 -0.014532928 -0.010753523 -0.041365825 0.028229093 0.09956328 0.0889732 0.36013034 0.1159459 -0.013213709 -0.12409045 0.108761385 -0.104780726 -0.24690759 -0.025991319 -0.15177724 0.10199381 0.2370218 -0.0019249138 0.20360231 0.04799015 0.15493418 0.16142629 0.03350008 -0.07336748 0.10867124 -0.14370465 -0.06961579 -0.15393934 -0.34806767 -0.08992662 -0.010689554 -0.33015826 0.17285678
check|NN 0.1459952 0.038719915 -0.20306095 -0.082862414 -0.31551287 -0.26307824 0.1419173 0.0007548697 0.08517345 -0.18468015 0.17232166 -0.0030365477 0.26373714 0.14381538 0.05799057 -0.04952338 0.011981156 -0.17456248 -0.036385093 -0.07676588 0.015325592 0.30415186 -0.10908141 0.017315738 0.09361742 -0.1799923 0.018280145 0.20299123 -0.13216954 0.14464146 -0.12991509 -0.11501056 -0.028695619 0.12675114 -0.14491826 -0.027456166 -0.0504302 0.10924819 -0.1914988 0.06474658 0.03948331 0.005234285 0.05023176 -0.06681395 -0.28468457 0.060819644 0.10889875 -0.050085366 -0.04756604 -0.2741538
network|NN 0.03374426 -0.2511041 -0.082478784 -0.026557101 -0.090121634 -0.066483095 0.26209238 0.059396815 -0.089808084 -0.13525355 -0.15256578 0.17779173 0.18122233 0.0034392932 0.026836185 -0.116442695 -0.2194542 -0.118121184 0.12145225 0.13730861 -0.047136284 -0.09362894 0.12538992 0.03802411 0.010453437 -0.12489642 0.06327639 -0.23234904 -0.22797607 -0.0031698283 0.018647667 -0.090836555 0.04770405 0.15957856 -0.15733886 0.122675516 -0.056101542 0.1077615 0.26009437 0.43161464 0.020825606 0.1062124 -0.07512212 0.1475534 -0.13871263 -0.09861693 -0.051518388 -0.03859106 -0.14861336 -0.16258472
computer|NN 0.019135281 -0.11815588 -0.3005707 -0.199959 -0.0055547957 0.021021042 -0.071928725 -0.06573444 -0.20874673 0.1436985 -0.051260963 0.1670801 0.15200448 -0.17847031 -0.028320462 0.04650073 0.015406296 -0.092907615 0.10750742 -0.0541844 0.0537985 0.25316897 -0.1969385 0.37070504 0.29549137 0.004656624 0.038595736 0.029606597 -0.018686451 0.028454913 0.006146793 -0.0824071 0.022002863 0.16940963 -0.16041832 0.19853584 -0.09326012 0.055640757 0.007875552 0.0635441 -0.018387983 0.12607557 -0.02428018 -0.1105068 -0.06252968 -0.27508822 -0.098716184 -0.12459075 -0.29027265 -0.008319518
local|JJ 0.2195931 -0.35537538 -0.09723492 -0.18658558 -0.15030627 -0.09999476 -0.035109036 0.26197368 -0.10360939 0.019256217 -0.12514263 -0.141741 0.018667229 0.1278457 -0.074742906 0.00031204504 -0.07047904 -0.14404483 0.05412305 -0.10523931 5.3245978e-05 0.0669144 0.054627426 0.14995323 0.114333324 -0.020427637 0.023870774 0.10779109 -0.30381843 -0.19666237 -0.15224694 -0.061005812 0.010260225 0.19857775 -0.075113095 0.10346431 0.07151609 -0.035019197 0.16562189 0.08755163 0.034689277 0.22600107 -0.26689422 -0.06845511 -0.10819744 -0.15750651 -0.051150918 0.10512611 -0.23822571 0.1547388
select|VB 0.28896692 0.10560861 -0.3227336 0.012889453 -0.2611938 -0.16719873 0.087284364 0.0013819876 0.15243857 -0.18615814 0.08537152 0.0076323575 0.2015475 0.113266416 -0.16350608 -0.056167465 0.008756427 -0.25528935 0.00079826376 -0.21446593 -0.065619886 0.18700798 -0.13812779 -0.01899126 -0.044910166 -0.09987175 -0.036453426 0.26559234 -0.2525176 0.08249516 0.065433174 -0.026823126 -0.05418946 0.11682354 -0.06356638 0.0549601 0.061287265 0.13591622 -0.1273421 -0.09591564 -0.12469878 0.043188978 -0.025487456 -0.052297767 -0.29342866 0.102091126 0.0068491674 -0.023602812 0.042107463 -0.16810735
for|IN 0.09412036 -0.004757317 -0.43403533 0.056670763 -0.25344068 -0.10341656 -0.0025963553 0.024961961 0.055111166 -0.08493656 -0.0036184571 -0.14346279 0.32000634 0.19405463 -0.15190399 -0.13309784 -0.10719103 -0.2514685 0.01683809 -0.16969758 -0.057577226 0.03757644 -0.0012941419 0.08722093 -0.027613163 -0.04424585 -0.010705385 0.19953734 -0.24585679 -0.061743323 0.040314913 0.11960159 -0.08599088 0.18185619 0.037094336 -0.06951833 0.046430394 0.19589211 -0.017866496 0.023838269 -0.031874012 0.120115966 -0.1574897 0.0022110776 -0.2670178 0.17821574 -0.010623707 0.14385602 0.06419611 -0.13020682
on|IN 0.066618904 -0.23249786 -0.08898163 -0.03938437 -0.27299616 -0.17166767 0.0624785 0.21881814 -0.16921318 -0.1400266 -0.2555157 0.093931735 0.02267281 0.12376705 0.0008662104 0.08907051 0.10366153 -0.06751023 -0.044568457 -0.25302875 -0.047510635 -0.13206317 -0.085731834 0.09761316 -0.027083129 -0.040178444 0.069773816 0.1763111 -0.0972874 0.086501725 0.18032347 -0.13716492 -0.11642293 0.01669066 -0.023940362 0.36050168 -0.02799137 -0.0043294625 -0.038373385 -0.036991805 0.092744395 -0.020760521 -0.17544807 0.09207169 -0.24752635 -0.0060289176 0.048258852 -0.31291172 -0.12050584 0.18247153
click|VBP -0.10194333 0.082617074 -0.25998256 -0.12847444 -0.33795607 0.05760029 0.15170377 0.026288403 0.08882895 -0.15328278 -0.06399089 -0.14255166 0.2784052 0.21793152 0.021894528 0.12422811 0.0035206755 -0.079531364 -0.13899335 -0.1976575 -0.0034815369 -0.04566644 -0.090694845 -0.030969763 -0.038910538 -0.13524692 -0.06908467 0.09889695 -0.11893848 0.0728421 0.15749243 -0.13108401 0.018595679 0.13618723 0.009753594 0.017585205 0.06587116 0.21254423 0.12205789 -0.17330779 -0.09052436 -0.02392527 -0.25182906 -0.040577594 0.05943071 0.14473236 -0.10796914 -0.12810037 0.20412919 0.32731193
menu|NN 0.11101173 -0.25718907 0.0018542048 -0.09437928 -0.116000175 -0.17451714 0.06299831 0.22473092 -0.17349127 -0.25986475 -0.222511 0.20144345 -0.03518271 0.109002456 -0.116041884 0.10105807 0.107002616 -0.18322635 0.05169191 -0.1421053 0.030534053 -0.26212475 0.042850625 0.028895486 0.004481111 0.029240351 0.13804978 0.0117184995 -0.071109 -0.049546417 0.17126274 -0.18970373 0.052055243 0.03683343 -0.12009345 0.18385261 -0.033799164 -0.049082033 -0.07598011 -0.10391099 -0.023162449 0.018915111 -0.18586434 0.009191864 -0.10048715 -0.19793203 -0.040079795 -0.40569073 0.049957752 0.17526525
double-click|JJ 0.035318404 -0.13796785 0.09551004 -0.05538295 0.043353915 0.16865586 0.14644168 -0.0273295 -0.2066402 -0.27761593 0.12215785 0.14204 -0.1354486 -0.022697989 -0.24942762 0.05057894 -0.14357588 0.11892371 0.33399716 -0.04456714 0.08223719 0.2290342 0.15577497 0.39774385 -0.106150724 -0.010323865 0.021144649 -0.084657304 -0.063526146 -0.03426984 -0.05343297 -0.122261144 0.021649793 0.08485839 -0.05514375 0.036214665 -0.02368812 0.116115056 0.21167122 0.07197332 -0.025411637 -0.097175255 -0.06933054 -0.06944408 0.025375726 -0.3206981 0.032747723 -0.08827348 -0.13207455 0.13768265
connection|NN -0.12582564 -0.27834615 -0.068775594 -0.20278211 -0.25071928 0.012745855 0.17203408 0.18842 0.061413802 -0.21300201 -0.1699715 -0.1450333 0.21785244 0.19017659 0.14673276 0.100912355 -0.17091611 -0.11221648 -0.022599678 -0.1347927 0.073985524 -0.052033048 0.05432959 -0.07845152 0.08637242 -0.1130008 0.106685 0.016137801 -0.24458207 -0.0773397 -0.05292102 0.017682832 -0.0058061397 0.21104483 -0.123922475 0.1639213 -0.17515837 0.12734164 0.1342779 0.16753928 -0.104382 0.10504503 -0.18804245 0.0838334 -0.08618003 -0.05240312 -0.23620346 0.12962203 -0.09266006 0.06546941
Right-Click|NNP -0.12230535 -0.23820166 -0.11982355 -0.18187946 -0.21479844 -0.05340874 0.22299744 0.1335272 -0.077982746 -0.059819076 -0.3678938 -0.015630476 0.0722569 -0.026367903 0.039125174 -0.03707625 -0.024975715 -0.198473 0.0939677 0.049048655 -0.040968016 -0.19956626 0.022673346 -0.016189452 -0.03491541 0.02191445 0.034287028 0.039474554 -0.17976402 -0.08345265 0.017968794 -0.03459399 0.010625964 0.12598275 0.010425695 0.25905865 -0.050624467 0.12543276 0.21470022 0.42371544 -0.02318318 0.05657861 0.08034091 0.10008043 -0.26755694 -0.019903854 -0.1557417 0.07041985 -0.11632451 0.09700103
my|PRP$ 0.09282478 -0.160611 -0.2253102 -0.1065239 -0.027671378 0.023537407 0.180284 0.03813096 -0.24147674 0.104749106 -0.21697056 0.1586595 0.03863015 -0.113440506 0.14698608 0.0036564379 0.022088308 -0.19227494 0.13205044 0.139023 0.013683266 -0.18068345 -0.0358427 0.13499254 0.12079467 0.04022813 0.15622655 0.007637768 -0.13303314 -0.04034918 0.0043313904 -0.03628165 0.15397523 0.11433776 -0.058842357 0.14599615 -0.14479001 0.12425502 0.026528807 0.3398404 0.06450533 0.025226437 0.08890203 0.08985022 -0.37110698 -0.23547421 -0.141138 -0.09114785 -0.18639122 0.10825423
system|NN -0.10432002 -0.07113741 -0.16546221 0.058024455 0.15118209 -0.008612703 0.11491954 0.0022443803 -0.020650622 -0.2852634 0.09353795 0.1301253 -0.031775318 -0.030483883 -0.05131729 -0.06337684 0.1397445 -0.10786576 0.2910571 -0.03262156 0.124119356 0.35195494 -0.07458395 0.19561957 0.0835239 0.09633401 0.068328954 0.040404566 -0.16472286 0.013954714 -0.06405668 -0.15415035 0.06366644 -0.030226424 -0.10605511 0.29837477 -0.1865941 0.032829396 -0.11653576 -0.12289009 0.015330821 -0.20102271 -0.03010382 -0.21902381 0.047532924 -0.2555552 -0.005204167 -0.3010623 0.01392368 -0.07433906
security|NN 0.18752699 -0.085093416 0.18628097 -0.081219986 -0.1771297 0.09783426 -0.07801409 0.08600464 -0.296858 -0.15188238 -0.025275808 0.04266458 0.108424455 0.08851928 -0.14628066 0.12288301 -0.09583024 0.115136884 -0.025974983 -0.112565726 0.18934359 0.058875594 0.046591554 0.2442817 0.050866917 0.06502946 0.15027015 -0.09678002 -0.21922408 -0.0014238477 -0.2013701 -0.1295614 0.075565234 0.23020525 -0.0010462322 -0.16554451 0.08294036 0.12523712 0.04139611 -0.045884848 0.06277529 0.123523034 -0.32956398 0.06475338 0.13324107 -0.011551168 0.17325716 0.12208519 -0.03611357 0.3200077
type|NN -0.07609568 0.1649931 -0.005542556 0.027239667 -0.12998499 0.103314094 0.109446794 0.13597934 -0.11434243 -0.20059724 -0.12368924 -0.22915755 0.34209538 0.112483256 0.124312244 0.06731724 0.2123428 -0.0045056404 -0.18229885 0.0615792 0.13232478 0.05620341 0.16910943 0.18059468 0.18189447 0.21702676 -0.17515418 -0.020882893 -0.018287603 0.084405996 0.22759026 -0.22903307 0.060322464 0.080414325 -0.1255249 -0.0850181 -0.12172946 0.21398856 -0.0735871 0.24552163 -0.020825082 -0.121990085 0.1144649 -0.031130264 -0.051290803 -0.09383381 0.026189255 0.12343587 0.17215584 -0.067647934
you|PRP -0.32989532 0.10588615 -0.22710584 -0.15155411 -0.06485209 0.06959853 0.21318804 0.13387595 -0.03974233 0.040750176 -0.07071729 -0.16207913 0.15637214 0.0034054467 0.07726739 0.02937239 0.19840655 -0.07681679 0.038753457 -0.057494964 0.18594038 0.42075193 -0.12594758 0.015328361 0.015383292 -0.2182695 0.050748717 0.18272775 -0.047760036 -0.176204 0.13280626 -0.009000068 0.022194456 -0.0058480655 0.11935789 0.13364333 0.02616036 0.28345695 -0.056725554 -0.006676447 -0.056237504 6.404417e-06 -0.16740644 -0.1872032 0.06416488 0.079434775 -0.18336917 -0.071763605 -0.14882743 0.0017377232
clear|VB 0.13109526 0.055649392 -0.19255146 0.04378544 -0.18854985 -0.35474905 0.09195754 -0.008494459 -0.013899457 -0.2666239 0.10603305 -0.033152524 0.29044935 0.0021080188 0.008413271 -0.0952299 0.03499002 -0.24582852 -0.027629822 -0.06895539 0.1802201 0.16854657 -0.1293889 0.04175761 0.0762596 -0.010192418 0.038006883 0.14635018 -0.18772285 0.05981461 -0.14237414 -0.033017013 0.0037109642 0.028322674 -0.16955146 -0.012510849 -0.096355475 0.08754488 -0.2092264 0.11960987 0.06334253 0.06425778 -0.0019567995 -0.039063454 -0.28493732 0.09582532 0.1731437 -0.034346584 -0.060943887 -0.34423214
Double-Click|JJ 0.115656234 -0.06472588 0.02876904 -0.051838502 0.05053919 0.043054752 0.06776013 0.009348612 -0.12697423 -0.2618613 0.04531904 0.29118475 -0.25495163 0.003992748 -0.25871247 0.10727559 0.070976146 -0.048375964 0.30210382 -0.09248834 0.035480693 0.40984565 -0.06429399 0.28981233 -0.10762664 -0.030678596 0.121015556 0.11572044 -0.17786026 0.0055223624 -0.09327018 -0.13310179 -0.022441473 0.08127681 -0.00057127414 0.057232134 0.025575768 0.120130725 0.0046435837 -0.1015934 0.009361715 -0.11765881 -0.035315532 -0.19292793 0.021554736 -0.17289093 0.058635585 -0.19593588 -0.16155383 0.071731545
Right-Click|JJ -0.051719148 -0.21579315 -0.074536994 -0.17117271 -0.18607521 0.10803322 0.040274937 0.11176692 -0.15345436 0.034705814 -0.412803 0.08339604 0.033860914 -0.089675754 0.08095793 0.12608565 0.034019776 -0.17464124 0.022121299 -0.040689178 0.068635195 -0.2297021 0.01916585 0.13903534 0.069946304 0.0012757055 0.1536817 -0.049730137 -0.117678784 -0.12604448 -0.05585799 -0.07727021 0.019685967 0.2543706 -0.07177362 0.21049531 -0.07661737 0.16361485 0.087978944 0.27507484 0.104660645 0.121188946 0.053942587 0.08396598 -0.221101 -0.08999728 -0.17546336 0.013005553 -0.1928894 0.22272658
or|CC 0.15590079 0.12430069 -0.21477519 0.023232123 -0.17470154 -0.026897222 -0.098685175 -0.07644061 -0.005481546 -0.074994914 0.019704223 -0.3869294 0.27110296 0.11594809 -0.1439842 -0.015220047 -0.09440927 -0.08684459 0.12363084 -0.17734317 0.1290636 0.3288146 -0.040749453 0.17030235 0.075032145 -0.067487516 -0.12881921 0.032862358 -0.24507013 -0.23877765 0.20290552 -0.012844337 0.059274957 0.14036623 -0.122263595 -0.10380466 0.090938695 0.045812853 0.05759294 -0.0014926014 -0.1467723 -0.07212538 -0.21598145 -0.170171 -0.065943174 -0.06838494 0.11450571 -0.047188077 -0.054005988 -0.07702375
advanced|JJ -0.04743898 0.20268197 -0.018938499 -0.10109447 -0.29369187 -0.0451366 0.11661877 0.060846396 0.07541673 -0.40274292 0.025156124 0.020073364 0.27293393 0.16885999 -0.041091893 0.052616794 0.07676664 0.069555126 -0.20398961 -0.08716035 0.07655184 -0.15018818 -0.055832654 -0.09635549 0.057549782 -0.1379694 0.099509336 0.0376933 -0.1875028 0.03417793 0.111032985 -0.21647975 0.31656384 0.10373577 0.0012934143 -0.104694456 0.05743052 -0.021361105 -0.04324916 0.11615631 0.0021060726 0.011048954 -0.10805133 0.3092224 0.04047267 -0.017240588 -0.03468624 -0.16863121 0.104385994 0.20788583
files|NNS -0.10776115 0.21742654 -0.14696498 -0.08172735 -0.28010955 -0.065395474 0.11671076 0.11266582 0.060611326 -0.28315115 -0.10425167 -0.296659 0.22702193 0.092691146 0.08794937 0.09471108 0.24068478 -0.05195469 -0.18341844 -0.06294085 0.10937051 -0.098795846 -0.122309424 -0.16674842 0.013040827 -0.07884383 -0.15245302 0.106191024 -0.10962137 -0.06626544 0.201035 -0.25648108 0.28869724 0.04416835 -0.02892865 0.018560821 0.02222358 0.027162308 -0.007755837 0.022440957 -0.13336724 -0.062458385 0.018198723 -0.035705242 0.04471487 0.1335877 -0.116119295 -0.262486 0.06417432 -0.008911303
administrative|JJ 0.22027005 -0.12649819 0.050229575 -0.0075891274 0.007574359 -0.078289784 -0.0070824046 0.01451409 -0.2440221 -0.111552715 -0.1194858 0.30189893 -0.21187757 -0.018140016 -0.15397473 0.11295877 0.057117615 0.0048543373 0.13923949 -0.03655035 0.22713558 0.19996528 0.04905833 0.2185021 -0.019226968 0.017871488 -0.01927786 -0.13197364 -0.20734444 -0.06642397 -0.16049802 -0.22721851 0.10957242 0.2557824 -0.13193545 0.018575106 0.10258759 -0.057861455 0.033478666 -0.15221033 -0.05215838 0.035327293 0.025211716 -0.10113978 -0.0040546325 -0.33851156 0.04802324 -0.11450263 -0.28016645 0.040645074
services|NNS 0.14151274 -0.12545332 0.005189479 -0.070530094 -0.032671776 0.10618875 0.18430862 0.04864353 -0.23605524 -0.108122215 0.055308763 0.41301972 0.10003037 -0.1274817 -0.05410459 -0.018080976 0.008807918 -0.13989143 0.12662125 0.14192586 -0.04963179 0.12225142 -0.029906029 0.06078989 -0.042983983 0.110198304 -0.15224199 -0.039459955 -0.18898831 0.18884043 -0.12114784 -0.36559114 0.066199586 0.16112265 -0.1568552 0.25236797 0.03551403 0.12974212 0.18259265 -0.09178986 -0.14004442 -0.014488182 0.05597775 -0.16699226 0.12840953 -0.15464115 -0.03175001 -0.11526509 -0.09907886 -0.09937732
file|NN 0.22263055 -0.044720687 -0.29078963 0.033446204 -0.17431141 -0.009438609 0.104148254 0.24140686 0.010571671 -0.18573071 -0.24371582 -0.17860484 0.14680973 0.24235645 -0.15794536 -0.036519445 0.09417796 -0.17359838 0.1307371 -0.18663155 -0.05340783 -0.0895168 -0.09942719 0.03985091 -0.07400172 0.20099041 -0.08549896 0.042018354 -0.29065785 0.02227948 0.11990216 0.029293954 -0.21646419 -0.023242662 0.011625522 0.07497639 -0.09806321 0.060270138 0.13532613 0.06809939 0.09578198 -0.090932846 -0.051958077 -0.012599217 -0.26369852 0.16357397 -0.0447824 -0.09295579 0.20057945 0.07367984
device|NN -0.04384317 0.12760475 -0.16993727 0.052211873 -0.009350388 0.16123663 0.16819486 0.026963532 0.028665213 -0.29989687 0.107272044 0.15618472 0.09033176 0.119285285 -0.22177349 0.09797109 0.048313983 -0.022192415 0.16216063 -0.04124051 -0.05878461 0.28499693 -0.06874914 0.37203893 -0.058598466 0.077607036 0.28713682 0.023514995 -0.04339154 0.14598313 -0.19415723 -0.00226614 -0.014851367 0.07631476 0.20256825 -0.0033371574 -0.058007788 0.21584232 -0.15957935 0.0790114 0.20585372 -0.17713208 -0.076751135 0.07186431 0.05507255 0.052767724 -0.011588096 0.086571366 0.2022921 0.085653104
this|DT -0.006795461 0.022217093 -0.14739461 -0.04862362 -0.21502158 0.033612028 0.12315042 -0.025108451 0.06533836 -0.2117542 0.14268796 0.007651216 0.19543949 0.16418676 -0.05432615 0.008769433 -0.028650004 -0.15866224 0.009414629 -0.060662113 -0.072494596 0.4047094 -0.0015036708 0.17033866 0.086848006 -0.18492877 0.23439288 0.2658957 -0.1653235 0.1446607 -0.17918159 0.114608355 -0.077313155 0.17489438 0.22258028 -0.105555505 0.02971674 0.15569668 -0.085595034 0.092204064 0.028335994 -0.056270484 -0.1693016 0.029028412 -0.19551902 0.14309393 -0.092861414 0.20603703 0.024957607 -0.06095683
open|JJ -0.01974022 0.10937879 -0.08804502 0.0609218 -0.1349117 -0.1222986 0.08335525 0.11886076 -0.17103861 -0.11302584 -0.16987504 -0.16375679 0.38235983 0.008057352 0.17219725 0.10799949 0.22309533 -0.042936128 -0.13300827 0.087325916 0.3054151 0.074762665 0.19327731 0.09212147 0.12406723 0.20995764 -0.14257787 -0.016019592 -0.10452191 0.05140144 0.17927769 -0.118312836 -0.0030829944 0.06830301 -0.15027094 -0.14905815 -0.070246264 0.1924566 -0.10798386 0.24146475 0.036289703 -0.036736123 0.14427738 -0.040733203 -0.12490449 -0.07338104 0.042527385 0.20571496 0.13096547 -0.08023564
list|NN -0.30591714 0.2232079 -0.080291644 0.04739955 -0.14031394 0.26786268 0.16140467 -0.023624511 0.053301703 -0.12716375 0.06833202 0.018766401 0.32058328 -0.0063082944 -0.014059696 0.048176475 0.118993156 -0.09428921 -0.10386415 0.038917948 -0.07226846 0.34389988 0.05546058 0.22838612 0.10502311 -0.06546266 0.14553823 0.17237706 -0.023708386 0.067092784 -0.08605329 -0.119218364 0.099890664 0.15699092 0.1904876 -0.032446317 0.025971387 0.25368974 -0.048674956 0.0784752 -0.01760344 -0.161898 -0.058175985 0.019783393 0.17158425 -0.024971422 -0.15842645 0.20504062 0.11948819 0.07882426
programs|NNS 0.2465743 -0.13020892 0.069799975 -0.043857384 -0.11438792 -0.074725404 0.08986087 0.06317946 -0.27578118 -0.11773322 -0.14544605 0.30485 -0.11622629 0.015077788 -0.113854624 0.11508359 0.03610286 -0.069592394 0.036182508 -0.037297573 0.2786735 -0.026937565 0.11093938 0.0235047 -0.10345529 -0.1347351 0.03016568 -0.07111271 -0.16927871 -0.098985605 -0.16323037 -0.27629215 0.13632677 0.3061953 -0.16007619 -0.055189494 0.09876594 0.024182996 -0.052219275 -0.16957593 -0.03419028 0.11370464 0.069289275 -0.012166693 -0.004608411 -0.23051816 0.0051345816 -0.14152902 -0.2934953 -0.05641496
next|JJ -0.031439498 0.019094512 -0.38092694 0.1372581 -0.13727464 0.0024109185 0.17791188 0.036864758 -0.028515425 -0.00820208 0.011401066 0.011752872 0.28890267 0.007040438 -0.12968296 -0.053654373 0.025143638 -0.26422837 0.14728321 0.037439 0.07813664 0.1393298 0.10378917 0.21023998 -0.084674805 -0.010724538 0.11975823 0.12842843 -0.09614037 0.082858995 -0.1792646 0.1582656 -0.17769542 0.1868668 0.21453966 -0.02851465 0.041660428 0.29788262 -0.12995291 0.16651067 0.1675007 -0.04780746 -0.008767992 0.022495577 -0.116579965 0.09933704 0.059805524 0.24921967 0.1566655 0.00050518586
of|IN -0.12752214 -0.06973099 -0.06708919 -0.06640632 -0.10020849 0.16118251 0.22293913 0.1165728 -0.048224527 -0.05341766 0.022973264 0.04174981 0.16316168 0.015773553 -0.07130119 0.005125979 0.07627075 -0.067417935 -0.014424973 0.088353835 -0.16407749 0.4306357 -0.018875722 0.3745778 0.14856249 -0.13492857 0.08919689 0.18619935 0.078041166 0.10290494 0.044169605 -0.018759765 -0.13667282 -0.0011160674 0.21864949 0.17517594 -0.12459862 0.3191591 -0.11487406 0.07494024 -0.010778639 -0.16854048 -0.15513973 -0.07869522 -0.029732954 -0.19098839 -0.12629649 0.09522638 0.05737909 0.009822937
tab|VBP -0.14953731 0.07383187 0.26426545 -0.104087174 -0.180339 0.05069316 0.09141692 -0.12984364 -0.22626832 -0.16953231 -0.04700755 0.27172926 0.10556732 -0.15407024 0.025397165 0.14890774 -0.03033562 -0.07421015 -0.0041679665 -0.20101246 -0.0755733 0.26187962 -0.04963779 -0.06337771 0.004969072 0.0032951436 0.27689114 0.14041881 -0.3106148 0.15419266 -0.09614764 -0.13953418 0.24370961 0.07038844 -0.005331326 -0.052239813 0.09168837 0.055516854 0.16908798 0.1979512 0.06883284 0.04562172 -0.17306909 0.07840346 0.02728856 0.06542402 0.0845976 -0.1135361 -0.014084895 0.17304966
is|VBZ -0.12281126 -0.09745041 0.044696353 -0.13139759 -0.2379123 0.0015002391 0.22090459 0.11929825 -0.1918176 0.0029224653 0.047807205 -0.042970657 0.2986644 0.028352087 0.14258231 -0.2167294 -0.030025378 -0.106762476 -0.17156579 0.070299305 -0.13676111 0.18796836 -0.01830828 0.107867666 0.27815044 -0.13493788 0.09056533 0.3463271 -0.13173783 0.04209636 -0.0064991177 -0.0909488 0.0064322725 0.087955184 0.046380486 0.062277466 -0.10238892 0.25909024 -0.08169276 0.044676382 0.021310668 0.07617998 -0.1709816 -0.12878296 -0.21614924 -0.065032594 -0.040159523 0.20285027 -0.068119876 -0.15466599
pane|NN 0.047951397 -0.16110179 0.046427052 -0.18996051 -0.0812255 0.08377418 0.082239635 0.1765502 -0.18570471 -0.06853309 -0.028768098 0.040075306 0.023880642 0.047412593 -0.23006685 0.091282904 0.012422334 0.07604425 0.11632578 -0.039695647 0.042904165 0.19052985 -0.007853703 0.6144349 0.03931291 0.1322954 0.0015590349 0.036249794 0.10292859 -0.045059424 -0.06920374 -0.040642783 -0.06706544 -0.004137576 0.16044536 0.2052124 -0.12603104 0.18913926 0.024199476 0.006122079 0.07520328 -0.118059464 -0.11531459 -0.0799924 -0.043489266 -0.24412239 -0.013697715 0.09783343 0.07096135 0.24459922
run|NN 0.07864588 0.15840685 -0.0062229503 0.15274929 -0.10110341 -0.029696 0.071282186 0.031895142 -0.24149759 -0.16685319 -0.14641975 -0.023774153 0.28277314 -0.04304831 0.04161081 0.20991811 0.18806829 -0.040498737 -0.057027824 0.047768723 0.30673078 0.038203787 0.27077922 0.04257787 0.087007344 0.2208877 -0.05071988 -0.105676174 -0.15495677 0.053129308 0.10823562 -0.11539164 0.11303801 0.119252905 -0.11470667 -0.28960198 0.013306356 0.14839436 -0.09512006 0.2199681 -0.07613561 -0.0158113 0.2356654 0.030363148 -0.059309497 -0.22851299 0.009900682 0.14251053 0.05248251 -0.11010757
a|DT -0.0858906 -0.07913164 -0.25842708 0.03986517 -0.11021227 -0.037173633 0.12787615 -0.012296766 -0.058076598 -0.092147164 0.12143775 -0.019777136 0.19755891 0.17528377 -0.019605894 -0.098264255 -0.112166956 -0.18299817 0.06024336 -0.025083117 -0.026442567 0.30870128 0.22690184 0.15492852 0.03381588 -0.09768473 0.121290565 0.2734766 -0.19261435 0.13049932 -0.06484321 0.15886663 -0.18659644 0.21546699 0.08090022 -0.076215826 -0.0006670304 0.23686764 -0.047704346 0.105584264 0.0110858055 0.060124837 -0.18127908 -0.06626307 -0.13204102 0.03246917 0.07538972 0.3494039 0.12130213 -0.102459975
connections|NNS 0.3093447 -0.17521459 -0.058461737 -0.036902122 -0.20991786 -0.21684435 0.16209175 -0.005183327 -0.20232774 -0.2343815 0.106424056 0.113348395 0.01640863 0.12746446 -0.084023796 -0.076083496 -0.1595565 -0.008303427 0.09953673 0.028775746 0.082140766 -0.13123654 0.115682974 0.0045776893 -0.059420586 -0.16329916 0.020343827 0.032629292 -0.28358945 -0.104926646 -0.041015524 -0.14474799 0.19110465 0.2053538 -0.09733615 -0.08864076 0.06874924 -0.11613955 0.093309134 0.12489648 0.0704198 0.11313543 -0.11747472 0.1380941 -0.31953666 -0.08999643 0.07015727 -0.119135745 -0.18562366 -0.17234379
area|NN -0.05949603 -0.23897356 -0.09603419 -0.21510181 -0.3084011 -0.011215114 0.058885533 0.21707794 0.045459818 -0.1891412 -0.24739157 -0.2358144 0.1161666 0.20401606 0.038539443 -0.0567756 -0.11068742 -0.12230928 -0.04858222 -0.08313867 -0.0065956395 -0.21346581 -0.013784889 0.00399582 0.053878643 -0.0851345 -0.050608627 0.056612078 -0.28086302 -0.124610566 -0.013234903 -0.075951405 0.050386563 0.22740632 -0.1491665 0.21494038 -0.11782789 0.029980162 0.07422245 0.17378162 -0.066632286 0.12715636 -0.097565174 0.13018855 -0.17386454 0.09564073 -0.20189065 0.1015477 -0.09474692 0.0727113
Under|IN 0.10086846 0.06478477 -0.10324914 0.037690576 -0.11531017 0.021068962 -0.09956086 0.041312326 0.0117947105 -0.3216311 0.057619862 -0.19733316 0.17238382 0.28861415 -0.17192815 -0.12685217 -0.13131076 -0.03550989 -0.02357507 -0.228666 -0.19834574 0.18858936 0.025157396 0.06218237 0.06270687 0.10166561 0.036475748 0.19362609 -0.44713202 0.005473995 -0.024172554 -0.12679057 0.07953487 0.26430157 0.036972895 -0.08301768 -0.0014012635 -0.0257084 0.14945906 -0.045090657 -0.12651794 -0.04274051 -0.19363952 0.033518743 -0.11573574 0.1094808 0.15398262 0.044122797 0.05360156 0.05811564
folder|NN 0.11290453 0.2685908 0.09892063 -0.06438791 -0.11424191 -0.1271549 0.029858354 -0.009271115 -0.22006059 -0.04439059 -0.08766478 0.31215078 0.10589086 -0.07343204 -0.09069101 -0.009036901 0.20924716 -0.09019622 -0.12517992 -0.061524525 -0.061364688 0.14518344 -0.16070464 0.18434441 0.07128291 -0.124019295 0.18352 0.2553701 -0.04346947 -0.07585957 0.10843535 -0.26277608 0.078226976 0.017567262 -0.04383565 -0.04226839 0.13707133 0.23702691 -0.17012222 -0.16890816 -0.025181469 0.046567064 -0.026611174 -0.099362366 -0.136555 -0.21096216 0.011100915 -0.26708782 -0.19000213 0.006351103
default|NN 0.09415791 -0.019399041 0.22755823 -0.066122346 -0.26061457 -0.06379794 0.03500165 0.08828304 -0.27426258 -0.1594277 -0.02283147 0.0020903277 0.09541157 -0.06517161 0.07561914 -0.07944253 0.045575764 -0.03128563 -0.23263802 -0.083674856 -0.009319562 0.06332963 -0.051732432 0.12524433 0.15585414 0.17905967 0.13867626 0.22209379 -0.26568806 0.12927386 -0.16890298 -0.118760146 0.19291034 0.14815384 0.09055949 -0.053634573 -0.056512192 0.08902786 -0.05410284 0.10526544 0.19724695 0.018442035 -0.31467563 0.050116707 -0.20507395 0.13668753 0.2368819 0.122540295 0.03514779 0.12774302
check|VBP 0.28992456 0.12736033 -0.2774548 0.09046665 -0.26679653 -0.24743643 0.041807365 0.0021734978 0.019044282 -0.17768301 0.0030782 -0.19744614 0.19449687 0.14057413 -0.10253271 -0.16638087 0.041723583 -0.21525978 0.045618214 -0.16069691 0.12755999 0.10216736 -0.103625 -0.08712834 -0.0074372855 -0.012697546 -0.11235934 0.16512129 -0.31532335 0.030814532 0.04188577 -0.051631622 0.013604843 0.051831517 -0.1590918 -0.04133472 0.021434683 0.018220946 -0.03866397 0.043703493 0.0063274866 0.05712766 -0.101104915 -0.054677222 -0.29100594 0.19206442 0.14017235 -0.1558 0.024663296 -0.17622226
your|PRP$ -0.17329966 -0.1305178 -0.48272064 -0.120268516 -0.16012 -0.07678891 0.09104527 0.11983614 0.01369506 0.04865147 -0.18509398 -0.15240444 0.25312355 -0.055443488 0.27501482 0.12548323 0.06633851 -0.17817624 -0.045661602 -0.10154306 0.04760669 0.026681907 0.0028370838 0.11170909 0.049603216 -0.013129786 0.0764891 0.18489479 -0.050838593 0.0076737106 0.094798416 0.051999453 -0.13391663 0.13139316 0.029367398 0.27134818 -0.12727484 0.2573884 -0.07365505 0.1770158 0.10507363 0.035323214 0.022171889 0.0008805227 -0.14288841 0.17662926 -0.038657967 -0.01628782 -0.056039598 0.116154134
manager|NN -0.09871397 -0.05633045 -0.17251094 0.030175228 0.07359588 0.0763457 0.18004937 0.108416475 -0.018818451 -0.3567142 0.08174937 0.25394732 0.020482667 0.092077196 -0.14011982 0.11440594 0.15540202 -0.023370845 0.25021014 -0.041507997 -0.019857083 0.11334326 -0.0020433026 0.42517483 -0.08788515 0.21648103 0.1504837 -0.04102865 0.015543258 0.09000599 -0.14596923 -0.049152747 -0.057899375 -0.011512357 0.20968634 0.06854378 -0.08668108 0.18360941 -0.033469748 -0.01326775 0.122075684 -0.27079508 -0.005762545 -0.057679564 -0.008108292 -0.0910474 0.034258272 -0.044562135 0.237342 0.11165204
menu|VBP 0.05568148 0.24119826 0.16784641 -0.08637454 -0.15182763 -0.14890544 -0.045350865 -0.044336364 -0.21346939 -0.18110797 -0.09440651 0.30837905 0.05898075 -0.015615257 -0.1166366 0.11258102 0.20941406 -0.028359767 -0.026981294 -0.11163024 -0.03744456 -0.03681139 -0.12099481 0.16354235 0.010071479 -0.046937067 0.30985552 0.20145531 -0.12866297 -0.0057327263 0.13280667 -0.24280192 0.14732134 -0.023278888 -0.04253868 -0.14418992 0.20095243 0.11294781 -0.11721823 -0.0760667 0.0709065 0.0673238 -0.031067798 0.04683072 -0.042042885 -0.115398034 0.026816126 -0.3707593 -0.107272126 0.11132088
add|NN 0.030420337 -0.012289073 -0.086945586 0.070227705 -0.005930753 0.18464628 0.12828253 -0.037868652 -0.16239025 -0.03126853 -0.2594403 -0.13168405 -0.025973985 0.022949683 -0.1865989 0.0075304187 0.05461478 -0.11445117 0.26985884 -0.007586023 0.19930592 0.41147986 0.15387513 0.13497052 0.018958542 0.23292904 -0.063195534 -0.028240802 -0.2599942 0.0209865 0.004366573 -0.0034547022 -0.0314137 0.13569814 -0.023242472 -0.08863758 0.11654136 0.038930483 0.2651851 0.30882183 0.07830288 -0.18770958 -0.024137879 -0.07815167 -0.031188654 -0.071110755 0.10201109 0.09847063 -0.084689654 0.17033836
policy|NN 0.34235737 -0.14113566 0.08698412 -0.09704003 -0.11810168 -0.014230515 -0.15070494 -0.056130394 -0.21457034 -0.14209512 -0.032183252 0.028483192 -0.10380558 0.02792655 -0.17095987 -0.004175926 -0.05173335 -0.119963884 0.038673546 -0.15015906 0.12849924 0.3136737 -0.14860278 0.25600365 0.078080595 0.05764093 0.06514893 0.0024415168 -0.29110092 -0.038676735 -0.14596783 -0.028596872 0.018761702 0.24311714 -0.19019048 -0.049926654 0.0006707182 0.002475651 0.019458182 -0.07968413 -0.071021795 0.0149278175 -0.24279165 -0.1526352 -0.14818001 -0.04110983 0.19486816 -0.02502576 -0.2740383 0.04023359
printer|NN 0.04963285 -0.07019702 -0.37102744 0.11867612 -0.15545166 -0.09050316 0.025928766 0.0867345 -0.043457143 0.079284735 -0.23594044 -0.109362684 0.2487791 -0.019070368 -0.07470384 0.030996308 0.025795734 -0.3159844 0.17524199 -0.1176095 0.18749389 0.080208614 -0.024445865 0.06317464 -0.11176159 0.18149877 0.02169161 -0.060244318 -0.2803007 -0.03391334 -0.05739962 0.15198357 -0.13462341 0.100943744 0.00032149328 0.12325843 -0.038482025 0.1634683 0.07814212 0.21728405 0.14777449 0.03473717 -0.089073114 -0.00068466354 -0.22643085 0.15622509 0.21856946 0.12929314 0.11030152 0.02238266
explorer|NN -0.0047307066 0.007177693 0.08017297 -0.13732 -0.11046497 -0.005528564 0.047989387 0.10520017 -0.1677841 -0.2311848 -0.30578542 0.26800096 -0.022009274 -0.017805656 -0.0026201196 0.36900693 0.14431994 0.015167232 0.035079442 -0.21122862 -0.044717554 -0.14921364 -0.13530086 0.20166641 -0.012242827 0.076930344 0.2258105 -0.04325984 0.025326507 0.1142479 0.07959161 -0.20113097 -0.06930255 -0.020400802 -0.16294822 0.13332239 -0.15017267 0.045834836 -0.06398231 -0.07268848 -0.009210511 -0.048207533 0.015245448 0.09560198 -0.118179806 -0.0902127 -0.046941943 -0.3001949 -0.016386766 0.29245025
service|NN -0.018380411 0.0758512 -0.027778426 0.07405181 -0.1213046 0.21977337 0.23189725 -0.10348451 -0.045612805 -0.04589165 -0.14586765 -0.06681554 0.1220394 -0.014891264 -0.078240685 -0.15384537 0.045035906 -0.19364086 0.09470134 -0.009603271 -0.20752627 0.22592168 0.14810407 -0.008067293 -0.055984933 0.14016245 0.00038099417 0.19749163 -0.4369713 0.09940744 0.16768439 -0.16887489 0.010604732 0.118168585 0.014204143 0.047884822 0.095288955 0.094524585 0.31714606 0.21088248 -0.1961612 -0.15252249 0.14735167 0.047553282 -0.027888022 0.06793246 -0.049858574 0.16565923 -0.02631695 -0.0033861953
users|NNS 0.05738528 -0.16966778 -0.08548363 -0.13631007 -0.012422653 0.04274193 0.040506963 0.09661734 -0.06914114 -0.07965404 -0.04098967 -0.01315395 -0.19562012 0.023179688 -0.23410203 -0.027509518 0.06549837 -0.042188067 0.15298234 0.013067544 0.12860695 0.546775 -0.032080863 0.3476452 0.096223466 0.06686256 -0.14967066 0.16276698 -0.10253243 -0.051736157 -0.06908179 -0.04131782 -0.0123769855 0.15478784 0.01815882 0.2025517 -0.0675744 0.15590875 0.01693757 -0.040621046 0.07442434 -0.060785256 -0.17433405 -0.2616971 -0.102010064 -0.13940029 0.022853319 -0.021849027 -0.19118646 0.024960808
right|JJ 0.078382455 -0.18017615 0.009406574 -0.16831267 -0.100040585 0.08308166 0.103668004 0.20582116 -0.11651062 -0.089846 -0.07209709 -0.0027818747 -0.05254751 0.0142163765 -0.20241132 0.15705182 0.14603984 0.06961451 0.1134863 -0.034976993 -0.013224191 0.2090063 0.002079879 0.5519115 0.05525613 0.12826356 -0.047548655 0.06525248 0.059094418 -0.03928978 -0.10481646 0.010716699 -0.06921437 -0.019731505 0.19541468 0.19872142 -0.10481332 0.21945041 0.08295154 0.03713406 0.06493556 -0.18346834 -0.09785399 -0.12023181 -0.004020833 -0.20945957 -0.03651149 0.07419472 0.07481859 0.2609642
dial-up|NN 0.28162026 -0.20091 -0.15969127 -0.02417826 -0.16239047 -0.21739222 0.13805813 -0.03202084 -0.11908299 -0.279368 0.08789327 0.12649474 0.002615376 0.106492065 -0.11755632 0.05455324 -0.18512525 -0.06925406 0.14635506 0.116600715 0.12975834 -0.1314491 0.11139812 0.042668916 -0.16669431 -0.17231208 -0.03313561 -0.10679809 -0.24472027 -0.031729016 -0.054064192 -0.046928644 0.16364157 0.30571097 -0.19436637 0.0085064 -0.0075351154 -0.07682406 0.13876352 0.2545734 -0.0066109723 0.14332719 -0.014303952 0.1597318 -0.1267612 -0.04181702 0.056711853 0.010602241 -0.15686327 -0.13352536
management|NN 0.11563941 3.1458312e-05 0.0014997846 -0.11641993 -0.026700024 0.029984541 0.07232739 0.039808303 -0.25646234 0.05245818 -0.0861687 0.20132346 -0.08565334 -0.108321056 -0.05518575 0.11055826 0.1148419 -0.085714236 0.0068123434 0.13714926 0.17364742 0.30004773 -0.031382926 0.29980704 0.1602906 -0.16179919 0.0019249476 0.051270604 0.04727856 -0.123975925 0.017413674 -0.20749517 0.09304414 0.14219382 -0.07302086 0.07508383 0.046419512 0.1755459 -0.14756225 -0.14211841 -0.0628907 0.03693998 -0.043903418 -0.25568265 -0.024559187 -0.35598385 -0.12768205 -0.124684475 -0.31783807 -0.017494613
want|VBP -0.256021 -0.08852817 -0.29640478 -0.17770047 -0.092636116 -0.031127162 0.1369677 0.19248226 -0.013383785 0.070224345 -0.24082819 -0.17943992 -0.019498356 0.012138507 0.07545423 0.016182978 0.17228995 -0.10106074 0.051226426 -0.02048084 0.24526057 0.39325097 -0.012626341 0.08186729 -0.074372366 -0.04853618 0.0020633435 0.18737912 0.023104185 -0.22077988 0.027980609 0.004720634 -0.103024 0.07710861 0.09968081 0.15302764 0.027308267 0.2854338 -0.057575714 -0.02266813 0.0399744 -0.09184697 -0.18625149 -0.1613392 0.09530686 0.057608522 -0.09951138 -0.061337393 -0.15602317 0.15881385
settings|VB 0.049139254 -0.080414824 -0.03841028 -0.0069525717 0.015818499 -0.12582473 0.1766633 0.07436705 -0.11020525 -0.26086077 -0.065069094 0.22487468 -0.15290532 0.002517083 -0.24503577 0.17353682 -0.020266496 0.14014329 0.30432737 0.05692899 0.21255238 0.121754706 0.09488104 0.19908807 -0.18584259 -0.066237085 0.023277413 -0.17556888 -0.044333816 -0.18548928 -0.07981186 -0.14062297 0.11138323 0.11973131 -0.090037376 -0.17195004 0.076552674 -0.03678744 0.13328208 0.16257437 -0.018302398 -0.0795976 0.16689287 0.05234543 0.010734849 -0.33976755 -0.006138813 -0.12542127 -0.21542431 -0.0075029
enable|JJ 0.09298486 0.31746054 -0.08017405 0.05564177 -0.071558036 -0.055808276 0.042265944 -0.10722616 -0.020801852 -0.18781738 0.036685985 -0.02081592 0.08745661 -0.012412068 0.025992487 -0.0012303557 0.099301845 -0.17575625 0.14713809 -0.18313557 -0.018731218 0.35736978 -0.08627218 -0.08779542 -0.10614627 -0.09821349 0.12021764 0.4014819 -0.418437 0.021787543 -0.011474107 -0.055207558 0.09231046 -0.009815334 0.14415242 -0.026375959 0.124358356 0.08827361 -0.025215408 0.042851172 -0.15988448 -0.049727388 0.07464165 -0.050577708 -0.13008817 0.09845086 -0.038791258 -0.19684756 -0.10502071 -0.17095384
advanced|VBD -0.1948424 0.17592172 0.12475952 -0.05877172 -0.1289301 0.051541857 0.18284258 -0.0383515 -0.017560152 -0.4094665 0.015270338 0.17104955 0.038419973 -0.023997165 0.038054638 0.15500511 0.10036826 0.0030634566 -0.014294819 -0.10974154 -0.025260441 0.22112477 -0.0061344304 -0.15235488 -0.016174655 -0.052906048 0.24776538 0.27376366 -0.31013042 0.19556059 -0.02703632 -0.109460056 0.25309694 0.052871995 0.17545718 -0.11961298 0.14189456 0.044416595 0.028320223 0.16041686 -0.068304844 -0.11188308 0.038273636 0.16793199 0.026379682 0.0127150975 -0.05632691 -0.09756826 0.0003474609 0.1739641
are|VBP -0.42524862 0.016769107 -0.12022865 -0.17489246 -0.21343261 0.013843651 0.29169974 -0.041879468 0.10560897 -0.16292447 -0.03493495 -0.06703641 0.24014007 -0.033509534 0.23143029 0.11579049 0.032774948 -0.07418314 0.0029282288 0.018720483 0.12890306 0.284151 -0.073966175 -0.16636337 0.028012168 -0.27972314 0.12102486 0.17588572 -0.09436691 0.04096934 -0.03777301 -0.105394654 0.01806798 0.052488714 0.07325578 0.12978849 -0.023604622 0.18023664 0.079266086 0.070749 -0.105210856 -0.11544038 0.026493283 -0.0024833507 0.16773105 0.093149796 -0.21758056 -0.026824132 -0.0715212 0.046854835
use|NN 0.1315614 -0.13896887 -0.13558288 -0.05972763 -0.29965615 -0.066283606 -0.011763693 -0.011273595 0.029419221 -0.20079035 0.1352553 -0.11584392 0.156548 0.13975984 -0.04687578 -0.025371576 -0.043625962 -0.1428921 -0.043949332 -0.16746256 -0.017283667 0.2619438 0.061916627 0.17851411 0.010571507 -0.021869453 0.13496013 0.22762859 -0.26658472 0.15314946 -0.18088505 0.062158305 -0.017874653 0.19412497 0.13700922 -0.06514256 -0.014109886 0.022307688 0.019820433 0.16106252 0.114075 0.06858828 -0.2618117 0.08042565 -0.18168734 0.2847113 0.17259751 0.20740236 0.0235619 0.018748736
show|NN 0.062812865 0.07413315 -0.18011726 -0.09014697 -0.1660968 -0.2538189 0.027658362 0.17063971 0.07620222 -0.35368994 -0.087539226 -0.11167859 0.22906187 0.1788233 0.06853889 0.046121813 0.20571052 -0.12513742 -0.054059345 -0.09860283 0.09820844 -0.212758 -0.10578889 -0.08431028 0.11885297 -0.048957814 -0.017766055 0.10133263 -0.2092432 0.03622813 0.10881123 -0.25084013 0.16978198 0.056876075 -0.107476644 0.028406817 -0.119692855 -0.15294208 -0.17749193 -0.035840638 -0.04599113 0.019968191 0.1393774 0.091916226 -0.18240775 0.016009435 -0.08435482 -0.31525615 0.009521519 -0.09775196
right-click|JJ -0.010196673 -0.112129584 -0.27408597 -0.10275695 -0.08123355 0.14632526 0.14483464 0.13162586 -0.26795617 0.14063428 -0.19924727 0.006276246 0.19463813 -0.15795617 0.06530223 0.030606603 0.0027021237 -0.071698144 0.019891918 0.06617224 0.026606318 -0.13681401 0.07216108 0.30861112 -0.016013851 0.20638706 -0.12846786 -0.05795127 0.05652778 -0.091097794 0.008103649 -0.09983043 0.03914082 0.14197679 0.17388512 0.28740427 -0.07556543 0.33029297 0.16704564 0.16292265 0.07327142 -0.086962886 0.03400319 -0.02188473 -0.15036114 -0.21096614 -0.017924592 0.014246884 -0.04290156 0.18470068
under|IN -0.026490143 0.19924982 0.032532394 -0.1607938 -0.37203065 -0.0367125 -0.024091357 0.08253389 0.017884394 -0.28187498 -0.081822045 -0.16282868 0.23856288 0.11418777 0.016475417 0.09432705 0.10367032 -0.008901254 -0.27739018 -0.1285937 0.049547665 -0.085075215 -0.17778838 -0.08320289 0.09835782 -0.20034957 -0.038212493 0.089488596 -0.15681162 -0.07666454 0.09031763 -0.27132183 0.30600172 0.14616066 -0.04061685 -0.043699175 0.0250433 -0.004715472 0.009935745 -0.031227162 -0.04565766 0.02984825 -0.25253445 0.088202864 0.0048809964 0.08682551 -0.08484992 -0.22961128 -0.039397355 0.074391246
places|NNS -0.038685292 -0.17053662 -0.14520425 -0.1565146 -0.11448208 -0.08035 0.2498304 0.0841547 -0.19101577 -0.08949894 -0.22040753 0.17996393 -0.011950808 -0.144496 0.08019126 0.017937891 0.0022037667 -0.13788061 0.11460943 0.12201221 -0.042607784 -0.26769227 -0.04416777 0.042577032 -0.030709954 0.058997978 0.09385538 0.03403516 -0.14073694 -0.00097212585 0.0640159 -0.051294804 0.1755912 0.10379736 -0.044855896 0.12755929 -0.08218368 0.021050155 0.15681799 0.42990032 0.048800245 0.025852356 0.20035036 0.17115623 -0.28839847 -0.17404619 -0.10894489 -0.01860897 -0.19592412 0.05738235
registry|NN -0.045241173 -0.23814765 -0.0003489974 -0.081379734 -0.019209562 -0.03728797 0.28403443 0.22685274 -0.1180305 -0.30705708 -0.046830896 0.1852742 -0.022964804 -0.0044698603 0.025293864 0.03259979 0.16034284 -0.056686196 0.1704252 0.0760712 -0.03004761 -0.033926494 -0.07831625 0.35336044 -0.07285178 0.16358252 -0.060741957 -0.062152553 -0.01076117 0.10867046 0.013854674 -0.19379993 -0.15506324 -0.10211541 0.050646327 0.36949268 -0.199688 0.18769917 0.069635935 -0.022997223 0.037891567 -0.24684636 0.03886084 -0.120056555 -0.021052562 -0.08966122 -0.021506272 -0.05633028 0.14297287 0.052305635
modem|NN -0.2898611 -0.11121662 -0.32897645 -0.08005023 -0.035869855 0.060427103 0.19490398 0.13589093 -0.13467033 0.10377735 -0.052296598 -0.022734666 0.13247105 -0.19818589 0.19132747 0.02386245 0.052942563 -0.08800951 0.11413011 0.16146897 0.20481043 0.24387155 0.041697208 0.056131724 -0.14772707 0.09287666 -0.035361465 0.078766644 -0.08385814 -0.12730578 0.0019115749 -0.092166945 0.05888798 0.11855213 0.14154749 0.310071 0.09896066 0.35857904 0.08354542 0.11249151 0.0766935 -0.07414465 -0.11856835 -0.12874119 0.105500005 0.031551808 -0.020566002 -0.02581432 -0.15662675 0.06603726
view|NN 0.050109338 0.21169296 -0.104774944 -0.049567442 -0.20676759 -0.19525106 0.04001979 0.15786462 0.06719426 -0.38529816 -0.075894624 0.014409221 0.094663225 0.18459441 -0.028385475 -0.0014590945 0.22768758 -0.060232367 -0.04888402 -0.0937832 0.058248777 -0.23084836 -0.1649791 -0.032489922 0.010651795 -0.03346395 0.077475466 0.20787723 -0.19038385 -0.07078237 0.099619344 -0.25073996 0.24744254 -0.049846 -0.022123342 0.0015312618 0.027277447 -0.03231543 -0.21208227 -0.04774542 -0.01123747 -0.008033419 0.11566114 0.10269687 -0.076291546 -0.0672518 -0.045146223 -0.40250137 0.0010544703 -0.03453985
desktop|NN -0.06612761 -0.18073454 -0.20913734 -0.14700986 0.00546523 -0.16211085 0.0870664 0.07643549 -0.14594135 -0.11972835 -0.22503063 0.27607286 0.039572746 -0.12062997 0.15310964 0.13205382 0.004614108 -0.18196408 0.11877687 -0.006312053 -0.048110034 -0.2742964 -0.12161386 0.13654687 -0.0017415107 0.03286112 0.21565743 -0.111058354 -0.07047689 -0.007273544 -0.006653256 -0.1297415 0.065142676 0.15296032 -0.1825946 0.26670635 -0.1930522 0.049370717 -0.031697508 0.17693533 -0.033891805 0.056730684 0.14253373 0.07486884 -0.17765346 -0.21290289 -0.11840954 -0.23557638 -0.1308538 0.018829636
it|PRP 0.04483338 -0.11403298 -0.0074487743 -0.0117375655 -0.07591607 -0.1002902 0.07389747 0.17099498 -0.23258844 0.009391096 0.06612881 0.18031238 0.1420289 -0.04107592 0.0045396737 -0.21704744 0.030905837 -0.12887034 -0.13354698 0.10913089 -0.021496583 0.28536862 0.036060378 0.22333644 0.11485743 0.15402882 -0.1265218 0.24156164 -0.15895519 0.050126232 -0.08869507 -0.21014608 0.043865945 0.15685475 -0.010657651 0.21535231 6.8443034e-05 0.27700904 -0.12337252 -0.114841744 0.13822103 0.09480599 -0.1829873 -0.19428025 -0.14075403 -0.052806206 0.13792577 0.0811513 -0.11897675 -0.2507872
user|NN 0.014384812 -0.07403098 -0.17795634 -0.19456705 -0.037182912 -0.06613906 0.06302216 0.032776374 -0.08134724 -0.0038897765 -0.039026577 -0.16186465 -0.05089473 0.051728114 -0.12162671 -0.0048908098 0.0736268 -0.06153196 0.18934871 -0.010076731 0.301873 0.5280317 -0.14666954 0.34947 0.11509032 -0.07899065 -0.040703494 0.07825788 -0.010994573 -0.15954322 -0.06332153 0.010806209 -0.041352566 0.049189545 0.031025983 0.114071906 -0.09241327 0.118040696 -0.038710345 -0.0030040555 0.026806999 -0.10049938 -0.22706607 -0.29123798 -0.034107566 -0.12417437 -0.046908606 -0.082240425 -0.1679605 0.02810827
server|NN 0.24715267 -0.15628125 -0.15616022 -0.18905517 -0.25638965 -0.17916343 -0.007904853 0.053087912 0.093531616 -0.13162856 0.04392161 -0.13403499 0.19811144 0.20424037 -0.04640749 -0.020785596 -0.12691562 -0.15731081 0.04588608 -0.12902132 -0.07394204 0.14319625 0.00663932 0.21381816 -0.08448526 -0.11265128 0.018317359 0.13729943 -0.2633008 -0.0017330418 -0.09008447 0.044085037 -0.14880428 0.2359558 0.017566383 0.1291989 -0.0042936956 0.12406573 0.0614131 0.1512824 0.051343035 0.07068563 -0.10633672 0.08492691 -0.1813906 0.32565996 0.01782165 0.24337691 -0.012139356 -0.112658754
printers|NNS 0.09367099 0.08749724 -0.28994358 0.1122714 -0.115020454 -0.079891086 0.045566354 0.0044620116 0.0012577194 -0.13176434 -0.084445976 0.07669352 0.15407383 -0.0019663472 -0.18153183 0.18713258 0.0514136 -0.041212466 0.20853212 -0.06080978 0.14675416 -0.21813765 0.10434483 0.31298578 -0.32898024 0.12230286 0.11174507 -0.2591305 -0.074543215 -0.18197115 -0.043828774 -0.081434794 -0.046305105 0.15815024 -0.021218674 -0.06358942 0.11812226 0.1531056 0.11739306 0.16376387 0.13071619 -0.08051796 0.08853641 0.19397198 0.12005965 -0.014970359 0.08019437 0.05582768 0.17228685 0.176106
protocol|NN -0.18450727 -0.011409918 0.13384475 -0.14345396 -0.28394318 0.2169834 0.1633535 -0.027878577 -0.005761927 -0.2347738 -0.17091759 0.08994283 0.11420477 -0.059092063 0.0034897176 0.27910742 -0.07816684 -0.025912903 0.016950252 -0.10524039 -0.01563827 0.20933224 -0.03712768 -0.23354048 0.015317489 -0.13337098 0.20196822 0.064523876 -0.27628294 0.222483 0.012110529 -0.020991711 0.0950034 0.09195211 -0.0023280554 -0.051714007 0.07164119 0.01973868 0.23683313 0.23390017 -0.088816985 -0.09732206 -0.021500343 0.1408381 0.0545401 0.08789037 -0.09408233 0.058966093 -0.016517898 0.2833728
\|NNP -0.046117287 -0.15854383 -0.024963368 0.008238659 0.0767166 -0.043242496 0.29090366 0.11647688 -0.07504715 -0.3771852 0.09582486 0.2754364 -0.049341444 -0.04876905 0.028389545 0.026941344 0.1552922 -0.05918146 0.23562299 0.15010852 0.079197854 0.06340415 -0.041350335 0.28421792 -0.13445769 0.13281141 -0.06522465 -0.12306489 -0.04646289 0.111772396 -0.016586885 -0.25194997 -0.04836351 -0.019448189 -0.009366038 0.2519114 -0.14778423 0.14596498 0.058896687 -0.022918658 0.07473162 -0.28675008 0.14818743 -0.14212966 0.08563905 -0.15052564 0.05363714 -0.08066613 0.09739382 -0.050944366
icon|NN -0.044189576 -0.028049694 -0.2371043 -0.21131362 -0.20980933 -0.043845672 0.0017722975 0.08451644 -0.010333665 0.036885016 -0.32866776 -0.02389394 0.20121488 -0.03469933 0.1142134 0.06676307 0.10454074 -0.12753361 -0.037664846 -0.20484969 0.03948505 -0.3078285 -0.13152356 0.10791465 0.101008646 -0.015942017 0.23906529 0.026149096 -0.12309613 -0.07684195 0.0058365227 -0.10087187 -0.0065180464 0.12025068 -0.17354593 0.17651263 -0.18775359 0.141974 -0.043440007 0.1738273 0.10536874 0.11566353 0.0035935205 0.20743608 -0.19153474 0.0027954727 -0.12655407 -0.13253209 -0.09765458 0.2608198
folders|NNS -0.008577193 0.114273936 -0.20360689 -0.088156894 -0.17881922 -0.032507088 0.11531488 0.15738077 0.1612642 -0.33237824 -0.075605854 -0.32801083 0.19741865 0.19675948 0.07811542 0.06655728 0.1613459 -0.0042965636 -0.13243695 0.03176167 0.16824381 -0.1585499 0.02857425 -0.09469175 0.09446764 -0.090030804 -0.19009374 0.020126356 -0.14226937 -0.10792352 0.15458287 -0.29584494 0.28740612 0.1400091 -0.031561706 0.027961548 -0.022111649 -0.0628094 0.010220124 -0.010234004 -0.13821541 -0.04556086 0.09391453 0.06971824 0.11189544 -0.024118286 -0.15921062 -0.20456517 0.0054147593 -0.0038490724
dialog|NN -0.030663947 0.0564949 0.12230731 -0.07587288 -0.2970929 -0.1396771 0.04801159 -0.0740092 -0.15173921 -0.20596102 0.008301702 -0.097646795 0.5184043 0.027544444 0.12574407 0.19739024 -0.00063357444 0.06807206 -0.22408901 0.009975643 0.23117381 0.06769098 -0.06909119 0.050317533 -0.008980367 -0.12001349 0.046327338 -0.092557244 -0.10734857 0.08294846 -0.052834887 -0.12163682 -0.14303169 0.0840227 -0.13607538 -0.17776713 0.03890127 0.20097251 0.09953405 -0.019308602 -0.022300625 -0.1198031 -0.09492404 -0.044081572 0.053744894 -0.023973284 0.21022533 0.14048336 0.09942961 0.2142483
disk|NN -0.02387631 0.09639931 -0.08675554 -0.031237694 -0.10822127 0.031753484 -0.017847393 0.025693363 -0.22429757 0.13876827 -0.10338006 0.22189765 0.09837178 -0.1240859 -0.0008314306 0.011057137 0.13848743 -0.24690567 -0.035522792 -0.038386934 0.057950974 0.14783254 -0.12561135 0.3701057 0.08808824 -0.040218093 0.20126857 0.10530854 -0.07508718 -0.17160478 -0.13721007 -0.10319876 0.060507152 0.16842999 0.007664028 0.13251927 0.024192704 0.30707952 -0.24419025 -0.21755648 0.0038405282 0.031018544 -0.17224008 -0.20913735 0.043073058 -0.20025179 -0.14858197 -0.09293319 -0.1682631 -0.0023937523
not|RB 0.21716453 -0.1834309 -0.14851592 -0.055490404 -0.1933494 -0.1621634 0.009309072 -0.018022122 -0.105548166 -0.054985583 0.15783495 -0.048879586 0.16018231 0.12256359 -0.027752038 -0.1640083 -0.16563834 -0.1532345 0.008306227 -0.00471132 -0.003910417 0.2742264 -0.005886185 0.2344271 0.03282906 -0.13315445 0.018687118 0.16503263 -0.23847939 0.034466088 -0.0664735 -0.008353005 -0.11064011 0.2727921 -0.1099547 0.09878596 0.010068835 0.1547229 -0.028831705 0.011268367 0.06537867 0.1386487 -0.2636564 -0.117714554 -0.22794326 0.14596958 0.11708241 0.19834398 -0.17390828 -0.18183179
that|IN -0.3968762 -0.13469595 -0.15254775 -0.1852639 -0.11051116 0.040747106 0.34966522 0.16345313 -0.07133153 -0.017179785 -0.09167343 0.0063296645 0.21113914 0.063816495 0.1286274 -0.016203405 0.07338526 -0.0928069 0.042026713 0.0653935 0.14711016 0.24705452 0.0991837 0.06350783 -0.019828599 -0.17058393 0.11342181 0.16219816 0.018793717 -0.014374404 -0.06283356 -0.00548025 -0.12911288 0.02908894 0.17898655 0.15274344 0.0048167408 0.3798703 -0.07516215 0.044010986 0.0036813554 -0.019152885 -0.11793277 -0.11395868 0.14488927 0.06740821 -0.17964002 0.1348392 0.013441119 0.081113674
all|DT -0.11906662 0.24417405 -0.16653995 -0.03730291 -0.09188383 0.008530083 0.23530939 -0.09134736 -0.096685566 -0.059358373 0.11688569 -0.06761602 0.43679827 0.056615908 0.0923317 0.055210304 0.05043622 -0.06152482 0.018278787 0.09829861 0.20338799 0.21754265 -0.07267388 0.19070353 0.1319208 -0.3009663 0.11836516 0.032367337 0.058182877 -0.027136886 -0.16360012 -0.16613418 0.027835457 0.09761177 0.0033923767 -0.037154533 0.016773315 0.20481253 -0.11665308 -0.14066361 -0.117991075 -0.07554362 0.015801936 -0.19926831 0.13475564 -0.14482729 -0.23293339 -0.045651805 -0.050434563 -0.122668035
dialog|VBP 0.05245571 0.073556215 -0.0041793343 -0.14074512 -0.20759565 -0.19401385 0.049994037 -0.03845335 -0.26890576 0.019647801 -0.16788758 -0.19990316 0.39475292 -0.052358333 0.23620252 0.28621614 0.07129405 0.0022940182 -0.15951511 -0.10683234 0.0443974 -0.08334209 -0.15148701 -0.04669836 0.029237973 -0.06311643 0.12792669 -0.036912456 -0.14042316 -0.021705188 -0.005976741 -0.1572059 0.02676975 0.089906126 -0.18744026 -0.016415652 -0.025042709 0.17607126 0.16351683 0.1108546 0.10858864 -0.06207827 -0.23129344 0.03885567 -0.15182252 0.17737137 0.15341136 -0.0866574 0.050848223 0.1817174
configuration|NN 0.19245212 -0.103760146 0.009470143 -0.03390759 -0.14175512 -0.14852309 -0.093095995 -0.07342628 -0.2598618 -0.09314554 0.08271172 -0.0648577 0.02107184 -0.0408969 0.027917698 -0.029263966 0.035750996 -0.042361632 -0.033712313 -0.013533431 0.30300432 0.2798367 -0.16958666 0.32658115 0.19352767 0.054622773 0.110958315 -0.05413874 -0.18198973 -0.030951869 -0.15640812 -0.09517284 0.14327344 0.16053832 -0.062136583 -0.08272169 -0.13507593 -0.07532867 -0.03656321 0.039386827 0.19553061 -0.0878951 -0.2926014 -0.19263674 -0.122122444 -0.096975274 0.26346317 -0.03351785 -0.13432431 0.07171182
Start|NNP -0.17252558 -0.14818096 0.107644774 -0.07088865 -0.03015504 0.05303842 0.16847984 0.12259018 -0.13215064 -0.29369292 -0.20252973 0.2598546 -0.007357606 0.06479776 -0.014810496 0.20272088 0.07313924 0.024710335 0.15773073 -0.1695732 -0.15602593 -0.13494447 0.030705836 0.3036549 -0.056387156 0.035170525 0.24503042 -0.04858246 -0.0061770137 0.0916942 0.05538556 -0.11144888 -0.06647839 -0.014146655 -0.042426538 0.19338405 -0.2065675 0.14353609 0.04001105 0.091339596 0.070601664 -0.20799504 0.017528709 0.09938587 -0.02670919 -0.19092946 -0.05405034 -0.2065029 0.13859613 0.25148404
general|JJ -0.14460377 0.21897131 -0.03752489 -0.122452475 -0.2405264 -0.08382677 0.09183116 0.21575049 -0.0023331481 -0.29445645 -0.20690957 -0.17155066 0.1804527 0.10843724 0.09042522 0.09961865 0.2221455 -0.0011683764 -0.29907644 -0.13168794 0.045362428 -0.15473004 -0.10321836 -0.11714282 0.062090468 0.034008346 -0.016279932 0.19871674 -0.122264184 0.011763175 0.17942154 -0.15465799 0.19953486 0.010093191 0.047312677 -0.051557947 0.0065466575 0.12519924 -0.08065404 0.057915296 0.033048723 0.0321884 -0.24343853 0.06868383 -0.10233317 0.14501987 -0.010106388 -0.19217873 0.07495377 0.20093054
following|JJ -0.2270667 -0.19511053 -0.10984854 -0.0062228884 0.05806888 -0.093177974 0.3108663 0.092307545 -0.11198441 -0.26883674 0.12798569 0.1383358 0.12219632 -0.049994048 0.21431881 -0.048131377 0.11671182 -0.10634032 0.14782116 0.20213547 0.13227177 0.22835916 -0.02682869 0.18672 -0.05358553 0.020366726 -0.055476226 -0.05107337 -0.015795605 0.084956266 -0.017189145 -0.18853413 -0.105094634 -0.020090204 -0.009142933 0.25385675 -0.17690702 0.21451102 -0.01647569 -0.071980394 0.08177705 -0.2669607 0.021701897 -0.25113517 0.15327543 -0.0818218 0.024959177 -0.019036543 0.09169035 -0.1004022
power|NN -0.009766978 0.0019716255 -0.015445471 -0.067479365 0.035550695 -0.046001237 0.162446 0.012127126 -0.09798575 -0.17179589 -0.08432181 -0.09265877 -0.2382393 0.036890667 -0.19667162 0.10664999 0.09780834 0.08663239 0.24543147 -0.06199997 0.2401977 0.49787286 0.029297745 0.25812238 -0.035720807 -0.06810527 -0.022437176 0.0694455 -0.13449453 -0.21793328 0.034916576 -0.08465488 0.04663246 0.048521377 -0.067275375 9.864211e-05 0.09609766 0.042553905 0.12060862 0.022594457 -0.04727958 -0.16598864 -0.17792112 -0.14166574 0.03926132 -0.18476364 -0.029490244 -0.187194 -0.20086719 0.18488207
port|NN -0.16944174 0.044300172 -0.32716814 0.017226784 -0.16623424 -0.0061732074 0.12764734 0.16707309 -0.07029916 -0.016695164 -0.20762415 -0.16174865 0.1550532 -0.016212642 0.035284273 0.08199265 0.21437444 -0.16226295 -0.041542575 -0.06633229 0.23664846 0.096709915 0.09018633 -0.01125141 -0.2061151 0.099842064 0.021832079 0.11304553 -0.08687861 -0.02597102 0.044773135 0.01611873 -0.061942305 0.12728693 0.15714464 0.114334166 0.10877537 0.2997136 -0.04266989 0.0769471 0.15460889 0.0001566368 -0.21138683 -0.012002391 0.08392655 0.35357466 0.18441361 0.026736982 0.124655604 0.19200645
hidden|JJ 0.045214616 0.08794536 -0.15792237 -0.094985984 -0.25385064 -0.1646812 0.06395324 0.18937951 0.1472207 -0.35876262 -0.15026064 -0.19122091 0.11203815 0.20361628 0.03540128 0.025149636 0.17633647 -0.04770524 -0.13806334 -0.05499866 0.07064032 -0.26161838 -0.053038105 -0.116100825 0.0823483 -0.060145788 -0.088041335 0.09413508 -0.18906933 -0.08579755 0.14300634 -0.28415862 0.28486118 0.08655039 -0.06315378 0.03399384 -0.01217735 -0.12191535 -0.06333275 0.03745338 -0.051308636 -0.010991089 0.08352204 0.13957638 -0.05865927 0.0052402504 -0.113683425 -0.28762844 -0.008651987 0.014287446
windows|NNS 0.04873718 -0.26450717 -0.009479534 -0.15544048 -0.25475234 -0.06287194 0.24090809 0.16323264 -0.19498111 -0.054129303 -0.01798263 0.17372833 0.25885332 0.04518356 0.059025656 0.033895817 -0.04841193 -0.11801954 -0.1117982 0.13160993 -0.07760396 -0.044678245 0.063988075 0.06169459 0.14685911 -0.2194439 0.033810038 0.1909105 -0.06542425 0.14676423 0.14518903 -0.17823961 -0.030736195 0.088772714 -0.0725292 0.32032362 -0.053079676 0.23621702 -0.09576403 0.095504135 -0.026683517 0.16808677 -0.04062533 0.023378836 -0.2015347 -0.15619487 -0.18246704 -0.07638369 -0.10331903 -0.13103504
hardware|NN -0.14106642 0.16857891 -0.23350084 0.09122758 0.03492267 0.15782353 0.1813715 0.019878132 0.04174128 -0.23875083 0.048144266 0.18989593 0.06812153 0.061126642 -0.15370457 0.12661345 0.12364366 -0.0013944585 0.19705454 -0.024835551 0.035707444 0.0048821582 0.080073185 0.34925014 -0.1387735 0.09840621 0.32771164 -0.044102076 0.003512892 -0.036787316 -0.21833818 -0.056408033 0.07822385 0.08045533 0.23249376 -0.1284228 0.07998643 0.17278852 -0.043561466 0.087140426 0.18547572 -0.18570413 0.016066475 0.119089395 0.13330226 -0.039786924 -0.023446606 -0.010651046 0.19982989 0.19282094
box|VBP 0.15819708 0.26312947 -0.14965501 0.07589744 -0.25785488 -0.017798351 0.044709276 -0.018484103 -0.04228578 0.0262763 -0.15523906 0.035356864 0.34283662 -0.058080424 -0.16479726 0.11151171 0.22518684 -0.11474113 -0.016817147 -0.14212918 0.058279123 -0.15996844 -0.036082685 0.30155152 -0.109318115 0.1715841 0.045004435 -0.038686145 -0.03448276 0.0132418955 0.041459568 -0.07507505 -0.15930897 -0.005375036 0.042080943 -0.100146234 0.10237448 0.26357272 0.006149994 -0.008385379 0.09752811 -0.1203622 0.12136147 0.11635944 0.029812457 0.018110158 0.027853316 0.04466211 0.29511884 0.31665793
level|NN -0.0187879 0.03614739 0.2028798 -0.027942432 -0.19398323 -0.08450577 0.045685515 0.058882076 -0.17157476 -0.18773663 -0.11059652 0.066585355 0.17072704 0.08769642 -0.012020463 0.067418665 0.102374405 0.062307443 -0.26859075 -0.16714159 0.047690734 0.017960995 0.18152115 0.1407335 0.06756307 0.1186899 0.26098868 0.18656184 -0.1929964 0.14575651 -0.12254783 -0.13782191 0.1272255 0.15480386 0.063870795 -0.22902776 -0.011745857 0.0901637 -0.02828245 0.13492984 0.2093498 0.10693952 -0.14952539 0.2291201 -0.051076125 0.14297232 0.1687055 0.15579997 0.14758004 0.21837561
start|VBP 0.02897749 0.11359151 -0.0948616 0.11584007 -0.030606698 -0.0441721 0.079930544 0.04355115 -0.22617906 -0.030167174 -0.14635916 0.025018392 0.3242357 -0.104046725 0.15542708 0.119533785 0.22968812 -0.007893173 -0.094224826 0.07844644 0.21899575 0.009410011 0.17815149 0.15300311 0.13433129 0.24556309 0.022908011 -0.096607804 -0.093670875 0.09537338 0.14019783 -0.11549329 0.04995231 0.072389126 -0.14022875 -0.19155726 -0.021533562 0.14228643 -0.09590186 0.35053155 1.733052e-05 -0.03567927 0.3251364 0.105894655 -0.11763738 -0.1894562 -0.026283832 0.15577742 0.056862183 -0.032264166
startup|NN -0.039713733 0.24190472 0.08735313 0.007030123 -0.2381444 0.12162184 0.008618317 0.037573304 -0.022006037 -0.3190127 -0.0607852 -0.22053632 0.30509362 0.047654927 -0.005690579 0.008624981 0.13287972 0.011573777 -0.22928955 0.11926249 -0.023932312 0.056350227 -0.03569266 0.040624436 0.17549206 0.09676101 -0.024951981 0.14506823 -0.22273114 -0.0228968 0.17395419 -0.17183226 0.24615586 0.15065184 0.023915075 -0.26870802 0.14711004 0.068254516 0.09397425 0.24573639 -0.1783379 -0.15443566 0.05233223 0.046100672 -0.008581928 -0.14399213 0.04689855 0.072725855 -0.040995333 0.06406588
search|NN 0.0032551102 0.16554679 -0.19912377 0.04130473 -0.16614306 -0.014081957 0.15704349 0.1970376 0.007807032 -0.25292593 -0.10537772 -0.302096 0.22994798 0.17029768 0.080556296 0.108117044 0.22905648 0.041012343 -0.10362255 0.074052475 0.16135845 -0.11953517 0.12788707 0.07985709 0.06355372 0.039068956 -0.21629392 -0.03194881 -0.12690438 -0.14999162 0.21962641 -0.30519286 0.25020292 0.12703075 -0.02807215 -0.046985302 0.04508788 0.014940958 -0.03562725 0.06371392 -0.098331355 -0.14565082 0.13935518 0.06324042 0.1200022 -0.09030994 -0.1359415 -0.13334751 0.059541505 -0.026867682
group|NN 0.14541994 -0.08302163 0.011012699 -0.12279577 -0.038104676 -0.05895525 0.0017790272 0.02423381 -0.08977179 -0.09721726 -0.08141922 -0.080755964 -0.19016689 -0.00019015669 -0.23436019 0.010245517 0.10861578 -0.05222004 0.22506666 -0.014205764 0.25254655 0.53042895 -0.1101138 0.3707613 0.08262345 0.0041605774 -0.1281976 0.029947978 -0.15943195 -0.17248759 0.0019524981 -0.038071737 0.007929298 0.057083543 -0.066178404 0.069108926 -0.0043391143 0.01653361 0.004899959 -0.011114426 0.05508709 -0.124233656 -0.16014524 -0.26543683 -0.037131973 -0.1322679 0.08493982 -0.010520182 -0.18652242 0.0025011285
netbios|NNS -0.09717477 0.05272456 0.111107156 -0.03411623 -0.09636468 0.067107186 0.2096223 -0.09719631 -0.09640846 -0.2346336 0.04327474 0.10656119 -0.02147788 -0.047796376 0.03605757 0.08794145 0.046156425 -0.11341721 0.121850744 -0.08395025 -0.09174824 0.47265443 0.0073723635 -0.024366291 -0.06005563 -0.04569476 0.14797655 0.3079142 -0.38828477 0.2169903 0.0037898456 -0.07312564 0.041507833 0.11903005 0.18802354 0.069816515 0.13089664 0.13445129 0.12883572 0.090771526 -0.13449597 -0.21078308 0.13635775 7.694696e-05 0.021877645 0.12536708 0.03174473 0.05343329 -0.015993109 0.07190142
automatic|JJ 0.07683765 0.2592897 0.021693053 -0.019146202 -0.17934367 -0.01338179 -0.015612254 0.09541082 -0.07588169 -0.10845545 -0.047922805 -0.25273287 0.33796635 0.01732573 -0.035374723 -0.14429545 0.13000786 -0.056428697 -0.19317207 0.10074302 0.05222021 0.27935788 -0.059461698 0.16772552 0.23627171 0.034019943 -0.13050206 0.2666454 -0.18269463 -0.12578586 0.10168343 -0.14632845 0.1798883 0.14950852 0.0372393 -0.11674902 0.087544195 0.10804222 -0.02130197 0.1165377 -0.14037362 -0.06852317 0.014938247 -0.09159145 -0.1357497 -0.13663144 -0.016035572 0.091922745 -0.1617819 -0.22341141
close|VB -0.030372225 0.20430906 0.023060592 -0.05370196 -0.1930405 -0.25963172 0.16197845 -0.09600447 -0.17993954 -0.09307481 -0.049169865 -0.0755494 0.49864164 -0.02618731 0.122216545 0.23400317 0.026036939 -0.00178898 -0.03578108 -0.051367875 0.30857924 0.08392913 -0.08616823 -0.025405288 -0.061220467 -0.13095301 0.04683817 -0.2156939 -0.0642245 -0.011268542 -0.13018693 -0.14124154 -0.065289125 0.0117059 -0.20364673 -0.2624262 0.064509645 0.22364964 0.1034168 0.050815 -0.026715882 -0.073977955 0.018320411 -0.076818414 0.036904205 0.072338775 0.122990616 -0.018708918 0.051545206 -0.023538638
value|NN -0.03650205 -0.048926488 0.124516554 -0.06363986 -0.15690885 -0.06391056 0.21779329 0.2657074 -0.24866301 -0.15928145 -0.02791501 -0.0341517 0.34097457 0.025354963 0.06528695 -0.01673917 0.19602478 0.039514504 -0.20923328 0.051902186 -0.016204258 0.079344295 0.007265949 0.26958928 0.10023626 0.16804169 -0.13481171 0.08325033 0.008239307 0.12711981 -0.008087665 -0.19872442 -0.059034303 -0.035426307 0.07819562 0.04751719 -0.1521149 0.3588697 -0.050707746 -0.079693645 0.10989617 -0.15110503 -0.10782253 -0.15271506 -0.048163284 0.005625251 0.12329918 0.114456445 0.24490996 0.0021021946
display|NN -0.10431241 -0.023036204 -0.2385451 0.1448226 0.072882146 0.025353707 0.24179858 -0.03666214 -0.03943039 -0.21689376 0.11706336 0.20130189 0.054751106 0.12234391 -0.21544139 0.053392604 -0.07411371 -0.06618425 0.36857042 0.02053838 0.10737433 0.4383776 0.19210844 0.20370917 -0.16811451 -0.13202596 0.12444025 -0.074965216 -0.13522463 0.01275961 -0.17879717 -0.00076691573 -0.07535315 0.19743541 0.00810095 -0.042748522 0.040650778 0.14460152 -0.034925032 0.050386313 -0.042669427 -0.10121487 -0.023096563 -0.020057878 0.090920046 -0.14391911 -0.013304544 0.03678913 0.021373259 -0.11219548
apply|NN 0.09491819 0.37572187 -0.089280106 0.08057703 -0.22558062 -0.0037822155 0.10865105 -0.046154544 -0.015920928 -0.19016357 -0.06996798 -0.17259392 0.30405813 0.010815152 -0.04931058 -0.046298217 0.1957336 -0.15860343 -0.0438651 -0.012138514 0.09918286 0.24979247 -0.051853225 -0.084848225 0.047034215 -0.0037316792 -0.090277895 0.23122713 -0.3420916 0.042719364 0.09314827 -0.1642377 0.14922556 0.110343315 0.009152869 -0.18060842 0.15053862 0.083030075 -0.039995436 0.12635896 -0.12329618 -0.10539075 0.13947956 -0.06511658 -0.12707147 0.07216309 0.006500967 -0.068050236 -0.062386345 -0.20514293
action|NN -0.051770408 -0.14352801 -0.047574908 -0.0798392 -0.11165702 -0.1137384 0.14534925 0.2943939 -0.27861527 -0.19117002 -0.14811873 0.06255165 -0.015236922 0.056695163 0.15915686 0.026557643 0.27158755 -0.06383563 -0.06508226 0.07211084 0.24462885 0.051039603 -0.029307725 0.21976152 0.052697267 0.013937377 0.1493316 0.18376367 -0.10763813 -0.07300115 -0.0073735397 -0.15708512 0.03258971 0.03718548 0.073424675 0.16905648 -0.077893 0.22607094 -0.24765977 -0.17708379 0.1209797 -0.06822125 -0.24287395 -0.13539782 0.014293388 -0.17393745 -0.0012133844 -0.18355814 -0.043893337 0.1297782
microsoft|JJ 0.33930176 0.13043204 -0.26954186 0.11581263 -0.23266767 -0.09763953 0.15020122 0.011968799 0.0070286724 -0.13826217 -0.21320753 -0.17511895 0.1313231 0.12608323 -0.2254187 -0.07173018 0.16257094 -0.1829857 0.06462853 -0.06484706 0.111631975 -0.011654532 -0.038289227 -0.052187517 -0.115333505 0.13722125 -0.18942717 -0.006786608 -0.27363393 0.07657801 0.06113267 -0.10778895 -0.11504606 0.049734306 -0.007842674 -0.07132147 0.088192016 0.010423352 0.16759557 0.075116225 0.07371959 -0.08764523 0.0070640594 0.02246476 -0.27682042 0.29030073 0.10815162 -0.068825684 0.089269996 0.018530723
dial-up|JJ -0.21760134 -0.30126768 -0.04162533 -0.179233 -0.12622161 0.0070332717 0.20282243 0.16116503 -0.10496136 -0.19583872 -0.1904048 0.055649057 0.07658653 0.033641566 0.108526565 0.1644255 -0.059497632 -0.03073164 0.13545512 -0.053275924 -0.08994282 -0.1724601 0.088879384 0.23353939 0.06568323 0.057035428 0.16547471 -0.0486516 -0.10887808 0.034466937 0.012037047 -0.021274662 -0.025997387 0.119048715 -0.1604637 0.10526554 -0.2138384 0.09510303 0.09886777 0.33481357 -0.021366784 0.02011883 0.115512475 0.14416324 -0.1550817 -0.16954172 -0.1850388 0.22439276 0.02892444 0.17880836
from|IN -0.088976406 -0.11041613 -0.27299958 -0.053874712 -0.13286144 0.015935643 0.075896 0.1305625 -0.11107465 -0.025950512 0.09810378 -0.11246443 0.25172582 -0.052338544 0.11345955 -0.01865209 -0.01184817 -0.16787916 0.04609563 -0.064382985 -0.05292203 0.4025452 -0.010624756 0.20398726 0.01499903 -0.0055289036 0.08702594 0.35399842 -0.19420363 0.13780178 -0.034640063 0.029095897 -0.1298336 0.07986632 0.20916627 0.3101233 -0.10305312 0.23669921 -0.09685516 0.021094527 -0.013752916 -0.032000232 -0.14751074 -0.10753402 -0.046396922 0.12571713 0.12161305 0.037217177 -0.022226537 -0.07269475
if|IN 0.10535193 -0.004991931 -0.051262878 0.06529793 -0.113060676 -0.10462602 0.042019587 0.20375259 -0.20481558 -0.045303084 -0.037786786 -0.2243283 0.2628233 0.045807857 -0.0041692792 -0.20400564 0.06029148 -0.09198304 -0.2038631 0.048234135 0.06582009 0.24699707 0.04736816 0.16756727 0.19362007 0.046812497 -0.1522474 0.24054414 -0.19774291 -0.08998015 0.04110006 -0.11327095 -0.055574443 0.08793535 -0.078676835 0.02201415 -0.03698399 0.22683758 -0.09650048 0.050371114 0.01619611 0.08784862 -0.30208978 -0.15815914 -0.25708154 -0.01903001 0.09353023 0.13061759 -0.11449057 -0.24604155
client|NN 0.3167851 -0.010222879 -0.20495376 0.04982414 -0.25785804 0.029302819 0.122283235 -0.115160584 -0.125215 0.057236645 -0.2518166 -0.15014449 0.09236528 0.038702317 -0.179381 -0.09278061 0.017537288 -0.20818305 0.11607176 -0.026048211 0.03128481 0.09448833 -0.03326452 0.060920566 -0.07958503 0.12087177 -0.04611986 -0.076410845 -0.329068 0.039539047 0.12567884 -0.039347015 -0.11792082 0.12858284 -0.019502215 -0.059257604 0.110476226 0.055192202 0.25935808 0.21554795 0.085050635 -0.057290874 -0.059859935 0.0075384146 -0.27686498 0.26438206 0.12903829 0.13085435 -0.05238715 0.12084651
ide|NN -0.055624567 0.1269636 -0.27410975 -0.073567696 -0.05121561 0.13522819 0.1022382 0.0856694 -0.04506654 0.13398191 -0.09162912 -0.10759646 0.19079313 -0.032201875 -0.13819171 0.07998145 0.112267435 0.04669267 0.11012363 -0.02337572 0.10069118 0.16261998 0.053320173 0.48539543 0.011335373 0.09328304 0.088309735 0.012290476 0.11259253 -0.23788214 -0.18310867 0.01450508 0.04432512 0.08234555 0.20730072 -0.012500461 0.008179558 0.2532131 0.030191405 0.06251975 0.05914683 -0.1603999 -0.02161265 -0.018462576 0.108215556 -0.23815916 -0.23222618 0.10997349 0.012184368 0.22550991
expand|VBP 0.1796634 -0.18196958 0.11274086 -0.092842415 0.051124748 0.0022124962 0.0136588225 0.029305456 -0.2264155 -0.17614642 0.05228092 0.20716928 -0.16783737 -0.10289298 -0.10395964 -0.014455495 0.10547087 -0.10644556 0.12412605 0.04296257 0.06779837 0.32121795 -0.17765611 0.4431934 0.12728946 0.065623745 -0.0016439671 -0.012526168 -0.10682224 0.011887246 -0.037685923 -0.15535747 0.0071071275 0.053072605 -0.11871975 0.17520602 -0.14520006 0.10971063 -0.0553051 -0.11190356 0.08935022 -0.11727434 -0.16038066 -0.25781855 -0.042048223 -0.20203952 0.13248819 -0.062634416 -0.15255208 -0.032056104
that|WDT -0.2962627 -0.2539477 0.061924696 -0.25455922 -0.2505873 0.041036345 0.3061409 0.29158428 -0.108295985 -0.066045456 -0.2089498 -0.101502456 0.19934474 0.05841253 0.11674427 -0.074454114 0.08797001 -0.048048746 -0.11178248 0.04239608 -0.07744445 -0.120437734 -0.006074091 0.09372999 0.11503355 -0.09228508 0.02501185 0.18370733 -0.03621732 -0.045901157 0.022881458 -0.11286441 -0.0646841 -0.039254613 0.077712275 0.23170485 -0.16295525 0.26798546 0.039950266 0.0954926 -0.013097556 -0.016268998 -0.07811822 -0.0038427191 -0.074964695 -0.039830253 -0.25153223 0.1170312 0.047049213 0.09778938
types|NNS 0.23147248 0.12095287 -0.21939293 0.15170927 -0.2219151 -0.103762515 0.11559434 0.10257927 0.119980514 -0.30058134 -0.16188611 -0.10395774 0.15630744 0.1791851 -0.23551123 -0.024150986 0.21184248 -0.16393691 0.027066426 -0.17644167 0.101648 -0.045976475 -0.069437996 0.009172651 -0.09746006 0.19624694 -0.117298335 0.07594952 -0.24747327 0.10246591 0.07031115 -0.08778578 -0.1438682 -0.0655793 0.053554032 0.035996404 0.0047057522 0.03859459 0.048518952 0.01980408 0.06419991 -0.166542 -0.08639972 0.07417424 -0.24523388 0.15733849 0.12087149 -0.09211938 0.23156035 0.098192185
print|NN 0.3148461 0.1158612 -0.27866256 0.1282563 -0.29106575 -0.060148038 0.13318989 0.016122174 0.020461421 -0.117137015 -0.16108362 -0.051850207 0.2562918 -0.002844199 -0.1511776 -0.08038644 0.14440125 -0.20572238 -0.01147785 -0.036315393 -0.0073375064 -0.1672711 -0.10198936 -0.025159607 -0.12348631 0.16338576 -0.22070147 0.0076091993 -0.2982214 0.08393788 0.12575966 -0.21027358 -0.03853779 0.08962656 0.018606419 0.057407603 0.12424516 0.05711312 0.19171861 0.06272373 0.0033872006 -0.1597963 0.08752021 0.07241884 -0.24156535 0.076922715 0.05435721 -0.07722383 0.07804656 0.09234446
select|NN -0.061095793 0.05993772 -0.09058586 0.1678478 -0.07064283 0.025918068 0.08733831 -0.0113745015 -0.14464849 -0.13122933 -0.15091838 0.009842672 0.16617149 0.08780146 -0.09934076 0.07635369 -0.038338635 0.0119276205 0.040763967 -0.13524295 0.1735486 0.041387063 0.33851606 0.06005747 -0.16523948 0.108090766 0.22811484 -0.08193657 -0.18061846 0.004468306 -0.02782274 -0.0032261834 -0.006517433 0.24645326 0.038218036 -0.26730028 0.10074463 0.17328428 0.056719087 0.2016406 0.22164124 0.015961735 -0.0828526 0.20031042 0.08224559 0.15959169 0.23131026 0.21830527 0.18181996 0.21796733
manage|NN 0.005501184 -0.0805878 -0.21029243 -0.111696675 -0.08474543 0.02903152 0.0064743278 0.02556197 -0.25780764 0.16701305 -0.2788948 0.18463683 0.038751047 -0.2290785 0.097507685 0.15258545 0.122321285 -0.16943248 0.009071764 0.010591541 0.019345388 -0.19693409 -0.056740873 0.30556056 0.12549661 0.0722838 0.20077263 -0.0061127823 -0.034557544 -0.01820195 0.08932853 -0.12155686 0.021827271 0.14087892 -0.04554516 0.12517941 -0.061441027 0.16347915 -0.026966598 0.23842831 0.065200746 0.11835489 0.16018434 0.08837853 -0.24905351 -0.18342902 -0.11356298 -0.039835647 -0.20046076 0.2040385
name|NN 0.113498114 -0.06962451 -0.21832453 -0.044233598 -0.09030092 0.03801704 0.14295608 0.033094216 -0.0025480906 -0.10766117 -0.017748654 -0.0540056 -0.0042859884 0.07415013 -0.1513843 0.071008034 0.13466285 -0.16938059 0.07113923 0.040586706 0.13466673 0.518293 -0.03969156 0.3489195 0.16695496 0.0033741232 -0.06311673 0.09300214 -0.009911074 0.1648064 0.160902 0.017361602 -0.21067138 0.01473236 -0.035292063 0.113699585 -0.1556002 0.21331073 -0.12336989 0.08377821 0.10551726 -0.08977861 -0.14363828 -0.19845484 -0.19407082 -0.02521238 3.399472e-06 0.12125184 0.08157929 0.07770055
use|VB 0.093123786 -0.18251391 -0.2982885 -0.20651077 -0.25630638 -0.1024527 0.067903034 0.01427119 0.029238474 0.031399187 -0.090208694 -0.22478817 0.08177014 0.11379297 -0.065954335 -0.06334446 -0.009992803 -0.18160339 0.05797284 -0.061299644 0.10255072 0.38382748 -0.02253785 0.15674044 -0.03293829 -0.1764672 -0.07590193 0.19148037 -0.19883852 -0.10081804 -0.041338645 0.06484269 -0.19822149 0.15423952 0.093264006 0.11644813 0.024020959 0.19232005 0.044914894 0.014791452 0.03866523 0.010448718 -0.22397843 -0.142107 -0.11222238 0.22942984 -0.0076857363 0.12820294 -0.156417 0.014354592
adapter|NN -0.21198797 -0.2988588 0.014660598 -0.25605604 -0.22276334 0.04519387 0.27873102 0.25863585 -0.062486883 -0.09047041 -0.25283563 -0.0606583 0.17854877 0.030753158 0.117500626 -0.053061873 -0.04593989 -0.10840514 -0.07070206 0.03974725 -0.0647508 -0.13077259 0.025372857 0.02444626 0.12185731 -0.08115317 0.095230915 0.11862766 -0.13158888 -0.06074034 -0.054126922 -0.04740024 0.026730731 0.094972424 0.031765208 0.24278733 -0.1461118 0.1972938 0.09902666 0.29453957 -0.004841444 0.07014961 -0.051832426 0.09273756 -0.1364415 -0.06623641 -0.23459278 0.16567935 -0.08958139 0.06762806
networking|NN 0.21264954 -0.16839345 -0.039342064 -0.08384666 -0.37001997 -0.08894578 0.25000566 0.042783722 -0.039024595 -0.30902314 0.11917236 0.32202336 0.19867083 0.018894562 -0.062261496 0.098816454 -0.16387069 -0.085919954 -0.05871989 0.07575226 -0.026744893 -0.12325598 -0.069337025 -0.084066465 -0.0992917 -0.16597939 -0.07510416 0.022768952 -0.13565363 0.2769033 0.07119889 -0.19049908 0.035461664 0.16028377 -0.103180245 0.16558042 0.0574584 0.056254517 0.12041263 0.114962265 -0.088460386 0.044076588 0.019314216 0.19661334 -0.15563816 -0.096901335 0.01634473 -0.08113071 0.021064516 -0.013923821
install|NN -0.005200966 -0.1163529 -0.027543453 0.0854247 -0.13564672 0.09295795 0.18660298 0.07051207 -0.008260236 -0.19190264 -0.39087975 -0.008907398 -0.05205082 0.090259 -0.11954985 0.075355105 0.054217238 -0.14472663 0.15625508 -0.043645665 0.064054504 0.07994769 0.22691567 -0.051809378 -0.07423837 0.123096414 -0.036803123 -0.024590755 -0.3939534 0.047978565 0.1074508 -0.012013688 -0.09257448 0.14846405 -0.026045665 -0.0232176 0.091133095 -0.031346798 0.27352536 0.32708666 -0.009877718 -0.09072874 0.1229203 0.18952455 -0.12395318 0.07189023 0.019854795 0.23597465 -0.017817242 0.15831074
wins|NNS -0.17529641 0.13250542 0.14135486 -0.050907087 -0.11273023 0.108984455 0.20578504 -0.12453749 -0.042655505 -0.30984133 -0.014225267 0.19838944 0.0061767776 -0.12894437 0.05382553 0.1974216 0.062201172 -0.07460487 0.09181008 -0.09812897 -0.033020366 0.3131546 0.011991493 -0.17906225 -0.0652228 -0.061553523 0.18600672 0.2538869 -0.35686836 0.2187691 0.0037070003 -0.10710421 0.16650856 0.068040825 0.121203914 -0.039777573 0.1326155 0.061882894 0.11103042 0.16615616 -0.1050567 -0.16515815 0.10983485 0.09306291 0.044764873 0.06510788 -0.07487202 -0.054939084 -0.022605713 0.11716109
boxes|NNS 0.10528165 0.05601986 -0.122692965 -0.09072683 -0.08540028 -0.2852217 0.1094177 -0.11161228 -0.116380274 -0.19696887 0.17486575 -0.09322631 0.42497578 0.012971865 0.08136524 -0.005565051 -0.000489873 -0.09704234 0.050866626 0.107763946 0.36464342 0.21403518 -0.1725331 0.11789153 0.09958319 -0.17400017 0.06671605 -0.10023665 -0.1773316 -0.04336192 -0.22513236 -0.06532939 -0.029087927 0.05900469 -0.04125498 -0.16427378 -0.09003493 0.13436913 0.021909803 0.018294161 -1.888453e-05 -0.06832061 -0.07965854 -0.14320631 -0.020867156 0.000643422 0.092847854 0.1282279 0.032055113 -0.25162357
internet|JJ 0.09082435 0.060985982 0.14427057 -0.08593062 -0.1563314 -0.12514555 -0.0027929556 0.07985033 -0.1731613 -0.25229424 -0.26137853 0.22619048 0.00046684904 0.048742734 -0.035726186 0.23446952 0.18170801 0.030461565 -0.016264902 -0.225807 -0.045557626 -0.19535083 -0.09312073 0.23886229 -0.03308177 -0.020696865 0.20633349 0.052646916 -0.008005173 0.086830996 0.15761758 -0.22506933 -0.073433876 -0.055992313 -0.16001877 0.10315848 -0.082288116 0.068564266 -0.079368345 -0.074196644 0.048430853 -0.08329051 0.038504068 0.099899895 -0.0805271 -0.12427867 0.016980182 -0.3998941 0.023819508 0.22129038
expand|VB 0.086027 -0.2455447 -0.017673844 -0.13859698 -0.05676916 0.020524435 0.12079834 0.22227116 -0.24286164 -0.016677987 0.032025956 0.22119927 -0.011756983 -0.09199798 -0.06037098 -0.10606334 -0.059706416 -0.058742907 -0.026720306 0.089572065 0.017677534 0.2578256 0.13324419 0.26832926 0.06855198 0.16310437 -0.21312205 0.16139066 -0.13628381 0.0019850964 -0.16264729 -0.14808616 0.0804948 0.21509422 0.086236715 0.2488023 0.041230183 0.26909152 0.07791806 -0.062934496 0.10551055 0.08296997 -0.10932869 -0.15779717 -0.070454694 -0.2091965 0.10413582 0.17539378 -0.1363984 -0.019359045
modems|NNS -0.34300265 -0.11282254 -0.19472799 -0.058422547 0.0811914 0.08411204 0.28672433 0.12693161 -0.15384747 -0.029377429 -0.0023741352 0.11834312 0.049225144 -0.16801244 0.20350102 0.023008902 0.06436352 -0.038794547 0.07331386 0.15038049 0.15121512 0.28274363 0.09934205 0.070856206 -0.07420926 0.10022332 -0.010492337 0.087419204 -0.16908626 -0.034164503 -0.10280222 -0.15786266 0.10575223 0.1390516 0.17968239 0.28319165 0.074191764 0.35106224 0.05102276 0.035332225 0.11988727 -0.10907325 -0.10280266 -0.07806709 0.13617007 0.027829304 -0.033626862 0.0995446 -0.08323985 0.09723551
dns|NN -0.111099765 0.1666835 -0.14680725 -0.10951815 -0.2394594 -0.0035887097 0.18846367 -0.021642758 0.095439084 -0.30723634 0.04900373 -0.01178601 0.25888264 0.021716388 -0.04759181 -0.002032919 0.17179656 -0.0708502 -0.038691342 -0.13272606 0.16600557 0.35240355 -0.1318677 0.011368715 0.18223545 -0.09219518 0.16480412 0.3374871 -0.08651538 0.27572995 -0.053938255 -0.059890494 -0.066220485 -0.09880857 0.13810343 -0.027846824 -0.08503682 0.09316788 -0.2722141 0.022372542 0.07946369 -0.013831238 0.020765606 0.013088776 -0.058807503 0.12017259 -0.034239948 -0.046702344 0.08955607 -0.024583116
channel|NN 0.09708236 0.17720085 -0.20836443 -0.062339395 -0.10950629 -0.018160744 0.08327094 0.11110039 -0.038280282 0.07252831 -0.13598281 -0.18859802 0.23108399 0.034586817 -0.2354409 0.0808814 0.20687659 0.09200351 0.055759445 -0.08995413 0.18064345 0.18046625 0.045199104 0.488483 -0.02339528 0.07832626 -0.04185092 0.006994294 0.061687123 -0.22871067 -0.088994004 -0.041011073 -0.047605976 -0.0023317332 0.18912746 0.015343213 0.03868373 0.22188401 0.049500756 0.027007323 0.09025028 -0.203536 -0.03434644 0.050666302 0.0817031 -0.1338844 -0.12676035 0.011311804 0.0748987 0.2616996
option|NN 0.04986492 0.32617134 0.08157303 -0.052997034 -0.14503926 -0.016774762 -0.0036793188 0.010083691 -0.17816533 0.025434377 -0.038057692 -0.013864355 0.21566391 -0.03996348 0.011244359 0.049007602 0.17336853 -0.0047224676 -0.19833286 0.076927945 0.087491445 0.29699585 -0.09308586 0.22238041 0.18207434 -0.14885153 -0.02546511 0.21017748 0.053067643 -0.14787197 0.12147727 -0.18135247 0.12257906 0.10745026 -0.020461135 -0.13476267 0.15529132 0.2170661 -0.12897758 -0.07070897 -0.179869 -0.022512909 0.00665938 -0.21143429 -0.02149869 -0.2491337 -0.08293186 -0.076534316 -0.27061984 -0.09831064
When|WRB -0.3061794 0.07009496 -0.08871394 -0.09002888 -0.19181186 0.100081176 0.35137156 0.039153058 0.052902576 -0.07803691 -0.096690975 -0.16231686 0.32331505 -0.033704218 0.13077073 -0.07673031 0.08872938 -0.06500376 -0.14752175 0.15097566 0.035742592 0.26117617 0.007250717 -0.017853329 0.14316043 -0.18808419 -0.00084407796 0.1877305 -0.0314293 0.012026092 -0.017551282 -0.23340686 0.002959689 0.06526272 0.1334864 0.11697198 -0.014344696 0.24903357 0.033525255 0.030439558 -0.12722261 -0.17817396 0.04219014 -0.07237342 0.173132 -0.029906707 -0.27778348 0.05957364 -0.013926485 -0.0017513123
prompted|VBN -0.3055421 0.17188443 -0.33596614 -0.17735901 -0.15799464 0.031385098 0.29074937 -0.0006653965 0.11420931 -0.07719898 -0.085389 -0.15876788 0.27946556 -0.04922932 0.14558476 0.028178856 0.16270453 -0.062431782 0.0013560475 0.020917907 0.2038367 0.21312658 -0.082792036 -0.12521526 0.13598055 -0.26679045 0.06000101 0.17934668 -0.060973924 0.004834083 0.046881925 -0.19334854 0.041383408 5.5252418e-05 0.048493743 0.010859132 -0.05095811 0.13586497 -0.07863713 0.032680254 -0.07437032 -0.063558154 0.12869944 -0.046830073 0.07430882 0.040352084 -0.22709994 -0.16715899 -0.10534337 -0.024889572
accessories|NNS 0.20272005 -0.09454222 -0.11236987 -0.026564622 -0.033443704 -0.17571203 0.18131368 0.11074959 -0.22872199 -0.13602011 -0.16139731 0.33585227 -0.035221055 0.09412107 -0.004359488 0.058633704 -0.020075291 -0.0981944 0.09520447 0.053661183 0.17712902 -0.19389755 0.056691326 0.01767123 -0.110433586 -0.1847231 0.08842259 -0.09041849 -0.16440171 -0.1314848 -0.12609218 -0.2547847 0.06508893 0.20618124 -0.21410888 -0.032472547 0.09232014 -0.0037468858 -0.026807204 -0.06991025 -0.082613 0.1610937 0.13051781 0.0022015367 -0.06688138 -0.24022223 -0.059414785 -0.19891007 -0.27852392 -0.11789982
when|WRB -0.17947283 0.06284439 -0.33852375 -0.13766585 -0.17416096 -0.07222755 0.14096835 -0.037809916 0.079270355 -0.14733502 -0.09092874 -0.14607479 0.28769666 -0.0846841 0.18653381 0.024906505 0.14951548 -0.0936623 -0.0654305 0.006255774 0.22670951 0.14336058 -0.13979147 -0.085212074 0.22651938 -0.21070194 0.20351434 0.25767 -0.07943554 0.11425548 0.023563305 -0.09676857 -0.014914316 -0.024749191 -0.03723443 0.060636617 -0.16588582 0.069709 -0.21771184 0.07904928 -0.012649214 0.054500993 0.1648692 0.008733159 -0.09963052 -0.0038137606 -0.15750052 -0.21626362 -0.13929063 -0.015935771
policies|NNS 0.16427976 -0.1922314 0.18183506 -0.1686152 -0.11896693 0.030249747 -0.052456275 0.1798791 -0.22581725 -0.09904462 -0.062287893 0.02827406 0.023046488 0.11852079 -0.20412983 0.059626978 -0.052651994 0.19551577 -0.07819815 -0.06890725 0.1378518 0.041861147 0.14020517 0.45074314 0.004261051 0.093071744 -0.003164883 -0.02179073 -0.099162534 -0.14317758 -0.23460379 -0.09221524 0.087708466 0.23653853 0.08235994 0.03243473 0.0118632605 0.13258505 0.12747861 -0.035989244 0.09219596 0.024077253 -0.18625528 0.07859295 0.017417366 -0.15764017 0.09047343 0.0965674 -0.06707944 0.31106544
disabled|VBD 0.04189545 0.13380776 0.1514816 -0.0138144065 -0.19989696 0.06789699 -0.042966045 0.08956944 -0.13669446 -0.22610702 -0.08020826 -0.18461253 0.42126223 0.032004025 -0.0036358128 0.014796934 0.12221853 0.025658729 -0.2451176 0.010783728 0.14962283 0.115053535 0.025015075 0.09544313 0.19230084 0.16971183 -0.099596314 -0.012402455 -0.30906487 0.04300156 0.040065046 -0.1604309 0.22818552 0.21747507 -0.08257728 -0.20771088 0.064908884 0.070723206 0.05178926 0.15473388 -0.10467535 -0.11708962 0.0325713 0.071740046 -0.030531717 -0.10043872 0.055379134 0.23676753 0.058162753 0.049291447
double-click|VB 0.0042493427 -0.032667235 -0.18019977 -0.061275497 0.059628803 0.02501419 0.09555208 0.055961292 -0.09226108 0.011457618 -0.13113697 -0.08298864 -0.12818879 -0.009582163 -0.26060975 0.06923972 0.09282071 0.04215208 0.30621228 -0.014829238 0.28019634 0.35007367 0.1245278 0.38527745 -0.017529288 -0.022641212 -0.05441931 -0.088741325 0.0023954683 -0.32600138 -0.027085673 -0.014925601 0.031060535 0.06560699 -0.015645826 0.016999602 0.03629726 0.10585852 0.072714955 0.058176875 -0.018436786 -0.0764212 -0.050118852 -0.113655634 0.07018626 -0.34017745 -0.1283211 -0.04432758 -0.19844551 0.09452075
permissions|NNS 0.17102222 -0.094737515 0.07635035 -0.036730766 -0.2980156 -0.11582115 -0.041160297 0.04234927 -0.19239417 -0.20721866 0.08335859 -0.06564076 0.050153147 0.060312703 -0.06494431 -0.093621604 0.032708086 -0.037814673 -0.109152645 -0.14541301 0.112588786 0.1936099 -0.0893311 0.20202206 0.117615424 0.10502868 0.14655277 0.16745375 -0.24656992 0.100626215 -0.26513955 -0.06149978 0.14477609 0.15648407 0.13070361 -0.07503922 -0.08710617 -0.10265315 -0.09386549 0.09729157 0.18246055 0.060175754 -0.29062092 0.029042142 -0.19851342 0.17341192 0.2831947 0.054209743 -0.071519196 0.011058977
tcp/ip|NN -0.091305025 0.1750621 0.09520716 -0.009432212 -0.075004406 0.06588585 0.18086447 -0.14628474 -0.045463163 -0.21419305 -0.04517596 0.11226767 0.009343041 -0.10526498 0.046618417 0.0941459 0.087531954 -0.14867805 0.11895255 -0.097472176 -0.07067131 0.40105775 0.01517107 -0.12946734 -0.10429517 -0.026754074 0.16792972 0.27901056 -0.4037082 0.18407565 0.012893076 -0.11370039 0.07810358 0.08034433 0.14674462 -0.034898542 0.14738877 0.11654713 0.17848985 0.14067367 -0.15035559 -0.18319085 0.15377313 0.0526603 0.02035749 0.16369313 -0.007484812 -0.0440561 -0.05019581 0.050667223
networks|NNS 0.2997957 0.12326373 -0.28986222 0.14926982 -0.20753415 -0.07396986 0.14312497 -0.044595174 -0.029016655 -0.08035358 -0.26235765 -0.14667593 0.17707692 0.04556552 -0.18134257 -0.06870984 0.14519104 -0.22283642 0.066904515 -0.029565156 0.13024017 -0.045423873 0.021560442 -0.08254334 -0.11589335 0.13296533 -0.15316685 -0.039347745 -0.29674917 0.07002765 0.07964871 -0.10709661 -0.14456722 0.04066902 -0.053257328 -0.046131097 0.08265112 0.06080331 0.15833887 0.14858109 0.039398953 -0.07796791 -0.014952 0.0036472352 -0.32311258 0.254052 0.115079336 -0.049919587 0.041020058 -0.014732626
components|NNS -0.06698429 -0.052263394 0.088952206 -0.18320237 -0.36084735 0.10118838 0.23173133 -0.038764175 0.020576643 -0.3733303 0.0075871395 0.2314533 0.13639644 -0.01260289 -0.0071259565 0.21623595 -0.15228093 -0.05182136 0.001799925 -0.009931302 -0.12695257 0.0057333116 -0.07820785 -0.19045253 -0.058050066 -0.28234932 0.07390449 0.09352668 -0.17376086 0.2787488 0.10555916 -0.11166186 0.056479465 0.04007869 -0.081785835 0.049299836 0.021206262 -0.029843865 0.18223326 0.20499642 -0.11841689 0.023662908 -0.08390186 0.16952197 -0.09346338 -0.012652286 -0.06326316 -0.041747227 -0.013679467 0.1663111
(tcp/ip)|NN -0.114227474 0.0156074 0.14514083 -0.1360341 -0.2936453 0.18312758 0.12784557 0.02904709 -0.0030369419 -0.23796861 -0.3090697 0.14310043 0.031847056 -0.08221177 -0.004943282 0.29806843 0.028941244 -0.075551756 0.0642297 -0.0954668 -0.014536664 -0.052140027 -0.046155263 -0.1384941 -0.05625743 0.010880866 0.21622194 0.056435417 -0.23737636 0.1490217 0.04609792 -0.045146182 0.10299522 0.08415813 0.016421465 -0.007789283 0.03375224 0.03732774 0.21665464 0.33142582 -0.009944703 -0.079509534 0.015278002 0.2398177 -0.103536375 0.009077947 -0.08140363 -0.008445905 -0.043433644 0.31630743
